0.026681986552458015 1.1773181720466748 0.5425420597621695 -1.3388898023410585 -0.08505765313926678 1.6264550288278816 0.1090791385243347 0.36477074956459493 0.5206744903283892 1.0658312143803341 -0.2111176063962829 1.3030234614125238 -1.6666605166874098 -0.032923892080889416 -1.535043321556664 1.2690297373598762 -0.09299415990041865 -0.05560378546661987 -0.0032558880601886164 0.9100570079470175 -0.5631597012418306 -0.29987821822550326 -1.0773806564876296 -0.45795485097047156 -0.3179567287530651 -0.3778128162126051 0.11661661575224769 -1.2144912784750346 -0.4057278199307237 -1.0913422288266106 0.14247963408062925 -0.3705310395676004 -0.46501519774145916 0.5163084407875318 -0.2753195847827115 0.0009679673117495846 -0.436472203366231 1.0153857024797792 -0.3911240816001153 1.178634231529879 1.7642202765814283 0.21480534074734098 0.9012237679640271 0.8368963563996963 -0.1943153690977607 -0.13022434221317392 -0.9614522840225708 -0.8669042775333001 1.1807530111520126 0.41464175047236757 0.2510827986574489 -0.17834627228842703 -1.1202920469371795 -0.37517151142002314
0.33286402576681445 -0.7188094356863083 -0.5562296066582567 0.281545842171564 -0.0592452866367596 1.0476106233058817 -0.776685536464777 0.2791890171880612 0.09592494746898794 -0.6826684416625193 0.44729504067800163 -1.4431000716433706 -0.0675911028794064 0.24812027478857884 0.9971322768128501 0.5958817528301528 0.8010954802051147 -0.0008894234017149394 0.568833084551393 0.10156113666063593 -0.1682222287251084 0.3991004771699771 -0.4786756198878685 1.2619258768214803 0.3487678246756103 1.085768735015355 1.0553714164159866 -1.3231600795979952 -0.29996325300599974 -1.0184408890904102 0.9192885115539671 0.8060761169449336 0.15061142902990532 -0.1360964339666817 0.1643640985194948 -0.08572193790224092 -0.865239240015684 -0.37230072463187364 0.5726111105123182 1.4088831033956903 0.32823361725509154 0.0442738038792444 -0.6243274268905761 0.49337910985810124 0.1775478993189583 0.12898667364011918 -0.5340078586235634 0.6984728489005979 1.2888874500448115 -0.031718447286738005 0.8469635958343661 0.21571902644834023 -1.22657193649491 -1.1578391596101762
-0.08351575231311442 -0.008378405182042692 1.3412878806245299 -0.22933295324809327 -0.15528994018024933 -0.7223993266251529 0.7972872223051415 0.8300092614609336 -0.05198880978187609 -0.39771045266343624 1.032928085014542 0.2679479778215113 0.45155574140588056 -1.6487371318133301 -0.8625649451822324 -0.22957468694875777 -0.5251991212971434 -0.13235521689020063 0.0330206537198679 0.5197793836421059 1.2292951936587553 -0.8265926166490807 0.2474908712161561 -0.6484378295200923 -0.3282329883570953 1.007541290685503 -1.5393810198601037 0.08500083098793626 -0.13160840812492908 -0.13316585732069514 -0.05518414570688801 0.7207289836366921 1.2932684285163036 0.6176763447475639 -0.19318784490384455 -0.719339270841843 -2.01101926431001 -0.041290288634072136 0.31186233646835776 0.532082727516536 -0.6302919963078981 0.22929965399423247 1.0991983694598126 -0.7588693385652222 -0.5493633647478853 0.5488079841484617 -1.075836336986113 -1.903602993734978 0.3746040671007384 0.3704973698888983 0.1492891230480749 -0.37412431086098796 -0.21012029601918975 0.5617820402180761
0.5067046170701118 0.02293821505986815 -0.6839761430923913 -0.24286912530362198 -0.09037699621178752 -0.06140923323162428 -0.3704884343596176 0.030258977801485454 0.005918741055326915 0.3431194333176704 0.40052621347093453 -1.6845399669061538 -0.5687243282038998 1.1299853562713986 1.6302774575007049 -0.18130632196888619 -0.17618464850762627 -0.000608805507156418 -0.5251177015146712 -1.832842601129995 0.7173530429719011 -0.19200523943110182 1.1801984681220012 -0.11569873301120781 0.17254703418877604 -0.36280910067121 0.25723000301305193 -0.10021253008432052 -0.5727802593322296 -1.2778877126908177 -0.5625851083447246 0.08825812668393707 0.5372952043810295 0.6605848780916761 0.17110444549162007 -1.0325105328061315 -0.9765131282403816 -0.6826243297758021 0.08369976691553827 0.8532754267432004 -0.6810165001852984 0.836405711245682 -1.3403844177167392 -0.25346491758813683 0.9729194849697854 0.5641283562876385 -0.2086925283630489 -0.4771399563486955 -0.7843050633371733 0.25489413503897834 0.952688767108808 -0.6573545284086977 -0.19066262313541954 -0.4256017781036288
1.0869983169731636 -0.6838707860288452 -1.3880264085994223 1.0226588022261878 -0.0721344479753871 -0.5194000262769171 0.07592822390719689 0.39382197775241434 -1.1600576987595015 0.5792038207663232 -0.4430892604316913 1.2789176589378113 -0.1828637743442706 0.45267275706727106 2.200833473738057 0.29609683571123097 0.6124668037244286 -0.1749194991546663 0.5684264767654512 -0.8128574449606627 1.145116532071928 0.4081346088098125 -0.08222923600838428 -0.0027872082111370378 0.2944661444529455 -1.3018364588741895 -0.68655547866009 0.7376521061243553 1.9784067740651268 0.9908943995405224 -0.8540383498089994 -0.20791495941272975 -0.20324096689255094 -1.3945462490637601 -0.35011504731824356 -0.7505339089800704 -0.3510625116727807 0.4343174128978501 -0.05826972332955649 -0.00918230542064169 0.18919025881676432 -1.358412535662105 0.3655569946282632 -1.3136887128541614 -0.5568683231522331 0.04305448192155814 -0.0845208939807745 -1.458434128426668 -0.3558605111879328 0.06451235346597856 -0.3342415088375266 0.39164072466805444 -0.4195961520609599 0.3856918487857264
0.9993597688519599 1.0742075642102202 -0.4601966024791043 0.7466750266252172 -0.04772675317845043 -1.0301122032022134 0.5546169117702215 -0.31121376167688425 -0.34906110334141804 -0.10082926427650046 -0.5022026973544652 -0.38279874680470505 1.4051788880180287 0.6689487968557251 -0.8222866616056426 0.5714992441486735 -0.27990324350312873 0.8664471921378697 -0.7094085159043048 0.38994940587433286 -0.04298246998656369 -0.10642235728464483 -0.20613542947230507 -0.6797153359355059 -0.7193766985076575 -1.4822740721374412 0.5668816354901397 -0.7249425434551919 0.5964051173119657 -1.4084338205399523 -1.1340120547567671 -0.639938855429941 0.6182400928143816 0.2650415628400655 0.1895561656797098 0.828508909655808 -1.2895644947032199 0.21760935009140558 0.22757878517361235 -0.43958153174945414 -0.26922269826385964 1.029739850924645 -0.42703786805215094 1.157070693413191 0.27544427877936123 1.4071442851654994 0.9846055908850467 -1.508331360248538 0.5534157557730852 0.7187767813923718 -0.9510917416095661 0.29173517762407464 0.7363114059462975 -0.13214239642655612
-0.7519477741012819 1.191213254520094 -0.5233532906398074 -0.32531261670002415 0.6253600569654059 0.033745138551835474 -0.5244907909948886 -0.9730108223576656 -0.6149859525107488 0.9654995539889775 -0.5506288464417528 1.0383369544097643 0.8494399091930459 -1.2222773544348629 -0.3710949651155353 0.9691656231426156 0.35514321146537087 -0.2213792775645389 -0.005181668090991964 -1.1578694830328615 0.864338489492034 -0.48740681619962245 -0.998509694872104 0.7061811309586985 0.37810899122931496 -0.1228801744710139 0.338196146377486 1.0991329941784627 -0.6441349565200469 -0.0071748629934024755 0.09791938484160234 0.8334038230086281 0.1499401464208749 -0.3186599440402263 -1.2079920788851728 0.9235747056581363 1.3488870500538725 -1.3502619399213103 -0.18888972795051479 0.13128372949431732 -0.6831185793557398 -0.4976488792691081 0.08213183013809644 -0.9077688930670684 -1.1428105877629946 0.44668684977785167 0.11440697617824064 -0.7236165765332477 -0.6425229866535834 -1.0171639395110128 1.19808352423565 0.7214777451425871 -0.053637817183004144 0.9814499564799493
-1.0872681000756599 -0.3078956338735455 -0.7758557470101493 0.11674809023280441 -0.7954705838324563 -1.2320513925563223 -0.6996586371277183 0.8519341048665179 -0.6500152470369461 -0.5409855886083631 -0.055330716106291755 -0.5198759704144762 0.6344184676464518 -1.0548352579028195 0.294015434373824 -0.5624449101279179 -1.3361315769078734 -0.7020182513179788 -0.980831924200577 -1.1600297273817017 -0.4768927823061731 -0.3676046130009408 -0.7310798589379229 -0.22331676895773944 -0.4513539112068424 0.6310726165355853 0.5851023530957793 0.14044406237449886 -0.6086962441521949 0.637024426145995 -0.21579079766624681 -0.6990307304846151 -0.3130006263953262 -0.665856100791723 0.1774463531334302 -0.33877887021863073 0.25436926570709645 0.5517055822512456 0.07574091893974838 -0.9860869415554835 -0.16883063345002786 0.29691906520620137 -0.20478055558340347 -1.4158979736444894 0.3489280037059939 0.060419159662021604 -0.6241075389414246 -0.021168931485385456 0.5344056101625523 -0.6426184966988396 0.9001713841147374 1.0145872399399325 -0.08421405653374509 0.3675923451460343
0.2727684559381619 0.2780387967907172 0.568607504294807 -0.39001943647124243 -0.4813006051693016 -0.1969000581834704 0.1547930499080915 0.7907152314273546 0.24849753843056865 0.49199914490878915 -0.2907767013398166 1.096621241874486 0.31201872103642053 -0.19861278999386106 -0.6321785632688658 -1.2941996187385814 -0.4672813301723632 -0.613001777119858 0.8185949766492372 -0.27131038475434077 -0.3542181175480909 0.774793566451595 0.3887400320984243 -1.0446878846894865 0.3469708949585385 -0.3453910478841092 -0.05827590351870632 -0.33677870795418174 1.3963799515681061 0.22799174120442434 -1.0790480294252367 0.3406043519396374 -0.4278839106795875 0.11065022483841552 -0.9680212933789306 -0.9002094745082391 -0.1801419849174103 -0.4448977774921763 -0.07824179736114822 -0.4940365120387884 0.39583377520897056 1.2583083560699075 0.4156259010361561 0.03965723850872732 1.2105069748127575 -1.3166964804771095 -0.8126540815203803 0.6670869778787851 0.17017174754249248 -0.7919702685306373 0.6366342529343009 0.6761990932461013 0.8745458532889787 0.4639378271560448
0.43557704569431926 0.09554035589754484 -0.8019273172943113 -0.11817212418595624 0.3381252014705167 -0.5735896056150177 -0.6880135128902826 -0.560541818077215 0.7312921347717753 0.9866037567941184 0.3226888228165083 -0.11894543510480504 1.1397975288435511 0.4766533642597059 -0.12971121186519902 -1.3553782958897307 -0.3184686846327752 -1.2299758043599294 0.3511333983145965 -0.7887663731022916 0.35551040013272306 -0.7015404734467979 -0.7256005373443792 -1.2576701312281224 -0.9041503576827934 0.9516337284575542 -0.27696275252854463 0.7110386052826045 -0.7323810247009283 0.9273393156404771 0.4157241355954065 -1.3295051536563578 0.5843205325745134 -0.3312015775313722 -0.8930040582363437 0.6601310065908292 0.1347722200696042 0.4554365900269939 0.7533196441021428 0.20211073769914611 -0.8244528759359062 -1.3346729966074224 0.5629696037981051 0.373281665790956 -0.3082380693948677 0.656142078500378 0.3408577805415469 -0.46994699665766393 0.6720418116047024 1.080316709105295 0.3524275549016401 -0.9133864799578316 0.09901687145865928 0.8817048604114048
0.24535719708367 -0.4584975341555012 0.1591060026312447 0.44883941982514236 -1.1688257148304937 1.2547914439372092 -0.1371872255249128 0.36642193930714645 -0.13948103496435355 -0.938392715075444 -1.2102397814736077 -0.5121538574474889 -0.9861882272889675 -0.027253772306048474 0.22192585126956194 0.14540881382692772 0.30995075024277735 -0.4966124939663155 0.9026011438092572 -0.5087596184239938 -0.20143894356596603 -0.7728695285921671 1.0155580540120583 1.4051281229276043 -0.35647459059255576 0.2795340684601142 -0.3239216100433641 -0.35698634374028826 -0.6114737474643442 -1.1734427787861366 0.056820628801344475 0.6493654647118242 0.3500100950153598 0.7712410312674822 -0.9677113477984807 -0.70592061262083 -1.126883813164862 1.130377533185753 0.8353419315702058 0.7933170586615819 -0.4060305954330397 1.1258534782460599 -0.12404157575331232 -0.8382218171595155 -1.0305075691126981 -0.5126782576898739 0.6218070775860141 0.021063706553489214 0.7888055153036921 0.3721508923318209 -0.5832153948265241 -1.5677069688920247 -1.289682953695011 0.5677601928231002
0.4957801487062045 1.3431781738078998 0.9569874894365592 0.40566107375827987 -0.157550858313819 0.7473695678927846 0.03245088274914637 -0.4904447225639439 0.03432240789681329 0.2199848715662694 -0.8635953847982821 -0.5257046754720167 0.24033581658407177 -0.04421110278934681 -0.6202391616969543 0.3678205468272626 -0.21054583512894082 1.2074065807800958 -1.3839469438648502 0.05059905842621465 -0.427367985746925 0.12344307174876346 -0.9214130119769373 0.6907797299603041 0.8311252103921638 -0.6583722323927421 -0.22607296922669612 -0.8044549889833905 -0.9999033094333792 -0.4266344472541846 0.5566826701378108 -0.5720676766824082 -1.3112443951753654 0.04510546624409273 -0.30601340167331226 -0.2688221495153366 -1.0858656831222353 -0.7487177905356373 -0.4358891678148987 0.9694955809137321 0.20764930867183506 -0.4179530671747684 -0.98779056717874 -0.11560498315122081 0.600558101980589 1.2537996929481627 -0.6394348435408097 0.31225630522261166 0.08850633495808508 0.13648695649168996 -0.3403297439474715 0.2433828502002815 -0.6747451477704931 -0.41438756346343375
-0.28794748461632774 0.28348363690315775 -0.2836524828530165 0.4825222831902442 -0.12189194542509407 -0.7434187143580826 1.0333611703822345 0.7336524420667185 -0.162780005279357 0.3643315662966734 -0.5397186883523439 1.0838391272648327 -0.9554380194059424 -0.5712855332396678 0.03654106511545513 -0.5753724909163744 -0.9990580899508753 -1.0950140818457372 -0.47888251091667633 0.5217502384472857 -0.2088261140886571 -1.0350817521590283 0.48610553725604394 0.594702676481867 -1.1616931243813322 0.255435307985966 1.0170961522485138 0.5856670849803536 -0.014609194857694963 -1.0866095939091314 -0.4339643226994749 -0.030277953375618283 0.264078475061219 0.4130244188324151 -1.4109121080733864 -0.5759017448086293 0.5143606143425521 -0.39617472978091045 0.6627146089208662 -0.46714942356940486 -0.0026642871849836824 -0.3408472682338789 1.3215332210358808 0.8584502034912744 0.6259600498622137 -0.7124378610174513 1.0935133804709705 0.6166802570010201 -0.9205747568690426 0.5847140527113744 0.5896884082268726 -0.10330483061243656 -0.19758683957006884 -0.614995113625614
-0.6012128648721813 0.2496341204982503 0.8488830812258523 -0.3391634441571413 0.42917558231362585 1.1020975069902708 0.8710308532537158 -0.3935031422934891 0.06528089659938235 -0.6014206425265487 -1.1950092745890468 -1.1888028143009266 -0.18197584370502323 -0.2904848711425322 0.021939629509572678 0.35097401734794487 0.6589218339829852 -0.381873998459696 0.1151533963363145 -0.2697297257579122 -0.41335067029901434 0.7611934219274297 0.02574208868706873 -0.3186272413378278 -0.4554470085741729 0.030636010833449634 -0.44055496754697276 -0.470060035456096 -0.6548650593984775 -0.8723275160904722 -0.1442257201117806 -1.5251672384744883 -0.6690340212465206 0.13154984504357237 0.23822022314595248 -0.4805741583267448 -0.6417043805897691 0.07272396616553134 -0.4444556813608318 1.3245981628154233 -0.20418286043224337 -0.3412727329592996 -0.22688260579975617 0.6072164664565947 -0.4281641575529348 -0.7504266256204652 0.06109592146411552 0.9685038912930526 0.9310711326450976 -0.6381749305877484 -0.9967288949625233 -0.08225702688016323 1.7523065874599606 -0.21856708217015525
0.8966989288911617 -0.3961369898393476 0.3449411974010566 0.7600619931705102 0.07709451532771605 0.18943223086480132 0.9595386500665609 0.16418076748083282 1.7696543973247132 1.7771410896171007 -0.4432616899936156 0.8435657815965606 -0.8538182027286578 1.0044369155763915 -0.5051021091188539 0.6271643049978421 0.029655509233516786 -0.7162481215914542 1.1346390611022383 -1.061072630993961 0.733441065768677 0.3532051681839006 -0.08112324370101298 1.3589112831065784 0.20327294695013004 1.4098050607935433 -0.6279487583312992 -0.14475333303539567 -0.656669782435739 -0.6795182107354468 -0.7683519587499961 -1.4554233494914666 -0.12922797238205352 0.6434735395480712 -0.43214668206217993 -0.9760272415451907 -0.7211760754636674 1.2442100022021383 -0.39354288960345984 -0.8132992198202313 -0.3110330061185604 0.014468522044755183 2.0894997191933222 -0.557287178153036 1.5818515864969878 0.3915529718359217 0.09083511929233834 -0.7577811709478498 -0.17720815484046448 1.07555522834972 0.46298845752150836 -0.3597205970795915 0.6824668372530301 -0.6938018135840078
0.5247960445986842 -0.1167088377385519 0.08981847878227905 -1.3734470648921444 0.6060888237399973 -0.3183939830526249 0.3830125110748006 -1.0325874330018123 -0.8126790933867196 -0.859139851351483 1.5401876850786742 -0.6947090263472193 -0.24074295496731607 0.8984495126284076 0.983793679920965 -0.9064526977354987 -0.16195444749001403 0.6482648201990432 0.909553150604899 0.0641866002421097 -0.32724809256664533 -0.027122994531197986 -0.0009487049914710943 0.7887334433984068 0.3615643395242926 -0.26830394492743054 0.6741750123123387 0.19775677504461142 -0.8448898610964769 0.7140406593989295 -0.39351136690698235 -1.3549146352023407 0.09534666330955188 -0.15664086395577814 -0.7249378133339084 1.1208544587303237 0.8753894894051617 -0.6673182506518911 0.8447892884901884 -0.4741900674784408 -0.137882297904858 -0.4241285472623729 0.8554160656162275 1.1776440668723194 0.3874312053204621 0.32724183962050096 -0.5526484270296866 0.3151169224060271 -0.017416013540383746 0.06868169544868297 1.1221978300602182 -1.219563054174568 0.431065830031567 0.9294405472511366
-0.24363305162345666 0.24839511613008097 -1.1728813018277784 1.054350063498649 0.5671373651097025 1.2231242272270513 -0.44632232469016336 0.554609191724443 0.10049165092321 0.31985976955798623 -0.8508183763044783 -0.52834276685232 -0.6988137922224383 0.8453263416326876 -0.6497934549752543 0.26355645756601054 0.5906924514350609 -0.42126844104908096 0.26276118773836943 -1.1472138578221323 -2.012492197548667 0.9147291165142475 -0.8656977587365426 0.5455996533029114 -0.8587529905398961 0.1172624531967647 -0.5848468322023206 0.9156337830447239 0.526071132560167 0.5402396283965928 0.3486076221609554 -0.5632540333845146 1.395870525458219 0.1665662739207009 -0.22737122658903153 1.2827649422988312 -0.6402704387109075 -0.4956444378338217 -0.8479425043769537 -1.4245648415328902 0.15103359055860804 0.9260959242623042 -0.009934261274747835 -0.9921212773289863 -0.6983526262861732 0.13837058175531114 0.7975369897547239 0.1071606174423812 0.2283629783336144 -0.5701968741967948 0.5446693979480124 -0.8262040356757983 -2.2732882598994757 -0.7196849000778203
0.4082007990364246 0.09551690252125494 -0.3268497186914465 -0.13739069052760539 0.35548865232265026 -0.6757844632374279 -1.54606550992521 0.017296021239563086 0.5335983895235212 -0.2821272714569989 1.440669094705438 -0.5649216414214597 0.9231157626332986 0.683625425241907 -0.5901627835725798 0.3860446681241132 -1.7459490161239786 -0.4577570814142927 0.714229696726135 0.2823415980274627 -0.8715222537139273 -0.39355170972857695 0.20421601180084376 -1.7014137330196888 -0.9797413849360165 0.13540458641244046 0.23948474551150972 0.6704089023591453 -0.7789123120695612 -0.6626054336925806 0.025743451724558886 0.5726457106981484 0.9060387920763928 -0.6314718251199667 0.8150397117208932 -0.06347963573647497 -0.5957785969592979 0.7214295401197062 0.16276902141811206 0.6720041907019847 -0.8782958291086693 -1.1891541005949053 -1.0866187187952185 -0.35287987947678123 0.2358916726800258 -0.4709192710626782 1.4637490004354607 0.17732120631806014 0.2590546541590179 -1.0136441013209956 -1.0817599100467272 -0.1166656838308694 -0.048901267506834656 -0.19882956365094662
-0.8816267426743036 -0.7959684964979882 1.2729550676732244 0.7663842179368496 -0.9434164486489589 0.4936191101692668 -0.19244914305734406 0.7570327587259061 0.36128751785020113 -0.20847562247460988 1.3045034688334927 -0.3939603389331777 -0.5659889127538984 0.2785029491537477 -0.1909582230253294 0.9844364288750198 0.8247949545065617 0.01356076160122105 0.7676270767608928 0.6646140459581575 0.18554284091108558 -1.5223580594674233 1.1781268718388378 -1.0513061047012093 1.1983620794840957 0.19828267109387832 0.36847656188927197 0.2727787525418644 -0.2082943939877271 -0.6369854220317168 0.4576127082513585 0.12433573364931755 -0.36666937687295037 -0.3064429672110943 1.2531810788268185 0.06818146090674976 -0.25731460900942704 -0.12477088772263217 -0.678166356638936 -0.16946380966220048 0.8356339890638633 0.3739544333277957 1.2431712489007438 -1.2676038533117804 -0.47942221959073195 0.5599365382465452 -1.3008918773606224 -0.17496748457451583 0.2924080178413283 -0.0551599622217836 0.8439047258810344 0.2063151453929748 -0.36277383539642877 0.41168446237580425
-1.130929228589312 0.8214034448165212 0.1809473356350943 -0.10074060831268061 -1.6194336764619814 -0.12948899007861525 0.08862120829054959 -1.1232521937014426 0.31530614000848023 -0.3590451144453337 -0.17046640616964626 -0.2289181893748533 -0.7802500963339776 -0.14651836614676578 0.37316019659771016 1.1832422451843223 -1.4179493483139205 -1.191823881415997 -0.4446322686785849 1.221086609196149 -0.34801532146697706 -0.06555486958984591 0.5351563696735373 -0.4118443107818842 0.009438242220261461 -0.47009781442791726 -0.08057588149479727 -1.2527767036796515 0.8280271338249621 -0.12350388280251251 -0.2487896051605184 1.3265724106939412 0.6670523347832966 -0.7674096524629721 0.027159039394538342 -0.2866251021512703 0.6931043531628772 1.5708271800942346 0.8229106778868713 0.3605273837750366 0.20387758954497676 -0.35476777866277753 1.218180616855117 0.6677667496534274 0.18619928030746485 -0.3814142702108123 -1.2183108104137594 -1.0424937210936571 -1.9870472903361112 -0.5870620598419916 0.2921021260018482 -0.37085582929482713 -0.9321209741527283 0.0591070040694856
-0.7454528637125122 1.0691217090615988 0.8781253219302624 0.7856839934613682 -0.42707389901827353 -0.3270694210444285 -0.6217532872565696 -1.1482641549346218 0.07116324643131644 0.4304465083424687 -0.5348568429627264 0.7505894448339381 0.09425917147011631 -1.2621214054172747 -0.4153923830051898 0.37803882808481337 -0.6306584715934862 -0.8147573767454988 0.0912053687851398 -1.3311684817695435 -1.786332536897968 -0.6837218338662497 0.9570811412187613 -0.01584352342424239 -0.6363257321770452 0.06985942765620201 -0.659337926138613 -0.07627705348644392 -0.2891889295646983 -0.3400453167796 1.0176298210208534 0.33697689652024704 0.06252067813812678 -0.7350934915936839 0.21097870197687196 -0.9078134251085248 0.08189893043398438 -0.45980702817817415 1.4267930651161183 -0.15605971541100017 -0.7256566637286984 0.10842587877086318 0.7684434002303858 0.5735997525343028 -0.05167810934605066 1.2967865727543246 0.3858832977148523 -0.5692696637952191 -1.1380873660820194 0.4204851184030225 0.20390178052869978 -0.43584019465455187 0.31646226513653913 0.7595692116687697
0.9765088783981503 0.03313236148736126 0.13183948325124256 -0.5304608890587367 -0.0982804038128382 -0.539545571033744 -0.803077345098201 -0.5976539980899249 -1.542815003783966 0.20589735606954435 0.8455840528101748 -0.03766966973822922 0.11633945289437164 0.22562827227949783 -0.5113061069327958 0.45015589956477897 0.5326337585713582 -0.3855933245242956 -0.3348697200758599 -0.18840035339387595 -1.3742139354520861 1.346529342202518 -0.779429185336417 1.1032049770519685 -0.675287475889222 0.05663313332399561 1.1819156341850783 -0.49122525556115226 1.1047398902176657 0.6866071531042683 -1.179778350505212 -1.3085013763612616 0.10983629195968347 -0.5233210471654746 -0.02838193680000617 -0.9599407954744767 -0.4295362919395993 0.21341300138626534 0.48569519214445994 0.9529889205333952 1.3149167968886073 0.6829941192652242 0.05514880339878453 0.2566960669501011 -0.3055574092485515 0.7553200546121268 0.6770756367262403 0.7872623105315419 -0.33175107126286185 -1.3714057967975026 -1.8930159779964608 -0.23759505159534716 -0.4071048364503728 0.9866485747372062
0.07766558041529353 0.8123308044358679 0.2452224085779809 0.41443937822461324 -0.0004891251464499424 0.03764076529790594 -0.8829030508062468 0.22795599360764623 0.3897945871983788 0.28512295000845894 0.8377097073002197 -0.15196567271068334 0.07348569019473428 0.45577441133674074 -0.1989049225575959 -0.49748762962020054 0.4735118402036164 1.1177473195375411 -0.47368495328247284 0.1591462622520874 0.027325355551930997 0.021432943897912393 0.8946604012471095 -0.285505047424806 0.642590916538885 0.1452662179048711 -0.6044302736967533 -0.13454155142788382 -0.1762110682817566 0.08808402709263363 -1.1955695948980798 -0.38352005354385343 0.36244873192224253 0.5575327673541299 -0.6236938478865109 0.04787119179984717 0.11067781555169648 0.5703653871426904 -0.10130421393080635 -0.6790473908549506 0.8636957904063911 0.30950440497707143 -0.061628412209985994 -0.48633942749493797 -0.11606281208714803 0.29363149579153514 -0.5896819847584509 1.5952335835292506 0.1875827878766862 -1.1036489859304686 -1.009420716783878 -0.32300454030810277 1.0542531458031927 0.8325536959732334
1.2501310029738288 -0.34202835370923257 0.3557630122121362 0.43522428759849685 1.244098800058865 -0.4082050813561013 -0.5374538699404111 -1.5356911770957167 0.17002771987607607 0.15393427265649529 -0.23647353549776895 0.3517878156716888 0.31596369175034367 -0.7635082446929575 0.5807705284063691 0.7155674670033453 -0.09323981084231897 0.5121363836485571 -0.05796728740934298 -0.14498551276232868 -0.5880931418115161 -0.09936718046594295 -0.1370615593323271 -1.78286674315323 -0.6705218333867942 0.6957929957259426 0.3403643996464546 0.3209448677274229 -0.3739996238883196 -0.934405825769208 0.2663958978955683 -0.7347378459560592 -0.6129793281903662 -2.0231701813552734 1.2579662009700718 0.8280992154334388 0.527525082483054 0.47114204425674866 1.6373508752322912 -0.3158352552388122 -0.8845802565360579 -1.8430317692199214 0.30029228639404393 -1.1620745673029707 -0.019994578799286122 -0.28285535708562265 0.9847537279039159 -0.8810945807713537 1.5222679167534086 -0.38644318127958904 -0.4289475332240725 -1.080282412500936 -0.6918857383105916 -0.24274039130809177
1.2581210426527307 -0.5492722158859854 -0.11825187325425651 -0.5312610274253957 0.08350757392982755 0.20224838819212615 0.29930251025200355 -1.24449541328495 0.5359277575973024 -1.0253497862251726 0.9335696779715211 -0.4108327244086959 0.3433046509827872 0.7413899217445494 -0.13516419655293382 -0.8343694282972783 1.1033659193431025 -1.2911038275979085 -1.963077042993075 1.806445755298257 0.10702512103445999 0.26677040744622443 0.05537434618925624 -0.5495417575064898 -0.5175024739372294 0.02533619282242633 0.14720442952448537 -1.0615928445699558 -0.8608382322274277 -0.7144546236851593 0.16157673561691482 -1.3527685000955716 0.3481858741890413 -1.0609849978695352 0.9230432895603711 0.3739440462196326 -0.12242002149413755 -1.1522776301941655 0.16438004979601595 1.2911788719304713 0.10559659833102847 -0.787275606947335 1.19723121987129 -0.5401381030263552 -0.2075296036834665 0.5656656872400918 0.41403388102320343 0.16594274345636728 1.2574698395453086 0.6417300592183832 0.08345019497289596 -0.46433860984904196 -0.28417535149186 -0.5539198131629797
0.8806803753450789 1.4159077078685014 -0.7847743154819575 -1.1611776734738015 -1.0177677087550796 0.3939480656766181 0.15190238222157887 -0.0786139493251109 -0.3809566635437034 -0.007411745741672748 -1.5298305160439365 -0.5965699225738768 1.1163075819429693 0.4389567095231218 -1.3174334788256794 -0.7326153678646304 0.051300014792954596 0.6448313815106765 -1.0979749456202832 0.485145025143399 -1.258805144458434 0.5058089622494328 0.491350179257554 -0.6925037867281116 -0.8181313007964909 -0.5490729185588108 1.2575644736146838 0.0639630702248391 0.8538780357914275 -0.9676214636774261 -0.9597022430022423 -0.7829026932687093 -1.0734790354309804 -1.507697900983097 -0.7885431317369995 0.512328535399872 -0.034868070690944164 -0.6978170985726726 -0.26788128941222583 0.9648836876529525 -0.04305278467193935 0.19117139130951344 0.3135196335690684 -0.09566036105887293 -1.061919209503098 -0.7740455047249544 1.9962551999476152 0.5908474294855628 -0.22853860721212477 -0.2998781370703569 -0.6884805831306944 0.02856962203264246 -0.17587875604546116 -0.4361217274712435
1.3670209865044742 -0.45951539749879655 0.411860678217882 0.11141489634563206 -1.1077251779356576 -0.35830950347921864 -1.0985164545464055 0.9505063067519328 -0.6359376204303386 0.5404608889160687 -0.24199237656245648 -0.05671635713831841 -0.7790048695352483 0.005749696662413095 0.21427364649966196 -0.7667896516380076 0.0739779380976835 0.6040486771353275 0.9859947001441325 0.35892844821479625 0.5807571086237903 1.7802057878121877 -0.18438493407723683 -0.2884764496476427 -0.470783230823972 0.17506767259826 0.40336626241018864 -0.5613127530151538 0.22513650238821742 0.6699849050983716 0.4095712688675876 0.41044550570463983 0.8375221578053855 1.1805949685264765 -0.1562344739089611 0.2216676517785124 -0.30897390345783987 0.4873316173088931 -0.22300500482119445 -0.4304943977276537 0.8712735152210181 0.6607897415581432 1.1855736173654217 -0.2887266048302619 0.3262684153691793 -0.06258579691611688 0.02785171287207855 1.23397939568485 -0.5250715865942499 -1.0073505078122686 0.47191334774316884 1.0241630523511565 0.6662915570837229 1.0406450190978427
