-0.048194874226436424 0.7909597038211535 0.9137474683560725 -1.056215725599062 -0.19254835043244906 1.431387738074918 -0.004668991808247758 0.5534470634293255 0.753677864338715 1.0658312143803341 -0.15489038934193416 1.414865846565511 -1.4182430119139102 -0.032923892080889416 -1.535043321556664 1.2690297373598762 0.20222515328218837 -0.06770572251750256 -0.06620075370414619 0.9100570079470175 -0.8091520449544639 -0.29987821822550326 -1.0773806564876296 -0.45795485097047156 -0.19354688814122917 -0.2345403531060915 0.11661661575224769 -1.1102258121440118 -0.3610326281399326 -0.9416174012432679 0.09787545870282732 -0.1740670808245296 -0.5803023735642986 0.596636525113936 -0.6779659862686069 0.08422285561865273 -0.643921365067512 1.0153857024797792 -0.011521120393687856 1.119921165945117 1.999048368952101 0.21480534074734098 0.917823413334443 0.9234630557163698 -0.4017645307990417 0.0632810652178778 -0.7130347792490712 -1.0701869062221387 1.1807530111520126 0.35880940830176783 0.24250837875880282 -0.34210013230633934 -1.1202920469371795 -0.37517151142002314
0.14862471945915573 -0.6510905949179068 -0.5562296066582567 0.1849698363683358 -0.2799890020632716 0.9154739588949888 -0.8390903647434029 0.47009736003212355 0.014505807208955057 -0.6149496008941178 0.44729504067800163 -1.330010619555758 -0.00925776692871666 0.516110695092441 1.0421562609088928 0.39621020498101794 0.834903618250318 -0.0008894234017149394 0.45466249207628867 0.10156113666063593 -0.1682222287251084 0.4713956542624006 -0.5960051197909833 1.2167266830634476 0.0391239080980374 1.0179862654040792 1.1829012386557103 -1.2725420363117468 -0.21595752054818085 -1.061908815229096 0.9192885115539671 0.8060761169449336 0.26310652574403515 -0.1360964339666817 0.008436143089384951 -0.3079277928725713 -0.865239240015684 -0.4985088109954376 0.5726111105123182 1.4832918400855524 -0.24266337885539135 0.0442738038792444 -0.9175109603275959 0.4725317845871753 0.1775478993189583 0.050230378445089374 -0.34877983704231963 0.6984728489005979 1.1773462336354117 0.1507168561311747 0.8469635958343661 -0.10222294443601398 -1.3390313523235524 -0.9196225714522331
0.3681098155360313 0.18512700224900902 1.3412878806245299 -0.22933295324809327 -0.36860914816103685 -0.7223993266251529 0.9016531198933893 0.8300092614609336 0.12766578348899937 -0.39771045266343624 1.032928085014542 0.1681395077795168 0.45155574140588056 -1.7661916512190436 -0.9765031452433259 -0.46287444876997524 -0.14833437737050092 -0.21377435715023352 0.01081653220135631 0.10395996656372869 0.8758121526529395 -0.6072836333050518 0.2474908712161561 -0.79092061927194 -0.3282329883570953 1.027551744426445 -1.588005676939326 -0.031052811852720408 -0.13516862154851722 -0.13316585732069514 0.20107259839012137 0.6043281369702547 1.2932684285163036 0.3954704897772336 -0.023870351411047652 -0.6748435956488817 -1.5056097329324452 0.3181055282899672 0.36773591630944397 0.20858918288235284 -0.7555876061142028 0.22929965399423247 1.0991983694598126 -0.7588693385652222 -0.4664887467418547 0.6666144522478982 -0.9987639072293681 -1.8232749094085738 0.3746040671007384 0.1177394170552108 0.4686764842980693 -0.5516033932960231 -0.21012029601918975 0.5617820402180761
0.5417982872214037 0.06434412071635826 -0.7745778456590239 -0.08923587579221037 -0.09037699621178752 0.09594938164749212 -0.5956262528202405 0.40944567825402295 -0.13489758669770896 0.24065255853885337 0.8036017184655786 -1.62794235466231 -0.27147404766505856 1.1299853562713986 1.409533742074193 -0.25906381120465094 0.05205668083823095 -0.11306822133579891 -0.47426444886892555 -1.389662675390424 0.7173530429719011 -0.19200523943110182 1.3300043049943042 0.12391534846764768 0.18481187665934007 -0.30070478469263656 0.6141944763199484 -0.19862374614230732 -0.6476571201111241 -0.9184647800517071 -0.7965559939384247 0.459523144621632 0.448813357466205 0.6605848780916761 0.07606148892270498 -1.1667581326847851 -0.8400229188999555 -0.6345923457888307 0.03183736357655498 0.8106931456307476 -0.4697245299721492 0.6951530535991657 -1.3403844177167392 -0.25346491758813683 0.9921928367794961 0.7811334276370706 -0.2086925283630489 -0.612869757107488 -0.8867719381159903 0.283169357401701 0.8620870645421754 -0.7014880672368251 -0.2997005687787137 -0.6274350166767582
0.6954302700194637 -0.9362267292427748 -1.1030576971195474 1.0226588022261878 -0.1939173514340628 -1.0123523923590705 -0.1366434524704967 0.5028845404544731 -1.0153095664165481 0.5610180336856594 -0.4430892604316913 1.2789176589378113 0.08270992384466958 0.23395905992408178 1.7212159727646559 0.19659609602772743 0.2130017401926294 -0.32997964133633817 0.859346133434558 -0.27090987474428513 0.8596289714721772 0.4081346088098125 -0.08222923600838428 -0.0027872082111370378 0.37760453922397297 -1.3018364588741895 -0.6524331354142636 0.7376521061243553 1.8537408738758288 0.5986171594520118 -0.9149051835003325 -0.20791495941272975 -0.48906600298289277 -1.35314034340727 -0.2730426175614988 -0.6909685613568605 -0.41210075167285043 0.3472239435793114 -0.19168518347102326 -0.00918230542064169 -0.10751598091407605 -1.4934425185966003 0.45380736950822076 -1.1467592860351854 -0.19704417266821583 -0.19677325595607115 -0.1347298333671334 -1.458434128426668 -0.24733740502543639 0.21900771121008122 -0.35681713967822903 0.39164072466805444 -0.6532213093217276 0.3856918487857264
1.1131969765739953 1.0742075642102202 -0.18599895140945588 0.7466750266252172 0.04124650827143811 -0.9678997572215278 0.5546169117702215 -0.3794845437952934 -0.7585035829383775 0.048976572595802514 -0.9288780534396558 -0.38279874680470505 1.2497003559264064 0.6959501485491888 -0.8222866616056426 0.3794245768844234 -0.0283993586011953 1.040013622392027 -0.7360631769183485 0.4944025221581916 0.09322681045516307 -0.11838123589832533 -0.16116045591589478 -0.8815485745086352 -0.6609434367428286 -1.3420800134442807 0.8649292608045872 -0.7249425434551919 0.5964051173119657 -1.4565647207728931 -0.9496682521638984 -0.639938855429941 0.6182400928143816 0.22215298056216876 -0.2445929059586905 0.8126697117342722 -1.2895644947032199 0.2621800369007585 0.22757878517361235 -0.31758129932261153 -0.3506418385238925 1.029739850924645 -0.24460256463423824 1.157070693413191 0.0655370396535242 1.0093154299246625 1.0569007679774702 -1.739880431539424 0.585547436956428 0.4477302812062858 -1.0776873008078147 0.06065644833781181 0.6614345451674031 -0.16904948057421498
-0.600459880309928 1.260718308182133 -0.40904564171724717 -0.6293316664961888 0.3793677132527726 0.4563991417106314 -0.547514439972499 -1.049505037471432 -0.750015935445244 0.6124860320392389 -0.32736923475478436 0.9640687552449507 0.6909985260932086 -0.9949398928041585 -0.383196902166418 0.7816623425691549 0.3321195624877605 -0.3919597902441541 -0.3231991151075809 -1.1000932059494641 0.819726930859197 -0.2221888763482157 -0.8715681664431538 0.9443977191166415 0.5279148281016179 0.029160296230383076 -0.21270421972538994 0.7089079097881066 -0.6959973598590302 0.0600806435554157 0.20644249100409878 0.8334038230086281 0.28047465742093797 -0.22329768082979895 -1.0910452783350677 0.8969200446440925 1.2725421561081185 -1.1524968410928678 -0.3741233211532283 0.12819876076020942 -0.7122887322926842 -0.6851521598425688 0.14400534447501911 -0.9077688930670684 -1.2595816681266971 0.3528943746051647 0.28471596268306476 -0.6452960321770098 -0.6072847114717002 -0.7817496296388314 0.6736307134365944 0.5368965414981731 -0.053637817183004144 0.9814499564799493
-1.0872681000756599 -0.1114316751304747 -0.8952590760740293 0.11674809023280441 -0.7954705838324563 -1.1949883990140924 -1.0940507881142032 0.9335441766450752 -0.8355720248527714 -0.3760826896041508 0.0730289187835888 -0.23071766325305565 0.6344184676464518 -1.0548600864364472 0.06887761591320107 -0.5624449101279179 -1.3361315769078734 -0.7768951120968732 -0.980831924200577 -1.5089430833694453 -0.4985235036710574 -0.5672761608500757 -0.8145944647072103 -0.12354140786174506 -0.7813238529822409 0.45043033996431553 0.5380958343865152 0.42924035964245943 -0.2166103159719059 0.6850564101329664 -0.1480719568978453 -0.8120883662950392 -0.3130006263953262 -0.8433351832267582 0.08684465056679763 -0.33401369014208787 0.12095380556562968 0.3421764440127756 0.07574091893974838 -0.5052732707209688 -0.16140753417599552 0.29691906520620137 -0.25680026831095704 -1.4540113152760563 0.7409677627825864 -0.23496796207324516 -0.6241075389414246 0.09512400305399077 0.2923312057884021 -0.6260188513284238 0.6955749700419684 0.8985335970992759 0.0339705268978141 0.3675923451460343
0.5979448049324207 0.2739706570460303 0.568607504294807 -0.40289410032248457 -0.4813006051693016 -0.1969000581834704 0.1547930499080915 1.1119560721481878 0.19601060214898702 0.8385430087870148 -0.5672077844452001 0.9440420762161276 0.5604362258099201 -0.6667285859595282 -0.8920186735296148 -1.2941996187385814 -0.6593559974366132 -0.33816604914545034 0.7697848998651946 -0.1495801930674011 -0.3542181175480909 0.8807121012003534 0.6160774937291287 -1.0446878846894865 0.17409083387457375 -0.3453910478841092 0.10779979071448276 -0.14759622252668347 1.4795183463391335 0.34229939012698457 -1.0790480294252367 0.15809529518869708 -0.5402305269987225 -0.11009349058809648 -0.7818863009201271 -0.6865365687371485 -0.007688212062829491 -0.5573571933208188 -0.18413927701494948 -0.4940365120387884 0.19613739882620795 1.0159576146048697 0.6550477654961224 0.03965723850872732 1.2105069748127575 -1.3166964804771095 -1.0459538433415978 0.7761495405808438 -0.18356550543794115 -0.813313558712243 0.7826736380589403 0.7572079858516325 0.4975633015893686 0.5410102569127896
0.2101094922686143 0.0880397806304073 -0.9694926635617582 -0.043469955356492895 0.22418700140942316 -0.8495253335419326 -0.6880135128902826 -0.560541818077215 0.7312921347717753 0.9866037567941184 0.4411213967656887 0.03286126559131325 1.1397975288435511 0.4766533642597059 -0.004723834443758512 -1.274325675099949 -0.42262971503468727 -1.4150505970019318 0.3511333983145965 -0.7887663731022916 0.33962316954828997 -0.8130816898561977 -0.4943230826348526 -1.2576701312281224 -0.9576688483633304 0.6030854339178549 -0.27696275252854463 0.7576307034748594 -0.5825751878286253 0.989693647542105 0.868493955980528 -0.8630531277161169 0.9676125244703703 -0.021824745684509428 -0.8930040582363437 0.7951345470819065 0.1347722200696042 0.4554365900269939 1.2166106818967362 0.3957543673528845 -0.8244528759359062 -1.2415184387667582 0.3296698419768876 0.6976281552816179 -0.040375180968846736 0.7604075448314007 0.40042312816475684 -0.605438631512176 0.5161144696373741 1.2259880810928079 0.17968216156606703 -1.1054611472220817 0.09901687145865928 0.9378556055645888
0.06743863187127808 -0.3494349714534425 0.30891183950354767 0.44883941982514236 -1.1522260694600779 1.2547914439372092 -0.3178702378974701 0.4770021978248046 -0.1434173446304996 -0.938392715075444 -1.3039407852608278 -0.4444350166790874 -1.1511132616697157 -0.027253772306048474 0.22192585126956194 -0.08566991545933511 0.30995075024277735 -0.8628392401518534 0.9872810906285331 -0.4069474203810068 -0.49143636006622676 -0.4380579891432984 0.9406811932331639 1.4178850290059695 -0.37622190180111126 0.2795340684601142 -0.19815544122389106 -0.21088446575985909 -0.4064275547285926 -0.8232350996073936 0.2532845875444153 0.472652987510638 0.3094282911912606 0.7712410312674822 -0.9535308858047663 -0.9195933771439976 -0.912722366640816 1.6338834162713818 0.6399845912490794 0.8761916766676124 -0.3933538787011792 1.382516987759305 -0.2915728563524718 -0.896010473811745 -1.0305075691126981 -0.5126782576898739 0.5137332763119373 0.035244168547203525 0.9069900987352513 0.03765285821175107 -0.6956748106551666 -1.0232046840083835 -1.2368330152843026 0.5677601928231002
0.8024954416325285 1.1428490363961556 1.0458823118993985 0.40566107375827987 0.08341340869793357 0.5552949006285346 0.17919274540124086 -0.5610012025872995 0.03432240789681329 0.1933302105522256 -0.7807207667922516 -0.5150467811670425 0.6540574509944215 -0.3437060806662656 -0.47517078802854823 0.5548719045678747 -0.42271117409493975 0.9741068189588784 -1.1308761888105887 0.2640081874323083 -0.427367985746925 0.2868131856021738 -0.8382746172059098 0.3428954958653481 0.747997577332601 -0.6583722323927421 -0.1329184113860319 -0.6324706818839663 -0.7575883779401296 -0.35811623649319535 0.5566826701378108 -0.5720676766824082 -0.8758931392762734 -0.10814045634839037 -0.18241604324943467 -0.2688221495153366 -1.0201008761330663 -0.9342745683514625 -0.4358891678148987 0.8570361650850896 -0.017488509788787854 -0.20038866872226824 -0.98779056717874 -0.16393978522347596 0.5573651734855322 1.2537996929481627 -0.4120973819101053 0.1697735154707639 0.05753783139769236 -0.210944072021382 -0.45426794400856507 0.37184970925731226 -0.6747451477704931 -0.6212573469041317
-0.14644187635252287 0.28348363690315775 -0.26705283748260067 0.4825222831902442 0.15755374179092618 -0.8248378546181154 0.8231592515263872 0.8720852721832824 -0.38436074725227753 0.3643315662966734 -0.6587914078322735 0.8805564985759939 -0.9554380194059424 -0.6271178754102675 0.3430369308783373 -0.5753724909163744 -1.0825726957201627 -1.065625476293609 -0.39574411614564886 0.7198847908731265 -0.4495552697395425 -1.0350817521590283 0.48610553725604394 0.46516461500116124 -1.2860652130108532 0.255435307985966 0.831688695600701 0.5321902931638179 -0.301548194403305 -0.8743298300211462 -0.29101885463694116 0.004815716775673551 0.25760401307828035 0.4940333114379464 -1.0813510451995847 -0.9768827136096632 0.28328188505628926 -0.08386498961973277 0.7732948674385244 -0.273051078876261 0.2606330740091152 -0.5877308042049676 1.1196999824627514 0.7950448149476266 0.9171798182027335 -0.7390925220314951 1.1751234522495277 0.6166802570010201 -1.1081571097843055 0.7516434795303505 0.5956114627426614 -0.15439237675380973 -0.2404754218479656 -0.6578836959035107
-0.8015420022839255 0.16254065117971161 0.6748974341645463 0.06460796643028266 0.40615193333601546 1.2460012224255335 0.6488249982833854 -0.3935031422934891 -0.042209800693799926 -0.47237976593404607 -1.3212173609526108 -0.9743950528543304 -0.3086631567915832 -0.7715077322712756 0.021939629509572678 0.5629238782485476 0.6589218339829852 -0.26218357267689035 -0.13083894737631885 -0.7278759137938451 -0.5181982369022804 0.4579971831191229 -0.03512474500426438 0.10913756496088939 -0.22414616101852652 0.34149056174950465 -0.23605052612660765 -0.4821619725069787 -0.6548650593984775 -1.2599111272744574 -0.26082395645810075 -1.3753614016021853 -0.6690340212465206 0.14220773934854658 0.478363869959628 -0.6190906716761824 -0.6417043805897691 0.3923052755796504 -0.4444556813608318 1.1177283793747255 -0.21941373714215096 -0.3412727329592996 -0.22688260579975617 0.6109914952362803 0.008278386540657878 -0.20255841810622405 -0.03504706753614312 1.0074664603786503 0.5083137158983899 -0.34350246200519924 -0.9967288949625233 0.013107754122523019 1.725651926445917 -0.1283444475518033
0.8966989288911617 -0.3961369898393476 0.34845368863260806 0.7600619931705102 -0.13678333746236843 0.18943223086480132 0.7644713593135973 0.2064186497611794 1.805887954127396 1.5311487459044675 -0.4432616899936156 0.729627581535467 -0.7557654600435739 1.0044369155763915 -0.7119718925595518 0.8017146102524195 0.14660230978362193 -0.6748422159349641 1.1003347604070384 -1.061072630993961 0.5559619833336418 0.35318033965027285 -0.3872308580540996 0.8237837812981275 0.22770401106507848 1.4693704084167531 -0.6243981462464796 -0.23535503560202825 -0.3612531283836114 -0.49033572530794856 -0.5978755339457639 -1.0079473909871473 -0.021399388657475316 0.6434735395480712 -0.5135658223222128 -0.8582207734457542 -0.7211760754636674 1.08207404502154 -0.5874214456921352 -0.8381878068685014 -0.39965572710366076 0.0815655593349412 1.639293434467853 -0.7605698068418746 1.376702551908376 0.405733433829636 -0.10949401811940579 -0.6943611571088542 -0.17720815484046448 1.07555522834972 0.4595916043949246 -0.3837068105581352 0.9000668760788346 -0.6938018135840078
0.5813609368671739 -0.1167088377385519 0.0110084528397707 -1.2879440388469483 0.624039739558427 -0.24417553649983081 0.49995931162490576 -1.0325874330018123 -0.9049317815327794 -0.906448191759248 1.2064419367342567 -0.6947090263472193 -0.16957915032669663 0.8984495126284076 0.983793679920965 -1.0939559783089594 -0.042107683152491915 0.6482648201990432 0.6687765587301541 -0.11818095782996701 -0.32724809256664533 -0.027122994531197986 -0.3939920368405567 0.9385392802707098 0.3615643395242926 -0.03286269438925199 0.8957441415100563 0.5274791278188221 -0.6624545576785642 0.9703938818569855 -0.39351136690698235 -1.3549146352023407 0.09534666330955188 -0.15664086395577814 -0.751077633878485 1.1208544587303237 0.8753894894051617 -1.0540235291407736 0.9717308169191385 -0.3931811748729095 -0.26409038426842196 -0.4241285472623729 0.4217871663832659 1.009457967534538 0.16229338685983918 0.17540532809229753 -0.4205900717363517 0.3151169224060271 -0.07577703664575497 0.012849353278083231 1.1574361052421016 -1.4117823057788454 0.431065830031567 1.0021451339458705
-0.3225058397004594 0.07440946906877499 -0.8274165651952199 0.9193600271001027 0.7938450547037581 0.8830018626688896 -0.4605970601892416 0.6517702861913979 0.34994900465914297 0.20740035372934373 -0.8508183763044783 -0.6867841499521573 -0.6988137922224383 0.21097409391716493 -0.6497934549752543 0.26633586067773596 0.3009261255026903 -0.6464062595097039 0.49478297889196404 -1.1472138578221323 -1.9996694490076465 0.6602738992245506 -0.8371125755868829 0.7229494077695213 -0.7761911537343826 0.3473371171161156 -0.1622864414515089 0.7167565676023155 0.5402515945538813 0.6721193325153648 0.18068231629665138 -0.5632540333845146 1.1961989776090842 0.27545742990296107 0.1218526792531272 1.4288668202792603 -0.7075201986301556 -0.9246112284814504 -0.808979935291356 -1.4245648415328902 0.3919978575703606 0.714019779926838 -0.3099489405142652 -0.9921212773289863 -0.5479990860892592 -0.038341895445875074 0.5876301460413343 0.32156837888897755 0.11587873397134418 -0.5701968741967948 0.13753187815926654 -1.1351650367574733 -2.0386677633997623 -0.7196849000778203
0.4082007990364246 -0.12962091593936798 -0.3754845412865209 -0.06031826077086061 0.5964529193344028 -0.6874443580107166 -1.6209423707041044 -0.06725291969365438 0.6151622713911864 -0.2821272714569989 1.4313428143671962 -0.3359162530233876 1.0077932209963256 0.496043072326644 -0.7486041666724171 0.18527950864862675 -1.711270181084105 -0.49206138210949263 0.714229696726135 0.2823415980274627 -0.7911941693875231 -0.39355170972857695 0.17571135024420387 -1.2966819296547105 -0.7905588995085182 0.13540458641244046 0.4804490125232623 0.6980782948570066 -0.8949659549102179 -0.7374822944714751 -0.15966400492325378 0.8039465582537948 0.8798989715318162 -0.6314718251199667 0.49328510788136964 0.17473695242146808 -0.6165172689786058 0.8034046285346432 -0.37018863174743727 0.8389336175209607 -0.626281873866072 -1.1798723381266791 -1.0866187187952185 -0.11825938297706767 0.2358916726800258 -0.4481037478795804 1.4721986567920675 0.21150690824122442 0.4433984567518866 -0.9210208212811347 -0.7577978622930479 -0.055449869972707844 -0.048901267506834656 -0.15079757966397522
-0.9386065063809552 -0.6135331930800755 1.0795720241448727 0.7906221067482845 -0.666066265731548 0.5816092820261272 -0.19244914305734406 0.9302279255776372 0.3029264947448299 -0.20847562247460988 1.162020679081645 -0.44979268110377746 -0.4462984869710928 0.2785029491537477 0.21522071879317373 0.8169051482758602 0.7981402934925179 0.1804901884201971 0.717859151810921 0.6525121089072748 0.26786233545635874 -1.5223580594674233 0.9169176782496773 -0.9742336749444647 1.0924645998302944 0.19828267109387832 0.6680736561227436 0.18965111948230162 -0.174623209245041 -0.7353966380897037 0.8310520478624921 0.30867953624218625 -0.36666937687295037 -0.5475959368720594 1.5073120151972832 0.06818146090674976 -0.25731460900942704 -0.007824087172527028 -0.7271317694114704 -0.006765081566348863 0.8356339890638633 0.3739544333277957 1.217080837292839 -1.1596323465433502 -0.49078773847049234 0.5599365382465452 -1.1563309542410387 -0.06187803248690327 0.2924080178413283 -0.27072421163583404 0.8439047258810344 0.2063151453929748 -0.36277383539642877 0.4070786462312783
-1.130929228589312 0.924536580306922 0.1809473356350943 -0.012842255079916598 -1.4997432506791757 0.11237330961729636 0.08862120829054959 -1.1232521937014426 0.0842274107222174 -0.37194494869871936 0.016249754952787965 -0.2289181893748533 -0.7802500963339776 -0.16331951042619536 0.13918931100401005 1.049289412810864 -1.1878053435884677 -0.9429798644135208 -0.40278328602817187 1.221086609196149 -0.4768213750075685 -0.06555486958984591 0.979557316218845 -0.39871462467672614 0.046501235762491544 -0.47009781442791726 0.10185942192311542 -1.1672736776344554 0.4324607447907356 0.09253365424274673 -0.5016967669705661 1.5562541987752336 0.7756207384969015 -0.6448845444713829 0.25809494017966184 -0.4027617619361136 0.7714248975191151 1.5708271800942346 0.8007718874344585 0.33387272276099283 0.19191871093129625 -0.28952855365211594 1.29862820334376 0.39256444932961454 0.18713325479414822 -0.3470390333182537 -1.2183108104137594 -0.7296703480251738 -1.7684206698264788 -0.5870620598419916 0.5513677585815544 -0.4975431423813871 -0.8218643517283446 -0.1630988509008448
-0.8453433294447164 1.0691217090615988 0.9566715558833307 0.543609589087218 -0.3343472030714908 -0.032396952461879236 -0.6217532872565696 -1.2428686193636262 -0.10554923076986977 0.5423137220290837 -0.5348568429627264 0.6997446564190513 0.33337373577965285 -1.0904591187743045 -0.3337823112266326 0.5672213135123116 -0.6048150559189156 -0.7840001993348559 0.0912053687851398 -1.526235772522507 -1.548115948740025 -0.48814952334130807 0.9570811412187613 0.11621483186909254 -0.17521601357867 0.06985942765620201 -0.7321946376029261 0.17063518011804812 -0.12291401121474677 -0.1691484987194276 1.3139023321608017 0.33697689652024704 -0.11597049440412044 -0.7350934915936839 0.20035855965421273 -0.5873031133850751 0.1957361381560198 -0.45980702817817415 1.184718660741968 -0.0062538785386971885 -0.7256566637286984 0.22537267932096833 0.8278821297561796 0.5735997525343028 -0.05167810934605066 1.2967865727543246 0.23404678618664887 -0.4650041974641964 -1.0114119943334763 0.46363441580800197 0.3182440080227133 -0.6033714752537114 0.32453129508802014 0.7497756094037529
0.8359130952063771 0.0742208254795898 0.21497787802227003 -0.3326957902302942 0.17404047638568754 -0.3531356652637474 -1.0410332181290614 -1.136665338040724 -1.4642687698308976 0.2292007398110601 0.7974429736766833 -0.03766966973822922 0.11633945289437164 0.22562827227949783 -0.5610740318827676 0.8609327505172857 0.42109254216195846 -0.39421937770164805 -0.24137673642098495 -0.37344161315855834 -1.0866575702480787 1.346529342202518 -0.617389630057371 0.9973074973981674 -0.6440034015405933 -0.10739501936698576 0.9068476640495309 -0.2419951530733334 1.175903694858285 0.7862906411431788 -0.7934618016889973 -1.499763316398619 0.10983629195968347 -0.451025870073051 -0.02838193680000617 -0.9249918468238981 -0.4295362919395993 0.21341300138626534 0.5293748802150646 0.9690367255454655 1.2852759559710536 0.8648899384568687 0.8660810005846766 0.2566960669501011 -0.3055574092485515 0.836328947217658 0.6649736996753576 0.9936967479880483 -0.5691994372421547 -1.4386150849615933 -1.7269285717636025 -0.2376198801289749 -0.4071048364503728 0.935152292980389
0.19547204851473005 0.8123308044358679 0.39502824545028387 0.3582183557805466 -0.12783757513101202 0.3071698073984027 -0.675078853974918 0.04727298123508894 0.3816329982561405 0.28512295000845894 0.7858473039612364 -0.1130031036250857 0.15816563701401015 0.1272254226073511 0.1048508897030162 -0.9542199935652178 0.2584781998901953 1.1177473195375411 -0.47368495328247284 0.1591462622520874 -0.2983069681827412 -0.001590705079697996 0.585383732005261 -0.04454078041305343 0.5671253934535316 0.08559360356927243 -0.5607505856261485 -0.13454155142788382 -0.006893574788959689 0.11701537771588688 -0.9978044960696373 -0.14889955704413987 0.4243222462591652 0.6001472111214292 -0.37535286878701135 0.2505084740931439 0.11067781555169648 0.34962167171617836 0.2887978914199021 -0.8838631838684163 0.7052544073065538 0.47882189846986833 0.04582052597212072 -0.2687393886691335 0.1396347580353885 0.25932719509633523 -0.6886020941820367 1.8399035178282883 0.1875827878766862 -1.0618000032800556 -0.8159153093528262 -0.19165678303156325 1.2718531846289973 0.775502294785809
1.2610771392834006 -0.4921897207594226 0.5156936283469313 0.40856962658445306 1.3272371948298924 -0.4082050813561013 -0.3751368882256028 -1.5750739725415452 -0.08026114238102694 0.0985074679041289 -0.20947218380430527 0.497889693652118 0.5329687630997758 -0.3497866102826078 0.2608086562194862 0.7526304605455754 -0.09323981084231897 0.5227942779535313 0.21931219094735116 -0.3965866762854299 -0.6467750954990552 -0.307748485676218 0.1723188334662354 -1.6907699709038413 -0.629115927730304 0.6957929957259426 0.11522658118583168 0.338860893522732 0.17917885060726124 -1.378169780506286 0.5987598580658253 -0.6683226514123661 -0.51259500125268 -1.9861071878130432 1.2579662009700718 0.6939848176287109 0.32719594507130983 0.47114204425674866 1.6006007048094275 -0.5279113995742785 -0.8845802565360579 -1.759893374448894 -0.4023046818209233 -1.041848849579182 -0.26903766446575605 -0.28285535708562265 1.0835279554886466 -0.7313697531880109 1.0583180802881937 -0.19293777384853733 -0.4289475332240725 -0.8959386099080673 -0.9307593797234593 -0.24274039130809177
1.2042805134040968 -0.5492722158859854 0.22002417966492255 -0.5971283450617835 -0.3665276150691181 0.20224838819212615 0.29930251025200355 -1.1738143735208815 0.5359277575973024 -1.0253497862251726 0.8464762086529825 -0.4108327244086959 0.5126221444755841 0.8595745051761087 -0.22614278184436415 -0.8463283069109588 1.1033659193431025 -0.9815504167672251 -1.706836519668076 1.7325556714655659 0.10702512103445999 0.38457687554566095 0.05537434618925624 -0.5495417575064898 -0.15665770186676092 0.2996306822460536 -0.011236953575351982 -1.0641568831532575 -0.4466392126498149 -0.1789369668009952 0.13548632400901006 -1.199863787319131 0.22358230018204456 -0.7835763962249938 0.9555505806250364 0.5408734730386087 0.20161989693697724 -0.9575223947829621 0.16438004979601595 1.0942532612673836 0.10559659833102847 -0.7149804298549115 1.0021639291183264 -0.04507555338192887 -0.3929370603312792 0.8002861837398054 0.6536479625020589 0.2998496554628096 0.9294461743026157 0.907522362981618 0.24618256256589038 -0.6230191609850793 -0.2025652797133028 -0.7579836860546901
0.9738349331857431 1.4510013780197932 -0.8193890860251496 -1.1611776734738015 -1.0177677087550796 0.5103888377309493 0.12524772120753508 -0.23705533242494825 -0.5143721236851702 -0.09053937880123553 -1.5298305160439365 -0.5965699225738768 1.1163075819429693 0.6324621169541735 -1.1192650017021113 -0.684583383877659 -0.22794737121605424 0.1901167804904645 -1.3883593348302685 0.28032923212993327 -1.258805144458434 0.3883544428437193 0.42748400096367833 -0.6925037867281116 -0.6683254639241879 -0.5716485493995132 1.2575644736146838 0.2654453405934198 0.8538780357914275 -0.9177059005884876 -1.162984871691081 -0.7829026932687093 -1.1052777123004414 -1.507697900983097 -0.43252007547961996 0.5229864297048462 -0.02219135395908367 -0.7321213992678725 -0.26788128941222583 0.9648836876529525 -0.03367739729653457 0.1691573415513734 0.22291793100243584 -0.14147288992217488 -1.1743786253317405 -0.861138974043493 1.9701647883397104 0.5908474294855628 -0.054241667081104505 -0.22133190311728845 -0.8661543732043353 -0.08194353107622704 -0.5164956760429582 -0.6101073745325495
1.3670209865044742 -0.39633930489062635 0.6874037158176123 0.453974060842876 -0.809954304173583 -0.20089012139586038 -1.0614534610041755 1.0088396427026225 -0.8011555203411524 0.9175231781301159 -0.0921865396901535 0.02837690726462866 -0.7324127713429935 0.10888283215281391 0.2708712587435059 -0.9700722803268462 -0.11809672916656655 0.6406809808438025 0.9859947001441325 0.3234220294534751 0.46829769279514777 1.3374642998250659 0.1412592797537916 -0.12123930324818238 -0.10287743538326938 -0.00241140983677518 0.40336626241018864 -0.5613127530151538 0.07542537688049489 0.8137462864427514 0.6211963382199307 0.4364414884737137 0.8594599384018541 0.971349758957125 -0.1562344739089611 0.1781997256398265 -0.30897390345783987 0.6468351280720208 0.055493527127221776 -0.6644702462719885 0.7210149699144801 0.6607897415581432 1.1131893758839773 -0.4837938955832255 0.12443517679604993 -0.06258579691611688 0.022657651459029093 1.4164146991027626 -0.5399997255727462 -1.0073505078122686 0.39054600372131965 0.980670297678843 0.6662915570837229 0.8453405814309534
