[[ 0.96138297]
 [-0.10693164]
 [ 1.00595222]
 [-0.78596391]
 [ 0.61904104]
 [ 0.28187209]
 [-0.69947281]
 [-0.2282422 ]
 [-0.59286746]
 [ 0.13937816]
 [ 0.66732778]
 [-0.32573893]
 [-0.37714155]
 [ 0.8656909 ]
 [-0.36180423]
 [-0.37758889]
 [-0.35228657]
 [-0.40064723]
 [ 0.63091684]
 [ 1.28168992]
 [-0.88639149]
 [ 0.12081071]
 [ 0.54445364]
 [-1.19953832]
 [-0.22771802]
 [ 1.17073562]
 [ 0.47072045]
 [ 0.27075123]
 [ 0.78884071]
 [-0.22676395]
 [-0.18137454]
 [-1.3393386 ]
 [-0.57855899]
 [ 0.24766825]
 [ 1.22418741]
 [-0.84506865]
 [-1.53795801]
 [-0.62719516]
 [-0.0678172 ]
 [ 1.07503679]
 [ 1.4146304 ]
 [ 0.58712116]
 [-0.64222517]
 [ 0.64869675]
 [ 0.07802851]
 [-0.94141025]
 [ 0.09161034]
 [ 0.84353538]
 [-0.32362642]
 [-0.36190644]
 [ 0.27544693]
 [ 0.49109729]
 [ 0.75287549]
 [ 1.29723814]]
[[ 0.08517625]
 [ 1.62426529]
 [-0.20089999]
 [ 0.66852731]
 [ 0.35712059]
 [-0.32792447]
 [ 0.52630586]
 [ 0.84479641]
 [-0.78895681]
 [ 0.78171871]
 [ 1.67449552]
 [-1.00637262]
 [ 0.66497639]
 [-0.31468941]
 [-0.64855686]
 [ 1.07683405]
 [-0.1805177 ]
 [-1.01293739]
 [-1.15257759]
 [-1.08203125]
 [ 0.78972624]
 [ 0.61581973]
 [-0.6737841 ]
 [-0.26861346]
 [-0.70300341]
 [-0.78874665]
 [ 0.97161755]
 [ 0.58413204]
 [ 0.95928559]
 [ 1.37611295]
 [-1.40096247]
 [-0.97021479]
 [ 0.15683387]
 [ 0.72099814]
 [-0.7556851 ]
 [-0.05495848]
 [ 0.07064955]
 [-1.44352759]
 [-0.39777611]
 [-1.34588395]
 [ 0.07275681]
 [ 0.29927991]
 [-0.78793346]
 [ 0.10328866]
 [-0.94069639]
 [-0.31941195]
 [-0.44850685]
 [ 0.43548462]
 [ 0.91016765]
 [ 0.36017717]
 [-1.08369283]
 [-0.01582156]
 [ 0.47596348]
 [-0.38493179]]
[[-0.14544017]
 [-0.97958424]
 [-0.43868553]
 [ 0.59129371]
 [-0.43450759]
 [ 1.48240017]
 [-0.34853684]
 [-0.67857624]
 [-0.75016621]
 [ 1.15640573]
 [ 0.25072097]
 [ 0.96524729]
 [-0.82725863]
 [ 0.86181685]
 [-0.60040997]
 [-0.23155015]
 [ 0.0613024 ]
 [-0.32255725]
 [-0.42297857]
 [-0.43348724]
 [-0.16471138]
 [-0.12790279]
 [ 1.15303573]
 [ 0.09849055]
 [ 0.96723506]
 [ 0.85496154]
 [ 0.10664841]]
