-0.32733049144704135 1.1557424590257643 0.7756384128590489 -1.505441929610937 -0.16319140034524843 1.699828203232509 -0.10441932322000785 0.017065185836142638 0.18650454503528557 0.9773683189635782 -0.16729760912298386 0.9716220110600986 -2.0895799791139926 0.039102123978412284 -1.1997076125283113 1.3301037537119627 -0.06749295649315756 -0.20175229615767198 -0.10976878226884068 0.13745930329455952 -0.5137017910589556 -0.5922489897566339 -1.0832885080076946 -0.5470250732189067 -0.5869825274367115 -0.6966079866935176 -0.8139655254148508 -1.6377386972574675 -0.5165998095148292 -0.7965759241144839 0.10706702253360778 -0.5921437528825153 -0.8410576966744155 0.37412436257804205 -0.38998525388207683 -0.3221528110390409 -0.14075608549114116 1.3162532011707282 -0.33282213885909817 1.0591207189989027 1.777256299762973 0.7564152144353617 0.7466429406774344 1.083542149199678 -0.22828054933168096 0.07744913300131367 -1.0290908581619027 -0.6706744680287873 1.1807530111520126 0.26684981936119323 0.11034546806910067 0.18670045095241328 -1.704490092186677 -0.2496463897877808
0.5272132951792936 -0.7271710403844811 -0.6561057874798684 0.4720602438225957 -0.6444829517202617 1.4370725827432587 -0.6923933322342184 0.13864468051309753 -0.08904429509330469 0.05402196119626457 0.8765054992751917 -1.8425151933403954 0.4043474897023335 -0.13851126050483914 0.8979750187899341 0.5931088191549283 1.2076564088762052 -0.33766085732893786 0.7205955259586887 -0.1370507227548971 0.25848121952142106 0.766144189125996 -0.6090403173703172 1.5742583696381771 0.18208235168058884 0.8855029649639576 0.8893684608764068 -1.6577752562780683 -0.37168884273953356 -1.0445983970229697 1.193324486840234 1.1784552292710795 0.21840766629519187 0.4788417314122211 0.03250272988835751 0.008223481856838688 -0.6950419102252058 -0.3418856157393126 0.3253243900363501 1.4277765815115047 0.7490478115603622 -0.17264620994298158 -0.6609597490824375 0.16099449663279486 -0.2311265000821322 -0.1005031506680577 -0.33320455186546233 0.08988773730186189 1.1506388683923354 0.549117152627402 0.4237279689279184 0.06516904664264811 -1.2774668615512104 -1.5873784803740463
0.27274732005357416 0.27604601601269263 1.2744297951226562 -0.4607285647054154 -0.8051889904780498 -0.782387371295199 1.0059088114052994 0.8007542636584177 0.4640063372187583 -0.19754517463815496 0.5051252437663252 0.5008654777223398 -0.14551460246300657 -1.7731786868334456 -1.067198092219086 -0.21762273219113715 -0.9152054250852332 -0.4013680773114589 0.7532935841972845 0.5743843670632813 1.2051681236981406 -0.5907888959531525 0.511098792505652 -1.1396122832514588 -0.166150907169324 1.2539816128081567 -1.9217969974473899 0.19134078743372313 -0.708525825729694 0.05564596505807268 0.2000198737537311 0.9777085553438505 1.3931668496789993 0.3652195784015304 -0.47811458594644235 -0.5021113588448993 -1.7769845105915159 -0.010093257511573861 0.39408427992395106 0.2941394227791543 -1.0316122114170223 0.46735451255204236 1.43575473703113 -1.4068342668660994 -0.33046919105116646 0.31760623654807724 -1.2287894373393755 -1.9444345432104968 -0.035789131716580824 0.33789982473511715 -0.04846058403935227 -0.06777836557145916 -0.4823812261535505 -0.04342804069227513
0.40951848422815496 0.085303291655354 -1.0343088759450652 -0.5618677333861652 -0.05905695630054214 0.2583995692161455 -0.4363258880415116 -0.4840127901775516 0.4213744521268458 0.06092671896982893 0.3906224245316201 -1.7756929788867346 -0.5974828846619873 0.6619612433293534 1.2036359481081336 -0.24123784416365968 0.42350599080702456 -0.1902171292933847 -0.4150371005098434 -1.9076369601057723 0.669474028695251 0.26510479076698085 1.0835080202831324 0.19263380211122777 -0.3858373399830048 -0.39297316860571246 0.3987036426776361 -0.13092438017160157 -0.6271390820155809 -1.3502731895424334 -0.7612938005517094 0.23936399471979647 0.2523979043995225 0.2561102883684375 0.5359635130160945 -0.6634650437907759 -1.0263860130440603 -0.8861911331134871 0.1847123514736101 0.7116257703682066 -0.643179467562466 1.0453472998345539 -1.3438654535324615 -0.4568412243202893 1.6008227961126569 0.23723466964993584 0.3376865641316789 -0.11879065789351811 -0.9699725531108709 0.25968004490806285 1.365255032297606 -0.9785363213222485 -0.08328528563957871 -0.1357470760259194
1.1910711775385958 -0.6512542461295245 -1.1747110401736605 0.8908168197901865 -0.05646717421959685 -0.9038440450968455 0.4234435323541663 -0.06433103284461328 -1.2011808751119284 0.2851602075353833 -0.16954538665089247 1.3098448350893621 -0.6077166140564407 0.8490151213690793 1.9787830346827093 0.4186509001619464 -0.18265909452858775 -0.6109712928078818 -0.30754856557827703 -1.1003656999465186 -0.03315614977708792 0.04933441063988381 0.3674287544952482 0.13462862368242484 0.3129031222506888 -1.245874976820937 -0.5017797062185415 0.7438857123450557 2.1263182243949688 0.9993081046648207 -0.29186751402260225 -0.34367718622451016 -0.6502732957286099 -1.163666513426585 0.6525603880649442 -0.64936290613549 -0.5370630171899003 0.49077500614502845 0.0793491457489281 -0.08761471368397156 -0.014628062746462056 -1.5731303543064983 1.121586727110242 -0.8826923931528701 -0.9110009062095736 -0.16053272381554767 -0.6391610172162234 -2.0460293403189214 -0.25609875327349035 0.07809638462049573 -0.1539767613522896 0.4666506741291601 -0.01638025006052629 0.37551120793345616
0.9765553331614139 1.0407890658957546 -0.32251571826959596 0.6968051968599519 -0.49839006155062643 -1.1652937997264532 0.3278710931585531 0.11799073638618024 0.09872953472277574 -0.10725529758635471 -0.4150228156081524 -0.7108797547249857 1.1738168856596716 0.2927306662940586 -0.6724824843971655 0.2326854836911434 -0.040246337784175634 1.2608293574313143 -0.5247659648536558 0.21317929916128553 -0.1909478364661638 -0.3890989874339111 -0.18136612687878856 -0.6885452174215005 -0.7532711694015795 -1.908612021312067 0.8942055012902983 -0.5766694737292586 1.1600657394972944 -1.7143167912940687 -1.272761666496808 -0.7349871485280961 0.9970060791015337 0.8028847176065894 0.41674264326673766 0.877153560380846 -1.2919896695812843 -0.03758320241533325 -0.15803291373199635 0.10068325991040106 -0.19861853926927758 1.2908299911834487 -0.9926562904558045 0.7550831672726117 0.22950606503733162 1.1535713244810006 0.9496414977045833 -1.9347479157902192 0.7128412939716353 0.5728103243006124 -0.8101828196971195 -0.35938766905425584 0.7033185119772851 -0.20383957559142668
-0.500080416048874 0.9782935531230392 -0.27662403976732614 -0.16323335102319553 0.808571284941327 0.35910272098531665 -0.17348439277139954 -0.8674048949991469 -0.7040793017221707 1.3636691455718157 -0.3445751754940779 1.2355500934088128 0.8853254941798859 -0.6825723226870372 -0.3576881911699605 1.6801615980837008 0.9268317065421315 -0.01656372367853237 -0.4462914619982003 -1.2864409578273224 0.7818816047909225 -0.634504036012945 -1.0958232411312419 1.0019755994110002 0.11905943322140805 -0.07042502052630872 0.26550372120976634 1.4564985734825113 -0.600098816878459 -0.14072573121143872 -0.1034328417016413 0.6945084563237778 0.4948171876724736 -1.2067244476448131 -1.1108963491613724 1.0999254443932474 1.7144727871644805 -1.579943633300988 -0.004129311258296686 -0.5906159037097192 -0.5367033564585522 -1.090541043352149 0.2005944269712749 -1.1493799674647862 -1.222378116114598 0.1578131889132834 0.24727236563336358 -0.7293377756180026 -0.7318928631003001 -1.6714102291520692 1.4303238141978674 1.276013984603146 0.07207089522072413 1.0122896908645995
-0.5369790512287389 -0.1301361669790726 -1.0822133587019116 0.15816892967220936 -0.7945409760250517 -0.6161986319327623 -0.4809646681268639 0.5918722419273932 -0.33459015643560946 -0.17714276790577654 0.1389432002630961 -0.555075469043683 0.4978041231580301 -1.189996335016674 0.49319926827686483 -0.5073601395351096 -1.9688248747281392 -1.3040448797011601 -0.7667217716961224 -0.9845699829104104 -0.5832510707820371 -0.007175029542167866 -0.9258237917758734 -0.43664605221923475 -0.12962855256471922 0.1660330452511497 0.5483872826698319 0.4910274715204203 -0.5536187988762462 0.7820640367872198 0.1391164862355404 -0.9538617401008116 -0.2126277524440865 -0.32168932575455766 0.002474471094884856 -0.3433807233593378 0.26330386647749543 0.3245422859643397 -0.07223544073529553 -0.83809450396098 -0.5614977584117201 0.2149425177440481 -0.15154640646603867 -1.4208212621688967 -0.01927152537567106 0.21358988793289463 -0.4196243968833781 -0.2846470899220223 0.23140697259430149 -0.8010456190544983 0.7521110945605509 0.5077314273085288 0.0037213884616653092 0.08488960970410764
0.005874355223471517 0.18783187361726372 0.9751449431112955 -0.3842791013567269 -0.31338528818865824 -0.5664028212173267 0.5704855611146536 0.7097081882211127 0.1456524008099338 0.3372966587204295 -0.2105338761774736 1.2095535193583205 0.36022075949149807 -0.8429129419866834 -0.35990085096386676 -0.9348914398715902 -0.9771234802464104 -0.6816309504605145 0.6532765242208756 -0.3204108532660274 -0.1522944844678456 0.7226238946372833 0.6647855954068845 -1.4091732814456905 0.518430922589125 -0.2747868888895271 0.5771487843928921 -0.07990714551826283 1.5311982309424077 0.1690941066553301 -0.5465979081229619 0.5238026296243702 -0.25312103380784984 -0.39481744344653086 -0.8695018595288728 -0.7006550713741433 -0.08739529258520934 -1.5212179501458936 0.2657318844135107 -0.5513721267597173 0.16131071666145858 1.2960526303444824 0.7025725627550354 0.4333466974090201 1.0853589648141129 -1.3392830345692905 -1.1162726196569857 0.5634871912437961 0.08610203308130765 -0.5983785465001878 0.8432454896157756 0.8365761073852793 0.5083293174168841 0.2757799008483366
0.1446248051236133 -0.7596171144775454 -0.8567058664792864 -0.06838104215726809 0.42976445984052797 -0.8742565154041733 -0.4095633883091168 -0.10691706246139737 1.2675773219720026 1.1366378840408997 0.7274149643803893 -0.3208794088170134 1.0053833989805052 1.4152876305628015 -0.3095514081202871 -1.0189502185716812 0.02698435431361501 -1.4047438986905267 0.23120848783283543 -0.9633846660752046 0.33215523015805726 -0.7686582857216889 -0.8146408290842622 -1.079729251491936 -1.2301119503734295 1.4197001268657465 -0.2114202505700732 0.7480135809327716 -0.8883342652209782 0.851303258004501 0.719479426788735 -1.5116612474364595 0.44021850657642075 -0.18789751143740985 -0.7865182531783319 0.6485226271079738 0.1687337498925922 0.31898589579702347 1.073356277699606 -0.0857274801048663 -0.5791156492162436 -1.3775796494626078 0.9098849770294994 0.5295152168668463 -0.3446274078226307 0.39817941752623637 0.22558053452554405 -0.6489322799149089 0.30329536066371904 0.15975115169350124 0.6221750133758274 -0.5644490004324969 -0.00409558159889023 0.6396232256298597
-0.15647156316335037 -0.6545799289502869 0.3007115353545673 0.1517744853728854 -1.141266699133547 1.132987283125502 -0.2805644584410245 -0.07424895550662514 -0.11969374503753083 -1.0211617611425425 -1.104812473002419 -0.7530995736471812 -1.078534766584418 -0.05911637358556521 0.3336927274705672 0.19421089318041207 0.2534123868746591 -0.34648407194762715 0.9210581480629835 -0.516339348931561 -0.19577405604394643 -0.5802502676444832 1.2120167897736538 1.3787482238550801 0.0040976929732934875 0.4780794738415205 -0.8525923101035264 -0.6382883497277911 -1.0824250661090153 -1.5837905318143937 0.04601656999072823 0.4474024137782438 0.8026301735887722 0.8664632785015531 -0.9495412405681736 -0.7333095860337668 -0.8937604151255829 1.349473699429148 0.8693865406916221 0.23279545551540387 -0.11479044614180162 0.9605180256553778 0.11864643666028307 -0.6858287995073762 -0.9101312548055609 -0.19700611820169134 0.5114511499584682 0.008425824255598291 1.0973958596130526 0.2432875525788169 -0.9466747684109068 -1.7101414249452913 -1.1998902146910706 -0.0007771847489780326
-0.16889021454847247 1.6229256980940374 1.157630308820546 0.11028196405715035 -0.45224429945283373 1.315388352415587 0.09072711637141928 -1.0484319612644355 0.027867548440345058 0.05545192569734536 -0.3915784036099142 -0.3162245551613509 0.4698695684048139 -0.40931570714125876 -0.9283956336206156 0.5406723401031381 0.18788465633933504 1.0069608272388342 -1.3869189130338242 -0.2636456686154805 -0.3482994169364722 0.30517366627951314 -1.4584961863328068 0.42358786549346605 0.7227596681736383 -0.8564692177901085 -0.40820329253401616 -1.3027232444394412 -1.0512348583212843 0.12106299072110416 0.6941739663975945 -0.8511986506993972 -1.7176781974375797 -0.0527404480042869 -0.30601340167331226 -0.3741089871857761 -0.7688363322766747 -0.8201889824349025 -0.7297877154736236 1.3140869588172803 0.09189899165289789 -0.1473190604291953 -1.0288841135353637 -0.06520013978100436 -0.2541211421555572 1.2164752779074524 -1.1743689891754014 0.8760396391618928 0.26510718954903145 -0.3160548047969877 0.026406174976111085 0.3025840731310089 -0.5908015260890792 -0.10482503369135904
-0.02742425556201994 0.2209491835225706 -0.3827109790555902 0.6137049670331376 0.08597131941113162 -0.9143493164659446 0.7875523041376095 0.25795334697068517 -0.12748006529333372 0.31747884937016957 -0.7456324857802274 1.162670339215117 -1.1354352854534808 -0.7681443859091299 -0.0372572584850181 -0.46560253980396116 -1.2117901685769308 -0.5430174783710513 -0.22690649489041287 -0.054677419016333384 -0.41614215563046797 -1.0447262434898645 0.3485527951204001 1.0629691847931573 -1.134936215897182 -0.496958615218445 0.8787700309336115 -0.52499683608211 -0.3610594456508119 -1.1348514860246348 -0.23992332140950368 0.01778632140894898 0.21233697913072014 0.254119280331842 -1.2599301603684652 -0.7972732840168515 0.3104014133334298 -0.12169346461322444 0.5990022694859849 -0.14200808355223993 0.16033427880953732 0.01731103893506003 1.5297698219009717 0.8311988129783299 0.27684476467431196 -0.633762184571572 0.7772639772702239 0.46788903821271594 -1.066865839988878 0.14308087363996896 0.7842519107881216 -0.4385579297784084 0.3578025516660697 -0.9351195442330669
-0.6518275465905742 -0.252069880378978 1.4703722941142046 0.08128331046928039 0.6191762334376383 0.814216528458978 0.7904085633345777 -0.25429593141721674 0.20160791010054968 -0.721152504533093 -1.1010376284171415 -1.4911900245243148 -0.08104047016344151 -0.6740039743395745 0.2406994358790014 0.24279016287267302 0.47532519184551314 -0.6800138757862944 0.06163701618168399 -0.124718355042163 -0.49369689125281313 0.7753792663604787 -0.08376864373582976 -0.8493849517346421 -0.9497805310059998 0.1315479598793659 -0.5064007125217806 -0.45885175335241385 -0.5681202740049878 -0.8163065910566047 0.0811301712740698 -1.5903271939433985 -0.6322672953978795 -0.1434952670826038 -0.36274620628607185 -0.32985088398816786 -0.3121419188154297 0.1194091370564021 -0.5505325195391644 1.3165313240775531 -0.6834534084101584 -0.24414016589849336 0.012570046732666929 0.6162671476270052 -0.5072959510217445 -0.1654640338559048 0.6453833806903839 1.4897709479315537 0.19040630282211368 -0.968234769588417 -1.421548934089087 -0.31707353977085795 1.709019816493465 -0.4560151601710978
1.1793269312131793 -0.8284803873263834 0.20736744909315113 0.6679846833900333 0.13317100565031548 0.28710780828843696 1.258148231358375 -0.10952866847578646 2.1765652847932526 1.8244805572046712 -0.5420185883846813 0.7441424976413684 -0.6771509800204357 1.0044369155763915 -0.4561853691859452 0.6803612639633685 -0.24467575161735322 -0.6941070425728164 1.2213837223731168 -1.1273682887194765 0.35131964685977224 0.37398596630182357 -0.05490346125889278 1.383093208111757 0.20662308160964327 1.1177222100294195 -1.0189741951393787 -0.2786642399818381 -0.30534078814631704 -1.266900394425635 -0.3117618588406914 -1.8017319896603596 -0.05044183111261141 1.1605731701209956 -0.05285184092810302 -0.9491434055803718 -0.8041734056270289 1.5900692141855852 -0.39440126523261004 -0.744384559103188 -0.7030522465899102 -0.041352584635326706 1.947287031223661 -0.6812580944780859 1.8793198463707435 0.8071956757158174 0.06806854546296665 -0.739437233228174 -0.6385561872243786 1.0500950522124854 0.5838308939599234 -0.025888797487927606 0.18635188942659925 -0.8223892597064985
0.649848304879203 0.06048557406703142 0.047630107735525506 -0.7201001859931511 0.6121084093185774 -0.572582090106547 -0.00662494540441777 -0.9225737908529437 -0.5386702787174049 -1.5357984343321924 1.619091541916255 -0.9744445252472536 -0.23657040372755395 0.7867198184879834 0.901466403137098 -1.119268528740569 0.010692787376101964 1.0481007991810212 -0.018309242085619404 0.7045940288058294 -0.8206737030989567 0.08233627221025425 -0.015189730531487589 0.9632202078298122 -0.07396059447080444 0.22099421959497406 0.9964203342671868 0.265249805426202 -0.9218222135841192 0.6365420107268841 -0.35915122321063647 -1.482043160216194 0.08872951899324932 -0.25974059723815296 -0.4601125051257015 1.050542519002922 1.133411913262738 -0.749047213062782 0.8670912801444787 -0.24191292252225544 -0.6807291965893889 -0.06497155898759505 0.6127715625280601 1.0458515833459692 0.5029951100006977 0.09867337905229223 -0.49187807734490135 0.8125388326884647 -0.654148750311498 0.13901675219780868 1.0917922154533026 -1.0782955986901803 0.6271240161972753 0.8622456670510913
-0.23441131430919776 -0.08527543139897881 -0.9629402713483604 1.0187342853237293 0.4198131089438808 1.2006105750584768 -0.6443775199630598 0.6188267231943211 0.027509292213540315 0.4792442399372409 -0.3785090144243425 -0.43476658343327895 -0.8463817193058153 1.1794870389896874 -0.6589844492516266 -0.2079303046426318 0.5333870284709119 -0.6850296135393997 -0.02657378086992973 -1.4993622170839287 -2.5067423275041025 1.032702037005698 -1.1281615643151586 1.0116220555541968 -1.0960054350005752 0.04809382662511552 -0.6505032991789288 0.8956978551558223 -0.01879939081164045 0.744677164523434 0.6270659115829713 -0.5354081992950479 1.0908314667048478 0.7962291046132339 -0.041513090736124414 0.9953603969495006 -0.14317690747155082 -0.6685557928342432 -0.70524558512319 -1.2130940512219368 0.015641930341669052 0.8493460925160934 -0.01899780385256955 -1.2135882399410542 -0.285082102688822 0.8778306413463106 0.16326380181100764 0.3121234385472944 0.01662537358688998 -0.7341067615041262 0.6830293157738122 -0.6050784841207963 -2.2442152827350434 -0.31569320223570524
0.5553603869139627 -0.058185221479310156 -0.17546290757417604 -0.019970027117774847 0.09839489065693996 -0.5443445655496273 -1.5449254753308108 0.055296471779723966 0.6750825857828104 -0.3411318216292213 2.4051166038776195 -0.41794806116604266 0.9430811468412766 0.8822785555580883 -0.796134710528554 -0.37420299169929233 -2.476209290572777 -0.5345620452745521 0.7223817661874234 0.43017411423861673 -0.49221234649330775 -0.3927301020781001 0.165239303713955 -1.4811226050143942 -1.276952285255796 -0.14113863254515413 0.3571398290254867 0.7156145313126989 -0.44420179997305764 -0.9798478399199768 0.33679080785786036 0.7476252124495644 1.0212350025782742 -0.6101320296506999 0.43033603644492546 0.12733840385561251 -0.8751933717572835 0.4569642028084955 0.5153699083232622 0.7159262173914114 -0.9167435587312703 -1.024655231455531 -1.1246322491345422 0.027366485205072844 0.32328760576611354 -1.1157608320645036 1.0117757253961037 0.32688350710481107 -0.12675881828034302 -1.3882877049618556 -0.5882404109259609 -0.11451571443969705 0.18802316708717198 -0.3794081841021492
-1.2250172414564349 -0.7336558501442729 1.6573909146978913 0.654782237574348 -0.6056807040354981 0.4096999533220843 0.023210731251706196 0.7570327587259061 0.5919376425702362 -0.007609880676290093 1.4256406167570952 -0.10081503660272079 -0.5730972232587901 0.15569736395622902 -0.03853167181419942 1.0716263019678536 0.7237306136580242 -0.06436749528509189 0.807574609261175 0.44355361837524476 -0.2351229727285455 -1.3113365122475709 1.4175760425732828 -0.7265876615870411 0.9745760850703586 0.062489805956444655 0.5096135230838281 0.05377481795738859 0.03671895060395164 -1.2818480668683838 0.10720830152915456 0.43528686921231563 -0.5904397091367408 -0.27156158896992183 1.0779558366831736 -0.11436150744590334 0.34656560708655565 -0.3932041642234996 -1.2457513129955142 0.02968932746471792 0.8626912047398001 0.07190883365807804 1.028207019681934 -1.1207182532767004 -0.48012728459786425 0.5338953229352148 -1.5482129020642352 0.12606714753639997 0.672542433000612 -0.14074168399059805 0.7802505512276029 -0.37846306383526657 -0.36751580177554205 0.9451674554772608
-0.7662451957581662 1.0351927453711978 0.30054141080533214 -0.48814092952563964 -1.716610239074528 0.1576884867362381 -0.253547602081299 -0.9651562480007432 -0.26349066030182566 -0.3709259922441716 -0.2502645212041973 -0.6280762153882801 -0.9264613217704507 -0.2561608138974904 0.7215694512353862 1.1156666147623646 -1.4448699644927105 -1.477010343861282 -0.900270494379569 1.4472938300468274 -0.21774894672311318 -0.3221012739654164 0.8209503017731973 -0.28345770195228115 0.16051602756150063 -1.0199674158013252 0.29806531502246886 -1.2250351012284455 1.406347407751335 0.21095588070434607 -0.12095014977267282 0.8058090596095788 0.6970182700754766 -0.6899536247808514 0.05478047613999487 -0.4029959970406971 0.7705584910567183 1.8489737069785723 0.7935820954538345 0.33686507387062364 -0.45728104656223234 -0.35476777866277753 1.012691944204161 -0.024957012981290994 0.6339849849305131 -0.9153352741707698 -1.286498319578739 -1.263862477117038 -1.8952056921421838 -0.6059256131247364 0.01700117513622229 -0.0363647659659696 -1.3560635576848532 0.1245835866938369
-1.043133957185837 0.714418497732066 0.5400844316475911 1.0642119747455452 -0.6894126801576425 -0.12372666118101983 -0.8209346004271065 -1.0356213691774618 -0.3715576884768931 1.0761301985071499 0.19769147710070434 1.1135224669377042 0.201260411376585 -1.2295000704700714 -0.3756881588001839 0.610017166177677 -0.07491926139580812 -0.9721747321885656 0.283975280044204 -1.322999011163871 -1.4113010573351212 -1.0484436077063455 1.0922094253226398 0.0020226804607041404 -0.9948685621913949 -0.08708614842368312 -1.0402022991596356 0.14631589867458772 -0.6250066793845457 0.09232291288862904 1.206383578618805 -0.18433662500244236 -0.06188902428919746 -0.7438234562608277 0.5985891417463395 -0.6865069384997162 0.03321979358370186 -0.3178407146292125 1.0227921636139656 -0.36071341445380684 -0.9439660097475867 -0.06076504012961276 1.2513888124925372 0.612880181464099 -0.3736540501367242 1.4336598370326878 0.24456701842278988 -0.14597482885072477 -1.619389344055655 0.4204851184030225 1.0868316295309393 -0.3488087625748764 0.48967219479281665 0.8207707751942763
1.1276103359892609 -0.008816604082666102 0.10296645251113157 -0.6487953185761552 -0.1544711250387304 -0.5294400338655187 -0.44015157818178763 -1.1191080318679396 -1.9357698088106101 0.13532121154378213 0.9476691308985046 -0.4092509287161743 -0.002928762215850589 0.38334687484265006 -0.3123120503512022 0.3777965702785415 0.8313874303296817 0.008999394424386686 -0.5408813653280504 -0.2602826605159768 -0.9134625858046186 1.321228057272267 -0.7992542814544743 1.1145369571890942 -1.03417697241669 -0.23656642242837939 0.9645335144841582 -0.17797010100578714 1.2749306961859603 0.7448568938700442 -1.0431322533883731 -1.430074446050273 -0.08127850602303532 -0.6522602470135352 0.22860577347074396 -0.7091322616886425 -0.18828589569466492 0.203727755326717 0.5414163188838325 1.3831997414659083 1.5573169223454832 0.9017875912850234 0.34242348635786146 0.4317136426563441 -0.40541995834515754 0.6495474865922499 0.8005032745700251 0.7881319038574524 -0.3468160414720086 -0.8322445736248658 -2.3546270125886894 0.05308497030399867 -0.36564429179762364 1.2936796402465203
0.18170447338685208 0.8718935387936049 0.12374923911321373 0.9214215304990945 -0.5049054953904907 0.08189130441602865 -0.9001183676239208 0.15467175730010002 0.29068790891887847 0.3166611225345533 0.9352064235051771 -0.2812548509394223 0.6050848146941872 -0.06965548998660637 -0.28866181099063354 -0.26130672452167875 0.3224193636219026 1.0869811634491888 -1.074397518895463 0.0973186011688606 0.3154433951596259 0.12480237350488527 0.9232375166996274 0.005390222917092846 0.18366986631999888 0.5206725202937896 -0.5980812703018782 -0.44728618943282855 0.34183547469519737 0.24141528309231802 -1.4414030418253074 -0.5087678226923829 0.5349629197416663 0.6316462788398174 -0.6029062284522226 0.13284245298489344 0.030403611905170103 0.8413005548769925 0.2898080087144525 -0.607003769705891 0.891457175539113 0.5751632489882468 -0.3385231644959741 -0.5873911643068875 -0.13359729140264515 -0.1101535720627434 -0.620878775507035 1.6775256071949094 0.30689078336154896 -0.9908712936117883 -0.9596648446276392 -0.23721749840009498 0.9801612148853955 0.75204986014461
1.0592800431067964 -0.6238114785609106 0.4957674790813154 0.47618660606417457 1.6537499647187714 -0.4428661300202352 -0.6665236366640641 -1.2762639147800667 0.16970092050344016 0.3592108414187271 -0.15695678569501886 0.4391774210846811 -0.05737210119847341 -0.8279945183197244 0.8569044665776651 0.7548486447782414 0.12757298752750157 0.7369523302340248 0.23051261884213148 0.07657688359730097 -0.4624416359288763 -0.34377115971349637 0.19707047299314318 -1.942311023891589 -0.7380500925138509 0.32992732504042543 0.30031396386012243 0.1965019484327467 0.17569956472875303 -1.4042802551570077 -0.042678564665058205 -0.9617664388235913 -0.9433815413551698 -1.5203684566747073 1.0266272329113109 0.5556261050411018 0.23299046013793467 0.6306305398920624 1.686711405527296 -0.595835695859775 -0.7013659723046286 -2.011750431417435 0.03085470018994846 -1.1192728871511917 -0.1170966036351847 -0.2443129065806871 0.4041100588023954 -1.2307690241360476 1.6159318783105885 -0.5134966866926913 -0.6432136685259038 -1.0495372456993668 -0.42945331198714026 0.04168804072740351
1.5586131775745486 -0.7271943247493947 0.12513495770776273 -0.25768314447503865 0.17114421202190183 -0.16725754314193925 0.597930968008721 -0.7006181185676199 0.16755174925990957 -0.9994605951459941 0.8505737059383147 -0.4690212636471952 0.23265857915674304 1.1178507023259396 -0.5275031061054337 -0.407307092558448 0.7311419454501439 -1.422961242940631 -1.9740408712984154 1.9684518537372049 0.2552154327183926 0.4631844756147205 -0.006886835278664738 -0.2980808596637473 -0.7299226332688384 -0.6777759494751032 0.027466964423661533 -1.22069084983554 -0.8061917848711829 -0.7166714706302408 -0.2898398719745857 -0.8629224150184349 0.2719687863476794 -1.3756584092124453 0.5096118623165655 -0.17309607385171272 -0.7009703423272281 -1.4328904181165762 0.18977014029771933 1.2618349931489556 0.10760230755368039 -0.733185548321029 0.9892442255129156 0.20650499887575374 0.19656047747898553 0.8909968223078614 0.5567479643047842 0.43029770663601474 1.640114050561972 1.0750091042160228 -0.007465648018972093 -0.5668808934302869 -0.6337411789575758 -0.9986106359927094
0.9181504120291345 1.2322295159262842 -0.9202112684341852 -1.1611776734738015 -1.440374640404592 0.7940885435735012 -0.014188671617511639 -0.19073340188454624 -0.6628533042259688 0.3282817189118034 -1.318399473382117 -0.6355312890185857 1.0277244654582471 0.7216679404933868 -1.126248798098409 -0.9557648709401723 -0.3264842444182468 0.4313630768076109 -1.014897765729102 0.33850933905514385 -1.3432877097708071 0.03839012252818885 0.4126468436929642 -0.41000661339045846 -0.784713425469046 -0.4847186570102935 1.2499229494573474 0.557684521498079 0.9231525253496453 -0.5909647817431318 -0.39682561391248644 -0.6764605739653468 -1.5104701901188895 -1.1875571224710433 -0.7509113415079872 0.07546014890000885 -0.3518732586088725 -0.8071201072881382 -0.29553326101353383 0.6394952518638066 -0.053269351641877793 0.10893178933010444 0.35952670767531736 -0.24148084139974113 -0.9225309066930905 -1.1250518772574452 1.930486756379759 0.3899821098228304 -0.4360435851401947 -0.5223560513452656 -0.9735544484674462 -0.11910949171421659 -0.582135913252825 -0.7104869201370825
1.6433446112835128 -0.6468766708101259 0.2072600864041061 0.3461378309783303 -0.9606926970758266 -0.16063463777310844 -1.2000857381162762 0.8865242939879112 -0.7445091737412304 0.7605392559519164 -0.8675771960751526 -0.2683787577000482 -0.5324919049552334 -0.10820724094951761 0.13769518492213711 -0.44691983733068413 0.3580613339749816 0.580254598937949 1.0098397539258095 -0.1389379302388578 0.6663036590752522 1.8957692934617898 -0.10341590223120684 -0.7889859920544682 -0.7633130362702905 0.2952741673329174 0.32431858334736 -0.23938327875590498 0.29705089473722257 0.6307735115330798 0.5980100708948584 0.13508067871602336 0.7771344432280728 0.7406022331917652 0.3555425069782804 0.5104019018743298 -0.2431726777966829 0.856224166175183 -0.29383121893770736 -0.24039332213203674 0.8897013506880282 0.8893000432282874 0.9356990019534497 -0.2963193819451968 0.2234579828658596 0.45618847660458683 -0.13256134011128495 0.8801605208346055 -0.5811119891965932 -1.6273134320990719 0.4795359211804112 1.4422426777037385 0.9427706545121197 0.8385091133718601
