[[ 1.30516874]
 [-0.00452901]
 [ 0.49303539]
 [-0.92931426]
 [ 0.59877444]
 [ 0.63620475]
 [-0.57887085]
 [ 0.10018554]
 [-0.5617436 ]
 [-0.10119448]
 [ 0.70557505]
 [-0.57340894]
 [-1.02773102]
 [ 0.4915702 ]
 [-0.75140747]
 [-0.45340622]
 [-1.15294647]
 [-0.24983388]
 [ 0.53739689]
 [ 0.58556687]
 [-0.61020443]
 [ 0.28695481]
 [ 0.26044211]
 [-1.24036866]
 [-0.1172709 ]
 [ 0.98757619]
 [ 0.68551854]
 [ 0.54449596]
 [ 0.8040795 ]
 [ 0.24506454]
 [-0.29511953]
 [-1.42594575]
 [-0.20358836]
 [-0.11069268]
 [ 1.16873184]
 [-0.43167503]
 [-1.34857664]
 [-1.04692297]
 [-0.066848  ]
 [ 1.26081608]
 [ 1.40182522]
 [ 0.58712116]
 [-0.16330292]
 [ 0.97381361]
 [-0.54525627]
 [-0.91251322]
 [ 0.45339147]
 [ 0.81160747]
 [ 0.02083169]
 [-0.239251  ]
 [ 0.25559907]
 [ 0.63920041]
 [ 0.32448216]
 [ 1.47075149]]
[[-2.28766456e-01]
 [ 1.56525857e+00]
 [ 1.59749922e-03]
 [ 7.88742568e-01]
 [ 6.27865582e-01]
 [-6.59340806e-01]
 [ 5.07191356e-01]
 [ 1.41530324e+00]
 [-7.96770613e-01]
 [ 1.03546012e+00]
 [ 1.50440387e+00]
 [-9.65938572e-01]
 [ 5.60485489e-01]
 [-4.29163800e-01]
 [-4.36388904e-01]
 [ 1.03058884e+00]
 [-5.34356220e-01]
 [-1.09767238e+00]
 [-7.69768869e-01]
 [-1.35994285e+00]
 [ 1.04680955e+00]
 [ 2.74311066e-01]
 [-8.05483008e-01]
 [-1.25209387e-01]
 [-1.24332450e-01]
 [-1.94065168e-01]
 [ 9.76270116e-01]
 [ 7.08464891e-01]
 [ 1.14695774e+00]
 [ 1.44062818e+00]
 [-1.64356320e+00]
 [-4.70597959e-01]
 [ 3.25368355e-01]
 [ 3.00373638e-01]
 [-1.22243583e+00]
 [ 2.05840310e-01]
 [-1.65074283e-01]
 [-1.59834747e+00]
 [-3.07637758e-01]
 [-1.24989836e+00]
 [-1.81860488e-01]
 [ 6.98484987e-01]
 [-8.03309039e-01]
 [ 4.14715994e-01]
 [-7.60373739e-01]
 [-3.71762180e-01]
 [-1.87388852e-01]
 [ 4.32152692e-01]
 [ 5.66819519e-01]
 [ 1.58098279e-01]
 [-1.19340692e+00]
 [-2.46145283e-01]
 [ 2.97317425e-01]
 [-4.15997612e-01]]
[[-0.60136673]
 [-0.2666385 ]
 [-0.6421915 ]
 [ 0.81115493]
 [ 0.08077594]
 [ 1.35312218]
 [-0.02062982]
 [-0.61550349]
 [-0.61444371]
 [ 1.35613257]
 [ 0.00252213]
 [ 0.95449774]
 [-1.15249701]
 [ 0.60833995]
 [-0.31844663]
 [ 0.29889382]
 [ 0.73484798]
 [ 0.01682283]
 [-0.75909576]
 [-0.37711524]
 [-0.43363732]
 [-0.24015518]
 [ 1.23239339]
 [ 0.03826801]
 [ 1.02801828]
 [ 0.78008222]
 [ 0.13131173]]
