-0.048194874226436424 0.7909597038211535 0.9137474683560725 -1.2605692579848204 -0.19254835043244906 1.431387738074918 0.1090791385243347 0.7597916483915779 0.7172353929152686 1.0658312143803341 -0.2111176063962829 1.4148906750991388 -1.6666605166874098 -0.032923892080889416 -1.535043321556664 1.2690297373598762 0.19918947499486822 -0.05560378546661987 -0.005280479253021941 0.9100570079470175 -0.8091520449544639 -0.5429174294658975 -1.0773806564876296 -0.4819210145423715 -0.19354688814122917 -0.45268967699149953 0.15542992011534057 -1.2144912784750346 -0.3610326281399326 -0.9416174012432679 0.2563168418026647 -0.1740670808245296 -0.6525975506567221 0.535723428021361 -0.4904627056951462 0.04237387296823969 -0.33365244869280347 1.0153857024797792 -0.22419465478113926 0.9817086208667912 1.999048368952101 0.21480534074734098 0.917823413334443 0.8964617040229061 -0.2927265851557475 0.0632810652178778 -0.9614522840225708 -1.195655351332051 1.1807530111520126 0.35880940830176783 0.24250837875880282 -0.34210013230633934 -1.2115790300862472 -0.37517151142002314
-0.0006761241594094303 -0.6510905949179068 -0.5562296066582567 0.1849698363683358 -0.0592452866367596 0.8736249762445758 -0.8390903647434029 0.2791890171880612 0.09592494746898794 -0.6149496008941178 0.46671002791183075 -1.4431000716433706 -0.00925776692871666 0.36630485822013803 0.9644946577496553 0.39621020498101794 0.834903618250318 -0.0008894234017149394 0.46676442912717137 0.10156113666063593 -0.1682222287251084 0.3991004771699771 -0.5960051197909833 1.3429347694270115 0.136691680340144 1.0179862654040792 1.0553714164159866 -1.3231600795979952 -0.3435121713215322 -1.0184408890904102 0.9192885115539671 0.8060761169449336 0.10942128791535255 -0.1360964339666817 0.20142709206172488 -0.3079277928725713 -0.865239240015684 -0.3962668882037736 0.5726111105123182 1.2754676432542236 -0.24266337885539135 0.04664463681889097 -0.7933393249137041 0.2900964811692626 0.1775478993189583 0.1484016608739483 -0.5340078586235634 0.600500642454793 1.3298348671036195 -0.031718447286738005 0.8469635958343661 0.22839574318020073 -1.3390313523235524 -0.9196225714522331
0.15110474418659914 0.18512700224900902 1.3412878806245299 -0.22933295324809327 -0.1470284061881163 -0.7223993266251529 0.9242287507340916 0.8300092614609336 -0.016895139630584255 -0.39771045266343624 1.0717413893776349 0.15124145557244523 0.45155574140588056 -1.5658625138072995 -0.8625649451822324 -0.46287444876997524 -0.3727104878289355 -0.13235521689020063 -0.07033677810244998 0.10395996656372869 0.8758121526529395 -0.6072836333050518 0.2474908712161561 -0.6484378295200923 -0.3282329883570953 1.1800403778946529 -1.5393810198601037 -0.031052811852720408 -0.048075152229978546 -0.13316585732069514 0.15922361573970834 0.7947852228735817 1.2932684285163036 0.3954704897772336 -0.19318784490384455 -0.662741658597999 -1.713433929763774 -0.13926249507987704 0.4857353330141279 0.2900083231423857 -0.5971462230143655 0.22929965399423247 1.0991983694598126 -0.7588693385652222 -0.4664887467418547 0.6666144522478982 -0.9987639072293681 -1.903602993734978 0.3746040671007384 0.1177394170552108 0.22636155280481968 -0.5516033932960231 -0.28199229193442843 0.48412043705883856
0.5417982872214037 0.06434412071635826 -0.7745778456590239 -0.08923587579221037 -0.09037699621178752 -0.06140923323162428 -0.5956262528202405 0.14844356123304464 -0.13489758669770896 0.24065255853885337 0.4442059015415392 -1.62794235466231 -0.38438052561103114 1.1299853562713986 1.6302774575007049 -0.05873467379290681 0.03822311293897007 -0.11306822133579891 -0.7711100452273045 -1.6436601157024966 0.7173530429719011 -0.19200523943110182 1.1801984681220012 0.08206636581723464 0.10715027350010253 -0.36280910067121 0.25723000301305193 -0.19862374614230732 -0.6476571201111241 -1.084382305259766 -0.7965559939384247 0.13193781475454175 0.5853271883680009 0.6605848780916761 -0.014452332324205175 -1.2837049332348902 -1.06736038053066 -0.6345923457888307 0.03183736357655498 0.8106931456307476 -0.6970619916028535 0.836405711245682 -1.3403844177167392 -0.25346491758813683 0.9729194849697854 0.5641283562876385 -0.2086925283630489 -0.5069722774536868 -0.8867719381159903 0.3260579396795978 0.7127862209236102 -0.7014880672368251 -0.19066262313541954 -0.4256017781036288
0.8410059732605304 -0.9362267292427748 -1.3880264085994223 1.0226588022261878 -0.0721344479753871 -1.0123523923590705 0.07592822390719689 0.5028845404544731 -1.0771830807534708 0.5792038207663232 -0.4430892604316913 1.2789176589378113 -0.09972537957324312 0.24271615285293668 1.7212159727646559 0.19659609602772743 0.32693994025372297 -0.1749194991546663 0.859346133434558 -0.8128574449606627 0.8596289714721772 0.4081346088098125 -0.08222923600838428 -0.0027872082111370378 0.3970195264578021 -1.3018364588741895 -0.4973729932325918 0.7376521061243553 1.6367358025263965 0.5986171594520118 -0.8607346561852846 -0.20791495941272975 -0.23754526758775085 -1.35314034340727 -0.2730426175614988 -0.6909685613568605 -0.5426352626729135 0.4343174128978501 -0.19168518347102326 -0.00918230542064169 0.00378280216895166 -1.4934425185966003 0.45380736950822076 -1.1467592860351854 -0.43245848254039726 -0.3428751339365003 -0.14538772767210761 -1.458434128426668 -0.3558605111879328 0.10591825912246866 -0.3148265216036975 0.39164072466805444 -0.6532213093217276 0.3856918487857264
1.1131969765739953 1.0742075642102202 -0.18599895140945588 0.7466750266252172 0.04124650827143811 -0.9918659207934277 0.5546169117702215 -0.31121376167688425 -0.746544704324697 -0.10082926427650046 -0.7481950410670986 -0.38279874680470505 1.2497003559264064 0.6689487968557251 -0.8222866616056426 0.3554584133125234 -0.23622355543252405 1.0519725010057077 -0.7094085159043048 0.4674011704647279 0.09322681045516307 -0.10642235728464483 -0.16116045591589478 -0.6797153359355059 -0.6383678059021263 -1.3651402234181105 0.8649292608045872 -0.7249425434551919 0.5964051173119657 -1.3694712514543546 -0.9496682521638984 -0.639938855429941 0.6182400928143816 0.2650415628400655 -0.2445929059586905 0.6781904070218661 -1.2895644947032199 0.2621800369007585 0.22757878517361235 -0.31758129932261153 -0.26922269826385964 1.029739850924645 -0.42703786805215094 1.157070693413191 -0.011000784110587247 1.0093154299246625 0.9846055908850467 -1.5191367161129121 0.35013312708424654 0.4659607181868802 -1.1003925852281313 0.29173517762407464 0.6614345451674031 -0.11796193443284181
-0.600459880309928 1.2589320952884955 -0.40904564171724717 -0.5737618033066202 0.3793677132527726 0.229061680079927 -0.3462834692410847 -1.049505037471432 -0.750015935445244 0.6391406930532827 -0.32736923475478436 0.9834837424787799 0.8494399091930459 -1.2222773544348629 -0.3710949651155353 0.9691656231426156 0.3321195624877605 -0.5089065907942593 0.05036240393052965 -1.2694106994422611 0.819726930859197 -0.2491902280416794 -0.8715681664431538 0.9443977191166415 0.37810899122931496 -0.17907348746878987 -0.00788842671192419 0.9544427622064826 -0.6959973598590302 0.04942274925044149 0.09791938484160234 0.8334038230086281 0.1499401464208749 -0.14187854056976607 -1.2079920788851728 0.9235747056581363 1.2725421561081185 -1.1524968410928678 -0.17229008258009898 0.23409624041401067 -0.7122887322926842 -0.4976488792691081 0.08213183013809644 -0.9077688930670684 -1.0285029388404343 0.3528943746051647 0.28471596268306476 -0.6452960321770098 -0.6072847114717002 -1.0171639395110128 0.6736307134365944 0.6953379245980105 -0.053637817183004144 0.9814499564799493
-1.0872681000756599 -0.1114316751304747 -0.7758557470101493 0.11674809023280441 -0.8731321869916938 -1.1949883990140924 -0.8733070726876913 0.8519341048665179 -0.8355720248527714 -0.6245001943776505 -0.011651028035687072 -0.3123277350316129 0.6344184676464518 -1.0548352579028195 0.06887761591320107 -0.5624449101279179 -1.3167165896740443 -0.7768951120968732 -0.980831924200577 -1.5705750024901375 -0.4322837928157083 -0.5672761608500757 -0.8145944647072103 -0.18625377541550936 -0.930624696600806 0.45043033996431553 0.5380958343865152 0.44134229669334213 -0.5255578493811675 0.64861393870952 -0.27354040200775737 -0.6990307304846151 -0.3130006263953262 -0.8433351832267582 0.23933328403500553 -0.33401369014208787 0.12095380556562968 0.3421764440127756 0.07574091893974838 -0.7234225946063768 -0.1884088858694592 0.29691906520620137 -0.33819601572487024 -1.3770846692813965 0.4986528312893367 0.09565743484390488 -0.6241075389414246 0.0906982822012295 0.2923312057884021 -0.6260188513284238 0.6665462268539697 0.8985335970992759 0.0339705268978141 0.3675923451460343
0.5979448049324207 0.47580389561915964 0.568607504294807 -0.42432373716644234 -0.4813006051693016 -0.1969000581834704 0.1547930499080915 0.9798977168548528 0.19601060214898702 0.7275753048114324 -0.3516435350311497 0.9440420762161276 0.31201872103642053 -0.6572967198002271 -0.808891040470052 -1.2941996187385814 -0.6593559974366132 -0.29940945108052386 0.7697848998651946 -0.3979976978409007 -0.3542181175480909 0.7486537459070184 0.3887400320984243 -1.0446878846894865 0.17409083387457375 -0.3453910478841092 -0.05827590351870632 -0.14759622252668347 1.4795183463391335 0.34229939012698457 -1.0790480294252367 0.15809529518869708 -0.4278839106795875 0.11065022483841552 -0.7818863009201271 -0.8170710797372116 -0.1801419849174103 -0.5573571933208188 -0.07824179736114822 -0.4940365120387884 0.19616222735983568 1.2971216604330005 0.4498315115635335 0.03965723850872732 1.2105069748127575 -1.3166964804771095 -1.0459538433415978 0.7761495405808438 -0.063128014278725 -0.813313558712243 0.7826736380589403 0.7572079858516325 0.4975633015893686 0.5410102569127896
0.2101094922686143 0.0880397806304073 -0.8019273172943113 -0.21044693778000229 0.3381252014705167 -0.8495253335419326 -0.6880135128902826 -0.560541818077215 0.7312921347717753 0.8886315503483135 0.3226888228165083 -0.17981226879613815 1.1397975288435511 0.4766533642597059 -0.04657281709417155 -1.2622237380490664 -0.5040254624486005 -1.4420519486953955 0.3511333983145965 -0.7887663731022916 0.29726378420731464 -0.8130816898561977 -0.7256005373443792 -1.2576701312281224 -1.0489558315123984 0.9516337284575542 -0.31340522395199094 0.7576307034748594 -0.7175338839097354 0.9839369278843211 0.6503446320951201 -1.3295051536563578 0.5324581292355302 -0.20426004910242213 -0.8930040582363437 0.7532855644314934 0.1347722200696042 0.4554365900269939 0.9742957504034865 0.3957543673528845 -0.9499213210458183 -1.0618794663417983 0.3296698419768876 0.4492106505081183 -0.28269011246209635 0.656142078500378 0.41983811539858595 -0.6831002346714136 0.55958239577606 1.1217226147617851 0.41076089085232986 -0.88887436258113 0.09901687145865928 0.9378556055645888
0.2899661865741348 -0.3494349714534425 0.1591060026312447 0.44883941982514236 -1.1522260694600779 1.2547914439372092 -0.1371872255249128 0.36642193930714645 -0.07230147836803608 -0.938392715075444 -1.3039407852608278 -0.4444350166790874 -0.7849572565575531 -0.027253772306048474 0.19795968769766198 0.14540881382692772 0.30995075024277735 -0.8898405918453172 0.9414144481723501 -0.380292759366963 -0.5576095706252291 -0.6550630604927306 0.916715029661264 1.2100608321746407 -0.7226116130204157 0.2795340684601142 -0.3112448933115036 -0.35698634374028826 -0.6114737474643442 -1.1734427787861366 0.2532845875444153 0.472652987510638 0.39255592425082336 0.8100543356305752 -0.9535308858047663 -0.9195933771439976 -0.912722366640816 1.0324053267399482 0.8353419315702058 0.7976344574556367 -0.3933538787011792 1.382516987759305 -0.12404157575331232 -0.896010473811745 -1.0305075691126981 -0.36018962422166595 0.6218070775860141 0.035244168547203525 0.9069900987352513 0.16386094457531503 -0.6956748106551666 -1.3532992074454282 -1.2313496177443213 0.5677601928231002
0.4957801487062045 1.3431781738078998 0.8823001516579072 0.40566107375827987 0.08341340869793357 0.5552949006285346 0.03245088274914637 -0.4904447225639439 0.03432240789681329 0.39962384399122935 -0.7807207667922516 -0.5257046754720167 0.43590812710901344 -0.22976788060517206 -0.5606738140737444 0.6087848138390152 -0.42271117409493975 0.9741068189588784 -1.1308761888105887 0.13347367643224523 -0.427367985746925 0.2868131856021738 -0.8382746172059098 0.386363422004034 0.8311252103921638 -0.6583722323927421 -0.1329184113860319 -0.736736148214989 -0.9999033094333792 -0.35811623649319535 0.1881750137875045 -0.5720676766824082 -1.3112443951753654 -0.10814045634839037 -0.0733780976061405 -0.2688221495153366 -0.9142033964792651 -0.9342745683514625 -0.4358891678148987 0.9115525921074925 -0.017488509788787854 -0.2243548322941682 -0.98779056717874 -0.16393978522347596 0.9136562863986184 1.2537996929481627 -0.6394348435408097 0.31225630522261166 0.013629474179190637 0.00979964340513001 -0.3403297439474715 0.37184970925731226 -0.6747451477704931 -0.6212573469041317
-0.059348407033984196 0.28348363690315775 -0.26705283748260067 0.4825222831902442 -0.10649163340554374 -0.7434187143580826 0.7991930879544873 0.8720852721832824 -0.162780005279357 0.5655625370280877 -0.6587914078322735 0.8805564985759939 -0.9554380194059424 -0.47462924194205963 0.3430369308783373 -0.5753724909163744 -1.0825726957201627 -1.1698909426246318 -0.39574411614564886 0.6395567065467223 -0.4424512713494248 -1.0350817521590283 0.3368046936374788 0.594702676481867 -1.2967231073158274 0.255435307985966 0.7337164891548962 0.38238445629151496 0.02907049321290972 -1.0188907531407299 -0.08978788390552683 0.004815716775673551 0.3884883156730549 0.4940333114379464 -1.0813510451995847 -0.7458039843234003 0.5143606143425521 -0.31516583717537916 0.6627146089208662 -0.3861405309638736 0.2606330740091152 -0.3669870887784556 1.3215332210358808 0.6844645564299685 0.6259600498622137 -0.7124378610174513 1.0935133804709705 0.6166802570010201 -1.1081571097843055 0.7516434795303505 0.5956114627426614 -0.06449152624934368 -0.17817185233623972 -0.614995113625614
-0.6012128648721813 0.2496341204982503 0.6748974341645463 -0.17770696506296696 0.40615193333601546 1.003686290932284 0.6488249982833854 -0.5189715874034011 -0.042209800693799926 -0.47237976593404607 -1.1950092745890468 -0.9743950528543304 -0.3086631567915832 -0.549926990298355 0.021939629509572678 0.3651544793416592 0.6589218339829852 -0.26218357267689035 -0.13083894737631885 -0.6464567735338123 -0.3645165762231868 0.4579971831191229 -0.03512474500426438 -0.122163282594757 -0.4360320213403438 0.2284011096618921 -0.23605052612660765 -0.6193608790746612 -0.6548650593984775 -1.0459759516504452 -0.26082395645810075 -1.5251672384744883 -0.6690340212465206 0.13154984504357237 0.6795948406910424 -0.6190906716761824 -0.6417043805897691 0.14388777080615078 -0.4444556813608318 1.1177283793747255 -0.21941373714215096 -0.3412727329592996 -0.22688260579975617 0.6109914952362803 -0.0074957140773599384 -0.4416729824157606 -0.03504706753614312 1.0074664603786503 0.6889967282709473 -0.12691567736424758 -1.0331713663859696 -0.19471644270880573 1.674644984300723 -0.34140212437035083
0.8966989288911617 -0.3961369898393476 0.2865801742956854 0.7600619931705102 -0.2128069721318135 0.18943223086480132 0.7644713593135973 0.15218649847356536 1.5745871065717496 1.5311487459044675 -0.4432616899936156 0.8435657815965606 -0.7557654600435739 0.9679944441529451 -0.5594832590913439 0.7203188628385063 0.029655509233516786 -0.6748422159349641 1.063892288983592 -1.061072630993961 0.5559619833336418 0.554436138915315 -0.16648714262758763 1.0964520694124211 -0.0035968364905679118 1.4693704084167531 -0.7564565015398146 -0.034124064870613924 -0.3612531283836114 -0.49033572530794856 -0.7683519587499961 -1.4815631700360432 0.20967934062878751 0.6434735395480712 -0.43214668206217993 -0.8582207734457542 -0.7211760754636674 1.08207404502154 -0.5060023054321023 -0.7562564907866001 -0.18409147768961032 0.13265310547631437 1.7207125747278857 -0.7605698068418746 1.376702551908376 0.405733433829636 0.09083511929233834 -0.7577811709478498 -0.17720815484046448 1.07555522834972 0.4595916043949246 -0.49222991672063166 0.9000668760788346 -0.6938018135840078
0.6386332523207197 -0.1167088377385519 -0.20537609738657975 -1.3734470648921444 0.624039739558427 -0.23526832891436167 0.3830125110748006 -1.0325874330018123 -0.9863275289466926 -0.7023708141664489 1.0759074257341936 -0.6947090263472193 -0.26086613347576443 0.8984495126284076 0.983793679920965 -1.0319211428454107 -0.2694451447831963 0.49896397658047803 0.6687765587301541 -0.11818095782996701 -0.32724809256664533 -0.027122994531197986 -0.17842778742650628 0.7887334433984068 0.3615643395242926 -0.03286269438925199 0.7222069962993101 0.39992447704547074 -0.8448898610964769 0.7577203474695341 -0.39351136690698235 -1.3549146352023407 0.09534666330955188 -0.15664086395577814 -0.751077633878485 1.1208544587303237 0.8753894894051617 -0.586907934749477 0.9717308169191385 -0.3931811748729095 -0.137882297904858 -0.4241285472623729 0.62211630379501 1.0792328508143325 0.16229338685983918 0.17540532809229753 -0.5526484270296866 0.3151169224060271 -0.07577703664575497 0.012849353278083231 0.9143968940017073 -1.4117823057788454 0.431065830031567 1.0034921267961128
-0.3225058397004594 0.07440946906877499 -1.0758340699687194 1.0024876601596655 0.6853219485412616 1.0878176556823553 -0.4605970601892416 0.6517702861913979 0.36190788327282347 0.20740035372934373 -0.8508183763044783 -0.6060043700115575 -0.6988137922224383 0.3660342360988368 -0.6497934549752543 0.26633586067773596 0.4174043745981796 -0.6464062595097039 0.49478297889196404 -1.1472138578221323 -1.9996694490076465 0.8606030366362947 -0.8371125755868829 0.7229494077695213 -1.0153057180439191 0.3473371171161156 -0.1622864414515089 0.7167565676023155 0.5402515945538813 0.6599300541793984 0.18068231629665138 -0.5632540333845146 1.1961989776090842 0.412209465229573 -0.11726188505640933 1.2827649422988312 -0.7922001454494314 -0.9246112284814504 -0.808979935291356 -1.4245648415328902 0.3919978575703606 0.714019779926838 -0.3099489405142652 -0.9727062900951571 -0.5479990860892592 -0.038341895445875074 0.5876301460413343 0.5012073513139375 0.11590356250497191 -0.5701968741967948 0.3591126201321871 -1.1770140194078862 -2.0386677633997623 -0.7196849000778203
0.4082007990364246 -0.12962091593936798 -0.15992029187247048 -0.06031826077086061 0.5964529193344028 -0.8043911585608217 -1.6209423707041044 -0.06725291969365438 0.39701294750577837 -0.2821272714569989 1.4313428143671962 -0.3239573744097071 1.019752099610006 0.496043072326644 -0.5901627835725798 0.2954429655574806 -1.6281425480245422 -0.49206138210949263 0.714229696726135 0.2823415980274627 -0.8715222537139273 -0.39355170972857695 -0.036962184143247534 -1.7014137330196888 -0.7905588995085182 0.13540458641244046 0.4804490125232623 0.455763363363757 -1.044266798528783 -0.7374822944714751 -0.2509509880723216 0.5726457106981484 0.8798989715318162 -0.6314718251199667 0.49328510788136964 0.17473695242146808 -0.6165172689786058 0.5863995571852111 -0.16985949433569314 0.8389336175209607 -0.8616961837382535 -1.1540604304436135 -1.1642803219544562 -0.11825938297706767 0.2358916726800258 -0.2956151144113725 1.2897633533741548 0.21150690824122442 0.4433984567518866 -1.146345299569145 -0.7577978622930479 0.0015188996006897937 -0.048901267506834656 -0.15079757966397522
-1.0309275862928688 -0.7959684964979882 1.0795720241448727 0.8027240437991672 -0.7469524899058881 0.5350250158257569 -0.19244914305734406 0.7570327587259061 0.3029264947448299 -0.20847562247460988 1.3045034688334927 -0.44979268110377746 -0.4462984869710928 0.2785029491537477 0.0025471844057223247 0.9844364288750198 0.8247949545065617 0.1804901884201971 0.717859151810921 0.6646140459581575 0.09854484196356184 -1.5223580594674233 1.1376613936761892 -0.9742336749444647 1.1983620794840957 0.19828267109387832 0.6680736561227436 0.2727787525418644 -0.174623209245041 -0.7353966380897037 0.4576127082513585 0.30867953624218625 -0.36666937687295037 -0.4101228172128679 1.421808989152087 0.06818146090674976 -0.25731460900942704 -0.12477088772263217 -0.8732336473918996 -0.08845491705666919 0.8356339890638633 0.3739544333277957 1.217080837292839 -1.1585412906097217 -0.47942221959073195 0.4619643318007403 -1.3008918773606224 -0.17496748457451583 0.2924080178413283 -0.0551599622217836 0.6946038822624692 0.2063151453929748 -0.36277383539642877 0.38311248265937836
-1.130929228589312 0.924536580306922 0.1809473356350943 -0.10074060831268061 -1.4997432506791757 -0.015181341156055017 0.08862120829054959 -1.1232521937014426 0.31530614000848023 -0.37194494869871936 0.016249754952787965 -0.2289181893748533 -0.7802500963339776 -0.24492958220475258 0.13918931100401005 0.932342612260759 -1.2707310199924413 -0.9637140539338498 -0.4446322686785849 1.221086609196149 -0.3936937419480057 -0.04613988235601679 0.871590190512707 -0.35524669853804025 0.046501235762491544 -0.47009781442791726 -0.08057588149479727 -1.2527767036796515 0.6540414867636561 -0.12350388280251251 -0.31419348639710537 1.3392491274258016 0.7756207384969015 -0.47590346635139713 0.25809494017966184 -0.3850363182092571 0.7714248975191151 1.4728549736484298 0.7204438031080542 0.3605273837750366 0.20387758954497676 -0.37113862543067316 1.29862820334376 0.4756920823891773 0.18713325479414822 -0.5783398808739001 -1.2183108104137594 -0.7296703480251738 -1.7173331236851057 -0.5870620598419916 0.338694224194103 -0.595515348827192 -0.9664252748479283 -0.1630988509008448
-0.9914452074251455 1.0691217090615988 0.8781253219302624 0.543609589087218 -0.4128934370245592 -0.05636311603377919 -0.6217532872565696 -1.0416376486322119 -0.10554923076986977 0.5423137220290837 -0.5348568429627264 0.9000737938307954 0.09425917147011631 -1.3334983300146988 -0.4153923830051898 0.5672213135123116 -0.6048150559189156 -0.6950669509626931 0.0912053687851398 -1.526235772522507 -1.548115948740025 -0.48814952334130807 0.9570811412187613 -0.01584352342424239 -0.504357869973288 0.06985942765620201 -0.7040392275448075 0.06005492160039 -0.1860557940742975 -0.12568057258074172 1.131467028742889 0.33697689652024704 -0.08931583339007665 -0.7350934915936839 0.20035855965421273 -0.9078134251085248 0.1957361381560198 -0.42099372381508127 1.1482761893185216 -0.15605971541100017 -0.7256566637286984 0.10842587877086318 0.8666954341192725 0.5735997525343028 -0.05167810934605066 1.2967865727543246 0.23404678618664887 -0.5692696637952191 -1.1607128379520415 0.46363441580800197 0.3182440080227133 -0.21925341001360021 0.5120345756614808 0.5820901292337345
0.7543030234278199 -0.04272597507051534 0.21497787802227003 -0.3326957902302942 0.17404047638568754 -0.539545571033744 -0.9981446358511645 -0.9491620574672632 -1.542815003783966 0.32758079114938005 0.7188967397236148 -0.03766966973822922 0.11633945289437164 0.22562827227949783 -0.5610740318827676 0.6218181862077492 0.42109254216195846 -0.39421937770164805 -0.3268797624661811 -0.38093667257814295 -1.0866575702480787 1.346529342202518 -0.617389630057371 1.1032049770519685 -0.6147451482987756 -0.14383749079043207 0.9068476640495309 -0.44981934990466216 1.175903694858285 0.7007876150979826 -0.9415617623472688 -1.3122600358251584 0.10983629195968347 -0.5233210471654746 -0.02838193680000617 -0.9249918468238981 -0.4295362919395993 0.36590163485447325 0.5293748802150646 0.9732012975191495 1.102840652553141 0.6294756285846872 0.48893770208166926 0.2566960669501011 -0.3055574092485515 0.836328947217658 0.5994140335670027 0.6617938654216299 -0.5691994372421547 -1.2337992919481275 -1.7269285717636025 -0.23759505159534716 -0.4071048364503728 1.1026835735795486
0.19547204851473005 0.7143585979900631 0.2452224085779809 0.37799690680116693 -0.12783757513101202 0.432377143460372 -0.8829030508062468 0.22795599360764623 0.2123155047633436 0.28512295000845894 0.7858473039612364 -0.1130031036250857 0.07348569019473428 0.1272254226073511 -0.13746404179023342 -0.7160322183239831 0.2584781998901953 1.3189782902689555 -0.47368495328247284 0.1591462622520874 -0.2983069681827412 -0.001590705079697996 0.6910414982674977 -0.04454078041305343 0.5401240417600679 0.08559360356927243 -0.5607505856261485 -0.13454155142788382 -0.1762110682817566 0.03846914376281846 -0.9978044960696373 -0.14889955704413987 0.36244873192224253 0.5575327673541299 -0.5058873797870744 0.1410257496405114 0.11067781555169648 0.5703653871426904 0.09020541328709336 -0.6790473908549506 0.8636957904063911 0.30950440497707143 0.018819174278657036 -0.2687393886691335 -0.029682735457408405 0.25932719509633523 -0.6886020941820367 1.6729265354047789 0.1875827878766862 -1.1036489859304686 -0.8159153093528262 -0.32300454030810277 1.2718531846289973 0.6449677837857459
1.3085920360049788 -0.4921897207594226 0.4340835565683741 0.1921850763581026 1.3272371948298924 -0.4082050813561013 -0.5932862121110108 -1.6429570018145672 0.18420818186979038 0.15393427265649529 -0.23647353549776895 0.5314267880966488 0.31596369175034367 -0.5679359341680159 0.40329144597133393 0.7526304605455754 -0.09323981084231897 0.5121363836485571 0.09175754017399979 -0.19475343771230053 -0.46713612307409524 -0.39325151172141415 0.1723188334662354 -1.78286674315323 -0.629115927730304 0.6957929957259426 0.1346415684196608 0.3655155545367758 -0.20233733724534936 -1.378169780506286 0.3860863236783739 -0.6957752768704615 -0.7480093111248614 -1.9861071878130432 1.2579662009700718 0.8958180562018403 0.527525082483054 0.47114204425674866 1.6006007048094275 -0.5279113995742785 -0.8845802565360579 -1.759893374448894 0.1484557748658405 -1.0943557265345691 -0.1105962813659187 -0.28285535708562265 1.0678921226749434 -0.7313697531880109 1.239001092660751 -0.15412446948544445 -0.4289475332240725 -0.8959386099080673 -0.6567920681592998 -0.36820883641800384
1.4055114841355112 -0.5492722158859854 0.22002417966492255 -0.5971283450617835 -0.06352773283616464 0.20224838819212615 0.31871749748583267 -1.2008157252143452 0.5359277575973024 -1.0253497862251726 0.9335696779715211 -0.4108327244086959 0.3433046509827872 0.8595745051761087 -0.021326988830898397 -0.8343694282972783 1.1033659193431025 -1.0946398688548378 -1.7844981228273133 1.7325556714655659 0.10702512103445999 0.38457687554566095 0.05537434618925624 -0.5495417575064898 -0.15665770186676092 0.16717169617735267 0.14720442952448537 -0.8638277457415133 -0.8162675454180748 -0.30947147780105827 0.13548632400901006 -1.2496353646051708 -0.01945691105834968 -1.0258913277182433 0.9555505806250364 0.5408734730386087 0.07108538593691416 -0.9575223947829621 0.16438004979601595 1.0942532612673836 0.10559659833102847 -0.936710215629147 1.0021639291183264 -0.3590360972071787 -0.3929370603312792 0.8002861837398054 0.6117989798516459 0.2998496554628096 1.145010423716666 0.6359520398912768 -0.12891500396783878 -0.7860394771691628 -0.28417535149186 -0.7126317550424653
0.9738349331857431 1.4510013780197932 -0.5883103567388868 -1.1611776734738015 -0.9789544043919867 0.5103888377309493 0.15190238222157887 -0.0786139493251109 -0.5143721236851702 -0.007411745741672748 -1.5298305160439365 -0.5965699225738768 1.1163075819429693 0.5960196455307272 -1.288582495194908 -0.684583383877659 -0.29633406782832433 0.4108604959169765 -1.3883593348302685 0.485145025143399 -1.258805144458434 0.5886835802554634 0.42748400096367833 -0.6925037867281116 -0.8181313007964909 -0.5490729185588108 1.2575644736146838 0.2654453405934198 0.8538780357914275 -1.0032089266336837 -1.162984871691081 -0.7829026932687093 -1.0345164663453827 -1.507697900983097 -0.5304922819254249 0.512328535399872 -0.02219135395908367 -0.7321213992678725 -0.26788128941222583 0.9648836876529525 -0.03367739729653457 0.13919552252332362 0.37540656447064374 -0.015264803558610929 -1.1743786253317405 -0.7740455047249544 1.9701647883397104 0.5908474294855628 -0.054241667081104505 -0.2998781370703569 -0.7468416062360657 -0.011613302428422345 -0.3614355338612864 -0.6101073745325495
1.3670209865044742 -0.39633930489062635 0.47957951898628354 0.23582473695746797 -0.9381859340765057 -0.35830950347921864 -1.0614534610041755 1.0088396427026225 -0.8281568720346162 0.6901857164994114 -0.24199237656245648 -0.051951177061775544 -0.7324127713429935 0.10888283215281391 0.2708712587435059 -0.9700722803268462 -0.11809672916656655 0.6406809808438025 0.9859947001441325 0.5545007587397379 0.46829769279514777 1.3374642998250659 0.056579332934515725 -0.4637128197075266 -0.10287743538326938 -0.00241140983677518 0.40336626241018864 -0.5613127530151538 0.048424025187031206 0.7052231802802549 0.47663541510034707 0.41044550570463983 0.6424548670524219 1.1708119181442664 -0.1562344739089611 0.2216676517785124 -0.30897390345783987 0.6468351280720208 0.09838210940511855 -0.7899386913819005 0.8634977596663278 0.6607897415581432 1.1131893758839773 -0.4837938955832255 0.3262684153691793 0.15400098772483478 0.022657651459029093 1.23397939568485 -0.5250715865942499 -1.0073505078122686 0.39054600372131965 1.0241630523511565 0.6662915570837229 0.9276218119327322
