0.456135761584886 0.3787245521250787 0.8342349351265799 -1.2067738433621873 0.713222392469776 -0.6128380124790778 0.1809312181523418 -0.03268033154739075 0.5013521568238248 -0.19033608219067838 0.3732444916346948 -0.37015734168787107 0.7278149731232064 -0.6475211565056388 -0.0199206400648832 0.13747747248816422 1.3039253338571613 1.4271297418628202 -0.7176631945538692 -0.3138256501958559 -1.6052515761702755 0.06934692462432579 -2.14478917524317 0.20095181674493734 0.47070814698428093 -0.0036130590253173334 0.22807770885748618 0.05157274027999165 0.32870776690263875 -0.017740649100372707 0.6118970026386809 -0.4054278690559701 0.6181233339806078 0.9309971816511002 0.7078630735220858 -1.022107814712164 0.45392327599540416 -0.19409554224545483 0.041129022486722344 -0.7026099006445192 -0.9394925870916857 1.147018761757327 1.4782569026102235 -0.03365921337691424 1.4436005676337622 0.744233525636583 -0.2603150698716566 0.23472848292517529 -1.3372923020795628 -0.6185115494078776 0.443922481779916 0.6708917270325592 -0.9130176332662936 -1.5020827844312483
-0.43358520610018175 0.5770400709939942 -0.6432372282742354 0.6016878584810217 -0.7934273476424056 -0.2166614740115892 -1.509527317434868 1.3149153292134002 -0.6181079553743516 1.3446662245447256 0.9852742490365521 -0.8654930572228464 -0.6085266828451299 -0.6226331698913112 -0.7004075760579749 -0.8852695434579221 0.843378937241713 1.5992243038105975 0.32950433034152576 -0.9503502486011393 -0.07176205536832975 -0.4387131598278178 1.0646357859166602 0.22642475133859585 -0.5298001675312852 0.694370092093303 -0.6208306714181411 0.5109084805040998 -0.9333086002514378 -0.40200823983218725 1.4331293763615192 1.0427222844892046 0.26553367781031334 1.2557941777019082 0.6466497785506704 -1.7458916704533292 -0.6251900979299082 0.2744308172073648 -1.3562037952629005 0.05137837568575787 -0.2687096271959388 1.5695219579599962 0.5085936230960417 -0.33466669338606697 0.5671158556456266 0.42137503615099364 -1.0414064823058258 0.4904498760540565 -0.9823193502160498 0.2065607988178783 0.6638172534977889 1.5141039497629816 0.7924135932998658 -0.44783787945396303
-0.38973404713629134 -0.1555860985966655 -0.6027023618392328 -0.06302316055638257 -0.7075450018772311 0.9373979486423514 0.23994116582436492 -1.0372560374795599 -0.5345216491153151 0.8094934629583121 0.9857217137252241 0.9959078011780603 -0.41354997718626496 -0.39906921773554777 -0.6843680908678424 0.8431147781286235 0.930847713645474 0.2775823333828293 -0.16830870468324793 -0.7265399503391203 -1.6858049287468178 -1.9209103488570025 -0.4058922655181817 0.49230018784187296 0.34221611642721994 0.1411772673730528 -1.4751186021734015 1.8086546762144902 0.37812637839242924 -0.1259428785398531 -0.9508486573139534 -0.1533303046753151 -0.8569541469240549 -0.15906969034820134 -0.7207675502160396 0.6471473900448883 -0.21604349889214847 -1.16782236343272 -0.06406249922013357 0.37387156865671267 -1.1239423518641374 -0.8497989076561298 0.6662822027548878 -0.1273117763782664 -0.27422506796094165 -0.6552748254308185 -0.4980340997393001 0.32078668588983245 -0.492409924428369 -0.5148616124512737 0.11139241256171839 -1.824294740829311 -0.9674466829197916 0.3277375555527171
0.42780686061615564 1.4438587635640574 -0.7530783704590276 -1.1537873145907893 1.1437972218554002 -0.545011091786705 -1.2697650998834538 -0.6514996251870042 0.8076611819954544 0.3718318192345551 -0.4710614246276541 1.482463010354913 -0.5448987550089004 0.7177826068594513 0.03551695591922427 -0.41187315299060995 1.2058129246732783 -1.0544735923649284 0.2887441101749641 1.104325004936488 0.014967280419463491 -0.6403588740899024 -0.47009412616070967 -0.4744615019847108 0.4396096319677254 -0.9079860120273455 1.229411766317712 0.16648850398506848 -0.6546747908685397 -0.3253566320334812 0.5472886162894357 1.7705487623144898 0.7649464089100702 -0.5616493419848858 0.6908983700238253 -1.74153119651593 0.9260606947527757 0.8015149077691857 -1.3068642768467027 -0.3085399065944324 0.5958626461936272 0.42820573252673133 0.9023792177151313 0.24725373369424508 0.03900958890237349 -0.2306872356870343 -0.6550600507593756 0.7683638329568743 0.3311875103844028 0.055498161249436184 -0.925656093569057 -1.2957501222627066 -0.9576455042557743 -2.4071412218213144
0.3754626484838186 -0.0658222002910655 -0.05694436441634931 -0.19392364443967686 -0.5143872316692093 1.3734413269851236 -0.5935370634400257 0.8205437841271481 0.2583058857420759 0.725750365123711 0.1552030269030456 -1.5491485753485614 0.9561990812523748 0.13109530077840398 -1.0184301823402788 1.0202522886829584 -0.4380850695655632 0.6018879626016721 0.6438197718216788 -0.28540085984937913 0.8430961398398057 -0.6325430307452072 -1.061999810402295 -0.5139947689387234 0.024316166132417383 0.6364321851678467 -0.9313786147296501 0.5541821583495733 -0.9209942978256992 -0.0003224017534938506 -0.2965904745992397 0.6210729918422006 -0.8440383299172614 -0.5651371670411015 -0.31038767666223444 -0.02264506218061957 -1.3440537463266333 -0.6998541485063237 0.5648763843623881 -0.8739510722614531 0.30916906556310997 -0.28597541995868536 -0.6566969426756551 -1.2731959041309107 0.32023102817086424 1.017091822394348 -0.7560102821900219 0.00506173070035254 0.9921921891213823 0.3286279915514067 0.08461885004429309 -0.5920109433452049 -0.4850753108811743 -0.7263293542788118
-0.10073537229031526 1.328190159334442 0.6612154089572728 0.3552774055716457 -0.3599725386114058 -0.8919273479434628 -0.4033824511531736 0.020246477546283392 0.05615407585298865 -0.21772466086740366 -0.6366436423764283 0.3846167981968722 0.008304203209162808 -0.5669449032136493 0.03859844106916821 1.1061555574863695 -1.4188763182282629 0.055333618637996074 -0.5233165740297734 -0.06450145951752784 -0.9210818563473603 0.5608385241381102 -1.5865411809861159 -0.07961778785819457 -1.4041333090886927 -0.12870436367889376 -0.33064561336341897 1.1080694613286108 -1.5433395341160503 -0.35166722745211276 0.21896134050065585 -0.4959500548926464 -0.8466467510655562 0.378974483504478 0.24627686255591869 -0.6932792215546735 -0.6147240624341719 -0.8010123094469296 1.4801349202727414 -0.6713506936030271 -0.6912826999605526 -0.9704465911167313 1.0333056584451719 0.4633770745538936 -0.7738313846397402 0.7588017692821074 1.0156026405034373 0.3762466262014904 -0.6089253262993732 -0.9132954971841108 -0.3345895627506607 -0.23855456084905396 1.0798976005075807 0.19565440498008874
0.4190273979377136 -0.9756732425464325 0.3784123668660374 0.4145644374097741 1.095290084472258 -0.23467377545236034 -0.8027552723021281 1.4287195768420968 0.24875324081700023 -0.45056414939962364 1.020385321674992 -0.83355912548421 -0.9308255685540432 0.3107343454280833 0.056203972742072394 -0.1717223626719488 0.6276084737825155 0.36447944715982156 1.0251398917995476 -0.20653841492856528 1.2091815396513126 0.14514320352744953 1.1202948571897942 -0.8523019955996477 -0.6934018279877926 -0.7355266969288883 1.386166661353775 -0.6394598385660786 0.6857891334131552 0.5639057593161331 0.15382037522429715 -0.7075945367516674 1.5409583808450376 0.6695695914694246 -0.2442156882411216 0.5970748412591149 -0.9542202975194191 0.47389297666126723 -0.3209488407094549 0.4022001572396943 0.21198745757329973 -0.8321794192055372 -0.9359720019632316 -0.06931900094222387 -0.42319037375584767 0.3144314699309132 1.2623844340105135 -0.9082413251851451 0.4511488406200622 -0.6610918898124996 0.9926924024398802 -0.5032239831006395 0.3934127982383326 -0.5158138442287432
-1.0164281342146588 0.5579581959394161 -0.9333869802842463 -0.4250464279737903 0.7023095139415715 -0.6156530163916939 1.6028008597692167 0.46507842963668883 -0.25221445172949003 -0.18407689368611518 0.9558374095065052 1.3835081931718967 -0.08336301666208756 0.04690187442921717 -0.02996093839290931 -0.9056400572896584 -0.6718754760210148 -0.06163241919167006 1.3890874884182982 0.17085177544961727 -0.2877766973347227 0.8733123957886895 0.37541587645078994 -0.8764264487465009 0.5474955219842932 0.3288648918009717 -0.4043387131902857 -0.254571590507114 -0.8892933637134883 1.2343893350064021 -1.4870190334155584 -0.44566145877808117 -0.21395545469481403 0.9576463062066798 -1.34928625598304 0.09194024754897656 1.586939849407306 0.8081410117503397 1.4309440920526584 -0.30616132523611833 0.6248006858389488 -0.3659734928581277 -0.9500972170825344 -1.2548561417197788 -0.9582784659212873 -0.27291362916104667 0.3610085686581003 -1.616113230513963 0.3163641487957522 0.9613673069229396 1.090625618488371 -1.507314446880121 1.2706076167139397 -0.04578294461977578
-0.5910087457482072 -0.6272656481060821 -0.1173135862075988 -0.7405050682779439 0.474676596702194 1.431300031969826 -0.4239639102619321 -0.32468116642097167 -0.02804612685235891 0.7826836751615234 1.365416982383203 0.36068332326510555 0.9892264957699259 0.4427000377329425 -0.796971490026851 0.8978574650255813 0.9934052843016508 0.08703155669941653 0.9252364232780055 0.3068180460609358 1.0538332731781308 -0.7029364497157584 0.14648416860265207 -0.4653011589445637 0.3004514777545627 0.08003098470691783 2.1150996870138146 -0.3900065141151472 -0.4006514635974937 -0.4965814845563734 -0.25568136207544717 0.894214777899415 -1.0742173765891745 0.6122455089376342 -0.3572655968237052 1.119665233522457 -1.0357229252459041 -0.3952127949319098 1.1737573911002537 0.3853207103213606 0.6770868147661269 -1.799821697177854 0.4916123064103385 0.44902832096288053 0.5845095713428767 0.6243409734960884 -1.7585266930506198 1.6656468164729892 0.10051776780866539 0.044166140928408426 0.3617573859975818 0.13408176795351417 -0.2113369210463829 -0.7173537733246282
0.6865197762540749 -0.12275679573195519 -0.9649378955501179 -0.4326535889223755 0.40132484676277175 1.3252992250193207 -0.362052726241157 -0.034559265555541285 -0.09424663731495542 -0.47224086534458365 -1.3669463186865345 -0.44573259633225837 -0.8302972525474717 -1.4803253411177473 -0.5523621899273667 -0.5336397836582472 0.40137032921114263 0.4305179034109512 -0.4456317884489735 -1.125870302019679 1.635476188018557 0.12105128953247718 -0.7694638699321956 1.0231664271240761 1.9254220864729676 -0.05529588914723044 -0.057258270194713634 0.7904147230869916 -0.13611641308644767 1.3399378413634306 0.40989822108000384 -0.554091195662824 1.412035228538254 0.22790379484379114 0.11478650792074557 -0.4451689862650958 -0.2678565642258794 1.5001666447018505 -0.3767704355162866 0.4786242830701192 0.05324056998063098 -0.27587051322357226 -0.378361308992896 0.40352486710977054 0.482605332989354 0.4823762339432359 -0.5355789390831667 0.10201144501939163 1.00991406805945 0.18247399671753445 1.084532063569916 0.1883759510275349 0.1639334021692499 0.7291420128966837
-0.6035391183173583 0.2734783870663389 1.5779642808776893 0.936013460310708 -0.34510346873676073 -0.07532797434823796 0.6705913448356327 -0.10725452931042967 -0.34341965582698714 -0.8545129551403262 0.695793206695039 -0.2889132944726028 1.0258408382215032 0.7480130572578902 1.933777464814904 0.36447612488259856 -0.7194120183494358 0.368182815824471 0.3805316840355214 -0.0552213067087845 1.3518741169972521 -0.6552602275415382 1.3305803695591414 -1.6278288366007039 0.33899850027460865 -0.01985666757057264 -0.17553278155069812 -0.06373854559209235 -0.7472674467847782 -1.4883195679805445 -0.5208151054433983 -0.14519005521006784 0.8098003257177369 0.6753743880680432 -0.09846344610735286 0.19620586296472864 0.6033556294280633 0.03261641521500058 -0.11389975280996167 -0.5177006379896998 -0.6799445311554956 0.03512634642833501 -0.09561675113225404 -0.8714799087574467 1.1258010055388261 -0.4473499619506651 -1.1605014488722818 -0.019187866905798767 -0.07647916922709452 0.9600433241444947 -0.23599594755464137 1.738632937142004 0.9684717493320376 1.0551553160094311
-1.2049800652228273 -0.6956412336524458 0.33364792900640455 0.6882075112122995 0.13721454450285625 -0.5275709337675002 0.7934014662315858 0.8806794914394869 -0.19395464837566784 -1.4462771861808612 0.6807977272652421 0.512421228933349 0.05014919904893517 -0.7911004194974669 0.4396218065298613 1.170340083595363 1.3153871559458796 -0.06581210549794181 -0.7649303435821064 -0.003687136161113047 -0.6654869469517697 0.4264896745571451 1.8180574529266456 0.9393429514255505 -0.6511880647762938 -0.5251662794262071 -1.2305600991390244 0.4089907478795248 -0.053518546019734436 -0.8523715257208634 0.0028171824506462717 1.105242732138618 1.5484448973490237 -0.574853592250204 -0.8519570920616046 -0.8523100510167236 0.814013200887145 0.07815435823043632 -1.2233267931146894 -2.438601896041488 -0.04443948537996123 0.8296657293244776 -0.30672221779541325 -0.8668016518843351 0.6391006142960114 0.7593455688364906 -0.039343960352260676 1.4681277955117686 -0.6784826625289457 0.7312280952333267 0.3505651633054066 -0.3286405633305983 0.39627941714498244 0.41263925573255555
0.6090805405145396 -1.4433274733616728 0.29313447211976945 -0.05257847989184211 1.0192856621349957 0.1387457145683043 1.6209067707261084 0.5396710521308791 1.4413549752664825 1.128313137018368 0.8825751653540679 1.1146529662103208 1.1942454730571912 0.25420463873706206 -0.4955068490540459 -0.6903264708923491 -0.429523056007721 -1.1055743651744618 -0.9707497021829519 1.2127435154725033 0.29469108298417573 -0.3161336283310009 0.5217838209922903 -0.19223078831423696 -0.49771668190461127 -1.421342843704354 -0.3155832358623469 0.4871332197046124 1.108858232356285 -0.7606908136144694 -0.0062853491484864965 -0.5283203650196068 0.9388283946739391 0.14997545294490466 0.1768812951406339 -0.09731810807326324 1.0772510702986242 0.3637619876140982 0.39924437883879327 1.16818256851617 1.2307093920027765 1.3994985908299529 0.026508186879870776 -1.4466511809843934 0.2822954093051335 1.6876620309428465 -1.448851470473398 -0.6221412215472355 -0.21312305169964296 1.2077610964557617 -0.20984049961919948 -0.6532459838705289 0.059564597876156644 -0.0540765800793791
-0.40793147880479247 -0.05224883208655973 -0.7812941160383303 -0.45132005713176165 -0.24506384672972448 0.6026102191609601 -0.3315747295113947 -0.893187964479996 -0.3831365716810198 0.4862063282982834 0.8584137988288059 0.873781352250383 0.07099944468993075 0.08422450618460148 1.3968573368350035 1.0070863985342642 -0.6962322572682673 -1.6953948466389677 1.2929246277314257 -0.11345139704156604 -0.4412185494509133 -0.5595299978046961 -0.870083037508536 0.450974775460856 0.8576599880167902 0.7087112806033137 0.48039834483757116 -1.232454417854153 0.9925216529396124 0.5321526809076742 0.3936845494380697 -0.16482815926246036 -0.9751691675853018 -0.1702332482556005 -0.04500482882822082 0.09692755358442323 0.09161175185460263 -0.0364927298502703 -0.08863326622501194 1.7219936547499084 -0.8615235482777959 0.02959140743490085 -0.4932401342757095 0.5291788002209152 1.5791532996793562 1.171956523370493 -0.7790040183104627 0.36371672912671654 -0.03867026994249306 -0.7790361329891542 0.49234259767038485 1.4089559381957566 -0.7479356215950104 0.07035057723302707
-0.774408511628686 -1.1402750734722138 -0.17497938520440554 -0.08072487426668035 -0.443618479458162 -0.33683758867717445 0.0772586410154657 -0.307222967501248 1.6338753927784437 0.9358438154741998 -0.168340933396467 0.39927507898529385 -0.507394173038305 0.04933109497884325 1.0730538878823588 -1.1694414756380103 -0.023144407915450305 -0.8156665097279774 -1.2331560171175777 0.06475926021753992 0.1385918475567649 -0.8521114206188443 -0.11570725129655868 0.5564622549336558 1.9831232109224108 -0.21875966081346632 0.5496660554367945 0.48589762310460516 0.30031785684474904 -0.503396461177481 -0.893603481306753 -0.9343851420471192 0.5789655665290869 -0.981495454488372 0.32237533329950996 0.675903438439627 0.7458542110028585 0.47058903314088635 0.021608087398905962 -0.24747950571566274 1.1656420004488486 -0.6588322990741128 -1.0412628860407485 0.25081313298160257 1.0971989677546166 -0.4313564650943601 0.8882847979749582 0.7455013039367521 -0.8854354245403612 0.10686650098850409 1.3230999216594412 1.0078407455388678 -0.770275506052287 -0.6999719622700581
-1.8156990644676494 -0.19986509547029324 1.04766332882508 -0.11233869152838305 0.6919633668175378 0.1308337503646657 0.2508571419325708 1.7851989975489237 -1.1916293557885813 1.6465067214596254 -2.0871437732436884 -0.6643451473768192 0.2734599336420332 -0.8804270172177443 -0.8186958583291806 -0.8644216064691124 -0.09651778954290924 -0.4485099970400193 -0.7599447523649799 -2.2487647158989166 0.503455817234028 -1.3426455476409749 2.0444528387896037 -0.7968736200422399 -0.2718215608639997 -1.4212468137982373 -0.28274433251202147 1.0384245630090148 -0.7809055820124801 0.20394874371086646 0.722620136632212 -0.35731575457770903 -0.09155051810461978 0.02543959008377955 -1.457222274471183 1.2210394709734684 -0.8875360382738776 0.12911688500839086 -0.9465501391191418 -0.6896152919264303 0.7431268886929394 1.291478832358635 -0.6970910096149211 0.3832188245738238 0.5014195150597609 -0.4307758184895141 0.6949548165379441 0.47627033302945376 1.1735845395209055 -0.27922171559474274 0.7026816420141591 -0.16114439354705057 -0.4118569957641705 -1.0980553950278749
0.6091733722633758 -0.6746175712026841 -0.12616375545332104 1.598690107789046 -0.788491733520924 -0.5513469283835793 -0.6106274386888332 0.8348088853107944 -0.08060841250097117 0.6334572668240233 -1.5452128918273726 0.04175026985776159 0.63349731780156 0.728584714024631 0.13360089878135062 0.27078345592629705 -0.3732569634365989 -0.18074120494512086 1.4215679453525336 0.050134512748602034 2.1809564116813647 0.8755026178615619 0.6615390608302592 -0.44434170891050057 0.014528949265967483 1.455728790456654 -2.3057860173440954 0.015233154380167868 0.637354522985335 -0.2574710142120745 1.7082089160282699 1.1340062499574775 -0.2823152369974577 -0.10658606691710054 -0.029456238328556372 -0.7568412610814956 0.03607255929788611 -0.010989631439566439 -0.15561604244896005 0.5380834971814924 -1.086141305476147 1.0421866456699012 1.5968281389716055 0.5147795572044931 -0.5147629904318125 -0.2041215066082801 -0.5201597911750759 0.33238506862290834 0.6824108140490668 -1.1506433426088918 -1.5139899942602917 -0.06853016154782637 0.21509017351686566 1.135506334061146
1.3190385339797606 -0.48751443836974684 0.5042286893799744 1.1606258106826641 -0.03305025698740016 0.6117731048284394 0.7158534957978979 -1.124591332932107 0.2488371039399218 -0.799203889847584 0.5926160593840528 -0.43541676779882066 0.6240421144764499 0.11887672139259187 0.2950912047964738 -0.14222033525268718 -0.605590676716373 -0.18413376392424802 0.5604405449562764 0.8108794701393744 0.6920216370994303 0.5002148073148591 0.7146353966222071 -0.6423442087785542 0.2862915028260949 0.043319095686870035 1.1681098311354385 1.6108954289217707 -0.9655233694848597 0.5682784389266313 0.7013779423787643 -0.8926500472488785 1.0047505364262823 0.2933405055419403 0.16613233010558537 0.05148205386988519 0.6822395064909554 -0.86149438065801 0.589283740524815 1.0410144808137376 1.4273151939209558 -0.9051923293851677 -0.4592944907401341 -0.516090018608765 0.18991430298322753 0.26389082090977634 0.7145605077109756 -0.10063790627806402 1.364282844423151 0.09789103796936494 -0.3876518977623049 0.247731382975715 -0.31271363114777817 -0.21098545028244348
0.5104033696952428 0.6742205702455575 0.0979890328460743 -0.39748603152765605 -0.32951244115965267 1.186957216550665 -0.09142477669524052 0.8361653857611491 -0.8022044529649897 0.8895782053986272 -0.9437822978152579 -0.468132176796149 0.011594452239112374 0.4542668527714573 -1.8393840821677496 0.1858666797819173 -0.1394185225986218 -0.4501451634591811 -0.696705623666033 0.02098316852841936 0.1141540840000298 -1.1549187796043936 -0.8794126947402334 1.2132846132605835 -0.3495708997709833 0.6580631894077095 -0.307048774071327 -0.10579377086776687 -0.7063872019833635 -1.168897208494077 0.467763117915037 0.18643077531934793 0.1311192769508997 -1.9018279196445074 0.32117043303081155 0.19235461370543783 0.45576200492323937 0.44903143756891833 1.2121481833597432 -1.5989570930444796 1.0498150160110646 -0.19331669952869074 1.2534539037639718 -0.28113801157774393 0.48957226664150316 -1.075736051354648 0.42219709224421215 0.07318285203024238 0.48989858766416533 1.0425603076784966 -0.6368437091779127 0.41487266953366647 0.35690411895988816 -1.1788973724003893
-0.42148778866858777 0.2302012359659074 -0.518050579549518 1.100675625097343 -1.0133954247744636 0.27250717594683177 1.6253623344183707 0.005483231171692804 -1.053389152703299 0.7412317559717617 -0.10220821334292396 -0.6004961518640595 0.37152393403707856 -0.7810673461598033 0.8294013639215296 -0.10349596981180992 -0.0892056015937781 -1.1707789383744234 0.4041803973250609 -0.08262577045128061 -0.028076636373650765 0.31155550884952515 -1.0755591500229964 1.2593540643841445 -1.2468065872700373 -0.026776298110131935 0.29396792544952177 -0.8540266968964693 0.24499442053509157 -0.9382607034857884 1.389058572564289 0.31667568780273625 0.7528673539858264 0.3076206652662238 -1.0059695320653455 1.013963673870255 -0.9800457891221004 1.1800397943281087 0.3016901004400033 0.2753104620861172 0.9820923631008478 0.5797556538465036 -0.5795275333776555 -0.026835297343296816 -1.2240676370126164 -0.5145559014902448 -0.7417091208284332 -0.8248475602931096 0.3445562585831215 1.9761968853667713 0.08297229940131623 -0.739834830605044 -1.3724723523989106 -0.574920862558127
1.633236057504585 -0.6691369874493327 0.7031868050611484 -0.3119511787230521 -0.46798818340906095 -0.5228558170323306 0.0909608553962955 0.26623670714367714 0.393082477098667 -0.17829200488588365 -0.40619594197303904 0.25895357314179984 1.08174722929806 -0.3508943795602449 1.2704551199362533 0.857338743414102 -0.17977944113415034 0.20770579352338758 -1.0591123640856919 -0.8822899828283031 -0.24500310694495242 0.07005085285819868 -0.61991271967659 -0.9908794493459745 -0.2882637039956416 0.6817090340679824 0.3587343803862192 0.16760932726352618 -0.9007605521388654 -1.8434262953276714 -0.41734755358770254 -0.22668843494826446 0.5229882465478408 0.10006950327816827 -0.8530910684822012 -0.6618364231284108 0.3000337993144975 -1.2272718249541699 -0.8552946490808284 0.23633192723355972 0.6586180384018887 -0.5454583668691504 0.5662088094377682 -0.38529734404683286 1.5700655436729007 -0.17287978291340517 0.29463802362293917 -0.6709758197780669 1.2228048968004488 -0.19498278262764035 -0.36484985908813794 -0.9502627639030594 -0.024211041147473245 0.7815029881960864
-0.4595128352945025 0.5436267781910615 -0.628030997455004 -0.5667607971322599 1.3841974294645523 0.04966089254572836 -0.2929257122428658 1.2920947292618703 -0.7319562264420434 -0.000771334693539516 0.506025069963774 0.09043517162205933 -0.7985444165977097 1.0115109470176584 -1.2439658309066726 0.5433835868557673 0.7589719412882073 0.7179650832050775 -0.40582711256317255 0.8164206556218387 0.2895420101886926 0.5100410638334513 -1.8458973361662616 -1.1999913626900967 -0.45672674828600324 0.28937028027981343 -0.036618184892082795 0.07929049281757333 1.3450028657375008 0.14088108808985123 -0.5665679879675032 -0.17313504765934407 -1.1271656201875921 0.1139908288695538 0.2632191060118375 0.28138258286451984 -0.7686249594891414 1.0177810663766504 0.07946781138023795 -0.32701475255489026 1.5008078699553693 0.49895534207350395 0.11195675283301754 1.1055912630856164 -1.4768117732440282 0.007839976678076954 -0.35541515099329496 -0.18855889868600612 -0.247672290913581 -0.2502646814425913 0.2813882663071413 1.4537938231513685 -0.5014438534944039 -0.30570259006144473
1.6053844875540944 -0.5510503134816845 -2.0958449963934953 0.39221098768348556 -0.6454120134583292 -1.1922540333354505 0.9299135903606441 -0.9522806943999148 -1.9390055165182647 0.41179504721170507 0.6391476173475914 1.0184204130117158 0.09603334186502221 0.9720791982219037 0.35365193827894986 0.20489089624725842 0.29363242140739154 -0.3798025823822354 0.19834486766453124 -1.021637374513034 -0.26766926576528116 -0.8085814254516437 -0.720980699910353 0.5613032222962808 -0.8869421673509594 1.0248479078798796 -0.040033679112904674 -0.66202792179704 -0.533680139964902 0.6711485570143105 0.25193437298534155 0.3431531694402662 -1.0999685711836085 1.2866465753385148 0.39567423646657307 1.0459444142373986 -0.083225038516348 -1.04158542140495 0.5972671595159903 1.3331346464743608 -0.8685146021978241 -0.24533599825354047 -0.17192569266757635 0.5358648164772211 0.8460393410248538 0.1166124062082265 1.0626179839525591 1.2132176967842354 2.2562029920261204 -1.942943795667043 0.2679717424987359 -0.30442141145305934 0.41092947704383836 0.3421471763395192
0.15058148182953285 0.18715750723958324 1.695075898299171 -1.3789638849610348 0.37595220577712607 0.9810918432509136 0.08426894504512239 -0.2562808764559397 -0.8169947671787923 0.23246566667696544 1.1270459285682075 0.38518846914966504 0.03200386189482768 0.30105703426326746 -0.8476137887716872 -0.7291689470177852 -0.8903216999575712 0.39272100649380076 0.5200016526917202 0.24370279002480605 -0.7153825910606932 -0.021452208324702515 -0.5263856808219916 1.3756995860078245 -0.6132792618558869 0.21770489475147692 0.6833933290923317 -0.744931500090257 -0.6658567853018742 -1.016827412311331 0.4484163963596375 -0.01799321307620333 -0.13806287526955563 -0.8310359121913186 0.21454825091031932 0.0559822237703998 -0.7990739309735007 1.26203044077816 -0.12612501748339183 1.1820925960748494 -0.8362396364792672 -0.7443100813036068 0.10126767712000057 -0.2687140816233531 0.7692111722758002 -0.08388832037702354 -0.46149506996173967 -0.3427732809049989 0.21135114049067388 -0.7213294503197543 1.3737460640601076 -0.7745781258714906 0.6637109556118885 1.4096867501189583
-0.024422295276194383 0.6400305645852968 -1.29783159100427 0.18597061272046128 0.3186294970818047 -1.251593143724854 0.8327582523086119 0.6527940067224862 1.3372531528717149 0.6424816647486569 0.39900996040978776 1.1727232559276826 -0.06417140120455922 -1.18057091940924 0.7412653148178333 -0.758578507695836 -0.7579531678436298 0.06001240227187876 -0.15339126971423672 -1.071442999351786 0.6622393120310712 1.493333859795419 -0.19809632030337748 0.5449533913755072 -0.5766312993062885 0.14690770453442864 -0.8590464864398553 -0.02862213956188886 -0.5633555363423561 0.49227216972886034 0.335540032126129 -0.8270224727666898 0.8012420051232585 -1.1266234704767653 -0.564510411139721 -0.8919138966468113 1.2666787431719606 -0.03713996056172497 0.7728899194543173 0.23014948911650573 -1.0161367723848476 1.3539141399236416 -0.18021931508302763 0.0719572290245703 -0.1567723047962618 0.8008560639311266 -0.5137958012276874 0.2683019333764613 -0.9905401893787469 -0.4718982707308592 0.6334981561028541 -1.3616239363426224 0.29958158003051294 0.9262981418050473
0.9740643465437162 -0.4114485569591142 -0.794184505528869 1.3795327174831804 0.21340350469329133 -1.0804204523630676 -0.6532141966285225 -1.6430006593316384 -0.42977910756185833 -0.642432125399405 -0.03373135776090225 0.046378918489593746 -0.04802971136446205 -0.5482443017150921 1.21015565827667 1.4063656152519712 -0.11691352712692693 -0.28858671882026127 -0.6907317747378405 1.1726866316229687 1.4532500075203176 -0.4750948353962871 -0.8677924997337614 -1.3150263174056622 0.5286223939772998 0.1168227450717213 1.3076787690774272 0.8122227188460986 -0.5003053046175554 0.20483630412439996 0.19677483635944581 -0.21988571130400514 -0.243248068149722 1.0363556075686224 -0.0527191624979223 -1.4855256889109711 -0.3781718315985424 1.0207307597020134 1.439549426273851 -0.017047890032871937 -0.5852855831978928 0.20516559261788664 0.3488127768559274 -1.214969660647818 0.04858415821879247 -0.5895870286689273 -0.4262057642575903 0.6100655251464011 0.6128657678268832 -0.3313714004150062 0.2800263296912908 0.1383537404412602 0.9430013484018902 0.6796501193283501
-0.5359145006384125 -1.4150358530157308 0.8472559931719496 0.18061330526776892 0.1892729698609738 0.7425509072513472 -0.27322793109679094 -0.8874946642190759 -0.37664790019729294 -0.26216810231123067 1.659637101281419 -1.455641279231581 -1.0779109057165885 -0.0222512288310171 -0.05716903909933391 1.5594444515376855 -0.0201781400635761 -0.7302361546950489 0.8237350571781007 -0.16723220503456293 1.0939685974222677 -0.6880579688115874 0.21520638655301905 -0.6109734521100489 1.216093960451047 -1.0370987487293994 0.5875534965152323 -0.609264593411102 -0.8831577312023237 0.7624405366272617 1.1369426153534625 0.2903894924331752 -0.7002783687309175 -1.2728930816013349 -0.6508826283581739 0.7086954063232491 -1.333860840664824 -0.41283725334915733 1.2207193314362415 1.0083525811795857 -1.2561199244673085 0.25107858213568773 1.1313231193443534 -2.288831510733594 0.0045627262886814846 0.05858852038460732 0.7123627402942105 -0.04065551740923795 -0.522664506690133 -0.45304814192963694 -0.398697784676338 -0.7315357014475325 0.4532963120705929 0.37836087143751357
0.7581948913911238 -1.0894252865853593 0.7083277464924572 -0.35644428157739555 0.22789338212516674 -1.0044964600223092 -0.6516768101270507 -1.3279542691640855 1.1291140860425937 0.9862656264298297 -0.25626765051836964 0.8420556385538147 0.9956996439397867 -0.37905632365944053 -0.19956772929173788 0.753321563906574 0.8925890739743336 -0.023718699594655057 -0.7005854328509878 0.210445319253039 0.7115070031744226 0.10361863048157416 -0.1248506708273528 -0.2178754009182312 0.856990261044442 0.24846303596452352 1.9546488794630923 -0.053589882994423854 -0.2746466037945389 0.5453858155284603 -0.4990149622758025 1.1585585607203042 0.4465270813313459 0.32340113885036553 -1.6911978093475462 -0.14982263788123173 0.08264782581189684 1.976885920029351 1.023567527502969 0.33246874672140936 -0.9233453650603963 -0.11330022625131969 -1.1945891845576493 0.6906089290492634 -0.5132635578906579 -0.4274711984201615 0.271723715884514 0.6554808284072318 0.13086608627751062 0.3289510060184006 -1.1956408380533834 -0.6840333428714287 0.9225911706479846 -1.234808471735398
0.8941924883620143 -0.5533686492272224 -0.874362961020443 0.2601192234255375 0.5520146171332043 0.05772077258495889 -0.45132584909051043 -1.0292991999141319 0.5167187639362085 -0.04636249481088239 1.297928831573602 0.662555223814276 -0.4049941541226016 -0.23221907205831865 1.0289396824544457 -1.4458712793388862 -0.28514092168881 -0.21575851261875917 0.8202966509960421 0.8278041981811548 1.2177298118254603 -0.0703932631134756 1.5954669803683013 -0.9596471789889386 -0.3909323211362584 0.4325141193914027 0.34997686756329266 0.4465391409213315 -0.1266349979968951 -0.13346885166876626 1.2730762399471864 -0.8210694493803861 0.3957595926590476 -0.7295472368582605 2.121480663774532 -0.68409104870449 0.5388779680986726 -0.6596749009154039 0.2822089121783667 -1.1165065865199826 0.4868786503455768 0.3097859198097371 -1.1904253212865255 -0.29022043461817193 -0.7952911647550238 -0.042479093305616944 -1.122033015351335 -1.3422987614666928 0.6555121507916302 -1.324355598745404 0.1746581312568718 0.7713629743461416 -0.40837687113272964 0.6607687820316182
-0.025570433568545436 -0.043146269075053034 0.39102143572194564 -0.2611484747198974 0.9705053817400051 0.1405820333804813 -0.812215672118886 0.3903175976669496 -1.5396911160940625 1.0460675664018733 0.41954824224591 0.5864004235680871 -0.22821967150234568 -0.45629689730524725 -0.18762081349740112 0.19356447485518513 1.0989869141022361 -0.44667893084771443 -0.5116080424046087 0.8740413761997091 -1.3085983946225568 0.5283268180515108 -0.07867292111994634 -1.4072240023398372 0.3025579668960577 1.1901498726274478 -1.2412628418935894 -0.3918783854591132 1.3233163465772273 0.8428340941287789 -0.6627123495752671 -1.4178217751573081 -0.49764781277899006 -0.11259411604672354 -0.6350358659731468 -1.7561800228723938 -0.3060941119590163 -0.412892826684799 0.23698571371314486 0.19997304861026877 0.3113496408117609 -0.518016416622848 -0.9733813642319238 -0.5712403225310709 0.5696774214733248 -0.12119023642720617 -0.49483396693201653 -1.1870405477396289 0.1639420857746688 0.8725545764097029 -0.27645300962493946 -0.39519577827409264 -0.5964042364935394 -0.8778052143423536
1.0336997646053478 -0.39841425681827675 0.3280522255369435 0.5328854141942458 0.6375732428735501 -0.8530891906634193 0.14920119637826362 0.4518398745441547 0.6240585042003024 0.4485286663328694 -0.5504604604608502 0.20737588060822104 1.0826492365986702 0.07227918103391384 0.4025470747246315 0.585670738068526 1.3808007344599684 -0.2303980279193396 -0.7226182942351572 -0.4164697350078183 -0.5936461462052667 0.7558511430603088 -0.9558445796111184 0.6467886926553701 -0.7547300138441202 -0.832351937870646 -0.6148497411608748 0.5432254892401144 -0.26776129767224816 -0.13144216925920588 0.5250077676976507 0.6845557150050221 0.3514879024142108 -0.5794702628641237 0.45414679833848776 0.4901668654147479 -0.4208170412806722 -0.40794131022902225 0.6829175464211303 -1.4892928758118702 0.6328954308741808 -0.6794912720128046 1.0256098521949528 -1.3567965604706984 -0.36947002427720876 0.6459650073397654 0.3995134051666538 -1.2192464042809463 -0.46849358588887974 0.1355710681833172 -0.7384776663714021 0.830976666845469 -0.09241149289074585 0.44302357689549454
0.40862111846000965 -0.8168842670287887 -0.07608579097391249 -0.1839230900159945 0.8225952870712199 0.7908355268650467 0.042461883596541516 1.5213018001655803 0.7239211986948801 0.40892006955629634 0.3893435221155775 -0.17580063749241304 0.622704087899874 -0.4997218567232741 1.370949444219291 -0.8326310592527525 0.32327033289765306 -1.9395806984749289 0.4585940470446882 -0.6236161589835247 -0.1811548313840628 -0.0661255061680252 0.31238017472982743 0.5056334281150292 0.2843587478195958 2.1755526296854355 -0.07857238273935069 -0.9319671253488386 -0.7140696206265784 -0.6736529350591478 -0.2086747575636701 0.5387260202462718 0.39658091001381135 0.11119024277830192 2.531038442875793 -0.003564608325891505 0.7836719628740352 -0.48615705680766014 -0.19021188733739414 1.1073728592833085 -1.0767034370139004 -1.550623876838605 -0.486144428228796 0.934004111261987 0.3635495105266439 0.06523060444989787 0.6618052350186632 1.8711302248240589 -0.5658350731366599 0.998253370927882 0.2675839604998088 -0.31683573049346353 0.8037140162149363 -0.22862937588419102
-1.3066883892577652 0.04017357728626375 -0.3710850147813997 0.5056607474213723 0.03964806325757564 -0.8791765513897872 1.0292164559346555 -0.8493785677973712 1.3079650367943476 -0.7406433572792328 -0.7580847839482618 0.19995648769480284 -0.6758068130871272 0.19136977534238542 -0.01823631303556339 -1.5878324123668925 1.095625069209927 -0.22872412683005294 0.3645315499213902 1.465382997897691 0.08841203883738785 1.8443147556607373 -0.5129469643287106 0.8637207361619841 0.8532315550301321 0.3852320683215859 1.7044255255745986 0.9256750445255217 0.013055595376612827 -1.0888201471481718 -1.2612333482757216 0.05577746325196398 -0.33480736629353997 0.2207271785575452 -0.7530163226141238 -0.2612853412048336 1.0248426066481053 -0.5123272953973046 -0.902708648454208 0.3425970714767651 -0.07151003957898067 -0.12779103127250663 0.9626483132430894 0.024187473478441635 -1.095539427177976 -0.19456453354238157 -1.5623689261472593 0.8516366998143906 -0.8063675734179263 -0.501374564652951 0.4312424284307903 -0.13797246801672264 0.31605483937258416 -0.7033384621777615
0.6190513837618892 0.14762937114363556 -0.38889358844219013 0.29580732443682733 -0.3295209850966464 0.7574242676564962 0.20191071923953885 1.0916205049180734 -0.4062829241537537 -0.45259106622648976 1.207121594881051 0.7173281029754168 1.4611507420114291 0.791402006831562 -0.07511319578935838 0.6499856902482841 -0.053472877304578115 0.8449985280259995 0.4799581309203128 -0.45141733358693187 0.9842252514335881 1.6854155678827498 1.084179412748933 0.7513749168951895 -0.8336070421284323 -0.44212759892159714 1.0448698341214295 1.0016173482150559 0.7584161156221205 -0.6052442241350997 0.8035759642810967 0.7130990473508942 0.08574897658558672 -1.0526870703924978 -0.5239536492614514 -0.15376154468910386 -1.2653595129528437 0.39039739612877694 1.2779870628935566 0.5123698414319025 -0.8163689188911023 0.5638199436380069 0.03859441929396096 -0.026301945004644334 0.660193041246981 0.9278798558677035 -0.19924360046025347 -1.0816844863676822 -0.016987827676501754 -1.1846538835625253 -0.5743897229711511 -0.004774805730753007 -1.5080455615644144 -0.7951633692218216
-0.3144079462982773 0.620374698104275 0.4559655850401561 -0.8771986527277191 -0.7781992423495675 -0.4800604992924089 1.5928459110168736 0.576375704871346 -1.24565979558979 -0.37518614830038405 0.9601385686169207 0.4305292361338997 1.1175888556614533 -1.2645534306689785 -1.4897393921365523 0.8472103183965966 0.28415963822436124 -0.45474702562699004 0.24457653844497135 -0.016801294697182667 -1.0357887735053968 -0.030014626464785865 -0.9609897741204494 -0.21672706988674234 1.4351891928056792 -0.09911389131081844 -0.6801884182587454 -1.171108962151455 -0.21208647343667608 0.13285941238671517 0.6481596442190959 0.7836744106082971 0.583406811309005 -1.2471751300295866 0.12486740160247306 -0.17871286047345625 1.2754072393173037 1.7387350449226207 0.0212476535861304 0.63990886006166 -1.0838588655444688 -0.002599504578971734 -0.27647358056748433 0.5705933453982844 1.7028565523129071 0.27769632565244873 -2.340914851050899 -0.3181291275820198 -0.3738120977490184 0.8666958930620342 -0.4098142001031035 0.5382440505742254 0.37949477124928893 -0.9863457299002483
1.1349680896102816 -1.0969050680332881 0.1512953968473349 1.0895222630972596 0.930803256059916 -0.08403884286202146 1.4283442857524933 -0.4903462634931879 -1.1818192779748908 0.1554952829336816 -0.4549678923460825 -0.7988732623684903 -0.41386479052287295 -0.30801085462838634 -1.0022676772411967 -0.20595265597544288 1.5734372524526186 0.035031750575796605 -1.3685496737807648 -1.7189711450212588 -0.30103586524824266 -0.5871500202438423 0.7248676368516433 0.13327723102469546 0.6390590942578757 1.0442179016331024 -0.5130340520599741 1.043020475839759 -0.07872851526265617 -0.45533119242868164 -0.7623507916425688 0.30782283561987167 -1.2703165072104503 1.4001392297232114 -1.0163691487809374 -0.1266656714234169 -0.25927711237252976 -0.6333599511766315 -1.305878578573375 1.4446907744969157 0.28033381015328745 1.6895836830396564 1.5238350562657208 -1.0928152490195802 0.03968437142212866 -0.13273921114404696 -0.24124853980683741 0.810722161413075 0.322095806489557 -0.7223055244350995 -0.6094284415698151 -0.20121200794910987 -0.6701833387086662 -0.5052287988452989
0.14288947327149992 -0.27528945283654704 -0.8329816278043549 0.2482582868289253 0.4133119009355708 -1.2664783417396772 0.48296087135736965 0.31780162312293664 0.4801481504282044 0.9553532396329525 -0.07845680198193167 -0.4589974377655044 1.050785532481348 1.4092197882615802 1.4191529850630897 0.36056347569055425 -1.226275595357006 0.8561909110913368 0.5325398782605437 0.4444150771724032 1.2195539954401924 0.8891297554150114 0.9709028551975316 -0.4919984388388339 -0.2130882975344463 0.7742827499501665 0.23709680055177007 1.301564941541109 -0.3350683721918059 0.43684985596687864 -0.1485125842979691 0.3532569781831505 0.8978981519617613 0.46714312238274647 -1.2064776272544042 0.7580558482212594 0.9542862486404349 -1.0815778497794855 -1.2024250847486126 -0.5332367964258538 -0.8032444735747564 -0.040952141396155106 -0.15284292960118806 0.7794166723643645 -0.7251207145456071 0.12814401881882692 0.7729282397416601 -0.6994998616318643 -0.3141248806964765 -0.26420421937194427 0.33366471685954263 1.2254436310723402 -0.198069677764592 -0.18532668445656825
-0.48382753747062246 0.9804665623390241 0.3537578350246397 0.7267504258074597 -0.12343074751839522 0.9200349899400052 1.1818955003818101 -1.729581061202505 -1.7126722254137334 -0.1809067033807789 -0.043718766736548176 0.07641652349534078 -0.4377625286906335 0.5493399644971455 -1.1237236936739405 0.29315968634054757 -1.1285795765734143 -0.732079921736011 -0.06634490221856892 0.14919052344868017 0.196445140341594 -1.219757859673657 0.4780769018250475 -0.21494736629660238 2.002114613238248 1.006066026968833 1.2613102420466824 0.14432805074396143 0.7655286685593516 0.037645646331026794 -0.39114249300892223 -0.5401884073548155 0.2735582535288613 0.4908148373347268 -0.3957345624686224 0.428676392148406 -0.8454632473912258 -0.6473854534466151 0.632783362151067 -0.3518173330106627 -0.47156409800501226 0.6759072794007667 -0.5821857619016952 0.19318159404248442 0.15059273714011656 -0.6743196016709295 -0.6877858895192388 -0.07096284497063615 0.28211930626192433 -0.9630227818889114 1.4762168973183585 -0.7336721056484432 1.453497518143445 -1.2144959714028607
-1.6286542854082104 -1.5614452856355046 -0.9552604868040464 -0.6260109314456349 -0.10574861924254475 -0.39624328508215195 0.39449249446262596 0.6810936903097387 -0.806486013315366 -0.6387697770426088 0.3881923161102469 0.7888187103377375 -0.27360730598841027 -0.9701189854288821 -0.5380321835513229 -0.1335328073985506 0.6027839486804573 -0.033813202268464126 -0.1549441682420824 0.05403378083542426 0.7930387161960994 -0.39009567335551537 0.4593335573192486 -0.1377860611403378 1.9609076957020735 -0.4325873806104086 -0.7058399793637756 -0.45835397350748547 0.5703198111539923 0.4206774088088105 -0.10623740800277826 1.0595788042824927 1.3546425842572667 -0.743024739297371 -1.1443943626504067 -1.1558556945842273 0.026447364251798777 -1.0556967123080838 -1.5398355352962838 0.03521198101560852 0.4062187798086208 1.071879146514939 -1.1749170856772868 0.8554500237958946 0.47796986072565056 -1.3769397249202926 0.19217567301271116 0.3595759467000037 0.09108623459528115 -0.07701012405285129 -1.336564376154567 0.8741796364087622 -0.6300197282336069 -0.27793952800971783
0.35073807625589837 0.6253431165451491 -0.10478430219995266 1.8306030075270663 0.8718427226419838 -0.39731762443803464 0.7390532916660781 -0.28044441254465163 0.8209024550464965 -0.6000393656666709 0.9353756756184992 1.1566344585763733 0.14108623767742218 -0.4483309497688279 0.48313866406425166 -0.46841900079860666 -1.1859836548075604 -0.07278953940427818 0.9175033592080406 -1.1794107992107379 -0.06665970010881617 -0.1263485818067071 1.1531439552703446 0.6772290520159641 -0.45018877109111577 0.23137029231614303 0.5567116850659615 -0.5391852386433305 0.01361775321756209 0.3128844282173696 0.18906138714452864 -0.3901792701458637 -0.5916414801693886 0.4551839808889293 0.40299779081666887 -1.2534386098796828 -1.1746637014644488 -0.8599518278602802 0.43133585447232636 0.44172103057912077 0.9214788636339069 0.4068604970672091 0.5971345079939305 -1.3833439658780469 0.19380400046609947 -0.44768837488452895 -0.21977415912721976 -0.5459057409356792 0.12334185404917108 -0.2230077637408756 0.2533551345345314 0.4557709767331805 -0.7959253793199693 0.9848684882442686
0.653227617060186 1.1184165774459076 -0.25121122530768913 0.9063304946623035 -1.215971642663397 0.17918272208211167 -0.6065576184918718 -0.250870618531686 0.9865713016942527 1.5623769001689791 -0.314891757393587 0.8796832971146874 1.3118388350681418 0.6361608214356771 1.4062719120485385 -0.6259208760420989 0.045637653993763905 -0.7158407678656389 -0.6145477559704694 -0.4574540694114733 0.09448237930155906 -0.04207577158363224 -0.9589494993598027 0.37830811453155255 -0.865492062011723 0.8039857256561522 0.049048505464594994 0.8470117638085273 1.325933814410571 -1.13491825588393 0.0993105046662493 0.6989004830888063 -0.19778822504284005 0.21205202733493295 0.8617250262447966 0.7089335710649038 -1.5857424639743434 -0.6975459830684794 0.8418364425581646 -0.29169080536688663 0.012736973898188175 0.59364223394724 -0.8473160591780752 -0.723970517184243 0.33252358301814977 -0.41264423997906796 0.9308848458096038 -1.6682360919357628 -0.6296960121438557 0.5406973424756965 0.28392080572786904 -0.30001616466255643 1.9259561797545128 0.8919645316982555
0.8387946439434344 -0.5746592257639787 0.21174839688895358 -0.4075203237265564 0.25376206858365524 -0.718875572507516 -0.24014902073663202 1.249537620255008 1.8427730131112734 1.9303491401169255 0.035329853096990216 -0.3566241975946582 0.20473574111441162 0.33026913706216054 -0.5770724303033508 0.4516902401002907 -1.6055458694871094 -1.0116907604178056 -0.16124038123555706 0.29768475182164583 0.5845831567502273 -0.9658392970146099 0.6969855260473445 -0.6433792426364598 -1.4140196205521238 -0.37920961773498496 -0.15688175124694143 -0.3599033676354088 -0.3652972680791145 0.7524965346334166 0.43248281471957173 -0.506663910258096 -0.31139818040226774 0.6953918689427219 1.7901189748135704 1.3897570680114617 -0.9542641506797627 1.3308090607934246 -0.05357295805598156 1.3297163783110757 0.7049599678005034 1.0231005509270714 0.4858713752757335 0.052330159288546174 -1.4181022368539755 -0.5409185700712322 -0.49737133024692226 -0.25274651564895134 1.1797113242274382 0.055604668023772785 -1.3363427099798582 -0.15674520410280363 0.3552040439709504 1.2745436223551758
-0.4781057402100292 -1.444155771606731 -0.08416263180110217 1.050014725064017 -1.2601275166594283 -0.1184907709299945 -1.054048896062885 -0.06928344346999205 0.9159520736357931 0.07887240253369154 -0.20070723640158838 0.07634721314295223 0.8546479410282751 0.7881916833482545 -0.1509180435960762 -0.01979525271720839 1.3785867047285418 1.1099079397198235 -0.43860609678330587 -0.727075880521325 -1.1675776050861542 0.1652055342957885 -0.18234625946634436 0.7196233123909989 -1.562495320653003 1.2368059952628752 -0.5642413359292144 -0.009910130301708175 0.16160753681221618 0.11761717903918789 -0.5873714911077552 1.0774907195305696 -0.15996468675720116 0.0015275928642097258 -0.23261484473869393 -0.11069653898851872 -0.6233789514156911 0.7220924264289732 -0.6581279202877942 0.07928803780072835 0.19551521046516396 1.376181472985147 -0.9995054843636769 0.6414706882311312 -0.17055706249274238 -0.3892862348964134 -0.6221390710385536 -0.38094152003397996 -1.23955127589999 0.41257147072122186 0.24711495418320006 -0.2957183416537444 -0.41775344077276033 -1.1829340932266101
-0.6906747902679394 0.6010707871894214 0.8418177660872286 -0.5164363809086299 0.053917364518797695 -1.1688563446014213 0.6428051018824537 0.5877592253139545 1.3266980098437309 1.5861362020584555 -0.4006312764430805 -0.7225568832290626 0.285881822815275 1.1741469659359742 1.9566163980693583 0.8397657729983807 -0.3378356050669142 0.45717018460959047 -0.12291148083633341 0.6887876401990227 -1.2266938258615565 -1.5084154046428162 -1.394788353959139 0.31593750847960084 -1.3223629833894508 0.7127898609452137 1.462209978498922 0.25771749039798847 1.428238670625126 -0.07289554671845616 0.596525386201598 -0.35284776327291284 0.6443508767310165 -2.141700568469262 0.10497720029475355 0.33918103229109137 -0.5193278975380673 0.7115408488255741 0.9063145021826112 0.30387431229388284 0.5300962655694996 1.254493981899411 -0.4637267219261744 0.727388660219632 -0.21951486561391242 -0.08659445347998057 -0.3680630417611789 -0.038492714818200824 -0.06501146400440505 -1.446622565077839 -0.37167523549667536 1.7374562445721242 -0.08398201426435814 0.3577165609813853
0.13203092418938572 0.44361178066345397 -0.1975355569680589 0.6920671520241508 -1.3419459016731534 -0.23355162622831127 0.35779278413357635 0.21180933848812405 0.10243737810566994 -0.18790517599222345 0.03749395226901209 0.2679955912067691 0.16478737011995193 -0.4456074641749663 -1.8430247339258234 1.1367942141233156 -0.3942300506196915 0.6314956147226264 0.8461443395370764 0.009778889936335411 0.7208007616417018 -0.19393169262748378 -1.0851567777062472 1.3952299502358982 0.02579906301683027 1.067890222046044 0.18290984890449097 0.36204920231839116 1.6951810944171133 0.7575162275848508 -0.46528348422847704 -0.8439423969757037 -0.0993622288374641 -0.26266236945425886 0.02569099415286874 -1.5507948908284095 0.10905777865221755 -0.7461909099599386 -0.2579404590412847 -0.5717680607968831 0.43160152562657705 0.4823922979234618 -1.3543375200735701 -0.0791269492220818 -0.18415912621461256 0.880445924261964 -0.9075137564257525 -0.9669994752488846 -0.6173551734906662 1.1523081626218992 0.3040136683190288 0.8821149160271647 0.7336269796424291 -0.5386004834687519
-0.05352164341482124 1.6253468492676568 -0.19714003647345507 -0.4526003248058453 2.3120930800642885 0.1552461068140944 -0.09671004856127036 -0.1554470947180694 -0.31837503412158485 -0.5762143368524764 -1.021612173450793 0.6695043457928616 0.5528848396007577 0.08881633224180885 0.9181124087210814 -0.3266779188054599 0.01621261807120722 0.19447033017113158 1.012771810419975 -0.47921541589811645 -0.15147410013354218 0.26102139921951684 0.14836645555015554 0.48395228045828115 0.49619147627009635 -0.2512440339728357 -1.394406685071971 0.6775052792473699 -0.13722471414209597 -0.5997001756355149 0.8700056378589311 -0.8071268677904826 -0.9087523816436106 0.935394158915212 0.053631783948086986 -0.39860471894062116 -0.7642107102388046 0.05451848591273206 0.5309933972385765 0.9090690372433545 -0.492393669264533 -1.3413855891406012 1.5987775763660417 1.5192614947554317 -0.9378171008370746 -1.2869509093283846 0.2516828413070328 -0.9291269015351706 -0.8540423427042991 -1.2421380648609022 -0.9379194792162744 0.80905574944104 0.7325609228688239 -0.7438659246055801
-0.9488233697871915 -0.4065602604630737 0.6691910418487631 -0.6448156811491548 -1.5095451184160893 -0.48368820513852767 -0.7690232733451758 -1.3095121871748294 -1.458232100381966 -1.5185536091834098 0.6927414187895944 1.2722429350543725 -0.21185969073719962 -0.36400642768125807 -0.6536939234374419 1.6024812453044208 -0.3313278139270273 0.581308388132485 0.7953010974948924 0.34814225422030043 -0.08122809898556499 1.4720007408248676 -0.6741346856786853 0.2770740109659492 -0.14826933957626603 0.6047016870442956 0.16962186652111172 -0.2977523106052996 -0.09317811500537887 -1.750644185906848 -0.6321277281932176 0.0093286484902938 -0.523661467930185 0.3814771517307247 -0.6685506827023947 0.18091583827952895 -0.14126358212339807 0.1944451377879013 -0.22041883849965788 1.0224143407425759 0.9139431772067643 -0.4659495982208607 0.44936018462871136 0.6783705293791162 1.6715833533511901 0.057092519376223005 0.08106350279402263 0.5512909317057553 0.3725602956094544 -1.5754770083551355 -0.4541686487864224 -0.08593840968258531 -0.8280020692986374 -1.0619906924409388
-0.8809699524093351 0.9977545180933647 0.31928924228460787 0.4425561141481196 0.28777329891033443 0.28232175060414605 1.7244517627941047 -0.5883285581917239 1.1508331346082556 0.6066806808674818 -0.8771023144982876 0.40472841889855066 -0.23614223228401 -0.8114140366297664 0.3431082092848388 1.1314219847354476 -1.1073662961056185 0.8004938354737019 -1.8493267624471963 0.2876652065801293 0.7265335210297861 -0.13115330061535257 0.2998777644527577 -0.8870044180258929 0.6845231545537739 -0.7311174598516047 0.04967679289209648 1.7125610989738487 0.5869637735987576 1.1924565179118887 -1.2998087995817655 0.6080737511083585 -0.5775233013959096 -0.0329499808137621 1.6437657902649274 0.5014026264540961 -0.3912130418937001 -0.17447806928350268 -0.4470064658467406 -0.8909059752552617 0.7963778746452926 -0.10037356801158659 -0.6647241440998308 -1.083476422252134 0.15591904845218063 1.3447618541016269 -0.6803905468008185 0.1265633556578445 -0.7268589728365779 -0.7905842976733854 -0.7915749769591742 0.5930170936020547 0.4906986243131267 0.7526364667686729
-0.050342545474014455 -1.221530801425044 -0.5489837115302578 -1.871454469141509 -0.3772540602760738 -0.15400980561705907 0.04295272048797305 -1.0544484886871928 0.49566844006718447 0.6093651807867364 0.6360789023248541 0.7959818666080127 1.3730472855386564 -0.9091413967095258 -0.03440055103840761 0.25935869969807207 -0.8360395008436173 -1.1818556896145018 -0.04315952321518307 -0.3697888147546747 1.1974171411139887 0.1336429547493641 -0.6417725590196856 0.9391261240474622 -0.24709276068693042 1.2382189066824587 -0.8692994907630587 -0.4790758581652686 -0.527396044211484 0.26590690491226937 1.0492002553574746 -0.8441685504844534 -0.44853904935269573 -1.2798641627438059 1.2244346279847278 0.7254750496454667 0.2589320439629807 0.6885596352962186 0.3407094330239792 0.3130766007362496 0.8787621035582364 1.2927307857246688 0.7646032837704722 0.3919041146993824 -0.5642011974242105 1.5402229216895849 -1.36049515979133 -0.46779188312125947 -0.513143684508949 0.1329741153750928 -0.5340774057853301 -2.273743186135247 1.0152359225193166 1.521084634506606
1.0527933787231207 -0.5631955595874161 -0.761874671993261 0.48112159008035293 -0.7267048514537122 -0.3826694554161133 -0.8344063051592869 0.2801463063678085 0.2464846189647224 -1.4068819148561635 -0.8334196089080527 -0.9512621175279686 0.4019790598266085 -0.10446534284533804 0.46502131802304575 -1.4608573499299988 -0.600502109867499 0.4233695269965809 0.04995478394710612 0.7062540622368545 -0.7023519122363417 0.21593904080382537 -0.811889284784152 0.07186012952885662 1.1582955710912795 0.9150621909834219 0.36613937731762203 0.356209580801893 0.049787018977487774 0.24456115113255056 -0.4106393487728511 -0.5645315963718566 0.39546397590310517 0.04341276697048285 -1.0952835733745123 0.1023155928208691 -0.7016238330233813 -0.1636480387511154 -0.49374784602681504 1.472617867974022 1.0466557190287133 2.0179326556587087 -0.5924123357171667 -0.4795996328848969 -0.8328302767987945 1.0635139414455743 -1.1234925629116945 0.10283799900881802 1.2484073597746796 0.32696473608701593 0.2481034172102624 0.132801759143516 -0.3494874420175963 -1.0054037730996281
1.0819951250884814 -0.5019542721352757 1.2734591717446337 0.48377728115626517 0.24277535075169349 -0.7046692198608535 0.8712657096913792 -1.518350556803186 -0.4162899519330341 0.2850027136395997 1.6858313839687287 -0.5811919450855638 0.7251686365511795 0.20161123837039807 -0.06661214155243583 -0.7196011005971228 -0.9510575421468991 -0.8557570937708036 0.9626964561396494 0.8393395047381788 -0.5915258708346006 -0.5285439268538838 0.04838860882669088 0.21971838964006463 -0.272125165778284 1.2798776776019705 0.17906158959748802 0.19337443339938143 0.4898568805252189 0.3265400933632375 -1.3988940479918952 0.8629582614382296 0.47239502485245577 -1.3964442842996263 1.7747303352090944 0.7049043214585231 0.29630794714532144 1.0567239162770887 0.8249371954989748 -0.542504015162452 -0.2615732596265552 1.7415697981627536 0.07369378423378736 0.45015451336305407 -0.3216361252786265 -0.8697141701348005 0.21600134883518213 0.1532961430279844 1.0969614586682592 0.7121522942670387 -1.0984419796103069 0.5797369317012887 0.04884895726721111 -0.8207338493392137
0.8849569534818125 -0.8900045303022521 -1.1825339346857064 0.8563793244464868 1.2318136771057187 -0.8784467076636296 -0.8211767392896974 -0.7085617057238545 0.4382935192168288 -0.7159627264773513 -0.3342804239245239 -1.1798714548480462 -0.3786688789869976 -0.8881724808419438 -0.09866875608191727 -0.2870834474427109 0.4088040537678226 0.39227139253418664 0.7754964220530811 0.8942750868113274 0.24581788733872917 -1.687952946363978 -1.0900305041610685 -1.196488289129943 -0.7199363409930554 -0.4085440990320212 0.6458022981980136 1.2086680483749248 0.22032464713004546 -0.6277100513302987 -0.6682169876394891 1.3443211256771395 -0.9392476562949469 0.8272678524531161 -1.1916541031793335 -0.6209583057441264 -0.7212886231080615 0.1974704781260468 -0.518595137977071 0.24672092795982192 0.7910119465767096 1.8892157473365583 0.5319046967996539 0.10714297546995305 1.043030321650077 -0.40071428707433054 -0.35600133669078055 0.8132498114718887 0.771413353771746 0.34374730610995796 -0.03955213888534265 -0.3254088121040138 0.219086808864202 1.1606185820379553
-0.19684604875810996 -0.946673441150795 -0.76876464860133 -0.34556393735377133 -1.0876800521118835 0.5224102537556607 0.578832804679658 -0.3289075586054353 -0.7334106403268728 0.43743353410146063 -0.5448205918836229 -0.9839124233194774 -0.06594913734413221 -0.5359555060146618 -1.5844352498142664 0.22512769193481696 -1.3322981368521503 -0.5672590157643316 0.8550072952750172 -1.0258337459646913 0.3569939637633823 -0.5513659400545329 0.024444035178594836 -0.18245745585146794 0.2725953953228325 0.5290964351280902 0.5635382334696695 0.8191622747337284 0.29145708904730433 -0.8562712821402633 -0.6742477053019951 0.7591027062453191 -0.9055584323092334 -0.6985155384320763 1.4687122539660766 0.08444671629117612 -0.24067330792842012 0.2783781808541188 0.5328539968835033 -0.9582080072823106 0.4485855117787804 0.4649843537974296 -0.48734536675896933 -0.4341632555019874 -1.211010907642919 0.46206910949205865 0.18540056816431427 0.8268210707374369 -0.1721135168751744 1.0166149842207721 0.025455922561464506 0.9804196777723306 0.6478792245277312 -0.4571561377222172
-1.3777546066639563 -1.043312431532906 -1.1917297286539141 0.4367482777148802 0.7278224136124974 -0.7526683713528342 1.0634482646721777 -0.8604908521056054 0.6480551944215107 -1.2327712574387224 0.17045986457351503 -0.09489218736973437 -2.1270228848567005 -0.8076921143015701 -0.3518112322645984 -0.5039002504020262 -0.40052250056198685 -0.07455918104482834 0.23599075229798022 -0.6809025822086281 0.779977473953633 0.8737202075543571 -0.41635441564257836 0.9180853931474784 0.8742448316328412 0.2617415133144364 -0.6458722267532035 -1.1061231238717197 0.3158149445719741 -0.22736685682120678 -0.30225435539702056 -1.5829441192013491 -0.8124632956035956 1.0476847943614924 0.5760660912149178 0.6101563409356747 -0.8631039653057136 1.2321379920812008 0.6671747158158392 -1.3261371065645826 -1.1363188263020862 0.5496436480103928 -0.5922147506666695 -0.5006738587591664 0.04702493833898075 0.7887600558631258 -0.7170897229707197 -0.02853602081027068 0.790144862859717 -0.19247941848004052 -0.6280012075598294 0.7249398106801188 0.7429157621087231 0.4814522653353618
