0.22823452197205152 0.3787245521250787 0.8342349351265799 -1.2067738433621873 0.8143969403716971 -0.9218039408963126 0.2821057660542629 -0.03268033154739075 0.5118371069768175 -0.19033608219067838 0.3732444916346948 -0.37015734168787107 0.6763234037729058 -0.4890204076564588 -0.0199206400648832 0.5688697943484593 1.5304473112562493 1.4271297418628202 -0.7379406728226203 -0.10167089656862094 -1.6052515761702755 0.06934692462432579 -2.14478917524317 0.20095181674493734 0.47070814698428093 -0.23151429863815182 0.27850409043076974 0.05157274027999165 0.32870776690263875 -0.017740649100372707 0.6118970026386809 -0.4054278690559701 0.6181233339806078 0.9309971816511002 0.3227181403592732 -1.022107814712164 0.45392327599540416 -0.19409554224545483 0.041129022486722344 -0.8807519605742566 -0.9394925870916857 1.147018761757327 1.4782569026102235 -0.09805850916048914 1.4436005676337622 0.6899915507050154 -0.2603150698716566 0.23472848292517529 -1.3910429969362332 -0.6185115494078776 0.443922481779916 0.4810211200684644 -0.9130176332662936 -1.5020827844312483
-0.321819431867653 0.9121152562367352 -0.6432372282742354 0.6016878584810217 -0.7934273476424056 -0.2166614740115892 -1.509527317434868 1.35077521400169 -0.4145608318200052 1.3446662245447256 1.338944217379817 -0.828357276808837 -0.6085266828451299 -0.6284491725941987 -0.5719787782409016 -0.8852695434579221 0.564729531300241 1.7203305077816726 0.28405466211744995 -0.9503502486011393 -0.07176205536832975 -0.4387131598278178 0.8747651789525654 0.18097508311452004 -0.5298001675312852 0.7744396119197969 -0.6617257493255435 0.7134165618788517 -0.9333086002514378 -0.4286590700932041 1.4331293763615192 1.0427222844892046 0.26553367781031334 1.2557941777019082 0.4514361797030997 -1.7458916704533292 -0.6251900979299082 0.47611075046655704 -1.3562037952629005 -0.002863599245809645 -0.2687096271959388 1.9818066624559292 0.6490324752436045 -0.33466669338606697 0.4265519576336142 0.42137503615099364 -1.2702648921377755 0.4904498760540565 -0.9823193502160498 0.2065607988178783 0.6638172534977889 1.5141039497629816 0.7924135932998658 -0.44783787945396303
-0.38973404713629134 -0.2589376352695104 -0.519628303435139 -0.06302316055638257 -0.7075450018772311 0.8751973857876719 0.18919299949572738 -1.0372560374795599 -0.5345216491153151 0.8094934629583121 0.7508744493564651 1.123055792122237 -0.18702799978717682 -0.14928374291374524 -0.7668277535162237 0.8431147781286235 0.930847713645474 0.4811294569371757 -0.16830870468324793 -0.49765570985357727 -1.6858049287468178 -1.9209103488570025 -0.4058922655181817 0.49230018784187296 0.34221611642721994 0.1411772673730528 -1.5400118815192432 1.9098292241164112 0.3599133317001775 -0.13318900928396143 -1.1275624528553851 0.14020221656316367 -0.6985500881534904 -0.23308311716314428 -0.5996613462449645 0.6471473900448883 -0.11486895099022737 -1.16782236343272 0.047703275012395185 0.37387156865671267 -1.1239423518641374 -0.9091336544918611 0.6662822027548878 -0.1273117763782664 -0.27422506796094165 -0.6552748254308185 -0.4980340997393001 0.32078668588983245 -0.5461606192850395 -0.5148616124512737 0.16860600538897152 -1.824294740829311 -0.9674466829197916 0.3277375555527171
0.6146159394157122 1.4438587635640574 -0.7530783704590276 -1.1537873145907893 1.1437972218554002 -0.545011091786705 -1.2697650998834538 -0.6514996251870042 0.8018451792925669 0.3263821510104793 -0.4710614246276541 1.482463010354913 -0.33218538700871836 0.7536424916477411 0.03551695591922427 -0.41187315299060995 1.2058129246732783 -0.8068318715599073 0.2887441101749641 1.104325004936488 0.014967280419463491 -0.6403588740899024 -0.47009412616070967 -0.46342806724372104 0.4218551907163659 -1.0318405770293069 1.229411766317712 0.29491730180214176 -0.6546747908685397 -0.3253566320334812 0.5472886162894357 1.5785074074899452 0.7649464089100702 -0.6158913169164533 0.6908983700238253 -1.74153119651593 0.8022061297508144 0.8015149077691857 -1.2797031557597247 -0.5012585641032121 0.5421119513369567 0.42820573252673133 0.9023792177151313 0.24725373369424508 0.03900958890237349 -0.2306872356870343 -0.42853807336028743 0.7683638329568743 0.285737842160327 0.055498161249436184 -0.925656093569057 -1.4303197625677904 -0.9576455042557743 -2.4071412218213144
0.3754626484838186 -0.02946824740598264 -0.05694436441634931 -0.2454152137899775 -0.5143872316692093 1.6210830477901448 -0.5935370634400257 1.0470657615262362 0.2583058857420759 0.725750365123711 0.1552030269030456 -1.5491485753485614 0.9561990812523748 0.13109530077840398 -1.0184301823402788 1.0202522886829584 -0.4380850695655632 0.6018879626016721 0.48657607827170074 -0.28540085984937913 0.8430961398398057 -0.6325430307452072 -1.1162417853338624 -0.5338783740934889 0.024316166132417383 0.6364321851678467 -0.9313786147296501 0.5541821583495733 -0.9209942978256992 -0.0003224017534938506 -0.4059649378833406 0.5386133291938193 -0.573769306101497 -0.6391505938560444 -0.31038767666223444 0.2069582835383748 -1.3440537463266333 -0.6998541485063237 0.7937606248479312 -0.9148461501688556 0.30916906556310997 -0.4520432472064482 -0.7188975055303346 -0.8600442139276809 0.32023102817086424 1.017091822394348 -0.7560102821900219 -0.1165486827323457 0.9921921891213823 0.38584158437865984 -0.06418235485262763 -0.580977508604215 -0.407597583999732 -0.7263293542788118
-0.15497734722188278 1.328190159334442 0.6612154089572728 0.2812639787567028 -0.3599725386114058 -0.8919273479434628 -0.4033824511531736 0.020246477546283392 0.05615407585298865 -0.1813707079823208 -0.5082148445593551 0.3846167981968722 0.008304203209162808 -0.7241885967636275 -0.17218062665176076 1.1061555574863695 -1.4387599233830284 0.003842049287695437 -0.6471711390317347 -0.06450145951752784 -0.9210818563473603 0.5608385241381102 -1.5865411809861159 -0.07961778785819457 -1.4583752840202602 -0.250314777111592 -0.33064561336341897 1.1022534586257233 -1.5433395341160503 -0.35166722745211276 0.3652161953511062 -0.3947755069907253 -0.8466467510655562 0.25511991850251664 0.1117072222508349 -0.913751475515203 -0.7180755991070168 -0.8010123094469296 1.4801349202727414 -0.5938729667215848 -0.6912826999605526 -0.9704465911167313 0.9066551678657351 0.27350646758979885 -0.7738313846397402 0.7588017692821074 1.0156026405034373 0.3762466262014904 -0.6089253262993732 -0.9132954971841108 -0.16994657905974886 -0.23855456084905396 1.0798976005075807 0.19565440498008874
0.39914379278294804 -0.7159979457953315 0.3784123668660374 0.4145644374097741 1.0212766576573151 -0.23467377545236034 -0.8027552723021281 1.4287195768420968 0.24875324081700023 -0.45056414939962364 1.020385321674992 -0.83355912548421 -0.7283174871792912 0.2073828087552384 0.056203972742072394 0.16134157097805812 0.6276084737825155 0.36447944715982156 1.0251398917995476 -0.20653841492856528 1.2091815396513126 0.09365163417714889 0.9964402921878328 -0.8523019955996477 -0.6934018279877926 -0.7355266969288883 1.386166661353775 -0.5139271347533805 0.6857891334131552 0.5639057593161331 0.15382037522429715 -0.7075945367516674 1.4902102145164 0.7225920354446 -0.4549947559620506 0.5970748412591149 -0.9542202975194191 0.6201478315117176 -0.3209488407094549 0.4459472036563706 0.3704882064224797 -0.7491053608014434 -1.0467983181492637 -0.06931900094222387 -0.42319037375584767 0.3144314699309132 1.1530099707264125 -0.9082413251851451 0.4511488406200622 -0.5836141629310573 0.803294806295197 -0.5032239831006395 0.5802218770378891 -0.5158138442287432
-1.0164281342146588 0.4233885556343323 -0.9333869802842463 -0.4250464279737903 0.7023095139415715 -0.6156530163916939 1.4811904463365184 0.46507842963668883 -0.1311082477584149 -0.18407689368611518 1.1426464883060619 1.3776921904690091 -0.08336301666208756 0.19315672927966754 -0.10397436520785225 -0.9056400572896584 -0.6718754760210148 -0.06163241919167006 1.3711994663718137 0.1776701598339923 -0.2877766973347227 0.8733123957886895 0.5243174310973282 -0.7760299352609521 0.5474955219842932 0.3288648918009717 -0.19218395956305073 -0.10831673565666361 -0.7307926148643084 1.2343893350064021 -1.2845109520408065 -0.44566145877808117 -0.36752092958848986 1.001393352623356 -1.2962638120078647 0.09194024754897656 1.586939849407306 0.8785546166856292 1.3569306652377153 -0.30616132523611833 0.6248006858389488 -0.5459928013872873 -1.0717076305152327 -1.2606721444226663 -0.9582784659212873 -0.04639165176195853 0.3610085686581003 -1.616113230513963 0.3163641487957522 0.9020325600872082 1.090625618488371 -1.507314446880121 1.2706076167139397 -0.04578294461977578
-0.5910087457482072 -0.6272656481060821 0.315906460875671 -0.7405050682779439 0.474676596702194 1.431300031969826 -0.4239639102619321 -0.32468116642097167 -0.02804612685235891 0.6967810615060777 1.1365585725512533 0.5474924020646621 0.9892264957699259 0.5438745856348636 -0.796971490026851 0.8119548513701356 0.9934052843016508 0.41739978507453296 1.1728781440830267 0.3068180460609358 1.1369073315822247 -0.6017619018138374 0.14648416860265207 -0.4653011589445637 0.3004514777545627 0.02628028985024733 2.1150996870138146 -0.3900065141151472 -0.4132365957763135 -0.3522913004241972 -0.25568136207544717 0.8427232085491143 -1.0742173765891745 0.5959594623008186 -0.3572655968237052 1.049033462039054 -1.0357229252459041 -0.3952127949319098 1.1737573911002537 0.2819691736485157 0.6770868147661269 -1.799821697177854 0.4916123064103385 0.44902832096288053 0.5845095713428767 0.6243409734960884 -1.722172740165537 1.6656468164729892 0.2712977729305773 0.044166140928408426 0.3617573859975818 0.3529085930256305 -0.2113369210463829 -0.7173537733246282
0.6865197762540749 -0.33353586345288416 -1.1356255423356991 -0.4326535889223755 0.40132484676277175 1.148585429477889 -0.2608781783392359 -0.034559265555541285 -0.09424663731495542 -0.6621114723086784 -1.3669463186865345 -0.19594712151045585 -0.41586879403475735 -1.716350294981285 -0.5523621899273667 -0.5851313530085478 0.17251191937919297 0.4305179034109512 -0.5056648815024654 -1.0358548102656986 1.635476188018557 0.12105128953247718 -0.7752798726350831 1.0231664271240761 1.9254220864729676 -0.011548842730554176 -0.004235826219538219 0.45916194680131217 -0.13611641308644767 1.3399378413634306 0.40989822108000384 -0.554091195662824 1.412035228538254 0.22790379484379114 0.11478650792074557 -0.4451689862650958 -0.2678565642258794 1.5001666447018505 -0.604671675129121 0.4786242830701192 0.04742456727774347 -0.33397474858720344 -0.26531022836779183 0.40352486710977054 0.3732308697052531 0.37300177065913503 -0.5355789390831667 0.2666544287103035 1.00991406805945 0.18247399671753445 1.0330404942196154 0.40053070465476986 0.1639334021692499 0.7291420128966837
-0.41673003951780174 0.2734783870663389 1.5454974479137848 0.936013460310708 -0.24392892083483964 -0.07532797434823796 0.6705913448356327 -0.10725452931042967 -0.34341965582698714 -0.8545129551403262 0.695793206695039 -0.12427031078169093 1.2547250787070463 0.7480130572578902 1.907126634553887 0.46978436173777904 -0.7709035876997364 0.4892890197955461 0.3805316840355214 -0.0552213067087845 1.3518741169972521 -0.5721861691374445 1.424929742800404 -1.6278288366007039 0.33899850027460865 -0.01985666757057264 -0.4488836893876084 -0.06373854559209235 -0.7472674467847782 -1.542561542912112 -0.8064633520787832 -0.10883610232498497 0.8098003257177369 0.6753743880680432 -0.09846344610735286 0.3987139443394806 0.6033556294280633 0.06897036810008345 -0.11389975280996167 -0.5177006379896998 -0.793581331006461 0.03512634642833501 0.10689133024249792 -0.9308146555931781 1.1258010055388261 -0.4473499619506651 -1.1605014488722818 0.18435925664854763 -0.19808958265979276 0.9433396679397799 -0.23599594755464137 1.6112065210064181 1.04594947621348 0.8443762482885022
-1.2049800652228273 -0.9235424732652803 0.10574668939357007 0.6882075112122995 0.13721454450285625 -0.5275709337675002 0.7934014662315858 0.8806794914394869 -0.0728484444045927 -1.3345114119483323 0.5076957444822432 0.7417561808850768 0.05014919904893517 -0.7911004194974669 0.4396218065298613 1.170340083595363 1.517067089205072 -0.049776187763520996 -0.8743048068662074 -0.003687136161113047 -0.8187882677922234 0.24330036271945238 1.8180574529266456 0.9393429514255505 -0.6511880647762938 -0.3226581980514551 -1.2305600991390244 0.5587871765772007 -0.053518546019734436 -0.8523715257208634 0.0028171824506462717 0.989625676300171 1.5484448973490237 0.060173117889540106 -0.8519570920616046 -0.8523100510167236 0.814013200887145 0.07815435823043632 -1.2233267931146894 -2.438601896041488 -0.14779102205280614 0.8296657293244776 -0.30672221779541325 -0.8668016518843351 0.6391006142960114 0.776101027054433 -0.26820237018421034 1.4681277955117686 -0.566716888296417 0.7312280952333267 -0.0555213623962747 -0.4632102036356821 0.020762576238516406 0.41263925573255555
0.6090805405145396 -1.4433274733616728 0.29313447211976945 -0.04154504515085233 1.2314404157622307 0.08064147920467313 1.9105392512347859 0.7713948674754736 1.2841112817165043 1.1855267298456211 0.8825751653540679 1.1146529662103208 1.351211561816556 0.25420463873706206 -0.45964696426575613 -0.6903264708923491 -0.429523056007721 -1.0072459685881143 -0.9707497021829519 1.2127435154725033 0.29469108298417573 -0.36762519768130153 0.46175072793879834 -0.42013202792707144 -0.49771668190461127 -1.2177957201500076 -0.3155832358623469 0.4871332197046124 0.8874224192420661 -0.7606908136144694 -0.0062853491484864965 -0.5283203650196068 0.9388283946739391 0.14997545294490466 0.1768812951406339 -0.09731810807326324 1.0772510702986242 0.18615672775546638 0.48231843724288703 1.16818256851617 1.2307093920027765 1.626020568229041 0.026508186879870776 -1.4466511809843934 0.3834699572070546 1.8893419642020388 -1.473205586531886 -0.6221412215472355 -0.21312305169964296 1.3945701752553181 -0.20984049961919948 -0.6532459838705289 -0.014448828938786296 -0.0540765800793791
-0.40793147880479247 -0.05224883208655973 -0.7812941160383303 -0.45132005713176165 -0.24506384672972448 0.7143759933934889 -0.4582252200908315 -0.9915289930231073 -0.3831365716810198 0.4347147589479828 0.8584137988288059 0.6984202439610142 0.0202512783612932 0.08422450618460148 1.3968573368350035 1.0070863985342642 -0.6962322572682673 -1.6953948466389677 1.2929246277314257 -0.07759151225327626 -0.4412185494509133 -0.5595299978046961 -1.0473111533782675 0.450974775460856 0.7710991492656445 0.7087112806033137 0.48039834483757116 -1.232454417854153 0.9925216529396124 0.4867030126835984 0.27207413600537145 -0.1210811128457841 -0.9751691675853018 -0.1702332482556005 -0.2729060684410553 0.042685578652855716 0.09161175185460263 -0.0364927298502703 -0.08863326622501194 1.7219936547499084 -0.9152742431344664 0.02959140743490085 -0.7220985441076592 0.5655327531059982 1.5791532996793562 1.171956523370493 -0.8530174451254057 0.2421063156940183 -0.03867026994249306 -0.7790361329891542 0.49234259767038485 1.4089559381957566 -0.8338382352504561 0.282505330860262
-0.8568681742770672 -1.1402750734722138 -0.17497938520440554 -0.18407641093952526 -0.33185270522563326 -0.7048603499480814 0.0772586410154657 -0.307222967501248 1.5831272264498062 0.7124777557588764 0.05818104400262114 0.39927507898529385 -0.507394173038305 0.1952450958709973 1.0730538878823588 -0.9401125623834661 -0.023144407915450305 -0.8156665097279774 -1.3190586307730234 0.06475926021753992 0.1385918475567649 -0.8521114206188443 -0.07196020487988242 0.5298114246726389 1.9831232109224108 -0.14128193393202404 0.6327401138408882 0.48589762310460516 0.30031785684474904 -0.503396461177481 -0.893603481306753 -0.9343851420471192 0.5789655665290869 -0.981495454488372 0.5091844120990665 0.48984222878424255 0.9104971946937703 0.47058903314088635 0.021608087398905962 -0.24747950571566274 1.032675251324093 -0.8249001263218756 -1.0705350379318535 0.25081313298160257 1.0971989677546166 -0.4313564650943601 0.8882847979749582 0.7455013039367521 -0.8854354245403612 -0.044770033408699283 1.3230999216594412 1.0078407455388678 -0.770275506052287 -0.471087721784515
-1.7798391796793596 -0.19986509547029324 1.04766332882508 -0.11233869152838305 0.6919633668175378 0.1308337503646657 0.2508571419325708 1.820125635306427 -1.1916293557885813 1.6465067214596254 -2.0871437732436884 -0.6643451473768192 0.2734599336420332 -0.7686612429852155 -0.9220473950020255 -0.8644216064691124 -0.09651778954290924 -0.4485099970400193 -0.7599447523649799 -2.3883427310263388 0.503455817234028 -1.3426455476409749 1.9822522759349241 -0.7968736200422399 -0.2718215608639997 -1.2560647556415971 -0.28274433251202147 1.060708709672155 -0.7809055820124801 0.20394874371086646 0.8437263406032871 -0.35731575457770903 -0.09155051810461978 0.02543959008377955 -1.0608231671480803 1.2210394709734684 -0.8149786793218067 0.12911688500839086 -0.9465501391191418 -0.6896152919264303 0.6085572483878556 1.291478832358635 -0.6970910096149211 0.3832188245738238 0.5014195150597609 -0.540150281773615 1.170865743707323 0.47627033302945376 1.0200190646272298 0.0388107867953027 0.7026816420141591 -0.16114439354705057 -0.1642152749591494 -1.0980553950278749
0.432459576721944 -0.6923720124540436 -0.12616375545332104 1.4944688582142434 -0.788491733520924 -0.5513469283835793 -0.656077106912909 0.8348088853107944 -0.08060841250097117 0.4567434712825915 -1.5452128918273726 -0.08490022072167519 0.63349731780156 0.728584714024631 0.13360089878135062 0.4354264396172089 -0.3732569634365989 -0.04604988523642545 1.2949174547730968 0.08599439753689181 2.1809564116813647 0.8755026178615619 0.6615390608302592 -0.5665753648186719 0.014528949265967483 1.271841132401201 -2.4273964307767937 0.015233154380167868 0.637354522985335 -0.21372396779539826 1.7082089160282699 1.1340062499574775 -0.26521902084179827 -0.10658606691710054 0.21818548247646474 -0.7568412610814956 -0.01767813555878439 -0.01680563414245395 -0.366395110169889 0.5380834971814924 -1.086141305476147 0.9906950763196005 1.7085939132041341 0.5147795572044931 -0.6241374537159134 -0.2041215066082801 -0.5201597911750759 0.3703775617343834 0.9300525348540879 -0.9489634093496995 -1.5139899942602917 0.0525572993581388 0.4648756483386682 1.2639351318782193
1.3190385339797606 -0.48751443836974684 0.5042286893799744 1.1606258106826641 -0.03305025698740016 0.6117731048284394 0.7158534957978979 -0.8748058581103044 0.2488371039399218 -0.5975239565883916 0.37603761899834337 -0.20889479039973252 0.6240421144764499 0.11887672139259187 0.2950912047964738 -0.14222033525268718 -0.605590676716373 -0.20401736907901358 0.5604405449562764 0.8108794701393744 0.6920216370994303 0.5002148073148591 0.7146353966222071 -0.8195723246482859 0.48879958420084685 0.043319095686870035 1.1681098311354385 1.7755384126126825 -0.882449311080766 0.5145277440699608 0.7385137227927737 -0.6804952936216435 1.0047505364262823 0.2933405055419403 -0.010581465435846371 0.05148205386988519 0.6822395064909554 -0.86149438065801 0.589283740524815 1.0410144808137376 1.2294472021040517 -0.9051923293851677 -0.4592944907401341 -0.516090018608765 0.44650962376814374 0.2580748182068888 0.7255939424519653 -0.10063790627806402 1.364282844423151 0.09789103796936494 -0.41045576383485993 0.4766156234612581 -0.2569887514699329 -0.21098545028244348
0.5104033696952428 0.7113563506595669 0.0979890328460743 -0.39748603152765605 -0.32951244115965267 1.186957216550665 -0.09142477669524052 0.8361653857611491 -0.9789182485064214 0.8895782053986272 -0.9437822978152579 -0.468132176796149 -0.1150560383403244 0.14298341692494176 -1.8393840821677496 0.38837476115666925 -0.31613231814005355 -0.32299717251500437 -0.696705623666033 0.056843053316709136 0.1141540840000298 -1.0338125756333185 -0.8430587418551505 1.2132846132605835 -0.3495708997709833 0.5721605757522639 -0.49093643212678023 -0.10579377086776687 -0.7063872019833635 -1.168897208494077 0.467763117915037 0.18643077531934793 0.1311192769508997 -1.9018279196445074 0.28027535512340906 0.19235461370543783 0.45576200492323937 0.44903143756891833 1.2063321806568557 -1.5989570930444796 1.0498150160110646 -0.19331669952869074 1.07622578789424 -0.28113801157774393 0.43533029170993565 -0.8280943305496268 0.42219709224421215 0.07318285203024238 0.3238307604164025 1.0425603076784966 -0.8873487647593108 0.41487266953366647 0.35690411895988816 -1.282248909073234
-0.42148778866858777 -0.13226964395201085 -0.518050579549518 1.100675625097343 -1.0826414353761238 0.4371501596377436 1.5752822094928156 0.005483231171692804 -1.1114933880669302 0.7412317559717617 -0.10220821334292396 -0.6004961518640595 0.37152393403707856 -1.009925755991753 0.8294013639215296 -0.10349596981180992 0.11247433166541415 -1.1707789383744234 0.4041803973250609 -0.04627181756619775 -0.2047904319150825 0.31155550884952515 -1.0755591500229964 1.2593540643841445 -1.3292662499184185 0.10165249970694135 0.29396792544952177 -0.8540266968964693 0.24499442053509157 -0.9382607034857884 1.389058572564289 0.31667568780273625 0.7528673539858264 0.3606431092413992 -1.0059695320653455 1.013963673870255 -1.027859267923263 1.1800397943281087 0.3016901004400033 0.2753104620861172 0.9820923631008478 0.4136878265987408 -0.5795275333776555 -0.20406341321302846 -1.02052051345827 -0.7232911643905235 -0.7417091208284332 -0.9909153875408724 0.3445562585831215 1.9761968853667713 0.08297229940131623 -0.5550811904816515 -1.3724723523989106 -0.574920862558127
1.633236057504585 -0.6691369874493327 0.7031868050611484 -0.18352238090597883 -0.506700799640766 -0.5228558170323306 0.0909608553962955 0.26623670714367714 0.5393373319491174 -0.28164354155872856 -0.40619594197303904 0.25895357314179984 1.08174722929806 -0.3508943795602449 1.2197069536076157 0.857338743414102 -0.17977944113415034 0.20770579352338758 -1.0857631943467088 -0.8822899828283031 -0.24500310694495242 0.21630570770864904 -0.7465632102560268 -1.008633890597334 -0.2882637039956416 0.6817090340679824 0.5852563577853074 0.16760932726352618 -0.6718763116533224 -1.9056268581823508 -0.41734755358770254 -0.22668843494826446 0.5229882465478408 0.10006950327816827 -0.8530910684822012 -0.6618364231284108 0.3000337993144975 -1.2272718249541699 -0.9090453439374989 0.23633192723355972 0.6696514731428784 -0.5454583668691504 0.5662088094377682 -0.38529734404683286 1.5700655436729007 -0.17287978291340517 -0.07184424257508304 -0.42333409897304575 1.1403452341520675 -0.19498278262764035 -0.3211028126714617 -0.6174032306771632 -0.024211041147473245 0.7815029881960864
-0.4595128352945025 0.5436267781910615 -0.8877187759731169 -0.48928307025081763 1.3841974294645523 -0.010372200507763496 -0.2929257122428658 1.2920947292618703 -0.666757561075185 -0.000771334693539516 0.506025069963774 0.21758316256623605 -0.5863896629704748 1.0115109470176584 -1.1811494176688921 0.5433835868557673 0.7899881899568462 0.8451130741492542 -0.40582711256317255 0.8164206556218387 0.2895420101886926 0.5100410638334513 -1.8458973361662616 -1.0353483789991849 -0.45672674828600324 0.3905448281817345 -0.036618184892082795 0.23720327151324078 1.3821386461515104 0.03150662480575034 -0.3434333434067175 -0.17313504765934407 -1.1271656201875921 -0.009863736132407541 0.2632191060118375 0.28138258286451984 -0.7686249594891414 1.0177810663766504 0.07946781138023795 -0.38076544741156076 1.5008078699553693 0.49895534207350395 -0.07729739749527303 1.1055912630856164 -1.4768117732440282 0.007839976678076954 -0.22698635317622168 -0.25075946154068557 -0.247672290913581 -0.45414362757333976 0.5290299871121624 1.4537938231513685 -0.5014438534944039 -0.3657356831149366
1.5882782930365364 -0.5510503134816845 -2.115728601548261 0.5384658425339359 -0.6095521286700394 -1.1922540333354505 0.9299135903606441 -1.0030288607285525 -2.001206079372944 0.41179504721170507 0.51529305234563 1.0184204130117158 0.1972078897669433 0.9720791982219037 0.2796385114640069 0.20489089624725842 0.3767064798114853 -0.3798025823822354 0.19834486766453124 -1.021637374513034 -0.26766926576528116 -0.8085814254516437 -0.5747258450599027 0.5613032222962808 -0.8869421673509594 0.8587800806321167 -0.011168885045072241 -0.66202792179704 -0.533680139964902 0.620400390685673 0.25193437298534155 0.6292925971471517 -1.162169134038288 1.0758675076175859 0.39567423646657307 1.1290184726414925 -0.083225038516348 -0.9885629774297746 0.3693659199031558 1.3331346464743608 -0.8685146021978241 -0.24533599825354047 -0.17192569266757635 0.5586219739597729 0.8460393410248538 0.1166124062082265 1.0626179839525591 1.2132176967842354 2.348239069522744 -2.132814402631138 0.21372976756716838 -0.3551695777816969 0.36547980881976255 0.3421471763395192
0.15058148182953285 0.18715750723958324 1.695075898299171 -1.3789638849610348 0.45902626418121983 0.9810918432509136 -0.07297474850485569 -0.43299467199737146 -0.8169947671787923 0.12309120339286456 1.1270459285682075 0.38518846914966504 0.21881294069438423 0.45955778311244744 -0.8674973939264528 -0.7291689470177852 -0.8903216999575712 0.6036527827397782 0.5200016526917202 0.4305118688243626 -0.7153825910606932 -0.021452208324702515 -0.2975014403364485 1.625485060829627 -0.6132792618558869 0.006925827030547949 0.9331788039141342 -0.744931500090257 -0.6658567853018742 -1.016827412311331 0.635225475159194 -0.01799321307620333 0.06293406130643908 -0.7479618537872248 0.033853452569772735 -0.06787234123156155 -0.7990739309735007 1.4637103740373523 -0.12612501748339183 1.1820925960748494 -0.5885979156742461 -0.7443100813036068 0.23879617790700453 -0.45858468858744783 0.7692111722758002 -0.1215263667831486 -0.46149506996173967 -0.3427732809049989 0.268564733317927 -0.7479802805807712 1.3737460640601076 -0.8485915526864335 0.645956514360529 1.4871644770004004
-0.024422295276194383 0.6400305645852968 -1.2540845445875937 0.18597061272046128 0.3186294970818047 -1.251593143724854 0.9289066310211136 0.5261435161430494 1.5870386276935173 0.6424816647486569 0.39900996040978776 1.1727232559276826 -0.06417140120455922 -0.978062838034488 0.7412653148178333 -0.8186116007493279 -0.7007395750163766 -0.09723129127809932 -0.2800417602936735 -1.071442999351786 0.6167896438069954 1.493333859795419 -0.19809632030337748 0.5449533913755072 -0.6220809675303643 -0.09445447177996674 -0.8590464864398553 -0.08795688639762023 -0.5633555363423561 0.49227216972886034 0.335540032126129 -0.9129250864221354 0.8012420051232585 -1.1266234704767653 -0.564510411139721 -0.7708076926757361 1.468358676431153 -0.17170960086680875 0.7728899194543173 0.23014948911650573 -1.0161367723848476 1.4656799141561705 -0.18603531778591514 0.0719572290245703 -0.1567723047962618 0.8008560639311266 -0.36503841470960596 0.22720977256318337 -0.7862043827810202 -0.4718982707308592 0.6334981561028541 -1.3616239363426224 0.2488334137018754 0.9262981418050473
0.9740643465437162 -0.4114485569591142 -0.794184505528869 1.3795327174831804 0.2321183899468312 -0.8682656987358326 -0.8304423124982542 -1.934581685183506 -0.42977910756185833 -0.642432125399405 -0.03373135776090225 -0.130334877051838 -0.04802971136446205 -0.29845882689328956 1.1242530446212242 0.988593768675042 -0.11691352712692693 -0.3626001456352042 -0.6907317747378405 1.1726866316229687 1.4532500075203176 -0.4750948353962871 -1.255799683324422 -1.0197975053743333 0.5286223939772998 -0.009903946639192085 1.3076787690774272 0.8122227188460986 -0.5003053046175554 0.20483630412439996 0.19677483635944581 -0.3640189196239145 -0.07656439051885838 1.0363556075686224 -0.0527191624979223 -1.3270249400617913 -0.3781718315985424 1.0207307597020134 1.6858045540652793 -0.017047890032871937 -0.6720043677858447 0.153674023267586 0.47724157467300066 -1.214969660647818 0.04858415821879247 -0.5895870286689273 -0.6541070038704249 0.6100655251464011 0.6566128142435594 -0.3313714004150062 0.2800263296912908 0.06434031362631726 0.568207231861003 0.6796501193283501
-0.5359145006384125 -1.4150358530157308 0.8472559931719496 0.3841604288221153 0.1892729698609738 0.7425509072513472 -0.27322793109679094 -0.8874946642190759 -0.37664790019729294 -0.26216810231123067 1.659637101281419 -1.6328693951013125 -1.0420510209282987 -0.08035546419464829 -0.05716903909933391 1.596580231951695 -0.39944634317235406 -0.9074642705647805 0.7782853889540249 -0.21268187325863874 1.0939685974222677 -0.6880579688115874 0.21520638655301905 -0.4463304684191371 1.4183417557169034 -1.0131676401853031 0.5875534965152323 -0.6832780202260449 -0.942492478038055 0.7624405366272617 1.1369426153534625 0.2903894924331752 -0.7002783687309175 -1.2728930816013349 -0.6508826283581739 0.7086954063232491 -1.333860840664824 -0.18395301286361426 1.4472413088353295 1.0083525811795857 -1.2561199244673085 0.24380909103732085 0.9546093238029216 -2.288831510733594 0.1317107172328582 0.18573651132878405 0.4222609378266966 -0.04065551740923795 -0.522664506690133 -0.45304814192963694 -0.3156237262722442 -0.751419306602298 0.6568434356249393 0.1495024616055639
0.7172998134837214 -1.0894252865853593 0.7083277464924572 -0.35644428157739555 0.4567776226107098 -1.0552446263509467 -0.6516768101270507 -1.748336742025568 1.1291140860425937 0.75740721659788 -0.09162466682745779 0.8420556385538147 0.9956996439397867 -0.3260338796842651 -0.19956772929173788 0.753321563906574 0.9850932339681134 -0.023718699594655057 -0.7005854328509878 0.210445319253039 0.7115070031744226 0.10361863048157416 -0.1248506708273528 -0.2178754009182312 0.856990261044442 0.24846303596452352 1.9546488794630923 -0.1394924966498695 -0.4035786506282923 0.5276313742771008 -0.4990149622758025 1.1585585607203042 0.48288103421642875 0.32340113885036553 -1.7110814145023117 -0.14982263788123173 0.20375402978297197 1.976885920029351 1.2005319671023562 0.33246874672140936 -1.0149831465882815 -0.10226679151032991 -0.9657049440721062 0.6906089290492634 -0.5132635578906579 -0.5368456617042624 0.271723715884514 0.6554808284072318 0.11311164502615112 0.3289510060184006 -1.1956408380533834 -0.8612614587411603 0.9225911706479846 -1.234808471735398
0.8941924883620143 -0.5533686492272224 -0.874362961020443 0.2601192234255375 0.5520146171332043 0.05772077258495889 -0.45132584909051043 -1.0292991999141319 0.4652271945859079 -0.16797290824358063 1.252479163349526 0.6032204769785446 -0.6338525639545513 -0.23221907205831865 1.0289396824544457 -1.4458712793388862 -0.35915434850375294 -0.4379219763842667 0.8202966509960421 0.8278041981811548 1.2177298118254603 0.005263272633523719 1.5954669803683013 -1.187548418601773 -0.3909323211362584 0.30280024502872277 0.496231722413743 0.6111821246122433 -0.1266349979968951 -0.13346885166876626 1.1385065996421027 -0.5822074151205512 0.3957595926590476 -0.6084410328871854 2.121480663774532 -0.68409104870449 0.5388779680986726 -0.641901373255328 0.2822089121783667 -1.0511869693672482 0.607984854316652 0.3097859198097371 -1.1904253212865255 -0.29022043461817193 -0.7952911647550238 -0.042479093305616944 -1.097388573933583 -1.3422987614666928 0.6555121507916302 -1.095471358259861 0.37716621263162375 0.4339334160457759 -0.2437338874418178 0.8192695308807981
-0.025570433568545436 -0.09389443540369058 0.39102143572194564 -0.2611484747198974 1.1531141894755383 -0.12953178117617903 -1.0020862790829808 0.3903175976669496 -1.2920493952890415 1.0460675664018733 0.41954824224591 0.5864004235680871 -0.43899873922327465 -0.45629689730524725 -0.28281794442003766 -0.022483951550514913 1.1427339605189124 -0.3962525492744309 -0.39050183843353353 0.8159371408360779 -1.3085983946225568 0.5720738644681871 -0.07867292111994634 -1.5966215984845205 0.25106639754575705 1.1359078976958803 -1.3039854579135073 -0.5897463772760175 1.3233163465772273 0.8428340941287789 -0.6685283522781547 -1.4178217751573081 -0.49764781277899006 -0.11259411604672354 -0.8638942758050965 -1.931099205805033 -0.3060941119590163 -0.412892826684799 0.27284559850143464 0.19997304861026877 0.1452818135639981 -0.518016416622848 -1.1500951597733555 -0.6219884888597085 0.543026591212308 -0.2979040319686379 -0.49483396693201653 -1.1870405477396289 0.3674892093290152 0.8132198295739715 -0.27645300962493946 -0.39519577827409264 -0.5964042364935394 -1.0672028104870368
1.0336997646053478 -0.39841425681827675 0.3280522255369435 0.5328854141942458 0.6375732428735501 -0.6033037158416168 0.01255041639418042 0.5729460785152298 0.810867582999859 0.42864506117810386 -0.6126610233155296 0.20737588060822104 1.247292220289582 0.08331261577490362 0.4025470747246315 0.585670738068526 1.3808007344599684 -0.3504125509618181 -0.849268784814594 -0.4619194032318941 -0.5936461462052667 0.7929869234743182 -0.7667810681957021 0.6467886926553701 -0.7547300138441202 -0.832351937870646 -0.660985825190892 0.5432254892401144 -0.10311831398133631 -0.28868586280918396 0.5250077676976507 0.6845557150050221 0.3514879024142108 -0.45104146504705045 0.45414679833848776 0.4901668654147479 -0.4266330439835597 -0.5112928469018672 0.5735430831370294 -1.5514934386665495 0.5112850174414825 -0.6794912720128046 1.0256098521949528 -1.4161313073064297 -0.36947002427720876 0.6459650073397654 0.3995134051666538 -1.2192464042809463 -0.5778680491729806 0.1355710681833172 -0.9283482733354969 0.830976666845469 0.1341104845083423 0.44302357689549454
0.231393002590278 -0.7338102086246949 -0.07608579097391249 -0.1839230900159945 0.8225952870712199 0.7709519217102812 0.042461883596541516 1.5154857974626927 0.7239211986948801 0.5551749244067468 0.3893435221155775 -0.17580063749241304 0.7873470715907858 -0.4997218567232741 1.370949444219291 -0.8326310592527525 0.32327033289765306 -2.03905314027069 0.4585940470446882 -0.6236161589835247 -0.1811548313840628 -0.0661255061680252 0.02758768019395552 0.7896291018051332 0.2843587478195958 2.1755526296854355 -0.12932054906798823 -1.0586176159282754 -0.5284427211348928 -0.6736529350591478 -0.2086747575636701 0.5497594549872615 0.2749704965811131 -0.0007296264849390166 2.531038442875793 -0.003564608325891505 1.0488491604764456 -0.6434007503576382 -0.15385793445231127 1.1073728592833085 -1.0767034370139004 -1.264874689176618 -0.3833641378856619 0.934004111261987 0.3635495105266439 0.06523060444989787 0.6618052350186632 1.8711302248240589 -0.7552326692813431 0.7703521313150475 0.45439303929936536 -0.31683573049346353 0.8037140162149363 -0.22862937588419102
-1.2695526088437559 0.04017357728626375 -0.4119800926888022 0.6269927356626616 0.03964806325757564 -1.1041385014953304 0.8003580461027058 -0.9005456959110608 1.4607639940200565 -0.7406433572792328 -0.7580847839482618 0.19995648769480284 -0.7034653020822349 0.19136977534238542 -0.1278321177494952 -1.2294228038892072 1.13197902209501 -0.26961920473745543 0.3645315499213902 1.6942672383832342 -0.08830175670404389 1.8443147556607373 -0.5129469643287106 0.8637207361619841 0.8532315550301321 0.42158602120666877 1.7044255255745986 0.9256750445255217 0.013055595376612827 -0.7656764146080799 -1.2612333482757216 0.1768836672230391 -0.33480736629353997 0.2207271785575452 -0.7530163226141238 -0.32348590405951305 1.0248426066481053 -0.571662042233036 -0.744207899605028 0.3425970714767651 -0.07151003957898067 -0.12779103127250663 0.9626483132430894 0.024187473478441635 -1.095539427177976 -0.21231897479374107 -1.505155333320006 1.0411741852557805 -0.3930365172192816 -0.24169926790184998 0.5897431772799703 -0.098998482969481 0.31605483937258416 -0.721092903429121
0.5991677786071237 0.14762937114363556 -0.49224512511503504 0.29580732443682733 -0.11736623146941144 0.7574242676564962 0.44955244004455996 1.2200493027351467 -0.4062829241537537 -0.45259106622648976 1.207121594881051 0.7695675414698896 1.403046506647798 0.6977622696942241 -0.16145794192083668 0.6499856902482841 -0.053472877304578115 0.8449985280259995 0.4799581309203128 -0.5752718985888932 0.8808737147607432 1.6854155678827498 1.084179412748933 0.7513749168951895 -0.789859995711756 -0.492170327788753 1.0448698341214295 0.7297600894219914 0.8380230468270866 -0.44045600592739553 0.8035759642810967 0.5785294070458105 0.08574897658558672 -1.0526870703924978 -0.3955248514443781 -0.15376154468910386 -1.3985673419298625 0.6025521497560119 1.050085823280722 0.5123698414319025 -0.7151943709891813 0.5638199436380069 -0.02074032754177041 0.0948042589664308 0.660193041246981 0.9278798558677035 -0.19924360046025347 -1.0816844863676822 -0.016987827676501754 -1.3418975771125035 -0.5743897229711511 0.20737994789648195 -1.5080455615644144 -0.7951633692218216
-0.3144079462982773 0.596804254150028 0.4559655850401561 -1.087977720448648 -0.7781992423495675 -0.32277220970096876 1.842631385838676 0.46700124158724515 -1.24565979558979 -0.2936122547431258 0.9601385686169207 0.5317037840358207 1.3211359792157997 -1.2645534306689785 -1.4897393921365523 0.8472103183965966 0.2642760330695957 -0.29624627677781007 0.29759898242014676 -0.12015283137002758 -1.0567572284550186 0.00712115394922358 -0.7378551295596638 -0.21672706988674234 1.4351891928056792 -0.09911389131081844 -0.7339391131154159 -1.171108962151455 -0.23873730369769292 -0.04436870348301647 0.7177742788398704 0.8954401848408259 0.583406811309005 -1.2471751300295866 0.12486740160247306 -0.17871286047345625 1.2754072393173037 1.7188514397678551 -0.05276577322881254 0.63990886006166 -1.2105093561239055 -0.002599504578971734 -0.27647358056748433 0.5705933453982844 1.6491058574562367 0.27769632565244873 -2.340914851050899 -0.40403174123746544 -0.3738120977490184 0.8666958930620342 -0.3341577785092274 0.550053376869323 0.37949477124928893 -1.089697266573093
1.1349680896102816 -1.0969050680332881 0.016725756542251113 1.0895222630972596 0.930803256059916 -0.08403884286202146 1.439377720493483 -0.647589957043166 -1.1818192779748908 0.1554952829336816 -0.4549678923460825 -0.7988732623684903 -0.41386479052287295 -0.30801085462838634 -0.8811614732701216 -0.3831807718451745 1.5734372524526186 0.035031750575796605 -1.2414016828365881 -1.7189711450212588 -0.30103586524824266 -0.5871500202438423 0.9205041661148328 0.009422666022734116 0.6500925289988655 1.0805718545181853 -0.616385588732819 1.043020475839759 -0.07872851526265617 -0.45533119242868164 -0.7623507916425688 0.30782283561987167 -1.2703165072104503 1.6675002885447368 -0.963346704805762 0.07501426183577536 -0.25927711237252976 -0.6333599511766315 -1.3680791414280544 1.4446907744969157 0.10320651144854381 1.6895836830396564 1.5238350562657208 -1.0928152490195802 0.1668323623663054 -0.28998290469402505 -0.038740458432085456 0.9062288499348878 0.322095806489557 -0.5206255911759072 -0.6094284415698151 -0.20121200794910987 -0.6701833387086662 -0.5052287988452989
0.021279059838801684 -0.27528945283654704 -0.8329816278043549 0.2482582868289253 0.4133119009355708 -1.2664783417396772 0.48296087135736965 0.31780162312293664 0.4801481504282044 0.9917071925180354 -0.07845680198193167 -0.4589974377655044 1.050785532481348 1.4092197882615802 1.4191529850630897 0.36056347569055425 -1.1825285489403297 1.000481095223513 0.5696756586745532 0.4444150771724032 1.2195539954401924 0.8891297554150114 0.99598011634176 -0.4919984388388339 0.03455342327057481 0.7742827499501665 0.23709680055177007 1.5051120650954555 -0.4617188627712427 0.39140018774280283 -0.1320422365676518 0.3532569781831505 0.8978981519617613 0.4071100293292546 -1.2064776272544042 0.7126061799971836 0.9542862486404349 -1.0815778497794855 -1.3596687782985908 -0.5932698894793457 -0.9899280572076851 -0.10028688823188647 -0.07114460688108715 0.7794166723643645 -1.0595925239653168 0.0850843219324508 0.8780352523601953 -0.7588346084675957 -0.06648315989145537 -0.26420421937194427 0.5275557428078933 1.103833217639642 -0.198069677764592 -0.18532668445656825
-0.5697301511260682 0.9804665623390241 0.43683189342873346 0.7267504258074597 -0.12343074751839522 0.9200349899400052 1.1818955003818101 -1.729581061202505 -1.7126722254137334 -0.1809067033807789 -0.043718766736548176 0.2799636470496872 -0.4014085758055506 0.5493399644971455 -1.1237236936739405 0.29315968634054757 -1.1285795765734143 -0.9219505287001057 -0.223588595768547 0.2960790658882325 0.196445140341594 -1.219757859673657 0.4780769018250475 -0.21494736629660238 2.002114613238248 1.1645667758180132 1.2613102420466824 0.14432805074396143 0.7655286685593516 0.20228863002193864 -0.375166213375398 -0.5401884073548155 0.2735582535288613 0.4908148373347268 -0.18357980884138742 0.3048218271464447 -0.8454632473912258 -0.6473854534466151 0.6765304085677433 -0.3518173330106627 -0.5230556673553128 0.5934476167523854 -0.8803712513280322 -0.04160215016234009 0.07657931032517362 -0.8850986693918586 -0.6877858895192388 -0.07096284497063615 0.28211930626192433 -0.9192757354722352 1.5125708502034414 -0.7336721056484432 1.2693433249472867 -1.2327090180951124
-1.6286542854082104 -1.5614452856355046 -1.0768709002367447 -0.6260109314456349 0.05275212960663522 -0.3524962386654757 0.39449249446262596 0.6810936903097387 -0.806486013315366 -0.6387697770426088 0.3881923161102469 0.7888187103377375 -0.27360730598841027 -0.912905392601629 -0.5380321835513229 -0.1335328073985506 0.6027839486804573 0.292868905528248 -0.1549441682420824 0.05403378083542426 0.7475890479720236 -0.39009567335551537 0.6148463779684537 -0.1377860611403378 1.7820705234789684 -0.4325873806104086 -0.7058399793637756 -0.45835397350748547 0.5703198111539923 0.4206774088088105 -0.10623740800277826 1.0595788042824927 1.3546425842572667 -0.743024739297371 -0.9981395077999564 -1.1558556945842273 0.026447364251798777 -1.0556967123080838 -1.5398355352962838 0.03521198101560852 0.4062187798086208 1.071879146514939 -0.8670018029066551 0.7973457884322634 0.47796986072565056 -1.207960357860511 0.19217567301271116 0.3595759467000037 0.03298199923164996 -0.07701012405285129 -1.5644656157674013 0.6563546613178022 -0.6300197282336069 -0.030297807204696714
0.5796223167414414 0.6253431165451491 -0.10478430219995266 1.7272514708542213 0.8309476447345814 -0.5867152205827179 0.8601594956371532 -0.28044441254465163 0.8209024550464965 -0.6000393656666709 0.8899260073944234 1.1566344585763733 0.381769141645778 -0.4660853910201874 0.3485690237591679 -0.46841900079860666 -0.8941926801724718 -0.07278953940427818 0.9175033592080406 -1.0231805341756215 -0.10755477801621866 -0.1263485818067071 1.1531439552703446 0.6772290520159641 -0.45018877109111577 0.23137029231614303 0.5052201157156608 -0.5391852386433305 0.01361775321756209 0.3128844282173696 0.18906138714452864 -0.3901792701458637 -0.5386190361942131 0.5164754279069963 0.21360019467198565 -1.2534386098796828 -0.9721556200896968 -0.8599518278602802 0.37709387954075885 0.44172103057912077 0.9214788636339069 0.4068604970672091 0.5971345079939305 -1.3833439658780469 0.21467749601551378 -0.31925957706745567 -0.108008384894691 -0.5459057409356792 0.12334185404917108 -0.18642511476683582 0.1996044396778609 0.5332487036146227 -0.8158089844747349 0.9848684882442686
0.7994824719106364 1.264671432296358 -0.25121122530768913 0.7490868011123255 -1.215971642663397 0.17918272208211167 -0.6065576184918718 -0.42758441407311776 1.3258740462656644 1.5746288697195445 -0.314891757393587 1.0068312880588641 1.440267632885215 0.8008038051265889 1.352029937116971 -0.6148874413011092 0.045637653993763905 -0.7158407678656389 -0.32491527546179216 -0.4574540694114733 0.09448237930155906 -0.04207577158363224 -0.9589494993598027 0.37830811453155255 -0.865492062011723 0.9024533814518404 0.049048505464594994 0.8470117638085273 1.325933814410571 -1.1615690861449468 0.07942689951148374 0.6989004830888063 -0.19778822504284005 0.21205202733493295 0.6177809226556119 0.5850790060629425 -1.5857424639743434 -0.6975459830684794 0.790344873207864 -0.29169080536688663 -0.16397682164324356 0.59364223394724 -0.8109621062929924 -0.723970517184243 0.33252358301814977 -0.41264423997906796 0.8801366794809663 -1.8581066988998576 -0.6296960121438557 0.5406973424756965 0.17454634244376815 -0.3600492577160483 1.9259561797545128 0.8919645316982555
0.7880464776147968 -0.5746592257639787 0.4152955204433 -0.4075203237265564 0.25376206858365524 -0.718875572507516 -0.24014902073663202 1.1228871296755711 1.8427730131112734 1.8788575707666249 0.035329853096990216 -0.3566241975946582 0.20473574111441162 0.4765239919126109 -0.5770724303033508 0.2237890004874562 -1.6055458694871094 -1.0346715543684541 -0.16124038123555706 0.29768475182164583 0.525248409914496 -0.9127047328853761 0.7333394789324275 -0.6433792426364598 -1.5907334160935556 -0.37920961773498496 -0.15688175124694143 -0.2587288197334877 -0.3652972680791145 0.7524965346334166 0.43248281471957173 -0.506663910258096 -0.31139818040226774 0.6953918689427219 1.7901189748135704 1.4601706729467514 -0.9542641506797627 1.4138831191975183 -0.05357295805598156 1.3297163783110757 0.7049599678005034 0.9137260876429705 0.4858713752757335 0.052330159288546174 -1.5274767001380765 -0.769776979903182 -0.49737133024692226 -0.1316403116778762 1.1797113242274382 0.06773203409154571 -1.1346627767206658 -0.15674520410280363 0.3552040439709504 1.1529332089224775
-0.24922149972448615 -1.2406086480523846 -0.08416263180110217 1.050014725064017 -1.6603041805250405 -0.172732745861562 -0.9269009051187083 0.1572385339290961 1.1137945871763395 0.07887240253369154 -0.20070723640158838 0.07634721314295223 0.9817959319724519 0.7881916833482545 -0.06028848672010728 -0.01979525271720839 1.2926840910730961 1.1099079397198235 -0.43860609678330587 -0.7808265753779955 -1.3336454323339169 0.1652055342957885 -0.3484140867141072 0.7196233123909989 -1.562495320653003 1.2368059952628752 -0.5642413359292144 -0.009910130301708175 0.16160753681221618 0.11761717903918789 -0.5873714911077552 1.0774907195305696 -0.2838192517591625 0.0015275928642097258 -0.23261484473869393 -0.05767409501334331 -0.6432625565704566 0.7220924264289732 -0.6581279202877942 0.025046062869160834 0.1333146476104845 1.376181472985147 -0.9995054843636769 0.5907225219024936 -0.17055706249274238 -0.3892862348964134 -0.6221390710385536 -0.38094152003397996 -1.23955127589999 0.41257147072122186 0.08987126063322198 -0.2957183416537444 -0.1679679659509578 -1.1829340932266101
-0.8567426175157022 0.5290960746940327 0.7817846730337367 -0.5164363809086299 0.053917364518797695 -1.1688563446014213 0.6428051018824537 0.7902673066887065 1.3266980098437309 1.5861362020584555 -0.4006312764430805 -0.7225568832290626 0.3296288692319513 1.1741469659359742 1.9837775191563365 0.7573061103499995 -0.3378356050669142 0.45717018460959047 -0.12291148083633341 0.7718616986031165 -1.2266938258615565 -1.5084154046428162 -1.394788353959139 0.21646506668383964 -1.4490134739688876 0.7127898609452137 1.2340046136071896 0.25771749039798847 1.428238670625126 -0.0291485003017799 0.596525386201598 -0.35284776327291284 0.5618912140826353 -2.1594550097206215 0.3048857910072349 0.21757061885839313 -0.5786626443737987 0.7115408488255741 0.7764940261704589 0.07597307268104836 0.5300962655694996 1.254493981899411 -0.4637267219261744 0.727388660219632 -0.23939847076867798 -0.12748953138738306 -0.42809613481467074 -0.038492714818200824 -0.02126441758772879 -1.5047268004414702 -0.37167523549667536 1.7374562445721242 -0.08398201426435814 0.23386199597942398
0.13203092418938572 0.44361178066345397 -0.014926749232525682 0.6920671520241508 -1.3419459016731534 -0.2556633931626423 0.35779278413357635 0.11137972647324768 0.10243737810566994 -0.18912470694861555 0.03749395226901209 0.4945175686058572 0.1789368975296151 -0.4456074641749663 -1.8430247339258234 1.2379687620252366 -0.31675232373824924 0.6314956147226264 0.7602417258816307 0.009778889936335411 0.9224806949008941 -0.19393169262748378 -1.0573804035521999 1.4323657306499076 -0.15091473252460147 1.067890222046044 0.18290984890449097 0.3105576329680905 1.5918295577442683 0.9096378881585938 -0.5246182310642085 -0.8439423969757037 -0.0993622288374641 -0.26266236945425886 -0.151022801388563 -1.5507948908284095 0.1850988648530163 -0.9234190258296703 -0.2579404590412847 -0.4162552401476781 0.34077893173816953 0.7968982477679906 -1.3543375200735701 -0.25635506509181344 -0.20191356746597205 1.0088747220790373 -1.0341642470051893 -0.9669994752488846 -0.6173551734906662 1.1523081626218992 0.3040136683190288 0.8821149160271647 0.7336269796424291 -0.5386004834687519
-0.09897131163889705 1.6253468492676568 -0.24258970469753088 -0.250920391546653 2.3120930800642885 0.1552461068140944 -0.04368760458609494 -0.1554470947180694 -0.04029527624685342 -0.5762143368524764 -1.021612173450793 0.5661528091200166 0.42623434902132096 -0.12196273547912012 0.9181124087210814 -0.3533287490664767 0.01621261807120722 0.12045690335618864 0.9268691967645293 -0.47921541589811645 -0.15147410013354218 0.26102139921951684 0.14836645555015554 0.48395228045828115 0.6246202740871696 -0.2512440339728357 -1.394406685071971 0.6232633043158025 0.06445521911709629 -0.5997001756355149 0.8192574715302936 -0.9337773583699194 -0.9087523816436106 0.87674463975645 0.053631783948086986 -0.39860471894062116 -0.9302785374865674 -0.13994975088005918 0.5309933972385765 0.9662826300706077 -0.492393669264533 -1.3413855891406012 1.5457860680386353 1.9077505068141807 -0.9378171008370746 -1.275917474587395 0.38011163912410606 -0.7374456620769994 -0.8540423427042991 -1.2421380648609022 -0.9379194792162744 0.80905574944104 0.7696967032828333 -0.8677204896075414
-0.9488233697871915 -0.28545405649199856 0.6691910418487631 -0.41382963630581504 -1.3405657513563076 -0.6409318986885058 -0.7690232733451758 -1.1632573323243791 -1.3751580419778722 -1.5185536091834098 0.6927414187895944 1.2722429350543725 -0.2656103855938701 -0.36400642768125807 -0.6536939234374419 1.4130836491597376 -0.3313278139270273 0.581308388132485 0.7953010974948924 0.010712695919934678 0.12045183427362727 1.4542462995735081 -0.6741346856786853 0.36014806937004296 -0.2076040864119974 0.8335859275298387 0.16962186652111172 -0.2977523106052996 -0.09317811500537887 -1.750644185906848 -0.6321277281932176 -0.06468477832464914 -0.523661467930185 0.3548263214697079 -0.6685506827023947 0.21726979116461181 -0.3186285456111859 0.1766906965365418 -0.22041883849965788 1.248936318141664 0.8314835145583831 -0.4659495982208607 0.655998556873034 0.6783705293791162 1.6715833533511901 -0.0866456507805039 0.02295926743039145 0.5512909317057553 0.5204895340119762 -1.5754770083551355 -0.4541686487864224 -0.14813897253726477 -0.9020154961135803 -1.0619906924409388
-0.8809699524093351 0.9568594401859623 0.31928924228460787 0.4425561141481196 0.2335313239787669 0.28232175060414605 1.7244517627941047 -0.7731237524600384 1.1508331346082556 0.6066806808674818 -0.8771023144982876 0.40472841889855066 -0.42195343160523613 -0.8114140366297664 0.3431082092848388 1.1314219847354476 -1.1073662961056185 0.7946778327708144 -1.9317864250955776 0.44616595542930926 0.8727883758802364 0.2771329230556299 0.2456357895211902 -0.8870044180258929 0.6845231545537739 -0.7311174598516047 -0.012523769962582976 1.7956351573779425 0.21894101232785057 1.1924565179118887 -1.3535594944384362 0.48421918610639714 -0.2181158063583597 -0.0329499808137621 1.754013328064202 0.44716065152252854 -0.18953310863450784 -0.018247804248386235 -0.4470064658467406 -0.7446511204048114 0.8322377594335824 -0.10037356801158659 -0.6647241440998308 -0.7716569891706011 0.15591904845218063 1.2588592404461811 -0.6803905468008185 0.1265633556578445 -0.8614286131416616 -1.0013633653943144 -0.7915749769591742 0.5930170936020547 0.44980354640572423 0.5247352271558384
-0.050342545474014455 -1.221530801425044 -0.5489837115302578 -1.871454469141509 -0.3772540602760738 -0.15400980561705907 0.04295272048797305 -1.1427241540384614 0.49566844006718447 0.8591506556085389 0.6360789023248541 0.7959818666080127 1.4941534895097315 -0.9091413967095258 -0.03440055103840761 0.4610386329572643 -0.5209023473213 -1.1818556896145018 -0.04315952321518307 -0.3697888147546747 1.1974171411139887 0.1336429547493641 -0.6417725590196856 0.8982310461400598 -0.43649035683161364 1.2382189066824587 -0.8692994907630587 -0.7069770977781031 -0.30087406681239587 0.26590690491226937 0.9275898419247763 -0.8441685504844534 -0.4684226545074613 -1.2798641627438059 1.034564021020633 0.6016204846435054 0.12436240365789691 0.6885596352962186 0.46785742396815594 0.08517536112341512 1.0804420368174286 1.2927307857246688 0.929246267461384 0.6395458355044035 -0.5642011974242105 1.5402229216895849 -1.157987078416578 -0.24126990572217133 -0.513143684508949 0.17010989578910224 -0.5340774057853301 -2.2066328931811388 0.8885854319398798 1.7926377029013805
0.9311829652904224 -0.5631955595874161 -0.761874671993261 0.48112159008035293 -0.7267048514537122 -0.5720670515607965 -0.8344063051592869 0.2935157487293499 0.2464846189647224 -1.6929701736816962 -1.041044657123507 -0.9512621175279686 0.1606168835122131 -0.29386293899002125 0.23712007841021127 -1.5063070181540748 -0.600502109867499 0.23349892003248618 -0.0007933823815314267 0.7062540622368545 -0.6451383194090886 0.21593904080382537 -0.7760293999958623 0.07186012952885662 1.1582955710912795 0.841048764168479 0.5529484561171786 0.3503935780990055 0.049787018977487774 0.24456115113255056 -0.4106393487728511 -0.5645315963718566 0.2382202823531271 0.04341276697048285 -0.89360364011532 0.1023155928208691 -0.7016238330233813 -0.1636480387511154 -0.49374784602681504 1.472617867974022 1.2249755158270417 2.0179326556587087 -0.6664257625321096 -0.4795996328848969 -0.886580971655465 0.8527348737246454 -1.164387640819097 0.10283799900881802 1.2484073597746796 0.32696473608701593 0.12145292663082563 0.573840753256294 -0.37613827227861313 -1.1270141865323264
1.0819951250884814 -0.5527024384639132 1.0037056840052816 0.48377728115626517 0.40127609960087346 -0.5791365160481554 0.8712657096913792 -1.518350556803186 -0.46703811826167163 0.2850027136395997 1.6858313839687287 -0.6405266919212952 0.7251686365511795 0.20161123837039807 -0.06661214155243583 -0.9475023402099573 -0.7864145584559872 -0.8557570937708036 0.9626964561396494 0.8393395047381788 -0.7487695643845786 -0.5285439268538838 0.04838860882669088 0.21971838964006463 -0.3175748340023598 1.4823857589767224 0.23627518242474116 0.36005811103024504 0.42765631767053947 0.3265400933632375 -1.6789593802061717 0.8387850531730277 0.47239502485245577 -1.8010593194538926 1.596366173805401 0.547660627908545 0.13906425359534336 0.8459448485561598 1.0725789163039958 -0.6691545057418887 -0.2615732596265552 1.6784785927716959 0.0538101790790218 0.45015451336305407 -0.3216361252786265 -0.8697141701348005 0.21600134883518213 0.1532961430279844 0.9703109680888224 0.7121522942670387 -0.9521871247598566 0.5887975632904395 -0.025164469547731827 -0.7195593014372925
0.8849569534818125 -0.9074012722738397 -1.1825339346857064 0.8563793244464868 1.2318136771057187 -0.8784467076636296 -0.8211767392896974 -0.7685947987773463 0.4382935192168288 -0.7159627264773513 -0.3342804239245239 -1.1798714548480462 -0.3786688789869976 -0.9059269220933033 -0.09866875608191727 -0.2870834474427109 0.4088040537678226 0.09170303199079355 0.8186556361414494 1.2045578040468188 0.24581788733872917 -1.687952946363978 -1.0900305041610685 -1.196488289129943 -0.49060742773851124 -0.4085440990320212 0.6458022981980136 1.1677729704675224 0.29780237401148774 -0.6277100513302987 -0.7775914509235899 1.3443211256771395 -0.9392476562949469 0.6579636192270789 -1.1916541031793335 -0.6209583057441264 -0.7212886231080615 0.24789685969933034 -0.518595137977071 0.24672092795982192 0.7910119465767096 2.0917238287113102 0.3973350564945701 0.3360272159554961 1.043030321650077 -0.40071428707433054 -0.35600133669078055 0.8132498114718887 0.7199217844214454 0.34374730610995796 -0.03955213888534265 -0.3254088121040138 0.219086808864202 1.1606185820379553
-0.006395320772038804 -0.946673441150795 -0.76876464860133 -0.33453050261278156 -1.0876800521118835 0.4365076401002151 0.578832804679658 -0.07652242062926407 -0.9101244358683045 0.43743353410146063 -0.5448205918836229 -0.9263886240185161 -0.200518777649216 -0.524922071273672 -1.5844352498142664 -0.14197103089900942 -1.3589489671131671 -0.5672590157643316 0.8537877643186251 -1.0258337459646913 0.5396027714989156 -0.6882141030434522 -0.16495356096608838 0.021089667702878456 0.2725953953228325 0.5290964351280902 0.5993981182579593 0.8191622747337284 0.2372151141157368 -0.8562712821402633 -0.6742477053019951 0.7591027062453191 -0.9677589951639128 -0.6985155384320763 1.4687122539660766 0.08444671629117612 -0.24067330792842012 0.4819253044084652 0.5328539968835033 -1.0848584978617475 0.5260632386602226 0.7822298273003959 -0.2848372853842174 -0.39041620908531116 -1.211010907642919 0.42117403158465616 0.18540056816431427 0.7029665057354756 -0.1721135168751744 1.0166149842207721 0.06180987544654737 1.126674532622781 0.6478792245277312 -0.62322396496998
-1.3777546066639563 -1.043312431532906 -1.1917297286539141 0.3958531998074777 0.8549704045566742 -0.7526683713528342 0.9367977740927409 -0.8604908521056054 0.41919678458956106 -1.2716910937423087 0.17045986457351503 0.10865493618461203 -2.1270228848567005 -0.595537360674335 -0.3159513474763086 -0.5039002504020262 -0.40052250056198685 -0.07455918104482834 0.153531089649599 -0.6809025822086281 0.779977473953633 0.8737202075543571 -0.41635441564257836 0.8982017879927129 0.8742448316328412 0.31895510614168954 -0.873773466366038 -1.1061231238717197 0.3158149445719741 -0.0657538533538573 -0.30225435539702056 -1.5829441192013491 -0.9470329359086794 1.0476847943614924 0.5760660912149178 0.6101563409356747 -0.7359559743615369 1.2321379920812008 0.6671747158158392 -1.3261371065645826 -1.0588410994206439 0.595730574389865 -0.4711085466955944 -0.5006738587591664 0.04702493833898075 0.6671496424304275 -0.7708404178273902 -0.02853602081027068 0.6329011693097388 -0.23792908670411633 -0.6280012075598294 0.7249398106801188 0.6190611971067618 0.4814522653353618
