0.6024629287921679 0.4492441978027469 0.855764828013916 -0.7012533950456123 0.713222392469776 -0.19988305213472174 0.23988057342727626 0.14328200049708578 0.5994234786419146 -0.08563076999218888 0.5675901165539496 -0.9699381384531464 0.45815353075974286 -0.5533147707628456 0.1602202543271748 0.13747747248816422 0.9498272478246379 1.1521041150806268 -0.7359258203935808 -0.4445263475310557 -1.6359508482346459 0.09346988014564955 -2.392765284245962 0.42574640899705596 0.4519608085339049 -0.2511211733189562 -0.16273010644101404 -0.28231645653618714 0.4670371410039805 0.08975854071348932 0.7293912459783418 -0.1681070016210317 0.7683466012761033 0.6195808542153785 0.7412872798631841 -0.46140796925474364 0.43912857488724866 0.09774142781406642 -0.38386837914345445 -0.9707723014878628 -1.2707558491061102 1.2893332447730403 1.43697482204306 0.16439280915266713 1.094560954199411 0.6993719729864925 -0.601603729081932 0.10254837061398414 -1.149813573229658 -0.6185115494078776 0.4814139848808933 0.7456822971832084 -0.8360863404293162 -1.3926712822041187
-0.43358520610018175 0.6596438708606935 -0.710772733205792 0.39288845445024284 -0.7934273476424056 -0.6128591191290458 -1.3591271470196875 1.0605898566358096 -0.6181079553743516 1.3021935827988338 1.2696876403667585 -0.7475297383376165 -0.4681725009254635 -0.4775185055379257 -0.8473787611327604 -0.7350317447539358 0.7000410570974118 1.4093377290763311 0.28921052031823663 -0.9442814811123477 0.10213584003754245 -0.5329755918295107 0.6619340702419272 0.4460616397935407 -0.31247297045899397 1.209373986608753 -0.44767994947096074 0.49347368871840697 -1.0700883502874716 -0.3470427033465146 1.2392837489116846 0.8833399185691171 0.30753670642983605 1.5895972542888535 0.8594010236996081 -1.5739392957367044 -0.6066992225380565 0.4552069510871176 -0.659984483616141 0.046574876852646885 -0.5957009922422101 1.1234416952112463 0.2950846590172273 0.3061724420909757 0.43237630612083305 -0.19769360386861828 -0.9235440165886586 0.5924218574388419 -0.7521583993741487 0.2065607988178783 0.48069639348547655 1.612999051159755 0.7858804964779547 -0.49648785639847937
-0.473067023054857 0.0238723922373294 -0.604900957148492 -0.17006461404530426 -0.6365914207366726 0.38220937191624305 0.12970975722481104 -0.8734597855270821 -0.39918800259001197 1.0169469220060674 0.9692268710428261 1.238028710283107 -0.44915579431511093 -0.0573576173090129 -0.3994188668485109 0.8116393639966204 0.7908907693771985 0.3221460002041905 -0.4008622508949664 -0.7433228544850579 -1.4670679242427158 -1.870798643025243 -0.4545511952558895 0.4713446151726573 0.16488549539065173 0.4254285393553368 -1.217727686291785 1.4044086031691396 0.43419692111209524 -0.4481396159019321 -1.4721291607497138 -0.06030684935542441 -1.0999513492757154 -0.3228774199490272 -0.560864966728529 0.6661267650880791 -0.029641563248481884 -0.9303435776605082 -0.04558653154357595 0.44871322782794393 -0.7408391721160114 -1.040927439177773 0.9593821378168432 -0.1273117763782664 -0.47393332533193083 -0.4304119908697812 -0.501500435199271 0.28103377548393516 -0.6801626989742817 -0.3867397583047745 -0.07641833780796486 -1.7455313130168861 -0.7494823035993006 0.7084895550633981
0.15224911484323767 1.3594175461507707 -0.7427004600171263 -1.2247181346759095 1.0033713636374344 -0.5053877109777891 -1.4197437010263554 -0.4161120366702044 0.7491048315047975 0.8051843210934937 -0.4682379634458722 1.3194778286052475 -0.49095988686820224 0.6618657955966192 -0.20118133428638846 -0.6360085324028648 0.5003153721035749 -1.3180956535413912 0.3607671067793251 1.256376097890675 0.23831491361887686 -0.9450070837860866 -0.4989719112770312 -0.5405181386443425 0.4377204545337262 -1.3343478262089035 1.0862234631299355 0.012427587743543966 -1.0115932934920144 -0.35588136636553486 0.2214683178139787 1.0936256641822095 0.7182201269410298 -0.8449643801899238 0.9283486796881442 -1.6952399362670605 0.9769819262181687 0.7748120637553914 -1.143402518247526 0.16901129658919334 0.5686506734817216 0.5943769334499662 1.1767630695445426 0.22100584671748386 -0.2656781978933938 -0.36938874831703533 -0.5701363133951274 0.7683638329568743 0.25556345779882705 0.1922862709411079 -1.306557424755972 -1.6273145925921937 -0.5634164785568265 -1.9271947896209456
0.3290753776164554 -0.3367851346011847 -0.14474228099310327 0.02292728731675231 -0.059441906934296296 1.4074660725683181 -0.5486148657863421 1.0069457197708147 0.29208736255614415 0.5067066528443211 0.08502098100733652 -1.2453168758300779 0.8815722754294546 0.2557451834308559 -1.1954312756262933 1.0992958523358078 -0.7519724916703738 -0.04183594365844767 0.6179143879505443 -0.18908968049929875 0.7538041714162906 -0.5210956543108056 -0.582151638203299 -0.5757009917569902 -0.09901704253498028 0.787735035296016 -0.7890641317139369 0.38829659475149975 -0.6541274532428344 -0.43904445950873594 -0.4244902796737957 0.2751124323957818 -0.6691354918281159 -0.399046299666369 -0.5091318425168498 -0.17776846454191836 -0.8884688363932169 -0.399499909043203 0.8557121225241952 -1.0975818850745425 0.25128906907305104 -0.11576646076715258 -0.5799195434414299 -1.4175590570840368 0.3954795234070686 0.41006685146142835 -0.5308791345346986 -0.041198890503358676 1.0945638925751024 -0.20516674131996193 0.22296617989732326 -0.6373779780019424 -0.4648170579136996 -0.10633916273231708
0.22989991902453194 1.2108355199915688 0.9301048270502295 0.1561830730479173 0.06603489800960854 -0.65748736289492 -0.3069702879455579 0.0021123439900219143 0.5194662760039916 -0.10019380782168158 -0.6366436423764283 0.62319289690731 0.021547344433749283 -0.592621402377432 0.32590320161220415 0.30586014044823207 -1.2111313097382834 -0.17969574492195894 -0.4039414148757329 -0.16758717857547983 -0.809977215510788 0.2739496877577834 -1.7900314736069367 0.4527963628514806 -1.3123198591368908 -0.15927041105057027 0.34454650667690245 1.0768740436150106 -1.3154093287650694 0.12706536432695614 0.6440038302233368 -0.23885438144018334 -0.9138044647044372 0.13478176556371785 0.6218336003252164 -0.5914812825667478 -0.6463054426241241 -0.6164443513750293 1.752791248004821 -0.9301330416453841 -0.6444562710110535 -0.8913781097596041 0.9306230603272467 0.05706377037686283 -0.8211198329729013 1.0318930590682585 0.6253317134280605 0.14412428245314085 -0.6071755023788692 -0.5715769341675014 -0.5628973518579421 -0.18873000272407614 0.7048186952341489 -0.08351194162625503
0.8751232055180249 -0.584283488013229 0.5312835873671784 0.5914834243438336 0.7164920754687258 -0.3992925658431786 -0.8418246776057874 0.7322685091064535 0.18882758049912957 -0.16835670801874442 0.9805487397003962 -0.8528265424054609 -0.7772992264079757 0.87362363849062 0.0104634307973549 0.26270247205557723 0.31403926890924344 -0.10545326732512755 0.9219763987354486 -0.3488119105458334 0.8451434051932369 -0.2482580158123054 1.1578433345942323 -0.44658685601685205 -0.6600890995570479 -0.4362287989476517 1.260251665880074 -0.7676972148739049 0.7877611147979406 0.5639057593161331 0.2607615717469654 -1.4689926696221314 1.3244429792077934 0.47091855602218896 -0.019476181428446426 0.4674933312684519 -1.3708231258756385 0.3961632893487381 -0.5412403359424035 0.1938406689891774 0.18674770876107089 -0.7163993250495002 -1.1037736387085706 0.12331650617590584 -0.6586804675616481 0.7701015762585619 0.6724071723925447 -0.6216694019500819 0.40925472005645624 -0.5959078603413164 0.9926924024398802 -0.5602677108859064 0.6092237438360957 -0.3286332333595777
-0.9915327442674962 0.529670066250651 -1.073812838502212 -0.5931858652990392 0.2656910354275996 -0.8088931491162179 1.8389121260054013 0.7418478751775374 0.029309576024235895 -0.007420613081304428 0.9270069081968497 1.294528342455629 -0.08336301666208756 -0.10507754840898303 -0.4863452461207851 -0.8843832883612934 -0.9904925121912846 0.09506297027201344 1.0733366796752946 0.06642470220960989 -0.522461325013615 1.0123370432055379 0.5835553086377996 -0.9455355571870762 0.9529932922872294 0.6817421279125351 -0.1528358875484238 -0.10018886706388358 -0.7402757367336725 0.9307820716854152 -1.2374506574774053 -0.2159104157960809 -0.4275818548846338 1.0138362351587216 -1.2411595454324624 -0.3050252494860872 1.5228425863276966 0.8265792918062289 1.5193833311797849 -0.08931039347968917 0.4791943636913575 0.10092481557958494 -1.1753013469499134 -1.167179601896177 -0.8192538185044389 -0.2269612762547626 -0.06575693124131848 -1.4582255793619643 0.04633965517492683 0.9442503130397877 1.3390250701990518 -1.3069945215345375 1.0103124256112503 -0.01607647985856475
-0.3939195859773167 -0.6070294056836596 -0.07859899138577447 -0.34328287474368135 0.589573308080005 1.1275635760111582 -0.5269179438693262 -0.3412772758340864 -0.24912557820018216 0.9245918625261693 0.9191895795166347 0.12292810729451858 0.9278461649415569 0.20983179837792276 -0.7783762629653062 0.8529366048599396 0.7254930247449958 0.5071711101534728 1.2916734281515623 0.4234263280717623 0.8954215034697046 -0.6636651651931679 -0.01509500420686044 -0.09339527203602993 0.5578738321522525 0.33533355583026514 1.5723223230834182 -0.10321872388477854 -0.4006514635974937 -0.38056314703957606 -0.10033653985735208 0.8600314713777384 -0.7843708702421444 0.2783305964240432 -0.6409080230558928 0.5897986016111023 -0.742015377759981 -0.24713088919909654 1.256361190966953 0.5422934462450759 0.4300838478645587 -1.390610829414731 0.6545625588399819 0.18121088525391316 0.8069909576789511 0.6511746079099769 -1.8386438955113054 1.682961635217862 0.08004831910917498 0.3420521939656726 0.48300835255815905 -0.005144694330989574 -0.21943209696373095 -0.26654762107892516
1.0061886489586747 -0.05892451338579252 -0.9649378955501179 -0.2493623094218556 0.19253102517368365 1.2244301748681283 -0.8363677812753015 0.431954816968684 -0.3078980905547241 -0.356929094376456 -1.2236989196508568 -0.7845340181302283 -0.676591235458902 -1.9083599230196748 -0.3461847806092574 -0.5128580256353483 0.5965802813748342 0.18509592881737152 -0.09315354193758507 -1.3253796655006835 1.6338086328338193 0.4072988374621171 -0.7633720578746214 1.1164335799514329 1.572548876027336 0.21678232924299828 -0.22204902726838072 0.6860042335809173 -0.12621627380927458 1.2600628378094283 0.30963366474393783 -0.5045405517480201 1.770042900675688 0.24481383077397167 0.16728678718265055 -0.2871083021417057 -0.5434032226014072 1.4229623939225313 -0.560981416967361 0.3217056257434022 -0.02913963897063776 0.2508708344949692 -0.41406438184220523 0.30615153608235524 0.3594155847792894 0.3409509588399358 -0.5355789390831667 0.536373358610287 0.5475125437386659 0.018850229939993135 1.084532063569916 0.5912948691415874 0.41089405932606415 0.4942939086558372
-0.6035391183173583 0.5052720349531987 1.331722458800516 1.050106193802096 -0.6151835756734045 0.3486238874726082 0.3709050985040073 -0.019258010595491037 -0.45425986698033566 -1.0974432800781044 0.9010761144689134 -0.19379899330259737 0.9458703996270452 0.7642067858696338 1.7616799971795705 0.20357191103884426 -0.9475040103498156 0.7754259340054463 0.41847463955578795 0.44969855939761744 1.3775563792427934 -0.6484107353075087 1.483845959841275 -1.6667429772705302 0.15108591740193722 0.16446573762098493 -0.1574654211621333 -0.5823886044249813 -0.6751684863461407 -1.229846495428557 -0.06525380002330655 -0.1084871445641068 0.7289045210826262 0.6753743880680432 -0.28207327746759586 -0.13564815187076235 0.991037552224167 -0.037646513887659105 -0.04299212356173199 -0.9310711735288125 -0.27760821083172754 0.21641555226760772 0.243222073562202 -1.0382691124853292 1.1441310820001853 -0.6316306721705935 -1.329673910285556 0.4699522182315411 -0.2457273521726473 0.6945366739794256 0.27072216090388795 1.5475044056203606 1.251811883016385 1.3173220310624894
-1.0698775499790032 -0.6866701057782016 0.516421771952347 0.4125503217403214 -0.4137121090273433 -0.5371488554225032 1.0249042216489748 0.5230745003839132 -0.1553923749930391 -1.6403788189840827 0.8444447163593416 0.3460565574068884 0.8977104331477281 -0.9564226584405269 0.33504601520358235 0.53166705243162 1.1597580643786831 -0.05105669983797978 -0.6965779717178604 -0.06833425163810447 -0.6700314613746932 0.9079705794402965 1.6450679677349107 1.2823741043978303 -0.602727874495633 -0.2568143018264145 -1.0537944576367362 0.4732528070059304 0.013627306219978486 -0.6485600244497163 -0.024557192677139794 0.8806457317997047 1.3478301075343089 -0.9157689492245668 -0.7767704155667889 -0.6141803053470105 1.1233841755850575 0.10647353511292801 -1.0551230365680324 -2.1365226383235676 -0.04443948537996123 0.5341360091506615 -0.6465726479793514 -0.7698065772036713 0.6391006142960114 1.0248602301232796 0.0015930787128847768 1.4681277955117686 -0.6272108665025617 0.511256823756576 0.36649245690828397 -0.2536247395601299 0.393736349131589 0.5529144236216907
0.241773895975747 -1.2100817359782168 0.913585838480983 -0.014115390356393032 0.9630061050134027 0.2565889586967939 1.4275020891815915 0.29961946888875696 1.3969237871416127 1.6148074876726466 0.5473825641567784 1.3202576043614005 1.3608584065650704 0.39355595865365395 -0.055514348127755575 -0.4851287754651855 -0.49622702691048604 -0.6387111903998453 -0.968479829533442 1.171926168877493 0.5894563073273331 -0.13795440893440136 0.5652705156758924 -0.05967333226174437 -0.27589724317517805 -1.5348666354765044 -0.4250126124492958 0.6025985483365591 0.9224749042372722 -0.6688244902766718 -0.3003240660283882 -0.4820115001064027 1.1296018762190765 -0.32829253942200853 0.4379941498039693 -0.18948694958961199 1.4587522870698877 0.41745486099772366 0.4431851385647569 1.1598709854720137 1.3080274707361554 1.1372181973904165 0.2656537483244404 -1.0296505218468643 0.4444196951310375 1.646789619216019 -1.0807628216256457 -1.131364564179707 -0.010773285171421287 1.2453095738601998 -0.7528382399033312 -0.6265145422788543 0.1987015883457477 0.2064021303243196
-0.45659422373535163 -0.04672378656543785 -0.41092934384812124 -0.827297722499636 -0.24506384672972448 0.8108209001498516 -0.3395806707830486 -0.8106523647155177 -0.09278250892523571 0.5395699117435984 0.9369045903680961 0.9009433822329966 -0.2817456514135518 -0.15361616974760273 1.2307730386480977 0.15332843315104566 -0.41078318775707595 -1.8252680163351616 1.4114598661749769 -0.5317653573935083 0.053348166709992706 -0.45134728046028433 -0.5505235925199261 0.4092010518771624 0.3132342107094544 1.0221691298076594 0.32383755702867223 -0.9750177982876684 0.6088332404653417 0.5128681997968092 0.46150069008461053 -0.060860158455059876 -0.8558143581147405 -0.5076362021704995 0.20152450707325043 0.2683935818313562 0.24571468029114724 0.5046258810181121 0.3084256603126885 1.1481225316574735 -0.8044997189651872 0.0015373329076963649 -0.741990205356725 0.769884505894272 1.4358154195350552 0.7642157693907066 -0.6238473023992245 0.10663205332644965 0.09963537634877495 -0.48185419944067714 0.37690766387031555 1.6214187217536231 -0.7799261798541555 -0.4984369390249239
-0.5201582451435494 -1.140218298359878 -0.17497938520440554 0.07138156373953153 -0.5006650967903474 -0.20884500699962344 -0.31634168072011853 -0.767584211178496 1.2164641889115033 1.1475202371059319 -0.26608258379581196 0.039860391116051 -0.5339533511381389 0.07999764249079871 0.541997573374223 -1.1104921203630758 0.04135293987005695 -0.22134155282255719 -1.2256310876716845 0.027524987104405985 -0.16430947462758394 -0.959152874107766 -0.35242870575339474 0.514827751882534 1.879565900937361 -0.2770870302053917 0.5496660554367945 0.04681621817694931 0.48554508903744 -0.38956479238416564 -0.3842047678693964 -0.7256901105803789 0.6572903342221632 -0.7586434027764029 0.4338221106757076 0.675903438439627 0.4216189765232965 0.2902914496839359 0.29073036649009765 -0.039387502289001786 0.9106870070957129 -0.5410946506904346 -0.8309628874463544 0.25081313298160257 1.0918834357221414 -0.31443112149808095 1.136684249685639 0.05929967773177469 -0.8824851878914652 -0.133990569872653 1.2833153263381467 1.1218120156245166 -0.1619915017360274 -0.5166020946130394
-1.9129833391596933 -0.015385551276345888 0.9717884472145137 -0.06640229182742757 0.8523288090415597 0.18579928685033836 -0.037353065186304046 1.3340547453118434 -0.9423328095972585 1.6551187693729577 -1.8493944728359255 -0.6458573849371787 0.19644511622452776 -1.0472971905628061 -0.6052802632692738 -0.7569811255153209 -0.23013611113024313 -0.7098264048408236 -0.5634933752410698 -2.1993718314614545 0.8746277928716059 -1.422847745317 2.009228667956414 -0.3419452140253542 -0.4273496097272177 -1.4212468137982373 0.003125588155014458 0.8414724185235556 -1.1954209042538524 0.45829706935170633 0.5609016230235547 -0.32013772946516994 -0.11931354413390927 0.18499345138652057 -1.567033075097581 1.256624874351243 -0.7715177007570803 -0.007111891144257976 -0.6978189508836492 -0.6140940394193714 0.5981801782806859 0.8697766065226655 -0.6088205288644188 0.5479995373104858 -0.4952520355919547 -0.18477525988227628 0.8221028074821208 0.8637182712593481 1.7501294104164573 -0.08401176343105116 0.5380143073736334 0.28114306904739694 -0.3783866427735749 -1.0223585672900373
0.6744464448965232 -0.6861470475214717 0.10644690285339725 1.4131653944927163 -1.3251245814506558 -0.5513469283835793 -0.3761736304465322 0.7618347083499303 0.15819206773286631 0.6334572668240233 -1.0844993262518683 -0.16177928665718128 0.7774940625382113 0.5720043269614014 0.08258536739495709 -0.021302817004533292 -0.3092311540676347 0.5361310171132634 1.4215679453525336 -0.2513883468218973 1.7017669404244407 0.9346144283505382 0.5585923373788488 -0.6799848950048366 0.34217816690966796 1.2330269293349856 -1.979685323139802 0.018072222408946348 0.8635257488028643 -0.34410660148315797 1.5263768124814499 1.0723163893531267 -0.21781788921195044 -0.3815902711197573 -0.32412468771174735 -0.5837990942520896 0.372361202073441 0.21850570180606177 0.44400998233049244 0.7879214220539486 -0.6775552237980864 1.077805482127583 1.395588475891122 0.31500348506517223 -0.2108613289243375 -0.5629391106160726 -0.6634370411349079 0.08501900135516266 0.2793205613720442 -1.1686940763965865 -1.5139899942602917 -0.25208596349009577 0.5585908750345663 0.7828713641217802
1.4828829032066269 -0.10460922696717362 0.5715410397808893 1.3380294823492282 0.31651703633257616 0.43193729045450774 0.7705369508293338 -0.9456346163301239 0.07053494206745842 -0.825192071189819 0.6587159904633444 -0.2399859906263802 0.31800696330826284 0.29406408227405556 -0.1890712165562516 -0.39268125105128254 -0.6949559197403149 -0.060308279539074916 0.8110603735275377 0.831590209581107 0.8252954446489871 0.6171515969184715 0.9172765274848576 -0.5283981547273671 0.6210033402209333 0.2703026642305867 1.0418589341767897 1.478890019383002 -0.7174011924696805 0.9642360589832483 0.7334895263782562 -1.0046918107594074 1.2964818046111 0.41447391783927107 0.2724884306856978 -0.03538494707037915 1.180731998064907 -1.0146214900601849 0.7726138469681112 1.338810139523224 1.2540942742652268 -0.9051923293851677 -0.415096776810953 -0.6442431855968542 0.3864352907517771 0.32679032727967033 0.20336174059904427 -0.3243964099722999 1.4280898754244018 0.08370221280690099 -0.5706847801131946 0.48983025476694797 -0.18215049188224736 -0.12596892854070502
0.623688485686994 0.2543713351406888 0.14651299689817382 0.03631389146517955 0.00935903920128528 1.4779949274975726 -0.09955389684935767 0.8241614149796868 -0.9932746446217977 1.0733238850709101 -1.1381553453116082 -0.17339527143325217 -0.21819948501890518 0.4699348091855219 -1.8589251808718545 0.2449595650041625 0.4022165096067799 -0.10598406042106445 -0.6054486946799887 0.6092924871861858 0.25646856701574305 -1.1153297420774777 -0.023112011804877652 1.5450715834403994 -0.1777701992186217 0.8677940721601439 -0.3372270898529525 0.08271660910377038 -0.6421219545151172 -1.158951819324265 0.7345553165675337 0.08408148995765952 -0.1517562965040853 -1.9268339589658594 -0.015198884768593268 0.1646483535524335 0.6285685243904495 0.1718311711369565 1.17682132608457 -1.0689172602907249 1.1560451174584885 -0.05100569914284897 0.861926564179347 0.08355844734710305 -0.14079410747563664 -1.075736051354648 0.6214925158187947 -0.29057079396138696 0.5918705690489507 0.8288067163709316 -0.7745543393226929 0.5324118580256423 0.22732260896922507 -0.8241197239478997
-1.2950982253385617 0.2302012359659074 -0.5313438076327228 1.1327803217884211 -1.2709567734732856 0.2641637837102904 2.0154559556496734 0.10439189012554462 -1.0142016621761383 0.9268859164410921 0.08301129050040806 -0.4311009234067948 0.2313409338610567 -0.7561718044508718 0.995180376307566 0.2220367477075732 -0.15107480292855785 -1.0083200881516285 0.5876543225372624 -0.3201631270891156 -0.18254868964830723 0.5919790221987185 -0.8727006308602503 0.9007560604826172 -1.6446723000275631 0.16958633203171836 -0.16218220186646842 -1.149345810687849 0.24499442053509157 -0.2611760995986344 1.2115980289083443 0.17224018180006212 0.8078328904714991 0.2914914031751753 -0.963349742244697 1.0844783782248197 -0.5606651445462127 0.8300643827828715 0.3606394557149377 -0.027253329449735464 0.802164355142333 0.7145911365201144 -0.5226196167982751 0.13933590357993808 -1.0165027984611759 -0.4485983920217172 -0.5939478219400506 -0.8248475602931096 0.8329451382616861 1.1828043850587984 -0.029968878480976735 -0.44584963487996504 -0.9969121319997414 -0.5736789057707504
1.633236057504585 -0.6691369874493327 0.7382102386625933 -0.17426938045605733 -0.2958103606051918 -0.4450023128172453 0.34217845402443064 0.5327927729554178 0.08484317457583362 -0.652002408475044 -0.010116949675690656 0.141624636173119 0.9185922183989987 -0.035725769363137316 1.470440278901795 0.5439016614149477 0.05097414053723187 0.4318633008558165 -0.9959967227155091 -0.32838037895163436 -0.25339658725610004 0.06461978030276239 -0.3519110198002288 -1.002195163089336 -0.34275210774176373 0.44391271176494895 -0.22310206997647175 0.3466282807155666 -1.0303420621295285 -1.8434262953276714 -0.24220970970754607 -0.11410431899159212 0.4666231559808338 0.16598302630684475 -0.760172618376148 -0.7442545365637772 0.18088166933010053 -1.1953632108323675 -0.586812745292516 0.46066659162143253 0.851564616705964 -0.36936240703936896 0.5175210638033279 -0.26594354011592886 1.231725576445783 -0.9061110923101396 0.08020702509959254 -0.3232289500500471 1.346630381185622 -0.40121578551601195 -0.4342847032428385 -0.555536024168805 -0.024211041147473245 0.6906158611445383
-0.5112045855675349 0.29999269878363916 -1.1135885095954308 -0.5880301474333858 0.9321472743365553 -0.08456346550782357 -0.538717987296611 1.0684269345878057 -0.7319562264420434 0.1012006466912459 0.6358484259885484 0.4163436568414506 -0.676093129254517 0.7721688140082532 -1.0968432344175651 0.7654209944442536 0.4202966014950594 0.8451130741492542 -0.5965596067098647 0.6537518875536622 0.8582462759060284 0.6297397524496333 -1.8234321332552224 -1.1401608238017777 -0.44311001838744246 0.29568826749179317 0.19038597669352575 0.004737107759637815 1.567006566152429 0.23793664325046482 0.04752497234499309 -0.2824939430691071 -0.8454146978865624 0.09429657559329102 0.16925753176050035 0.051192828834142 -0.783143037699563 0.8613689740211735 0.26805802759242564 -0.2543904020141244 1.2263121220024498 0.38286311191083877 0.17490501291679617 1.1905150004498646 -1.4594969544991554 0.290857715248738 -0.13082983274988474 -0.2927842780507329 0.00901965305885305 -0.3166974284185019 0.3116581362492077 1.4603526646951732 -0.5339127502758405 -0.32887519507491697
1.5323551106696316 -0.11759156416774946 -1.670586467841086 0.19281371728924745 -0.8638060106863348 -1.052817594050134 0.9503466191005059 -0.9812342201412947 -1.7791855529811391 0.5817901518598216 0.4764788492794148 0.9308975704022207 0.1332113669775613 1.0722189656846413 -0.047149133560356715 -0.056949458194159086 0.16438183459692307 -0.32093055658505426 -0.054264605021018764 -0.8773274642161659 -0.26297716387449144 -0.51500687381615 -0.641937645650571 0.5443630355109609 -0.7414267067070088 0.9680979550978122 -0.30795061150455305 -0.0545107747034167 -0.36721640311752085 0.6896245246908681 0.06800226411152777 0.30049941313326334 -1.1626802071416278 1.2656910026692991 0.39567423646657307 0.4751566254758491 0.11431575439822905 -0.6429879929698092 0.7196908938962158 1.137456722799295 -0.18829616823832912 -0.22817690587477119 0.17732650646658255 0.32783265514179344 0.30308809821833665 0.3703336719012988 0.8139967664108275 1.798005710339329 1.577160311185196 -1.7914189496966455 0.3128339041438093 -0.5986063366194799 0.6385364227573145 0.3725346269902782
0.37891760651899487 0.2628092067217778 1.4696501701069236 -0.9952906330243213 0.49097656064699147 0.8152310960727187 -0.5132272385658956 -0.4148791186326646 -0.5481591025432782 0.3871712532225728 1.2783071656023726 -0.3348614781767053 0.03258208738581464 0.2652905256268842 -0.6199114495331622 -0.6276863277100345 -0.5685115503091633 0.41848431872123276 0.494856917002359 0.5406466272621289 -0.851661860096383 0.3073439046767647 -0.9702552459715733 0.9564100288898707 -0.7766372466206406 0.5299673507252614 0.8084595721356149 -1.0258404875849079 -0.6489467493716936 -1.1362501658070512 -0.08244570458354022 0.053882359339649855 -0.14337840730203077 -1.1860014571843576 0.12229167660574386 0.2925675291292047 -0.9237030634946914 0.8928341607143828 0.14899685001242075 1.3158561209460584 -0.8650161838429669 -0.8578880843712564 0.33041458961848874 -0.5150159832952128 0.7171943034552917 -0.2126381801353936 -0.7151178398465705 -0.02370102750852715 0.24852916560321298 -1.2523974412461927 0.7966307995592637 -0.678719752610452 0.864535969818527 0.8759936535168442
0.08276760510625714 0.5910319266620545 -1.578631023355737 0.2572261956745595 0.10393601362807176 -1.322833923707639 0.8362966930732563 0.30479712603057296 0.9335849528270339 1.3160007133146632 0.2556720802654866 1.0074389662183938 -0.023740027596944935 -0.8798666002866149 0.5325315855000367 -0.8186116007493279 -0.45160824057274856 0.3650802874485745 -0.3470968825244179 -0.8943088588177193 0.554962037555307 1.3308913907264919 0.05159064378814393 0.6652850371555474 -0.41418745263003975 0.012491162823852764 -0.8590464864398553 -0.09240608574652603 -0.5848715649710382 0.8466758340910139 0.08260588933568241 -0.9868375247877097 0.8012420051232585 -0.849078508995555 -0.5097891297658595 -0.7147797561127447 1.2666787431719606 0.10762369598466587 0.39226224623970735 0.3192933469530289 -0.9154698117283908 1.3279739550726517 -0.3513920688070667 -0.3817929965077311 0.02062106292009569 0.5735525588704522 -0.8066770406321104 0.2683019333764613 -0.818050879030235 -0.7148749471218445 0.5662517596384926 -1.5357594424871843 0.16525073369327448 0.9262981418050473
0.7942872500146458 -0.08165578119770456 -0.7481663238646709 1.4741873021650609 0.11026655658750678 -1.0572473793224002 -0.46312375685204815 -0.9864478028450655 -0.2968020807383411 -0.5217634898527181 -0.2567886830941038 -0.04984086988452929 0.08434773955852198 -0.816796296105882 1.05333835735969 1.4733639324824563 -0.49852343037484703 -0.37583695263174804 -0.5568399737933529 1.0160197933930604 1.1739462006374317 -0.4659806742784885 -0.6333525146852185 -0.9059016162690694 0.8251219763715714 -0.02414346157511904 1.1145637895166538 0.8620941747683339 -0.8002344442139143 0.3016671075888448 0.24647522683080103 -0.33473363281205903 -0.16374618001425928 0.39850038470080296 -0.29988728053276614 -1.3525486620874538 -0.792331300443539 0.9519068792013161 1.302958436336514 -0.35646587931500207 -0.2276304157147152 0.20516559261788664 0.015598717393107697 -1.277703328835341 -0.2929362019836396 -0.40121415682523337 -0.5006304047306407 0.40704785499702456 0.41610597929986093 -0.563221239799008 0.1980418584202958 -0.07613044724474216 0.9828752129331382 0.5289176201280359
-0.20009353980392797 -1.3406666314573967 1.0814139630186248 -0.19728310968653384 0.246168670873669 0.5258548846860981 -0.48432077206987595 -0.848855405618679 -0.1962486059937804 -0.8019003448938118 1.3275701632962247 -1.5471990646790161 -0.9045190333818383 0.06555655757595236 0.3414955168565521 1.6797760973177258 -0.0695737286050957 -0.680270801423834 1.0861752144462105 -0.1856878563987523 1.099347573087507 -0.338471121113725 0.3841535842734706 -0.6109734521100489 1.0520445507935203 -0.9584837962953958 0.7004582025385089 -0.6049930958671547 -1.1193390977449817 1.2284337479467666 0.528005885635807 0.2289780930134091 -0.5771883267657609 -1.1061345779637493 -0.14127068512419094 0.26485419905310253 -1.0320019292273213 -0.5320035616975902 0.7218309966830395 0.9203676011462012 -0.8425899736125522 0.06835491823328366 1.1313231193443534 -1.6760567337612602 -0.17471390491125938 -0.12269298447866855 0.8722810665757557 0.20071035484080862 0.17074670075590137 -0.13800524427541294 -0.15154642670891189 -1.1069231812291136 0.3079688855180538 0.22914217348416832
0.8897095781162292 -1.3432690765313273 0.5465886313156012 -0.510916334852052 0.40502752265923336 -1.190147730922043 -0.48822682898413533 -1.096754861880057 1.0138995439687177 1.068869426296529 -0.22846347929556504 0.7782447892778508 0.8674147190070592 -0.7391642983926232 -0.3338520313626046 0.7483769121036594 0.8925890739743336 0.2659230343402653 -0.4299092259858418 0.210445319253039 0.5139295263443611 0.1737936385176116 0.01116360651100351 0.03742811811649127 0.6449599402310653 0.2205233765115352 1.673777895679882 -0.46331246302846285 -0.5670597271184821 0.8074604218156852 -0.9550547549452439 0.6677646016406765 0.130972793220741 -0.16959872323156527 -1.6267004615620388 -0.14982263788123173 0.45685903579810255 1.9189384203572453 0.9557669331842982 0.26096770422931553 -0.8277449153755971 -0.21528750714205647 -1.0880140519988564 0.41949295595968455 -0.7391135965297215 -0.17374993272708922 0.21151307947627612 0.6926588535197709 0.13086608627751062 0.37031084987861557 -1.3046553893454729 -0.6840333428714287 1.0652825870728684 -1.1100368404034204
0.2559706339473211 -0.39696459661556366 -0.6375381526884611 0.3804508692055777 0.5632090373886582 0.0062984850812835 -0.41368680464369184 -1.179562782911015 0.7442655432988305 0.05560948657390302 1.0037701848940472 0.7236931171194629 -0.2388229531993667 -0.5256993390768459 0.9038014612210594 -1.1674067128516974 -0.3974414291670951 -0.24904284934248122 0.8206879807597507 0.8299195330031799 0.9788132638065161 -0.4029626905707217 1.610735973045081 -1.0057123151992196 -0.4923129784137574 0.47006259679584084 0.36196236183730635 0.7450813630383836 0.2349268108707862 -0.7028858614120725 1.2697212182014757 -0.6226836548201351 0.22458683893500853 -0.1813914386317172 1.948399063929799 -0.8251123443541866 0.26041382090407744 -0.1373055900560216 0.03768475135842719 -1.2387731611365644 0.4868786503455768 0.4212332962441387 -1.1130108288154128 -0.18148333486859558 -0.8280638569235462 -0.042479093305616944 -1.079509492150532 -1.5663783439217926 0.8294100461975024 -1.099616091932729 0.3767850739228449 1.0586553666867484 -0.40419076309384444 0.7119199210501006
-0.32424829305366776 0.026854013465198945 0.6158280182583079 0.27494423474637764 1.0010163980791706 0.2465211990437945 -0.8535861665640023 0.519644915252245 -1.036069291188772 0.9039173565660383 0.3980345934611293 0.7673817376744222 -0.47518217408612307 -0.860896827736888 -0.18762081349740112 0.16049662745693205 0.9193910023897869 -0.16616007715656578 -0.4284416829784351 1.1816459008113538 -1.120225522778863 0.794699147398598 -0.23708469082837264 -1.4485276508612919 0.48197171338257255 0.8291126809344138 -1.0125046618454283 -0.7790130021883801 1.0235153997723714 1.076512596501535 -0.2807691067244933 -1.00113845630219 -0.3907039202780626 -0.3352379398244472 -0.7534364094267226 -1.51518265962337 -0.20305731845506914 -0.5260583155754666 0.2855145406198258 0.14428203587621596 0.24224053237118565 -0.6687709567482534 -0.6184560673553976 -0.7851376193166254 0.5413892917845597 -0.3566803302330066 -0.31969612305186007 -1.5333784449027315 0.2763470598505523 1.092264143498249 0.32511511710219493 -0.37193198851849063 -0.8125398329669802 -0.4958786992759282
1.0336997646053478 -0.8856461095503174 0.3580796423379881 0.829909205407442 0.8623127496862253 -0.9917747850941896 -0.11975025023368702 0.08149895391336859 0.7421685596386858 0.18415195390293537 -0.5504604604608502 0.16736143642599577 1.104181421176574 0.1477704306047613 0.4025470747246315 0.7888270097910739 0.9002375808414238 -0.42443026080592633 -1.0262499537562761 -0.007730477242917422 -0.5300241572030158 0.8851784606456041 -1.117751879979416 0.8719053098847089 -0.08914294253414357 -0.6745160770554826 -0.566666987609286 0.5432254892401144 0.07012319977379983 -0.2919544440624336 0.6560754939326359 0.6888228481537332 0.7022994663525248 -0.7196466687298781 1.014386624845623 0.5732847550999898 -0.3570100102794213 -0.179862088615647 0.44805554729961883 -0.9910882294941568 0.6789953849251877 -0.3057674012942708 1.0894168831962037 -1.2236815757480475 -0.2811426444370075 0.7397736952032834 0.6055926711545059 -1.1724199753314473 -0.19167515535713947 0.18334301915407397 -0.5004033548059328 0.6890812098090172 -0.18250226731808822 0.4809665324157611
0.22401656400050907 -0.818879304366157 -0.3665580404496417 -0.1839230900159945 0.6648506031107457 0.920162844450342 -0.1592460751937222 1.3075482088580153 0.5238706598545195 0.19032936278376833 0.35796665976861347 -0.1716538014169403 1.009774841848917 -0.6933199894922015 1.3919634395327538 -0.8326310592527525 0.30941198888262833 -1.822540829577424 0.15068174260881861 -0.21496152366235077 -0.00010019342501099704 -0.24793955344190488 0.27135576666938177 1.5559453404334183 0.6693813800977599 2.0420498893525654 -0.4255605745642358 -1.1728742662265064 -0.4687013440528054 -0.20229260221507495 0.09760358065033153 0.5240512295185396 0.1502691110475759 0.16439018892399238 1.956406582204002 -0.031852738014656545 0.6352819467811813 -0.2909515613661008 -0.5118242936373584 0.8302217147760411 -1.2167917350241642 -1.2450593111470782 -0.9879597597582237 0.6298816764613915 0.5386873544068004 0.3771153970100799 0.33118289775189763 2.0575321604677255 -0.8123107120310751 0.8739129053322923 0.5722169962905949 -0.2578863752185291 0.6654466865898754 0.08469599529316268
-1.1444895279093539 -0.24993762262121977 0.09613848784171952 0.7927270646470942 0.13748947187354732 -0.9779696342943418 0.8639180710493566 -0.9396970899717098 0.9669853695672066 -0.6706211259814361 -0.31911555987002926 0.27606127864609387 -0.5720756579986076 0.010632629795169102 0.01911047609213573 -1.1907927490717838 0.7641418531944602 0.32256701062906196 0.22132325787816903 1.4157770913863579 -0.2329248410831914 1.5299928115067094 -0.669984453819656 0.7426008369998337 0.9162415450113197 0.3575931195279442 1.3049575027585099 0.9621327535352722 -0.23765222101137262 -1.0853594635220012 -1.2193021289873274 0.5420658915209822 -0.12104324485136303 -0.1573880140550672 -0.324026624132348 -0.4914806214896239 0.8391913357483716 -0.48131474423007686 -0.8891950832447519 0.3425970714767651 -0.046614649631817995 -0.25443569084369744 1.212453507850122 0.024187473478441635 -0.8392564559493061 -0.19456453354238157 -1.0718134895640659 1.0659975422174301 -0.5456669959671112 -0.2824680911347339 0.6766107050045633 0.1494710980315923 0.14066163441512086 -0.7427243610665805
0.2971481901308387 0.038956505852988654 0.2912967670483253 0.32387330397184777 -0.7601025526328966 0.5962628783955056 0.25968503607707505 0.8530132506461012 -0.5366366415205568 -0.6860157661079307 1.3053218830299436 0.43800537876481477 1.4833774122850458 0.4762241018694842 0.12442263446258695 0.6220705094905374 -0.18487330192577528 1.033430174445062 0.07975860339036284 -0.7943982079547967 1.0492780412183447 1.1545085576980565 1.2359512542572826 0.9752400517740778 -0.5926766144521964 -0.5448101970395223 1.1447767917061693 0.9518359461278219 0.4150810143238924 -0.44903921148636333 0.7419104884674604 0.5329458531245348 -0.5331066210609412 -1.184480996539266 -0.7536429512484637 0.15964008371672173 -1.5017316638748746 0.2670641874613793 0.7740389035331809 0.5123698414319025 -1.0168414479192174 0.5199315958633574 0.015190852921794007 -0.016306727812261168 0.7337302809611095 0.2533458311549585 -0.0834635063042165 -1.305714545094947 0.30848071359967477 -0.7734716472543102 -0.3508289868365534 -0.18137073665971432 -1.4762978546119025 0.15075208332927514
-0.2401714437741328 0.6328584454324133 0.31012019794626877 -0.7251594716507879 -0.9714499534609071 -0.8662042656913853 1.1954546432528501 0.2849826170136368 -1.314407562666988 -0.32620948724386406 0.713836666945061 0.669201972209545 1.2805391080910968 -1.1417379860477148 -1.4492119995654906 0.8484522751839731 0.7883170105354174 -0.24365075485197862 0.07922781514611199 -0.08885171897625171 -0.8568320569034138 -0.39648010686258417 -0.662715677919059 -0.39364702348614433 1.4215893702383924 -0.1327156955159855 -0.4699791833128315 -1.1977783134521292 -0.6403495730646565 0.3094362446334754 0.4551729731156086 1.1535623139501767 0.5975853660278223 -1.0392081477748363 0.36637077510902905 -0.20456874973648587 1.1288997458383128 1.8803655463430358 0.39907834827834204 0.7386377970824214 -1.0156553076820276 0.20382977967290072 0.09925102679343584 0.44781086547662335 1.9953775003675434 0.03469912330078828 -1.85694894463563 -0.6503574025685503 -0.42803569733751945 0.021863446297714473 0.02054316934364203 0.7911258667843777 0.19380021797629532 -0.6601133888596625
0.8928348461715045 -0.9271075615421959 -0.07061258695806649 0.8161965908767284 0.9969205863954644 0.3636355938452013 1.1690730761270363 -0.8904087918089831 -1.048350702354431 0.4752735938099099 -0.9695539552524925 -0.4714489630497391 -0.5995160614226067 -0.5240884180116129 -1.2169611606949295 0.11755075175640334 1.6365002682680265 -0.16493508148782748 -1.155222382781693 -1.7060024656256243 -0.20504119515514657 -0.7063854349868952 0.748834564286383 -0.013313765203637029 0.45340782335814195 1.3081371771757917 -0.33407733545799106 1.1098385863442117 0.40321881750926053 -0.2422530907169772 -0.8372578725869022 0.24317572014288025 -1.099664593875778 0.9958292512361302 -1.4273806362001369 -0.07693808123753326 -0.7923000055154812 -0.5629814315816077 -1.305878578573375 1.5472295243280103 0.13891327710889323 1.1335701365187338 1.5381041373206612 -1.233241107237546 0.14291859154806608 -0.24943447362353344 -0.4650070435010733 0.773487888299941 0.4735773364894072 -0.368679487669732 -0.46599470555957795 -0.16174875386161497 -0.5935081720783683 -0.5942086495615666
0.6235840190013655 -0.10104678646497739 -0.8329816278043549 0.4941115302033373 0.46827743742124345 -1.1460790613412766 0.5099682583746281 0.5308727454787092 0.3731066969392827 0.6277400777248042 -0.11940312037004508 -0.17250739219402067 1.2995061924870268 1.221307205388909 1.4137846790287654 0.8931895494513185 -1.3766598172722708 0.5987659074652022 0.7949658872175593 0.32360150428802353 1.2750939590077397 1.0134527537533882 0.7106383391659821 -0.015789009208049987 -0.2130882975344463 0.7902711317811254 0.18767709590478043 1.0609608026692983 -0.16966227515505689 0.31381615855500183 0.14890000027112188 0.33681854852469245 0.9298351073519521 0.8221440348836828 -1.0422989900387658 0.42332656520861395 1.0568739025619414 -0.8740166147452577 -0.9603262129573797 -0.7967792603846273 -0.6106528955626438 -0.350340260162035 -0.26031430245412135 0.8156303698001713 -0.9252151472740484 0.19193633215388384 1.2801586219632086 -0.3451267603460352 -0.16134836994148527 -0.3684530347309226 0.31763172016921887 1.2254436310723402 0.0426563401707184 -0.22227142096257063
-0.33250611153423565 1.0365704298133838 0.2810128736594594 0.7267504258074597 -0.3995196181554613 0.8955973412024771 1.2226107664612358 -2.0796842110118567 -1.444986846371098 -0.1356317748798625 0.24012047654657448 0.1973291749919871 -0.4593718735516588 0.5840241943849149 -0.710490922639528 0.014568152836043458 -0.9492178898758377 -0.799237635374892 -0.45306670224003104 -0.14205492638362127 0.154033295436869 -1.278304837769079 0.6175133411103639 -0.24192497393632706 1.8989937127640535 0.8475068209873051 1.484890202802888 0.23036482260724556 0.8891138183567688 0.1744337560226985 -0.2748750409066412 -0.44356714479072784 0.5194998971821765 0.6660239035843909 -0.3957345624686224 0.428676392148406 -0.3833474474121388 -0.5313671159298178 0.3649210661684944 -0.6103357110676526 -0.5124918287617457 0.5901418305137216 -0.19736182492834414 0.1722711153290336 0.3783940774565548 -0.29661897720417807 -0.7629733778424928 0.4846392653119255 0.06846785302215563 -0.8799048922036696 1.0514175397472036 -0.7336721056484432 1.5417679988939472 -1.1757358803220783
-1.587849876103883 -1.2021742923229497 -0.7600505346403548 -0.22145504574831532 -0.06242771735801128 -0.9147289945970274 0.10546932873162085 0.6588464124641522 -0.48039168617456884 -0.5491984905401024 0.3391459001417797 0.777454711637672 -0.27360730598841027 -0.598143383299441 -0.726609958937974 -0.08575460737195395 0.8190172204595381 -0.08015854499254293 0.2952238298379102 0.2921736244540644 0.7029238552968224 -0.407351620821261 0.3750161407244455 -0.3572493430536216 1.5831109969809294 -0.8941809772537088 -0.7058399793637756 -0.23909056486642843 0.6041607932732831 0.2622656391003842 -0.2157674347206756 0.7591824258305304 0.8289061213900538 -0.2935032039508551 -1.036267652099829 -1.5994646006186752 0.22455622777630696 -1.0556967123080838 -0.9083265958297281 -0.13525073074971028 -0.003663108249059299 1.1450537368064426 -0.9611251313628901 0.9201302259041986 0.3296477768935157 -0.9873018130384632 0.002231791794296334 0.2593113903639377 -0.29861282111089654 0.40788712148063416 -1.2898736249571634 1.075187960522287 -0.47450307276779397 0.04198487937477241
0.3039658806850286 0.6107709455349114 0.43947872448811826 1.6285833497937636 1.0216888577795984 -0.7511149240278545 0.3073881209468212 -0.4125952554058485 0.6988295639438344 -1.171170414218925 1.0179794754851985 1.021366414202709 -0.0993580309688325 -0.4763353733445761 0.5695473938078772 -0.28447157657492317 -1.0588356638633836 -0.07278953940427818 0.5755669810355444 -0.9964159802111092 -0.35937530290427017 -0.11072962600067099 1.5291653411212813 0.32343175242614425 -0.5103994074993536 0.39327551801603666 0.3244431664742024 -0.46049266806930855 -0.029711910830044153 0.21640032821953692 -0.30821760984073315 -0.5616088362865648 -0.3007494779259596 0.3279481469136735 0.42992889959217906 -1.603998786219905 -0.7259574214119695 -0.6940383485741775 0.3084326248635292 0.6053680196732202 1.0067262019894903 0.17079522591723517 0.1397352406369443 -1.4301575924313268 0.11817994788052372 -0.2847381224548855 -0.3080996093056788 -0.6549515606927656 0.3577812680433067 -0.11199690980777682 0.12094941021799699 0.49331945413761863 -0.4452835857315139 1.1147214085120773
0.2210291024084896 1.1293408399440865 -0.43768872968906813 0.9415317300453516 -0.6994623698097329 0.3618801865253389 -0.45131898297324247 -0.7898652445922012 1.11767233844323 1.5623769001689791 -0.12445174966902828 1.156860578244484 1.1579585480119354 0.43858334460561554 1.3900165791254917 -0.22208415584326285 0.42640646013082006 -1.1103932998448531 -0.3977280309272407 -0.4574540694114733 -0.4042095907366343 -0.2787795607131009 -1.1586999585956135 0.37830811453155255 -1.0717250649000947 0.5514887108897817 0.16482859962063195 0.6348576951151894 1.0159043915375676 -1.0441288537710696 -0.11767492204430463 0.289820519939986 0.3167313287531594 0.1374558989775645 1.0332893103476224 0.30720733750152057 -1.6175572063580805 -0.5273346902014334 0.7284868161569339 -0.32382635081962735 -0.6734494057422125 1.046386370487047 -0.7583731851795739 -1.068041957067404 0.3369648263859011 -0.2434342346760287 1.0984381222250246 -1.4823013244228391 -0.3490668862491468 0.6530550609105199 0.574442653855888 -0.875575915396013 1.7791285874981246 0.6525134834697877
0.8387946439434344 -0.8790113420443129 0.19243693130090406 -0.48633862007411427 0.4103870575412586 -0.718875572507516 -0.4868617840261627 1.2400496442731759 1.8198328360667835 2.0461292342729624 -0.21422272565694422 -0.3566241975946582 0.13630218483532758 0.575895949111779 -0.048675880510082925 0.8412724885040805 -1.6015283391551243 -0.6178526339859379 0.08020020153384161 -0.030195852095009912 0.7399993229759085 -0.1931712686030021 0.7819092634115928 -0.4172673909342947 -1.2855179940836754 -0.14307083019923117 0.006068501182702024 -0.13062457494171503 -0.1734165684458167 0.8771464172858685 0.4590617715397728 -0.484882220266889 -0.6958965475129533 0.7695109489169836 1.5908423932408335 0.7685312786164706 -0.9860597952321917 1.1583147429293068 -0.014825688590995423 1.4139675648017822 1.0336797273275704 0.9391566631380339 0.2957586225491761 0.13493395915524553 -1.3445749710698391 -0.7905080596798355 0.06676175772996357 0.08953520144812177 0.7043489412331687 0.055604668023772785 -1.1479698381361643 -0.2258543125433789 0.3552040439709504 1.2745436223551758
-0.42460488663827733 -1.132634083222512 -0.5022983229745726 1.1274292175351297 -1.575883886648335 0.4096373040387019 -0.6376792189300008 -0.21247174665776858 0.1653690497649314 0.07887240253369154 -0.058396236015746616 0.03797083420869163 1.1569337758526084 0.6928886887693027 -0.053009016741199566 -0.17970376468763283 1.478744682251797 1.1207008107802858 -0.3367894754129161 -1.113029849926321 -0.7468092940365555 0.32815578672543194 -0.6477679292737047 0.553762565212804 -1.5371626260213183 1.204486423893594 -0.9539002107720334 -0.2954547551201232 0.39935683721997917 0.25534084317365635 -0.5080551633041266 0.9798232076317089 -0.090395178002935 0.0015275928642097258 0.012205654713357939 0.19305605735451498 -0.3819259873764132 0.5885896860961033 -0.6581279202877942 -0.030241988917169005 -0.1637862211410842 1.1765455854314186 -1.0022023694662576 -0.10378308669729114 -0.040338440609522686 -0.17549428058201672 -0.4749779989889996 -0.20148790557166163 -1.23955127589999 0.2747205896763765 0.7815987871664399 -0.33516644464914136 -0.7164538125271087 -0.7868017314122957
-0.5398514719151762 0.25833812636397663 1.071220318566853 -0.46960995195913074 -0.2027457574073514 -1.1385300979396964 0.6428051018824537 0.5877592253139545 0.9230140945929028 1.6445799997642128 0.039566623837291426 -0.4777363837770108 0.5661375512920566 1.1741469659359742 1.59667745272592 0.8397657729983807 -0.18028827458150565 0.44897168490834494 0.22288838386379523 0.16454767850402874 -1.171235327988726 -1.214670987058444 -1.0856671599781065 -0.4186780273117835 -1.1371434795461188 0.47789631650102615 1.3562622587467286 0.3976011400400367 1.1183870477164337 -0.1021127910361167 0.8068887318630483 -0.030170181774792693 0.6942223326532518 -1.7746122454074431 -0.08368699718812506 0.19071983531525827 -1.0398461243777335 0.579422416613286 1.2818256999382756 -0.1916948899121496 0.2884201828837367 0.8515753225673305 -0.4637267219261744 0.7198880638059647 -0.4418805792220256 0.04512063467658878 -0.37638995531203195 0.08379640028113328 -0.0985201111710548 -1.3004946729693383 -0.03905978855684572 1.4929748636633737 -0.426655162206459 0.6454096447191433
-0.40435129090908306 0.7023843775579877 -0.4978808054783832 0.6920671520241508 -1.5424184307012685 -0.3221661051367413 0.014834451219688793 -0.0760289824843221 -0.3134970310749948 -0.5232265079054856 -0.17196981239077463 0.47688151298892845 0.09992536990922735 -0.4456074641749663 -1.699239751968828 1.4462790409434403 -0.24548631115058717 0.40139747864998315 0.6710428795203107 0.1943468480082357 0.7203224916435906 -0.19158323751457057 -0.5988956858607191 1.0780334392259365 0.11035635679770245 0.9558484585355153 0.2297362778539901 0.21651380170346862 1.6951810944171133 0.6000994763748732 -0.7615197690023148 -1.1547091989949296 0.14515993635391855 -0.6475068784883768 0.17724397998838293 -1.8861921229516228 0.22845483452436666 -0.7461909099599386 -0.0929410424923412 -0.7416767209682738 0.2911756674086113 0.4535145128071402 -1.268158220018675 -0.4550414376530001 -0.5863047605559597 0.880445924261964 -0.9075137564257525 -0.6415693433398175 -0.6165408949557141 1.1994714544164606 0.5000058440913642 0.17845054623799322 0.8545696013626265 -0.5411435514821453
0.054648675402710845 1.545425777404384 -0.07871819782747291 -0.567167769808276 1.7076873401193016 0.32286126377274904 -0.06292857174720212 -0.1782060040881276 -0.2533136008788135 -0.47286609249755357 -1.0333586066766043 0.8703089096946222 0.4709948316216474 0.31005808069855106 0.6749801369906807 -0.4454202964014361 -0.41337071313565915 0.34573156720529674 1.138386940237527 -0.5151950497182851 0.30720893056128024 -0.4117864669327911 -0.05201178975555376 0.6102736028771263 0.1634288903333544 -0.31761411226230757 -1.3085885610852952 0.47996555558096793 0.0846258785142388 -0.25453028901723324 0.933812668860182 -0.4853962683065641 -1.0498777705049425 1.0183931475340353 0.23055077088214648 -0.1926930657652705 -1.0010931419449216 0.27038235463658333 0.7555081552167131 0.7968448371523057 -0.6555486801635944 -1.2243600600837663 1.5987775763660417 1.0425526511385064 -1.097610852377574 -1.6853620946576768 -0.24759688513545658 -1.7512816723737323 -0.4363369534312856 -1.0590649269709935 -0.9379194792162744 0.8889018012583066 0.3957187501226119 -0.46959619101233463
-0.8770694788020152 -0.030494554194268886 0.5941214829075041 -0.7919004455811931 -1.5095451184160893 -0.2903001193196741 -0.557227227428118 -1.4076836074574988 -1.318623997493378 -0.8391993699651905 0.5442802218137612 1.2722429350543725 0.40150881998078364 -0.598393860150561 -0.3023102512718144 1.6024812453044208 -0.25003274664373987 0.4398831130291848 0.7691639676669482 0.18228150704210555 0.023845915919609828 1.483990995354619 -0.8174119356385172 0.17786961763221198 -0.14826933957626603 0.933414623073804 0.11946816307109981 -0.4485930246412968 -0.08691774956756065 -1.5798100731392188 -1.0000329495245939 0.49980328606711943 -0.35013149613580674 0.8007433237103699 -0.17894978431450614 0.09264977861676482 -0.16466714849556502 0.3175351797530579 -0.2595650240669869 0.8238269209053914 0.7079999917567061 -0.44941775223700836 0.499087774814595 0.6862714297881769 1.528306103391358 -0.015676302316876722 -0.02434780959186078 0.6152497051271661 0.22133973767917625 -1.769380734777505 -0.4869052088677066 0.6287155444782495 -0.8517166932365787 -0.7921490787115373
-0.5738450229292269 0.9486976671825141 0.5469488778503648 0.45511948787593787 0.6183248792146052 0.3241303333295233 1.5727755098940785 -0.47536600593448525 1.6818769334983434 0.6164440664669786 -0.8016991587221338 -0.09335018862299932 -0.19116624236100221 -0.7695677936221961 0.16524537768135544 0.9521341382164565 -1.3967902629852909 0.41034812054404773 -1.9029175751619865 0.3830810676639039 1.061206628276396 -0.18342009868188325 0.6391834182294076 -0.9127085210663681 0.7179547061559732 -0.8963172586546313 0.20502161511019157 1.4249974423994543 0.2728915694505629 0.8569341198457162 -1.272107192085271 0.4176003842382683 -0.4499970339005724 -0.531852530890196 1.6437657902649274 0.763037459372929 -0.5044095491326711 -0.17447806928350268 -0.06795630302219324 -1.2377870141975165 0.5588143367292573 0.44842911715717076 -0.9329664339574943 -0.9342413681179662 -0.041356887745623405 0.8548694236350438 -0.3305642250447992 0.267801815828993 -1.4074216777604813 -1.2029418058342907 -0.3256774096343922 0.4514900088533938 0.27633063856539036 0.8735602901190351
-0.6681952371837367 -0.8136372406947372 -0.4988177636092203 -2.0045670492198924 -1.1393767906623273 -0.21639053933854652 0.22060520248609083 -0.49595173972170814 0.5748540377645414 0.5742570112416239 0.5515403242580214 0.8945214952909855 1.28039331061865 -1.1479355143931016 -0.07328334312384771 -0.32629016624576684 -0.2225859863118423 -1.2047958666589917 0.36438506006560645 -0.906417210289313 0.6390778102057467 0.48342049754732186 -0.49940950876877854 0.9579677389884289 -0.42293932218104957 0.995086634952058 -0.8692994907630587 -0.08218642944758969 -0.9495212833158673 0.36428755416029157 0.9774332941599835 -0.8441685504844534 -0.517648157793271 -1.2798641627438059 0.7431901579773128 1.3252579485796594 0.5029488006246913 0.522194963769758 0.3762746030030973 0.6419403324519959 0.6606682935719168 1.2927307857246688 0.7646032837704722 0.0997439708616299 -0.5586894274353478 0.9250126229325737 -1.327300770527072 -0.336637275244045 0.02312914409998179 0.1561242965772165 -0.38367609185880575 -1.813648218020822 0.7850891488127058 1.791561145528319
1.3339441048116676 -0.8042257092097409 -0.6878968624758828 0.5750368479232104 -0.4920442526834267 -0.3657659996438515 -0.7989043462863583 0.35848874126565244 0.13444285545419354 -1.187120489702427 -0.9101149071308069 -0.9332726413582424 0.6536074104705674 -0.26185648885757895 0.7210508714017217 -1.6555740694635284 -0.400297573051746 0.7237810601099095 -0.09332246601272581 0.9802361251782585 -0.8816397587553328 0.21593904080382537 -0.6128924555384931 -1.0783966753221943 1.286641004936747 0.8159479258598143 0.4243908886336804 0.3324562176514035 0.0682629866540454 0.38876606758643983 -0.29919197233844946 -0.2795875773443057 0.39546397590310517 0.307440808293648 -0.5540815846464844 0.4042309884729226 -0.6297804804139262 -0.21831710364994217 -0.49374784602681504 1.0275142255560223 0.42408980674244656 1.5948380334744534 -0.5058283951160429 -1.160335853066736 -0.8616607781084501 0.5783267437818298 -1.1606690710369105 -0.027177192086115964 0.8868245891014486 0.4043321826125619 0.32938217050320506 0.20268897169506528 -0.31345403280680845 -0.7958224950297059
0.8583643122753919 -0.42679451038810595 1.0564244889221879 0.3702930737723275 -0.31433932660157987 -0.7643630357276503 0.509789571691343 -1.6002340275095537 -0.39804874684797986 0.4802126658032913 1.7382937743346307 -0.6050678236184137 0.7251686365511795 -0.13608837785701933 0.0363591600208889 -0.6661003789442494 -0.7782510226796889 -0.8134946561900847 0.7772929002085014 0.7503596540219111 -0.35692107123629857 -0.6630884905505847 -0.12257402842448983 0.3726541346182363 -0.14253545589825395 1.099842299439052 0.40779375680581137 0.17188126927907948 0.1560333043308449 -0.046616501581897285 -1.0136247449668185 1.2165248442736023 0.6861436737251065 -1.2661264406092834 1.6242047317134105 0.4352444014887146 0.0757470116145641 0.814115252065609 0.8945577021085926 -0.36413412469756457 -0.24171260873874167 1.5204466722737402 -0.28609539854991806 0.8265468980525426 -0.24536625079266416 -0.19781371092710648 0.5619394768270443 -0.006743655974959684 1.2483335650990774 0.8675311603608361 -1.0064284093434868 0.6113392658944823 -0.030205536076661266 -0.9841277174232301
0.8954832477331156 -0.810218401167357 -0.8800863723987493 0.9954510480471259 1.1089199884729155 -0.7727936613604192 -1.0161969948622425 -0.9163837169104567 0.08542775893497917 -0.6834536662882644 -0.5698557656549894 -0.8696227360436697 -0.24336480123011817 -0.41030906727499045 -0.817677269940946 -0.04404143652339393 0.2673144101629353 0.08010635812128425 0.4313827228458707 0.5469685813463021 0.5189914353682084 -1.8122922439143674 -1.2415751573006975 -0.9636802429450748 -0.7437476553164366 -0.5388687558723777 0.7102996459835208 0.9862554301353144 0.2859960633253943 -0.6098567687611693 -0.6004008469929483 1.0581773344141183 -1.3281921050784382 0.7883335339816073 -1.168766409302631 -0.8455615369317748 -0.4897850956231317 -0.001598126832413671 -0.4497369356282568 0.27097794799061364 0.6411068502748083 1.8148252911932636 0.44267964341612853 0.29994800517146286 1.261579852221654 0.008007490745812085 -0.3025477399414421 0.7153922429468744 0.8702229874391278 0.20603694180049636 -0.26920025948214066 -0.1508239464398965 0.03925099449027036 1.1166894391516549
-0.4133640469673535 -0.790138909445801 -0.639817499459757 -0.4085473039097512 -0.8482445949579821 0.5373370497662215 0.6693748222918114 -0.5533439558668445 -0.461390905662851 0.26947693954259117 -0.18885038532340614 -0.6636263789056639 0.1533286754681908 -0.4323798712707229 -1.5415140421087368 0.16177634180279077 -1.0325447543419053 -0.5672590157643316 0.8550072952750172 -1.0258337459646913 0.49124979153597403 -0.5258181337469596 0.0029280065499127095 -0.1274919193657953 0.42899944793449124 0.5495336416252332 0.5912454872818389 0.6761285848796127 0.3505984636861279 -0.9364517345531782 -0.4523002305247155 0.7688589797861405 -0.6994095948825994 -0.6206365900737398 1.4102348707845163 0.32817974895987867 -0.1390075204881865 0.41135520767763606 0.5425761029648459 -0.8907567042526741 0.050995480197426446 0.13642949938777466 -0.28175609061675233 -0.46996952798992675 -1.118520884165719 0.9432778044391177 0.1165766876636169 1.057870284161508 -0.2414127702348225 0.8507542370425771 0.06803014658828743 1.2348430487794197 0.3485002524374019 -0.4571561377222172
-1.004142688812434 -1.1212405158253134 -1.1150561001869863 0.865733821554524 0.46124684402363875 -0.13402644950917364 0.763848892000855 -0.6034029424399854 -0.1594424778561066 -0.6732025058540074 0.4338594146810517 -0.2251759339548668 -1.7442581203376055 -0.8924954035463984 -0.40470104185971134 -0.4740152575677862 -0.3706677232901205 0.06689157132568435 -0.017703970585949913 -0.7539843113292461 0.7005586604978624 0.6390137897637461 -0.6669923434171554 0.9843254945516953 0.6480215383876 -0.07623046592809418 -0.5340020027527607 -0.9480624397483297 0.23328778727850358 -0.18431516034925322 0.021566791688388764 -1.1480911786775096 -0.8283678665598104 0.7320287796017483 0.5760660912149178 0.6649614721764026 -0.714301911437527 1.4383154013993102 0.6671747158158392 -1.3095566604273388 -1.1403692929542226 0.5394364871229328 -0.685982318378681 -0.5035969267993319 0.3483665637158817 0.502847085518324 -0.5951160522850151 -0.18339781179016906 0.9652827067398735 -0.3837575094173747 -0.14341213540968523 0.7925919063623672 0.6351729769154044 0.5904295849080642
