-0.12356111131062841 1.1596028724423137 0.660056319770529 -1.7323738836309237 -0.08505765313926678 1.6264550288278816 0.10571258662533134 0.3789830168040688 0.5206744903283892 1.0669708611034885 -0.03772114435600882 1.215840879838617 -1.8368048059238395 -0.032923892080889416 -1.535043321556664 1.2527451357636081 -0.0382033002488229 -0.36399576289554525 -0.0032558880601886164 0.38119564190106386 -0.40845151178590683 -0.29987821822550326 -1.0773806564876296 -0.8465171421043249 -0.3995188150972034 -0.6519492194354517 -0.20386329394323427 -1.414780460154513 -0.4954981713394263 -0.8990803006065665 -0.013139290802051506 -0.7564536759964415 -0.35021614980611976 0.2865099404195973 -0.5725058585686749 0.0009679673117495846 -0.18147062975598344 1.1906457793484724 -0.26416472885205594 1.147980571221817 1.6747272057118483 0.32950119790790666 0.6739746437427873 1.0122604687075611 -0.17407970480984347 0.02575988188950895 -0.9614522840225708 -0.7638172515869821 1.1807530111520126 0.4357454225934884 0.347527120078801 -0.10002572793218911 -1.4878343329913086 -0.37517151142002314
0.23569812289169156 -0.7327617685684389 -0.49107687783226195 0.5891830904527868 -0.2237186883126206 1.3161126795724187 -0.776685536464777 0.4412913950740867 0.1811254117745188 -0.42666324676458445 0.733809272502719 -1.9752294754499187 0.13774177008782534 0.29880266399718225 0.9522105567711008 0.6857190847925695 1.0563933412511741 -0.15229501007550522 0.5759555333958961 0.10156113666063593 -0.06889659774549317 0.3991004771699771 -0.5420621426775252 1.2619258768214803 0.1613276768473627 1.0903174747320306 1.1415501065048244 -1.0774866313412497 -0.5797903607102315 -0.9414348627322567 0.7784596709115292 0.8141148497930966 0.24020549147559295 0.18763884326395303 0.1643640985194948 -0.12113454944926239 -0.6845488381816689 -0.041475047585972036 0.5726111105123182 1.2754676432542236 0.4006508816051515 0.0442738038792444 -0.6243274268905761 0.3349104878160105 -0.19000332372970535 0.12898667364011918 -0.6179251729518757 0.42042296047557093 1.1506388683923354 0.22260389894187094 0.44966499925862935 0.26011621397628437 -1.22657193649491 -1.3695906813104624
0.15110474418659914 -0.008378405182042692 1.2585515496560906 -0.3656267630412652 -0.07408845217212046 -0.7223993266251529 0.7972872223051415 0.7051325363021382 0.2984412564297317 0.2113037306808166 1.032928085014542 0.2671137044134084 0.5327190538876638 -1.7863068214296902 -1.0071246727178353 -0.2709509920175017 -0.6649983128913926 -0.13235521689020063 0.24376213428885873 0.694859466619947 1.2292951936587553 -0.5919721201493672 0.4477614105016658 -0.9828469412662493 -0.10680556157059756 1.0372479006063917 -1.5744171794305812 0.16433755382182086 -0.7146711445989447 0.07546668831088843 0.2861829684877677 0.8219185904301357 1.2932684285163036 0.4492539528054001 -0.19318784490384455 -0.9150556325643238 -1.7175602008374908 0.13813126311362844 0.4216488058825321 0.21358955903381766 -0.8729048163866402 0.32706752046059484 1.0991983694598126 -0.996733547065532 -0.5493633647478853 0.5690436484363789 -1.1960541054493021 -1.9444345432104968 0.07645514802863385 0.3146650277182986 0.33847579799104693 -0.37412431086098796 -0.3839097998339068 -0.05811457178131496
0.2481024404756315 -0.21883417164886687 -0.8556846744678799 -0.35056194787726747 0.12661053347315543 -0.06404614859639757 -0.28929198419321844 -0.057019738089177874 0.5708867794233701 0.06092671896982893 0.2527752315414855 -1.5804441397698572 -0.5687243282038998 0.981984550902572 1.4231418960374043 -0.14053427623396325 -0.09315841611972853 0.04966683020080587 -0.7310896284706454 -2.075642514926371 0.7173530429719011 0.09857007791509603 1.1801984681220012 -0.13059833964441325 -0.1858140359599642 -0.3876863578949753 0.04488987665348659 -0.13092438017160157 -0.5727802593322296 -1.3152768174062401 -0.6366770392625218 0.08825812668393707 0.4132347242296767 0.4154015575704101 -0.019746514375412416 -0.8238779871745479 -1.2182855149491165 -0.9163233804622892 0.17173239649735011 0.6403557253461456 -0.5878619423446341 1.0453472998345539 -1.260868160416834 -0.46959662583845246 1.4268440039344878 0.6617841626477032 0.1813257269520377 -0.25430661873965693 -0.7843050633371733 0.31584252028897736 0.9058360501823042 -0.7776512436337131 -0.15762018536230593 -0.14911829011703664
1.3172021324053182 -0.6650289682167186 -1.2683187249668264 1.1204266686925501 -0.0721344479753871 -0.5663188811085287 -0.05461301251393885 0.11213498270982686 -1.1600576987595015 0.5352402321812832 -0.21350897523593232 1.2789176589378113 -0.1828637743442706 0.47682210858124086 2.434680117449738 0.29609683571123097 0.6124668037244286 -0.1416099670949461 -0.04454967891570644 -1.0324726822216737 0.7992468564550388 0.41409990913816364 0.1264033096231993 0.1377507007748328 0.3421091295219119 -0.7995881291370062 -0.68655547866009 0.7376521061243553 2.3084218341374605 0.9908943995405224 -0.6309357257692337 -0.27131605751137494 -0.136745740074179 -1.3945462490637601 -0.07269621124104098 -0.5488628417299829 -0.27435627489933206 0.43345100643545315 0.11119786158502154 -0.00918230542064169 0.04967180776993635 -1.5225122750224034 0.5259981666062878 -1.3136887128541614 -0.7216515380438591 -0.2376113952468641 -0.33035434090800203 -1.8816287635216526 -0.25609875327349035 0.2591829986140145 -0.0033015811871820455 0.3907743182056575 0.19300102785662648 0.37551120793345616
0.9765553331614139 1.038692261830906 -0.5525621320483476 0.6998223096987134 -0.49839006155062643 -0.9840107753987235 0.3232587893494552 -0.34394963989459587 -0.5611372476768843 -0.10725529758635471 -0.4780533458404954 -0.38279874680470505 1.1931027436825623 0.17118790564661795 -1.2361586771982673 0.40851608016730356 -0.40325603468242543 1.4634449353630516 -0.5050118886469447 0.2738957630336762 0.07036865285177413 -0.030199591142048954 -0.21146839360309 -0.7541246264728503 -0.7532711694015795 -1.763836475028387 0.5668816354901397 -0.7843370985907192 0.7966768334937342 -1.4084338205399523 -1.1340120547567671 -0.7349871485280961 0.6182400928143816 0.2650415628400655 0.26718628457372345 0.9858992310584798 -1.2693288304153025 0.1993865705017237 0.05597197877645366 -0.12413268667506666 -0.26922269826385964 1.1406169087238895 -0.7227051546006624 1.253515014834543 0.2745778723169643 0.9586652347133342 0.6443004049290306 -1.4403902048496813 0.9482352380399641 0.6890630360749106 -0.7731090443652764 0.027544242055053403 0.7363114059462975 -0.021517613011489745
-0.351003837084266 0.9782935531230392 -0.27662403976732614 -0.11095272616352742 0.8047612801520344 -0.048971183585001576 -0.23398647358099206 -0.7126456424709993 -0.6149859525107488 1.4243856094442064 -0.5285916279998721 1.0383369544097643 0.7152723266731611 -0.8070844623946862 -0.44523220328655866 1.3635839142882755 0.5241101690779473 -0.20306429421059413 0.06444358060292993 -1.306132011683956 0.8194167694502845 -0.5024215516014396 -1.2283081952400385 0.8804575075561993 0.41123104101178903 -0.08888312616257626 0.27276962624845524 1.152435793780517 -0.46630621578682685 0.04923628006225611 0.09791938484160234 0.865053399820386 0.1499401464208749 -0.675994213050362 -0.9406175041487396 1.1479831743600553 1.414581584792503 -1.3179542001090625 -0.21007425682706216 0.1879043241519749 -0.45164881110892763 -0.5774807096985448 0.03816824155305659 -0.9050918087869587 -1.0374869136672193 0.14234255396193024 0.046240432148645094 -0.701561467908878 -0.46912652461330934 -1.039926795687359 1.3302370143099038 1.23103091364877 -0.1008339262682364 1.0519293429560699
-1.121802531151268 -0.3078956338735455 -0.8489023708177481 0.11674809023280441 -0.7854928127006886 -0.9863779442995768 -0.5123538275339111 0.8519341048665179 -0.5205315271408963 -0.45729658085463365 0.01514867036982881 -0.555075469043683 0.6344184676464518 -0.8224214812806669 0.35916816319981876 -0.6597045035838522 -1.4479337467733782 -0.8780714626832629 -0.5307613720494997 -1.1600297273817017 -0.4768927823061731 -0.14450198896117517 -1.0388602306621335 -0.35469829801643804 -0.18057635968265406 0.6061953593118201 0.46027088051445086 0.09849105782236933 -0.3596181837482348 0.5736379033563384 -0.31039157770525205 -0.7213757925275528 -0.314709892682062 -0.4850640227075914 -0.11077370465404895 -0.33877887021863073 0.35634774963395854 0.4549825813513246 0.06402431432924505 -1.1948133502614477 -0.3879259003279772 0.29691906520620137 -0.1368716364217859 -1.4538549301623656 0.27047697426689454 -0.014132148051756832 -0.6241075389414246 -0.23663948886420166 0.23618586555132642 -0.6576332321006568 0.7521110945605509 0.6780774862776894 0.000938172255410985 0.3675923451460343
0.07943691257994873 0.5237122450474627 0.6759971479048144 -0.3842791013567269 -0.3309767941256998 -0.4522636076973561 0.50598544299904 0.8030327171607281 0.24849753843056865 0.5118396655496092 -0.5778564479148969 1.1988534133808002 0.3970760699591319 -0.36960190194523723 -0.6330449697312628 -1.1548754942987554 -0.9150256438370724 -0.9924090761504154 0.8185949766492372 -0.31623210479609015 -0.5567296271385431 0.801327230201873 0.25121775735966223 -1.0446878846894865 0.4424608324870227 -0.3453910478841092 0.19213347966248023 -0.14451677973413768 1.371502694344341 0.22799174120442434 -1.0239942658922028 0.3406043519396374 -0.4278839106795875 0.1811296113145361 -0.9680212933789306 -1.0300127049715015 0.01184862167277656 -0.6804571265472867 -0.14892491284745518 -0.27093388799902274 0.27770440402518687 1.3069735629917691 0.8357516139489114 0.1472314994463526 1.2105069748127575 -1.2606684772405856 -1.10147541647284 0.5582021181388387 -0.1266730499987292 -0.5573497720309237 0.7149547972905388 0.7418936279847317 0.8745458532889787 0.37488217021149123
0.3050358092731835 -0.5818298364848717 -0.9417265088885605 -0.11010081742781386 0.3623548837257183 -0.6896432484556744 -0.3195047814145673 -0.17327465821876392 0.8230873705369357 1.018504498580468 0.49612519885587686 -0.22092294252386635 1.2079989769122426 0.5725848085954612 -0.32220469036317584 -1.3890113589373683 -0.09536606059300956 -1.2975391554425948 0.3511333983145965 -0.7722698680924858 0.1351437374454435 -0.7609395653988511 -0.6975804605222634 -1.4752052086440088 -1.198992014868954 0.9516337284575542 -0.48706821834322106 0.7110386052826045 -0.7323810247009283 0.9273393156404771 0.8994226924990802 -1.3295051536563578 0.5324581292355302 -0.3312015775313722 -0.9345868348785358 0.7532855644314934 0.19851548674749492 0.5011085630421961 0.9703071737870858 -0.32162661844333096 -0.7239036712681455 -1.3662614752547664 0.6594139252194572 0.41047992648733544 -0.25957286247300615 0.39817941752623637 0.15000682067451443 -0.711719383366399 0.5575269378903505 0.9576705841354358 0.37154949728703807 -0.6705023024407042 0.09901687145865928 0.6785295331115964
0.172000342337656 -0.23538335346289319 0.33250532779123976 0.2656043279506632 -1.3086249064247428 1.4585365149048206 -0.1371872255249128 0.2430491898262977 -0.03234445244618345 -0.7557037462979883 -1.153828638417949 -0.4402394650984837 -0.7674892498530805 -0.19895522807146648 0.5424380334551642 0.1256542667130991 0.4199489773041272 -0.2659427298928512 0.8392146210196005 -0.7877778944714461 -0.25869163950598534 -0.6255572879945603 1.0155580540120583 1.4051281229276043 -0.19167165499633687 0.42007197744608404 -0.6258310103412701 -0.42037286652994493 -0.9216202127480002 -1.3472322826008536 0.056820628801344475 0.4550439379355803 0.6698310558206042 0.5787446169293441 -0.9880527205330543 -0.70592061262083 -0.5797179770064325 1.1295111267233562 1.31010459710902 0.7392132702426626 -0.27346281974856324 1.1258534782460599 0.0880767589525307 -0.7268553094056829 -0.9740964260570395 -0.32385304235932 0.6351915615125727 -0.13636263784995517 1.0382615585293542 0.23441275462355676 -0.7478611663684638 -1.6181477976925085 -1.2313496177443213 -0.13629173859554855
0.3434231821414457 1.4198844105813484 1.1652718329778824 0.06886851498087165 -0.31747343041957315 1.0276197367086077 0.015025852572743081 -0.6425627817444334 -0.07253035158615811 0.3833029752754967 -0.620613325931169 -0.6041557049111161 0.24033581658407177 -0.022886521493861667 -0.46469537572032193 0.4890780178476719 0.18788465633933504 1.2074065807800958 -1.4580359465194987 -0.09442605791741016 -0.3451100324283808 0.07947948316372361 -1.0390754349813285 0.5191729235631455 0.7072868703907652 -0.6928940671210302 -0.3787518583132594 -1.079255504194566 -0.9405518893153142 -0.5775766424900697 0.5417400529843486 -0.476577739153924 -1.4062926882735205 0.19981365570001647 -0.30601340167331226 -0.4719067486356644 -0.893211559433382 -0.6378407327363927 -0.2769177919720876 0.5946233089577226 -0.008740867380471029 -0.20038866872226824 -1.0995590791006835 -0.05388196557316288 0.29619708678386697 1.2164752779074524 -1.1213602933130278 0.5905792281253086 0.08850633495808508 0.2659706763877397 0.026406174976111085 0.41678217536027656 -0.726317486935218 -0.41438756346343375
-0.14753226262795388 0.1654982088679241 -0.4345946780889016 0.405968920994204 -0.058148678747203364 -0.874347945363616 1.0357336789948508 0.3457898785552526 -0.162780005279357 0.31747884937016957 -0.3177693424697016 0.942259588253392 -1.263928732657351 -0.318823059452797 -0.18613942191868788 -0.461460613782832 -1.2117901685769308 -0.9197540049770441 -0.04055493897107759 0.5217502384472857 -0.32286856314753454 -1.0350817521590283 0.48610553725604394 0.6883994138963548 -1.374612825778387 -0.08610620098931554 1.1079303687812398 0.3899507232578728 -0.23326524942391164 -1.0146952015601263 -0.17682005139278684 0.11346205672261589 0.2434167674365123 0.4130244188324151 -1.4109121080733864 -0.6598190591369416 0.4509740915528954 -0.21675317803320987 0.6356832211658225 -0.46714942356940486 0.1763308627145912 -0.14617662308584295 1.23953645791237 1.1075282638952346 0.3521979609092393 -0.7124378610174513 0.8972010087285845 0.38574136032497897 -1.0511159932901784 0.26782963295266504 0.6748406370160287 -0.28127841360336536 -0.30794551619672256 -0.8078430835249559
-0.5299139527260696 0.29669919565133185 1.3542372419494435 -0.14690151593709722 0.40615193333601546 1.075066119235227 0.9890343840079954 -0.2742075643845868 0.310694504364093 -0.8270030360781557 -1.0150267261476578 -1.2369879981604635 -0.18197584370502323 -0.6687774527107342 0.30864059127785803 0.3993701055252349 0.3319763959498025 -0.502091766922885 -0.043342118156171394 -0.3215921290968955 -0.4561604431908517 0.6279777806355293 0.02574208868706873 -0.978663524080722 -0.6758136712614524 0.19543894642966853 -0.22822535320959375 -0.470060035456096 -0.6548650593984775 -0.8723275160904722 -0.14509212657417753 -1.4441038944452949 -0.4199559608425604 0.13154984504357237 0.03502183297534667 -0.39439546823790705 -0.31039750469351207 0.10140211717633763 -0.4444556813608318 1.3245981628154233 -0.6073968980192261 -0.17646979736308072 -0.22688260579975617 0.6072164664565947 -0.47131501605467424 -0.3769387246046692 0.35330053663917527 1.0110470736602966 0.7012726322771631 -0.6381749305877484 -0.9967288949625233 -0.08225702688016323 1.837868849769235 -0.012162802429180497
0.9776942308566516 -0.4800543041676599 0.3449411974010566 0.6822496686144923 0.07709451532771605 0.40497059868797936 0.8395751562687155 0.10800525391338683 1.842708301568646 1.7771410896171007 -0.39459648307175405 0.31726611397534077 -1.0893775517837683 0.9334662951864054 -0.4561853691859452 0.7966139757376667 -0.0679302636227303 -0.7162481215914542 1.1346390611022383 -1.12086820994009 0.04679898431415097 0.5053186669784374 -0.15209386409099895 1.794275278550406 0.30864614514263716 1.4098050607935433 -0.8536080145225053 -0.3778815639916852 -0.1657974974327795 -0.6795182107354468 -0.6485806888355814 -1.500345069533216 -0.12922797238205352 1.075391917848723 -0.16497453873035994 -1.0710755346433458 -0.8041734056270289 1.463175302824969 -0.3846990406028539 -1.044210443063253 -0.009944527311601115 -0.015245223272706054 2.0143014074322325 -0.41796305371320985 1.792977436940603 0.7406438921338842 0.07582038389052115 -0.8252694432933279 -0.41837049279870625 1.07555522834972 0.5908364764135022 -0.5150570825989867 0.33669571870280673 -0.696435397069954
0.5339328208672431 -0.05748093852439107 0.08981847878227905 -1.2943856581046866 0.5227647082084923 -0.572582090106547 -0.009142571774787667 -0.8220254928822773 -0.7469845586480892 -0.893661686079771 1.619091541916255 -0.6962954398162688 -0.2677743427223597 0.8984495126284076 0.872285045990882 -0.8695318141985406 -0.1749189293237121 0.9267054385079251 0.44974074362533806 -0.09062732675395668 -0.3384967267136126 0.12320081651240383 -0.015963440393288286 1.1213879731115828 0.34785434078836247 0.0630520350779889 0.8397965136292097 0.4444860259170927 -0.8588421939786075 0.8342144177792452 -0.5643478031391826 -1.3126584335645888 -0.055595531926333264 -0.15664086395577814 -0.7029005948920277 1.2860152048059716 0.9034095662272775 -0.7273438902560239 1.2180468419629966 -0.4741900674784408 -0.1229444646581157 -0.22199126624267274 0.8494025938167423 1.3649488764661264 0.3874312053204621 0.32724183962050096 -0.4122332050413128 0.5641949828099873 -0.3504588023910116 0.012849353278083231 1.1221978300602182 -1.0113069942438764 0.4823498192375132 1.0434355788698064
-0.04874382453550019 0.22834819941458995 -0.9234252586021163 1.0024876601596655 0.7405338271499766 1.278230574410378 -0.5807801142968025 0.554609191724443 -0.07858074210139881 0.31985976955798623 -0.58193197673572 -0.52834276685232 -0.4491110522518229 0.9980894114477775 -0.718118750335325 0.5262748509264045 0.9025744311335369 -0.6630408277578159 0.26276118773836943 -1.1472138578221323 -2.033521530149754 1.108338542477446 -0.8718881890603238 0.5455996533029114 -1.0960054350005752 0.09449959702041838 -0.6687641465306329 1.0434818019367178 0.5081872154270421 0.7196408515832213 0.5323617232994897 -0.5632540333845146 1.395870525458219 0.48554125052542246 -0.024611022405772454 1.206211580102791 -0.7984292622196115 -0.2916946750002441 -0.6521706711201505 -1.177835590660409 0.2280396169167615 0.6995478618500073 0.13467215528588328 -0.9921212773289863 -0.2725372009435198 0.31139452285521424 0.4399930343865244 0.12562286801523265 -0.006753627461144662 -0.5092888767880532 0.543452241213173 -0.8262040356757983 -2.1142820103623863 -0.47022885685215826
0.189702386667693 0.09551690252125494 -0.19633315998137596 0.07095154565678097 0.21568946072840106 -0.7149958568027197 -1.5449254753308108 0.1375859623731318 0.7385829705848385 -0.28354099596109816 1.6504770897567067 -0.6324099137669377 0.8833970399063197 0.683625425241907 -0.796134710528554 0.24515182162439314 -2.1632292628360066 -0.5276942309790162 0.714229696726135 0.4542837806461428 -0.7588789898783448 -0.34514883740680197 0.20173099769881825 -1.5261536561509956 -0.9797413849360165 0.10569084109497923 0.23948474551150972 0.6521590728798053 -0.7023118312213648 -0.9501833627521448 0.09368460712341553 0.5726457106981484 0.74271836288401 -0.432498254746243 0.6008664176183286 -0.07637707682546085 -0.6516109391298976 0.5257131783972253 0.16276902141811206 0.7992256405108699 -0.9319437823952763 -0.9537601565265765 -1.374073050277569 0.04071609229535733 0.2358916726800258 -0.4709192710626782 1.2786889080546255 0.4764848923159484 -0.08465541050522046 -1.1601346130817591 -0.9965594457411964 -0.14369707158591305 -0.02475191599286486 -0.22854330896840785
-1.0514915569907837 -0.7959684964979882 1.4133702896615983 0.6612201342611271 -0.9434164486489589 0.4936191101692668 -0.1668131669860931 0.7570327587259061 0.25460252430064445 0.0010558139655852394 1.3045034688334927 -0.2578020745135906 -0.5966006407850695 0.5363458998479869 -0.026155287429110496 0.9844364288750198 0.9694628299581933 0.1929619847878496 0.7676270767608928 0.54534174327287 0.18554284091108558 -1.5386426610636914 1.3429298074350566 -0.9916544036206363 1.0154558662909707 0.32753240098388103 0.36847656188927197 0.2347031424202523 -0.11509918214951043 -1.091617457397474 0.5428131725568894 0.37736546680884525 -0.6022287259280608 -0.3739312395565723 1.2490240641764614 0.06818146090674976 -0.25731460900942704 -0.19653826170673222 -0.5728748441604412 -0.02957668460577212 0.8356339890638633 -0.05744919764802303 1.090814282335985 -1.0947812229459895 -0.6171603572989961 0.5599365382465452 -1.3458135974023717 -0.17496748457451583 0.5296632033413251 -0.17801150891973488 0.8238578091655433 -0.020933978828265087 -0.07751320359013697 0.4968849266813351
-0.663011559316403 0.7188533891228686 0.25286172798409945 -0.3090668497552135 -1.4006738700925527 0.025824276849123584 -0.10732430258319531 -0.8040309127333392 0.07811553809511801 -0.410907517784317 -0.17046640616964626 -0.2289181893748533 -1.2159118580876251 -0.12869051907206214 0.43444793387704117 0.9513566916484384 -1.5900180649885631 -0.9665568744631328 -0.7487383664017534 1.215944414981009 -0.5472090681967534 -0.14791515038071046 1.0594248016566787 -0.41433946938142885 0.19172516768735032 -0.6098970060221665 -0.06118686651199223 -1.0856015955740879 1.4065004192877215 -0.05375733050026421 -0.11187482483847816 1.3265724106939412 0.7437585715567452 -0.8618162909086525 -0.08939624004064028 -0.4635748249548238 0.7705584910567183 1.5708271800942346 0.7388977958606111 0.5640576045699999 0.13610722648553264 -0.35476777866277753 1.218180616855117 0.6677667496534274 0.27989601772195266 -0.3611786059228951 -1.016639743163672 -1.0424937210936571 -1.8358488870067877 -0.3721022121012756 -0.017656684779510046 -0.3548666868069144 -0.9321209741527283 0.04715583136723028
-0.8293701780408245 0.7138484939374482 0.7066210220770592 1.01735521338572 -0.7773625856592307 -0.22155517576068817 -0.4047657575716267 -0.9578814387823781 0.07116324643131644 0.4304465083424687 -0.14600678054362803 0.8228360134702564 -0.08766182128099581 -1.4412696114167265 -0.5604639312417324 0.25280185283845313 -0.16544856687734016 -0.831910817173004 0.13560255631308393 -1.3311684817695435 -1.5406590886412224 -0.767639148194562 1.0684177803251587 -0.13666322159106054 -0.9273137312329882 0.24117509476209642 -0.7984840557290533 0.17089528923453928 -0.44154589612945716 -0.25974477975434834 1.1762858896482071 0.12280360241768246 0.26339278747816763 -0.5905806983408832 0.33538854258870787 -0.6270826287456912 0.12312216991413549 -0.21307777730569288 1.2063369542945317 -0.18093697263476544 -0.7870176310960072 -0.2637614494203769 0.9088014809775325 0.7582999035667559 -0.20494340603987365 1.4864700780227575 0.30346465297188413 -0.35946166874395036 -1.6900643096209749 0.4204851184030225 0.5759774559652535 -0.21885266496960892 0.190190753229461 0.8996357543161029
0.9356773289226317 -0.16281314938638364 0.31662422648247884 -0.5304608890587367 0.07949625660587639 -0.3468914473448908 -0.5843175387287722 -0.7519251077610047 -1.9436026161032767 -0.03993609085768318 0.8455840528101748 -0.07505877445365167 -0.09776447702230323 0.25199086046469954 -0.12211717262139704 0.45015589956477897 0.8897913661282404 -0.2561575879493404 -0.37868286459001055 -0.3261384911021401 -1.3266138253419517 1.275558721812532 -0.544492469058526 0.9435956378109258 -0.934889014439857 -0.23160149977247207 1.1213495668024622 -0.4468280680332081 1.1446740282648615 0.7007876150979826 -1.146850753060216 -1.1809113917227028 0.10983629195968347 -0.36807839013393817 -0.014997452873447559 -0.5657605102470199 -0.22008679833514944 0.30647539583607103 0.48569519214445994 1.2306034856636117 1.0683218177608191 0.7252500992148148 0.27452208871534134 0.5640817659783688 -0.5328065334697913 0.2890304968633127 0.6766226667676731 0.7872623105315419 -0.6098932596820374 -1.4429583583388301 -1.8445621271435089 -0.2721168863236352 -0.6285798620880116 1.1903936457048179
0.1807526063616116 0.7288530836971545 -0.02646384334634544 0.7358098137992803 0.021985117524824127 0.05102524922446455 -0.8296002512041926 0.0601215891947573 0.24764585599695527 0.039289503081231414 0.7858473039612364 -0.35886505155808074 0.5617988225418042 0.19956626277905554 -0.10847062748660896 -0.41130893953136277 0.27888887935665857 1.0774116380073384 -0.47368495328247284 0.006789295687328556 0.12047991339259523 0.23056067885682013 0.8946604012471095 -0.17996033950576074 0.5010113775274443 0.5987409055661913 -0.6044302736967533 -0.25268289180906695 -0.10573168180563602 0.4080194567944162 -1.4414030418253074 -0.2802810861028385 0.36244873192224253 0.5575327673541299 -0.5259259814201486 0.1410257496405114 0.11694503878059254 0.7702026142177146 0.07201748124178353 -0.8506541972521093 0.829173955678103 0.30950440497707143 -0.28853668648852326 -0.28835526853567234 -0.41062716741623895 0.14288350392223098 -0.4965274269177866 1.5318324854306054 0.19433222274311768 -1.0756289091083526 -1.04007437709194 -0.13785612703151057 0.9801612148853955 0.8325536959732334
1.0592800431067964 -0.41196550327395604 0.4113207003920278 0.2877003050124707 1.244098800058865 -0.4082050813561013 -0.5213718197620056 -1.544633698265823 0.18420818186979038 0.20996227589301913 -0.003223425603922636 0.3759371671856586 0.31596369175034367 -0.7635082446929575 0.7044705531644191 0.7528851051728032 -0.09323981084231897 0.5121363836485571 0.0449009021423174 -0.04721764629596631 -0.3560610935391448 -0.17781820990504232 -0.1370615593323271 -1.78286674315323 -0.7011754936948562 0.6957929957259426 0.30297529493103215 0.20800687760741965 -0.17598507882266295 -0.6426007386452206 0.12659670630131908 -0.5987276255114866 -1.0076501932396424 -1.7215936763861914 1.2579662009700718 0.6000346257649427 0.2973201872621747 0.47114204425674866 1.7643324876618882 -0.687520738815321 -0.8845802565360579 -2.2639370469124964 0.2833285065546793 -1.1841629266023155 -0.0909651991892721 -0.28285535708562265 0.9847537279039159 -0.9493956061502782 1.722137828797437 -0.1743195470008546 -0.46815892678936427 -1.1199883931575623 -0.7777443559133159 0.09138934989553255
1.3930074531678927 -0.5492722158859854 -0.1048673893276979 -0.6845274982256314 -0.023012989068325218 0.5659831005177833 0.3790258640997534 -1.049925219510957 0.38357079103254355 -0.9890240361397065 0.9335696779715211 -0.4108327244086959 0.3078920394357657 1.2445738915676186 -0.09005703625575318 -0.4933682140692662 0.8512348243807559 -1.303354038419171 -2.1406751539933184 1.7430592325086003 0.10702512103445999 0.30290538184614546 0.07478886398628753 -0.2771809453616953 -0.5510609768763919 -0.057910010238324594 -0.2716267351894134 -1.0615928445699558 -0.8608382322274277 -0.6361340793289214 0.06498747004654581 -0.9587676709588155 0.3481858741890413 -0.8811522713363205 0.8822772001547121 0.1506325549769444 -0.4362390095586691 -1.4069533877858653 0.16438004979601595 1.2282664259149987 0.3474259219232305 -0.4195263698746529 0.9823245623231456 0.04444380723914976 -0.2075296036834665 0.6882146000821991 0.38744413769848884 0.3925501169928316 1.3641837886241694 0.6368510416661098 0.08345019497289596 -0.29953567425282307 -0.5312588861049057 -0.6829408784763882
0.9132688658031269 1.0417115833601776 -0.7847743154819575 -1.1611776734738015 -1.0177677087550796 0.6083558271232145 -0.08365696683353158 -0.0786139493251109 -0.3363338499771139 -0.003309310943193977 -1.7301179176791839 -0.6086350741749941 0.9014009243948249 0.36050568008402245 -1.123072634094574 -0.7326153678646304 -0.32887000572426317 0.48484342238476413 -1.0979749456202832 0.4100547142313883 -1.258805144458434 0.10580966101072581 0.491350179257554 -0.7690571489241518 -0.7835596232643705 -0.5490729185588108 1.3172161746952569 0.21041012927855574 0.3880614988493323 -0.784749803126308 -0.7429912075683343 -0.5338246328647491 -1.2603928240053182 -1.339585336672172 -0.44882790675003836 0.3672569871633294 0.2005258733773847 -0.7867699820459186 -0.3990565330212701 0.9303618529246644 -0.04305278467193935 0.19117139130951344 0.3135196335690684 -0.11842321723521926 -1.2010653390935384 -0.6909144684961475 2.1182589549578554 0.5516885386379529 -0.35259908736347756 -0.5651512314429286 -0.7059942168730626 -0.3655597312408514 -0.3444094116384891 -0.4838408508601443
1.4968663060480558 -0.479670066362959 0.0886077750029658 0.23582473695746797 -0.9324390176126769 -0.35830950347921864 -1.1639429746754362 0.8441922307235172 -0.6359376204303386 0.8723249926050762 -0.7991331406734287 -0.21585903311737842 -0.6629041080424352 0.005749696662413095 0.1289196584433474 -0.7134868520359534 0.2837859331489523 0.6040486771353275 1.0579090924931376 0.1385617855275167 0.5982102921122987 1.7571821388345774 -0.1526004173455376 -0.26724405211491437 -0.45234130414290236 0.3029156914902539 0.5328499823062384 -0.5876743226820806 0.29705089473722257 0.6307735115330798 0.42863389579045463 0.5135325316509579 0.6247900791793302 1.14012086125904 -0.2971273204086812 0.2216676517785124 -0.36754213748233483 0.8134125251708165 -0.21969149100996477 -0.4304943977276537 1.17524574067218 0.5871124076556422 1.0935751191503127 -0.2063423139770112 0.5348929091193226 -0.06258579691611688 -0.10133091742826195 1.0501789626234763 -0.46870094790641165 -1.3045435777550067 0.47191334774316884 1.185504006038662 0.6662915570837229 0.8758927553168417
