-0.8569894434068774 1.2729267016731498 0.398317286194399 -0.25712241255653695 0.4703452550397512 0.21691496628117396 1.7475789480251083 -0.8000471408592473 -0.27256566962051687 -0.056957932053480376 -0.8792910880900515 -0.47982852013597405 0.1955556157466064 -0.43774646793336613 -1.5452694524153825 0.012971788802225381 1.588516040574108 0.9408046437080037 -0.2878876043351991 -0.9829597754367215 -0.14400907631221843 1.5711492476484963 0.29877941955469073 -0.5899716231822117 0.6106537333834681 0.21595349522523072 -0.09636143430484378
0.5212600565837031 0.12700822140265045 -0.5513854891388374 0.3162433925830057 0.5669588153136849 -0.17211752839047412 1.1386815902063487 1.0409520081737762 -0.640650779555906 -0.14235582801224245 0.2374641435378954 0.6106859048993025 -1.3902613441892344 0.4215388879018844 1.31360003682482 -0.43671200993985065 0.6862257794858329 -1.1587609075631042 -1.2822038112023166 0.26456919421262826 0.35581817540136906 0.8686061407690377 -0.06792076113333251 0.11679083936770251 0.7378696187199689 -0.9804669699798427 0.538137955822658
-0.46323680474835605 -1.149455928820514 -0.7716609854749856 1.3080617153031278 -0.11599073815911243 -1.0246930301391146 0.26855792708555154 0.7849191768816055 -0.288842071485779 -0.005370563124034444 0.26606726946053927 1.1043026623413028 -1.0137039099060619 0.2486247492253833 0.8091935669868988 -0.396002206101678 -0.16440052346930029 -0.5499678227176402 -0.5554575706472578 -0.057092246554469595 0.33456267762017977 -0.5323136353552758 -0.5959221977635889 -1.009324327339264 0.521831832714309 -0.2753751829606573 -1.064254582466579
-0.1019528402711164 1.8129216106544284 0.00016995841849826165 0.6482209826689358 -0.058513570543734295 1.5059484023127794 -0.5889692404951248 -0.3145519006124489 0.011313550439902231 1.0869779848420154 -0.3079658807202023 1.293527224074604 -0.08376568181500721 0.05828627110874307 -2.3294260731136522 0.2972532175409048 0.2358897426821217 -0.11453276058885326 0.4394943684544914 0.9991686799234871 0.11408486262117756 0.5882664437402282 0.3154102101282503 0.3850962446058218 0.9493215923486268 1.5894596357595978 0.991157834563603
0.6813077455729548 0.15323634176981532 0.5676450729081262 -0.6505179184268461 -0.11620444432986538 0.053347286540983696 0.6755356851386926 0.432645908550516 0.031859062017315254 0.7553334704232333 -0.4408931082112527 -0.6057611336670614 0.34086602019717477 0.34012671766053537 0.02300168833897448 -0.12238962585565344 -0.7664101761322286 0.4274604909899494 -0.06590665529368639 -0.8648645940974513 0.14629568001950927 -1.2329164953015348 -0.6944530778253825 0.009949564143160006 -0.5174005167690092 0.6491376532497577 -0.5046415349708405
-0.00029675961645697635 -0.536769828977008 0.5655487037204734 0.41542420967807353 1.6425695456739429 -0.05163643456912309 -0.5515898087507748 -0.3224248327528152 0.199323140635914 -1.8724986573678186 0.8351925154979168 -0.7966766393071623 -0.7149106866983159 -0.1322600193254746 0.6039300076801941 -0.07430675004535597 0.23919584942510436 0.37425389890717176 0.2580292900653543 0.9575512436483282 0.8429042810610774 -0.5390304443436957 0.9032505072540469 -0.7123643195677686 -0.3701800049203505 -0.14669716467102512 -0.8064093409364093
0.8681829364064666 0.9533253786860036 0.7818957416469632 0.10140173864371682 0.020175907972876272 -0.5092288700149605 0.8623925471025268 0.5277975866037362 0.6096343838382754 0.45370103432063663 -0.644631718791318 0.4603366686334976 0.3139207875260595 0.06720324313131032 -0.2900321571118453 1.1957363851743439 -0.32866309844482944 0.8013432976224804 -0.2799297129397505 0.3153186527011695 -0.5414795205536317 0.2898549390577361 -1.3209533248683534 -0.8922148084183585 1.262444925844251 0.3925321334060695 1.2235047662638403
-1.283735348295078 0.5688551662912293 0.6269476541416258 0.7956811308413715 0.9101129967545575 2.072819954056813 -1.3663184551689276 1.109839584578815 -0.15066946770358713 -0.45721321976015755 -0.09428253902863609 1.4416699852550092 0.7425520784073711 -0.1817403669295014 0.19493805360888883 0.022885416308189466 -1.8320415235435006 -0.9443144205106391 -0.6581328341218904 0.4824677616755177 0.95246830490833 1.1823654670458146 -1.2289894716889398 -0.2936047875671438 -0.6841501893061467 -1.384442989679205 0.3665456768394979
0.1900817414438658 0.4774607190412705 0.5119950829573954 -1.4952931747692637 1.4609602419029641 0.43425561670992213 -0.01618567412601485 0.599655012886957 -0.3030225391068705 -0.4817241789627968 -1.2740009797579053 -0.9511348744998915 -0.8310286195972343 1.9652893686532973 -0.873298841233695 -0.8096507091774708 -0.3996115313055516 -0.4016395210699035 -0.9662576514603665 1.2684727390769437 1.3446569620200248 -0.8679004906659251 -0.19809215577332617 0.06571673003022183 0.34052379296890645 -0.6266224040666488 -0.7389170550092252
0.49199546949757145 1.008241102691523 0.06836154094510744 -0.9553554583446557 0.2984471257111511 1.157274112622217 1.4109563927980049 0.4431148193677855 0.6082357644531381 1.3264810516804055 0.7242296937596084 -0.429160399241575 0.36178520515699186 -1.000455192449107 -1.0650799498850232 -1.6251210802624287 -0.7109231135042868 0.9879480068757476 0.47742544433310397 -1.1905841357386824 -0.2405748794721302 0.9039300934875221 -1.1194583132293454 0.015625548191349647 1.8923947096772527 1.4373742086121268 -1.3872935179607921
0.013977430786219436 -0.08917601896606453 0.6248476559524252 0.7569213252627431 0.28095464856112906 0.7185240666493979 0.3837386958233705 -0.6467954682095962 -0.7293912473951667 -0.4357890735376711 -0.11980064679902624 -0.04129626708264211 0.47138933855232734 0.8871481132739394 1.390092312687324 1.3047243392252814 0.6182147990368827 -1.8315361210439214 0.3162153482700826 -1.2339799637937645 0.023564755983605024 -0.6385134887495179 -0.713318652919836 0.891743062701049 -0.6846022680693057 -1.888836902445941 0.07186003994718781
-0.23186174613250693 -0.7398964699038371 1.0711347717865398 0.6637519610535532 -0.5855972900496076 -0.8864403622109382 1.1644562669091527 -1.744882874858849 -0.19333872289963488 0.7137451602741045 -0.2966184963304132 -0.04175197317404883 1.2505782600787985 0.5973283404497357 1.0544044328939668 -0.2670850436214654 -0.19471185050594564 -1.1514691185151023 -0.2686515302479474 -0.027392616076027554 0.25988358424902236 0.6943234340861595 -0.3181149632755694 -0.09205195725420007 -0.31599877372625085 -0.31078219275374624 0.8672177070104561
0.6801602135251652 1.359322378960526 0.7583453431426346 0.6298318571398573 -0.6455630050759136 -0.5506135617180912 0.07465323811468022 -1.0898784103219485 0.01500790980822514 0.5649888415866468 0.9424966400415071 0.7260588393785808 0.12283134983851701 -0.899693049206293 0.36836529766222875 0.04662507321759568 -0.9558544008183483 -1.1884861623474348 -0.4342069583484453 0.33039205039305425 0.2754353585054338 0.9030381399941065 0.6177106552993679 -0.03228294818660571 -0.33982316642703847 0.547172766957052 -0.42867033526214626
-0.9473506913328227 1.3961933183885178 -1.4371539935320996 -0.7605318365957725 1.3366889781103914 0.22694154755310242 0.18751674693355042 -0.1363071126926378 0.7647406443642482 0.22956472303047482 1.5152624730696411 -0.6493605599636684 -0.4434064278557704 -0.14575422763430462 0.6309362991407343 -0.9913343293390839 -1.0618376823827038 -0.7928292163966553 -0.8257145522045968 0.2841881249440021 -0.9033206450170768 -0.4352188361365069 -0.037988351730430414 -1.6877312654865195 1.0759033414823624 0.7294629202707349 0.9033148439158631
1.2504511319114338 -1.2301439945648929 -1.1737417789674525 1.1361933025033069 0.2727473044821138 -0.8007492841365936 -1.0593271885543718 1.0832684145906373 0.056117363963327505 -0.47402841479150765 0.13171744827446857 0.47180999459708356 -0.18522973742432813 1.6744428190026548 0.7164783384602904 0.398996978612402 -0.7104097953662036 -0.8196096812772939 1.4394672807872362 0.6054797108313088 -0.007873304391754155 -0.49518364938152926 -0.13878819166496287 0.4744004591922866 -0.0739043989379935 0.5512210884835527 0.44955920647837005
-0.055272271059750466 -0.41058122821378684 0.2679017350099608 -1.4314877992542183 -0.7427992847865947 -0.05329188411271829 -0.9902215354077271 0.2501169487412427 1.6421800415781869 0.9447207682744553 0.30188510686908965 0.7081267385307182 2.0877082149357764 0.2305516624671095 0.02312390500268452 -0.516365905771633 1.0073247719868403 0.6608809374617474 0.9622378501911273 0.5291239885010497 -1.7260090577643785 -1.560603212288857 -0.05817779972948339 -0.41106040160569873 -0.044581181123905134 -0.720209111351098 0.8073205265571075
0.6749927086252574 0.03971881533409094 0.24321621003329652 0.6482189169107618 1.0283028691240734 0.02962302788704918 -0.9777053922223975 0.444504226611167 -0.3222597905175214 1.173935530922951 -0.7845491431536612 0.790993226702075 -0.021107567068499755 0.48319640417440235 0.9926240487552347 -0.9093862252938251 -0.16013232004002564 -0.5913306713879178 -1.1962631690368066 -0.29552247438216767 0.8182565407388821 0.32042572919592 -1.236439317886962 -0.9521849188267468 0.7909960194357084 -0.48766985719921974 0.10467845827494981
0.22209825968106384 -1.5515466642476934 0.8839386746861019 0.34124666675909615 0.5719010915153214 0.48720243639502236 -1.691731612650769 0.5054802770951614 1.6599896035117898 -0.08570961561377366 0.4117793251270689 -0.04876265135007851 0.7261113962434387 -1.574239363737313 -0.046420622718534144 0.04469263154637704 0.41647484024222126 0.6132443029984431 -0.5690139378591194 0.8405420609072844 -0.20927684724080448 -0.19850251311103018 0.5854543894015038 -0.28434617527345757 1.5625817375742943 -0.04564394669813221 0.9926813851936072
1.0950998170817408 0.6057931781275996 -0.8811277931744479 1.3530903745245935 0.21945126902988987 -0.5381809197309821 0.5329232765502775 -0.7103993765823032 0.6224777279141848 0.4842079110873274 -0.9678573905794738 0.5442894723591302 -0.43034939550499907 -0.5215447634525714 -0.43562461940102765 -0.0887116872335385 0.5258022294721936 -0.2819919985248391 -0.6153860297927596 1.1553599930959455 0.8325050557011899 0.8434921260549105 0.5440648077438506 -0.782613009725849 -0.42842548545092146 -1.4099079004139556 0.49789115196127115
-0.7552794496835282 -0.9417474145247182 -1.1674220010603382 1.7826008387760608 0.20278146627313104 -0.9881147208164607 0.5870657961027415 0.17235462849788302 0.7680994891021593 0.723708340501124 0.9975511933036436 1.495226777774786 -0.020882403999925192 0.263138222757666 0.6597315804682948 -0.4498395922042267 -0.6050814507964977 -0.5203812153121903 -0.761044361715342 0.8822797474341311 0.41425799394247476 -0.17127227827871894 0.052735978853377885 -0.7417881977668277 0.9442610574386276 -0.4509624731721278 -0.09518785494700316
0.15868385169846905 0.15673563399408902 1.080847118830479 1.5849073385954504 1.8707267069899252 -0.31390105609980323 0.026640979629235784 0.2042831922879133 -1.1303497776230502 0.20803147723549942 -0.517668311299815 0.6507646368917448 -0.14668221832058181 -1.4963395062524238 0.6824856554636574 -1.3290983535413803 -0.36693195027115805 -1.203479435084819 -0.28893850498956286 -0.17385908586254822 -1.5211627852471443 0.8821409935113385 0.46752612133162097 0.3406299698340735 -0.9077425144936037 0.7987854556464258 -0.7862489072636126
-0.9043859506666105 -0.416969584328871 -1.314562847608168 -0.7847605225698389 1.1192209610237678 0.3361739010793251 -1.2245971025938118 0.4814003937290883 1.077588500096345 1.0172366566717943 -0.5309510492212204 -0.8908078150149659 -0.7050165927977592 -1.217542939103634 0.1303307243107606 1.0027743416481312 1.0587487820628265 -0.7812570234480261 0.7505797527618171 -0.11971685036124718 1.4243251652815523 -0.21570068001012122 0.2125003728167138 -0.9000983218749419 0.9604040993575598 0.18420643291202343 -0.6102405587348688
0.001582616765617717 1.0699743426181156 0.11962430337612134 0.8198731470857004 0.27582333698585154 0.637949421765595 -0.2388701311629856 1.286414589621232 -0.478673987253976 -0.5946606092492577 1.499742416000351 -0.11789526756344565 1.3502441117641628 -0.9530125953715101 0.7779768932524456 -0.9395632123342974 -0.23384700153691174 -0.6777726016439556 -0.3749298566353911 0.19732394305547252 0.799944711773899 1.745204237906419 -1.261998279290148 0.7464919555193812 -0.45133433659214756 -0.4455701638533717 -0.1394394305468401
0.34616340017715863 0.3115844250185271 0.7890317045125685 -0.5229298362788192 -0.04263240752360292 -0.36129666962208085 0.5055644827140692 -0.9033973431381839 -0.18807463800160412 1.1954886485656864 1.4409774485376976 -0.40753168930105116 -0.7198532457026984 1.1663028010450303 -0.4186251766398276 -0.0392063475557779 1.2335860809546515 0.7648611348321388 0.10020462074079 0.48008027851421553 -0.24385829202356346 0.5112475722790115 0.6706034293112848 1.5863617266444627 -0.06673858402848559 1.1185247124558952 -0.2759291165930044
0.22128970258240943 1.32082120343641 -0.6061183520958054 -0.8680084697271008 1.0481251091242751 0.6571216619658995 -0.9738556574971033 0.9709344669599398 1.2010801074688748 0.6812211315414398 0.49580492729515113 1.0678812407072793 0.20402705270037835 0.2510874782687718 -0.2388705555789688 0.6480066720763029 -0.7405399743767802 -0.05098579511705231 0.1539038741735489 -0.8772704836960766 0.18706576270198128 -0.17594330867707103 0.35282331054243515 -0.9289642287851014 0.43410141930424034 -0.6900085342565223 0.8305002400780683
-0.24478220683024654 0.8606279808925446 0.14381657896629474 -0.9664097529911627 -0.0872718463402421 -0.4310403976408402 0.16720700401875882 0.2747476519661519 -0.4469415505792907 -0.7822796959374998 -0.6285227372693768 0.9265395475120437 0.20904129185083026 0.8626579124285553 -0.38807848767702324 -0.4106010982851501 -1.238131439217617 -1.0798937656500427 0.42707289373569196 -1.2884988709099048 0.37177059094818254 -0.7642188623855315 -1.2551262252554927 -1.0450773786101746 0.20682779798897816 1.5715541922259304 -0.06014549726418217
-0.9292577868197738 0.16230999415413166 -0.2645750951857673 0.562122832015119 0.902460784839942 0.26066069967457256 -1.3476412308292511 1.2619195943630235 0.9982631118863238 -0.49984559947354473 0.07498636778655088 1.0981227561398348 -0.09587258545481253 0.010816754628664993 0.48337348490723486 0.36740245060301696 0.2842137673983105 0.12602075468134738 -0.3310855887318904 -1.044574926346358 -0.13708345300293062 0.2185832429640397 -0.7320925724599079 0.5476282454262792 -0.14362352603219808 0.8995661827192607 -0.45446617858241356
-0.9137127195131858 0.17474257171648144 -0.8011491219480107 -0.6264792796688947 -0.06761869626184674 -0.0841594389717285 0.48220163438146363 0.7677862970751601 -1.004744802625591 0.4819353720897754 -0.6778360940175407 -1.2897620942724044 -0.5530938854209093 1.3465328351373835 0.6612275799671719 -0.22696345536689388 -0.6247273483529728 -1.0095345769674138 -0.4536245244562076 -0.938487924851239 -0.037871158304944696 1.55467868699241 -0.883657758797626 0.2535457161569715 -0.14827602650993393 0.7895355711648611 1.2341117280731504
0.5521833636256508 -0.6211475104109012 0.35939145644777476 -0.45465594784221863 0.3998220085738675 -0.3408425727735624 0.34275627404597037 -0.10240417512605876 0.5917549719385164 0.07714930584785706 -0.9359194332398979 1.0944664669768551 0.6787300440555808 0.22514221772111137 -0.2043423097913708 -0.810122646778882 -1.4617602122605726 -0.022202754370219846 1.2052547281533705 0.1942409485155182 0.043961038962996746 0.44407365316068165 -0.19089508188811133 -0.49654201852634405 0.054680305691515 0.43966713981073613 0.494049977348544
0.7739615171717076 1.3498746006606448 -0.13406338738487178 0.3191860087202795 0.14813901875888535 1.1598064683275147 1.379386681005612 -0.6136847613408398 -1.1654850182897394 -0.6701465660338765 1.3221220527004511 0.4806527958098834 1.189876376174161 0.5500242766686105 0.4143835954694813 0.6808344700718003 0.7564300623530544 1.148619117602034 -0.42442264452225936 -0.6053060927889323 -0.40854232408836405 1.524371603271373 -0.47260285259274615 0.8608230268109862 0.5249663576375212 0.7148610323787838 1.8457361040465805
-0.2547060167609915 -0.8197805792259587 -1.2241417206950902 -0.5914795156304519 1.1559146446070812 -1.6928668315755186 0.04874423281263035 -0.3468562249567984 -0.6388142999195238 0.16303446306624936 -0.6643768884259398 -0.41970110322132326 -0.694315349219718 -0.02666079466201038 -1.8592246024346597 -1.2034712209502683 0.49701566109006134 0.47380334740998614 0.40461771710816924 -0.6888065532977956 -0.12274436023002905 0.2780717563493315 -0.11329163359457811 0.16711788615436174 -0.13094931756070238 -1.0531318781678805 0.5972636820855527
0.5551252269152367 -0.25261657434971335 1.181578354556403 0.05958387818646338 0.43337399564328793 -0.8892383340135682 0.8934069206596398 -1.6097826693735109 0.9795984556144737 0.17456618171769706 0.5404669940223645 -0.8845704917336065 -0.4371173715478771 0.08045852223100719 -0.2816846542545717 0.38370821898014984 0.03969164918791407 0.6626309469361824 2.009501865768277 1.2489540942858528 -1.4136145182165092 1.0830286008225438 -0.9972496110575787 0.8467691332457712 1.0296672350655642 -0.1426800147749001 0.8339710196807009
1.4710284632220887 1.2437635747582132 0.8693415553340306 1.6476349050655725 1.5007166665302112 -1.1028225908383669 0.13879413169282168 -1.0369336487019907 -0.3741200980824843 -0.5582421443546893 -0.8243624495132029 -0.20844161180567505 1.4006053026622833 -1.0374234183086102 0.8141138450364744 1.3101060457292852 0.7331901027088761 1.1002196812591096 1.0190905177480718 -0.4019458208203162 1.64079774647959 0.5610032788124704 0.9707910317008452 -1.4353664360347593 -0.4646316656673227 -0.08862890504355508 1.6832231355055478
-0.9728740079487551 1.0018870702824292 -0.014702902141755791 0.5801591485232651 0.7154045909962693 0.9830534528105328 0.46556796021741464 -0.6686614953011951 -0.3577055658212502 -0.03017172725255607 0.8275457366180814 -1.031809408435262 1.482992612279781 1.5805301908462805 -0.19149861303891963 0.9543394486793251 -0.14531620813950064 -0.2253760035566154 0.9998480900925488 0.8756825514394054 0.47973344592414036 0.6568667815226793 -0.6174883921414338 0.14624442970793466 1.6293833334759864 -0.7546403255325036 -0.0346253169126039
1.6212167235373824 -1.0323127971176795 -0.5654474565133898 0.5844277551727375 -0.6164476685389935 0.6722784412387771 0.610667483401524 1.1970148585847116 0.51975431629285 -0.47357135369530684 1.022788803207108 -0.2412615917665517 -0.12120316368827966 -0.6386566976894521 -0.14108754989791533 -0.20170733866885387 0.39243042885015894 -1.0444941248858102 -0.3524849684767439 0.5029317629448893 -0.03020606450415042 1.3079826939236592 -0.09853966360027844 0.6957015122319306 -0.6911937545375956 0.7561217952144316 1.902724220422866
-0.4492708068965692 -0.20563030542379085 -0.837038226908706 0.050738194078019605 -0.4099924112316267 -1.676560151258217 -0.004386941032385627 0.9780580326795666 -0.4391775821912916 -0.5088928245787668 0.04621148461694019 -0.06388031878080425 1.011357059427966 -1.7325136612187955 0.27469059319843303 -1.5676516744601068 0.8478922763000153 0.7315615562251543 0.4991808094079072 0.6465251604168465 1.4243569504519744 0.04783803341484477 1.2276722197219738 0.8906116712699266 -0.17140655865164 -0.21727619076591892 0.2624508726726733
0.7853515424996516 -0.366134914573791 -0.22566613475719327 -0.43706544176872386 -0.08682679372006741 -1.1153813041123481 -0.9201961051046528 -0.9657467288674573 0.4170524156191945 -0.738722597604669 -0.6910634246206723 -0.9663271172126177 -0.9485225794541903 -0.4106408001001354 -0.8054180790815049 0.019029047942834165 -0.04890547698176184 -0.4981137136804934 1.1076569126191431 -0.3557404729422141 -1.8534077620543619 -0.15478091647054287 0.3982705239455451 -0.7783171033415588 0.9903255189114408 0.4074525540315479 0.9865020609839783
0.5030475286194751 -1.1534348234984013 1.6265982759876365 0.36009799079983834 0.5477362564333426 0.7802626872339475 0.25141122147237194 0.05709670655932525 0.18650285161288477 0.8250087122359859 -0.2728108963549839 -0.33412811584424107 -1.3988691604345158 -1.1649034476441535 -0.34333388650943714 -0.42017043501553536 -1.1070651249225583 0.4468137767831583 -1.3845328115884847 -0.19895227509922908 -0.8904507256455936 2.1440087627855275 -0.30690205003171156 1.6635912113693565 -0.8394897443232907 -1.7113939766087503 0.02421049676015341
-0.31159164169199843 1.0886310122190286 1.3525204031945437 -0.20074847539016683 -0.4358762228667197 -0.21015613418603918 -0.06441722344012812 0.48942003681718654 0.16585205821945093 -0.4191800720223468 1.55275356092044 2.3836387513263038 -0.865395283493466 -1.2484676074500345 0.24070399874336312 -1.9066233764004972 -0.6471569092232661 -0.970475302292444 -0.6975975385731981 0.8967068716929363 -0.5974950247237871 0.47223447013457004 1.3673570330445675 1.0944045003354033 -1.0258084100465423 -0.9414586560600624 -0.23783219963014246
0.9996094864239078 0.8153467816736284 0.08964535504361687 0.07287257019631654 -0.2633908301948984 0.9015037317186378 0.5832091001979505 2.202235594284298 0.37298553435174747 -0.042448728837707006 0.09402227391632989 -0.8931974988629753 1.1478260789150276 1.0086043058914744 -0.31288968897284164 -0.3172516184687284 -1.0212116053133704 0.4703070988147338 -0.32057448209509115 -0.49685736710270195 0.12870752873466035 -0.06759303475852019 0.7916565248351008 0.25085371388536104 -0.3688210656558075 -1.0885913595055894 0.04967108541616422
-0.9512429326901735 -0.26571584061081577 -0.23755329031213013 1.2620086366606866 -0.38282803958507317 1.1653792305164241 1.7152459779350848 0.14103994541735587 1.8678149525067178 -1.720436125047163 -0.5702112551700951 -0.3924120770990416 -0.6914018883542485 0.29258682790165674 0.4463402401319271 -0.31413153718192655 0.7443040540761354 0.44852587696302065 1.7145213351190451 0.29883963571428185 -0.5008638498414922 -0.5479492835734725 -0.07708645101730843 0.26264379021757495 -1.4963028400331841 0.17776859637114356 0.43240307426634556
-1.112001022810957 0.9548039411860587 1.3625727422582166 0.7253539933755199 0.5075811051595056 0.12982682132462842 0.32177296806466194 0.29774485733482065 0.050457680370595726 -0.5756010314892854 -0.43373232092778363 0.8577338852414165 -1.5012885028899736 0.06870806159072362 0.530146210318216 0.49422263912803804 1.0133395501176252 -0.14183676769492093 0.27033291959663 -0.47168931211340404 0.04390404998289582 -0.8284140655806844 -0.9402025681097665 0.28683500937752726 1.1094128949289996 -0.5934929346940094 -0.2056618067306789
0.5053291188225549 -0.651779539674024 0.5695070220114491 1.4499547689252117 1.2031965034367242 1.4323799603132343 0.6877992569016567 -0.16468009416347357 -0.3571682245104835 -0.2909608039443481 -0.22370896075283553 -0.7862332337649478 -0.7169897925966383 -0.2081262465801691 0.3707503714421989 0.7893413361025101 0.4828415308976941 0.9582218538152105 0.31854991047697706 1.214508406676684 -0.16387696206360658 0.007153335988822729 0.23382868362736337 -0.07046185193215798 -1.6833956401507046 -0.7215587995271985 -0.7169127813259657
0.8808816469893399 -0.005526910342515123 -1.3921200095190072 -1.1296504902139581 0.23703919346232166 0.5857780998962467 -0.5846023317545934 0.18756174055576585 0.6721770615902098 -0.5236755118668948 0.19942647189713203 0.5768596667776957 1.051661176314789 0.045580938789364034 0.3791499353943825 0.7872851447979015 -1.6186493733089604 -0.502286936893624 -0.8864756190081828 0.7065798823060323 -0.9628761203525238 0.5936375352389096 1.0163042842001824 -0.6099644242104498 1.4160828512681543 0.3296783631816799 0.8750267866478302
-0.9583893787776527 -0.49773193030035523 -1.2699729263114161 -0.39426451672716295 0.14069007350853824 -0.0686559189667878 -0.5027119983686409 -0.5961260668645675 0.8186725074450518 -1.1777396577446508 0.9463677369862238 0.9951873428938405 0.6160898853873684 1.4363185782517525 -0.9204090564922822 0.6604720132910837 -0.7949605770704684 0.6788405425740288 0.08618927204666593 -0.13981890261462854 -0.8516376077071915 0.20688577370961336 -0.5722231385664535 0.334923643555037 0.43206487655634424 1.010321681470599 -0.8997028136166969
-1.029307588567973 1.0996099947102107 0.05700824495851203 0.15711279037463527 -0.0035743186909821256 0.9747732343165404 -0.0156923175503918 0.02725390478483647 -0.2831287202484719 0.058886259159542265 -1.4389857733009896 0.5300924917869716 -0.29619016220727135 0.05602619682731724 -1.0000401838723656 -0.7025965237699195 0.6712779112878935 0.7328679709322943 0.022265882305520623 -0.6682310263609779 -0.7573230460314977 -0.742632370770441 0.08713584852930689 -0.5200443916078551 0.5937619066282506 -0.13815059742345204 1.3113916841834383
-1.6163376955176647 -0.20719471392868632 0.9839462494427395 -0.3009489294897092 -0.1426723424242674 -0.6059317509521513 0.5054526074116857 -1.1337801562057783 -0.10887600768037214 1.153847300797607 -0.5658794284882953 -0.8711408148283372 0.4394054802897641 -0.6040553051951998 -0.16107148124929077 1.2649632235932884 -0.31762230344778947 0.20934250758817463 0.23749143736181594 0.2189431306484953 -0.9524428204757684 -0.5094560261527823 -0.5113607495086049 0.53341786479645 -0.14278334971752665 -0.28268493896588254 -0.40496092076003076
0.9565425513768129 0.8394896300414885 0.345255139558318 0.10807454692983265 1.006391923256695 1.2747141727339628 -0.7474626606377512 -0.8147117614137236 0.5669876987575062 0.0822684486498908 0.023319542313879504 0.5985350046787226 -0.9807228591486168 0.3251561469550465 0.2603889830235095 0.9459185283923724 0.6246263943840142 -1.3437290180540782 -1.3061949907804795 -0.6721138535513418 -0.4943359376316912 0.7961757005575452 -0.4492296876698173 0.028558430861137574 0.18116650053544398 0.2344453668700494 0.40300191067128166
1.0786809916181044 -0.5471049865150945 -0.43910687622571215 0.9920973048232558 -1.0064868397031825 0.554929035753172 -0.39244669034920554 -0.7032318594895413 -1.383374882310512 -0.31624724720290787 -0.9984212473012275 -0.10699997302646835 -0.87547371298619 -0.24872472432491666 0.26488444390315696 1.5532626941311334 -0.9980667936175642 0.20993822068858847 0.12894266691450001 -0.18027154517633087 0.4118127860921635 1.2642023389012695 0.4740411457291358 1.0439140939304377 1.377455865214353 -1.3075439373867381 0.5465365131735314
0.5781066135418904 0.3654163827729028 0.9142266212472867 -0.8640508563949367 0.7628031429665676 -0.19315390695109846 0.9786475086864708 0.5904899466688368 -0.7752062722165844 0.7242626639510329 -0.9900872643399107 0.8529318308581025 -0.25130263757412896 -0.9984486552051854 -0.570800736658692 0.4559525048927828 -0.0998793715803234 -0.022343631309357348 0.22139295132546105 0.01749977762689703 -1.3630454229264697 -0.52235874588893 -0.6502661285391684 0.4275189066257475 -1.0887697388731497 1.4113580804401211 0.6994779931037378
0.7329313820517361 -0.15784209907188246 -0.09913875948789463 0.053307535461949995 1.1221469197254024 1.2418204540822706 -0.7363626259364588 0.7229934902343145 0.3975915603298565 0.3459098683086197 0.26429422582814016 0.26853684751470414 0.3294966976026211 -0.11750945404600088 -0.26147975437290777 0.29664642198027685 0.30396014204288857 -0.3123986144708008 -0.7896872923676275 -1.783555276433484 0.8472774145962712 2.130035831441951 -0.3407135180779206 -0.16647847937497384 -0.2574918855058036 -0.28599488627605785 -0.3424299252924624
0.14688498871326267 -0.4025792796100437 -1.664593160679138 -0.0015848405118415454 -0.3385403682011278 0.34946204009906956 1.0268449363894518 1.230055881077495 1.582206755135557 0.11659512521638449 0.90935297520287 -0.6209039888344772 0.25672737989888705 -0.4460005189858558 1.6461287168098444 0.9219462748305597 -0.2621217723416545 -0.45697476737228804 0.12897192641223038 -0.390622898730698 -0.8285888450576429 0.6841090001999164 -1.172121634355972 -1.087474698808453 -0.19679520104945347 0.5004429602408855 -0.4377519333465221
-0.28816552685287555 0.642099714346567 -0.4072919533049413 -0.03221832726715934 0.39293928910800546 -1.4617422771188067 1.192993556220837 -0.25798918422115436 -1.123503731673121 -1.0532902523021226 0.025946357935289877 0.011301661993960266 -0.11851055609353722 0.7159686077119735 -0.5639696860802953 0.1755040827690063 -2.0184996619469704 -1.024950937470436 0.23518212467526495 -0.29755610683095884 -0.25012246779677466 -0.5066834035751071 0.20060812925870253 0.7845083306301981 -0.3720224750380263 0.2710378178705003 0.8277487661937488
0.1406251690394481 1.2692868998034053 -1.5609258704119702 1.3201921521357518 0.04501389033562864 0.12717924796340319 -1.254069212216321 -0.21138073411888997 -0.5459666424282974 1.107328181943842 1.2264870504382044 -1.2127622914291245 0.14475292278482466 -0.7838830703048625 0.6784450906969595 -0.6145177164556139 0.4396158910442372 0.01805655166543607 -0.02852042323326215 0.3386900575888494 -0.7336351162282304 -1.1557335408546243 -0.010937034476735885 -0.47995769547274764 0.026177588525187312 0.06506742559824985 -1.0933244666395867
