-0.8569894434068774 1.2411357680203357 0.5945086145962355 -0.25712241255653695 0.4703452550397512 0.21691496628117396 1.7475789480251083 -0.8000471408592473 -0.27256566962051687 -0.056957932053480376 -0.8792910880900515 -0.47982852013597405 0.1955556157466064 -0.43774646793336613 -1.7603848939313593 0.012971788802225381 1.588516040574108 0.9408046437080037 -0.2878876043351991 -0.9829597754367215 -0.14400907631221843 1.5711492476484963 0.29877941955469073 -0.5899716231822117 0.37856750371061665 0.21595349522523072 -0.09636143430484378
0.5212600565837031 0.12700822140265045 -0.5513854891388374 0.3162433925830057 0.5669588153136849 0.06088417954368247 1.1386815902063487 0.8897246476583254 -0.640650779555906 -0.14235582801224245 0.20965731479226246 0.6106859048993025 -1.1839290471881756 0.4215388879018844 1.31360003682482 -0.43671200993985065 0.6862257794858329 -1.1587609075631042 -1.2822038112023166 0.3921075436057529 0.35581817540136906 0.8686061407690377 -0.06792076113333251 0.11679083936770251 0.5068754976776854 -0.9804669699798427 0.538137955822658
-0.46323680474835605 -1.0788449238770994 -0.7716609854749856 1.3123952579444536 -0.3311061796750893 -1.0246930301391146 0.26855792708555154 1.012945031268971 -0.17807233714684478 0.04461777175280457 0.26606726946053927 1.2318410117344274 -1.0137039099060619 0.2486247492253833 0.8091935669868988 -0.38251185153322925 -0.16440052346930029 -0.5499678227176402 -0.5554575706472578 -0.057092246554469595 0.33456267762017977 -0.5323136353552758 -0.6337292823131991 -1.009324327339264 0.521831832714309 -0.2753751829606573 -0.9014993835756093
-0.12823126865684376 1.8129216106544284 0.00016995841849826165 0.6482209826689358 -0.058513570543734295 1.5059484023127794 -0.5889692404951248 -0.5466381302853004 0.011313550439902231 1.0869779848420154 -0.3079658807202023 1.293527224074604 -0.07943213917368136 0.05828627110874307 -2.3294260731136522 0.2972532175409048 0.2358897426821217 -0.11453276058885326 0.4394943684544914 1.0595275580931613 0.11408486262117756 0.5882664437402282 0.3154102101282503 0.3850962446058218 0.9493215923486268 1.5894596357595978 0.991157834563603
0.6813077455729548 0.15323634176981532 0.5676450729081262 -0.8826041480996976 -0.11620444432986538 0.053347286540983696 0.6492572567529652 0.432645908550516 0.031859062017315254 0.7553334704232333 -0.4408931082112527 -0.4331183039025791 0.2825147289193736 0.12501127614455848 0.02300168833897448 -0.039011086950145824 -0.8365508063322789 0.6236518193917859 -0.06590665529368639 -0.7942535891540368 0.14629568001950927 -1.2329164953015348 -0.6944530778253825 0.009949564143160006 -0.5174005167690092 0.6491376532497577 -0.5046415349708405
-0.00029675961645697635 -0.536769828977008 0.5655487037204734 0.643450064065439 1.6425695456739429 -0.05163643456912309 -0.5515898087507748 -0.3224248327528152 0.199323140635914 -1.8724986573678186 0.8351925154979168 -0.7966766393071623 -0.7149106866983159 -0.1322600193254746 0.6039300076801941 -0.07430675004535597 0.3499655837640386 0.37425389890717176 0.23022246131972135 0.9575512436483282 0.8429042810610774 -0.5390304443436957 0.9032505072540469 -0.7123643195677686 -0.3701800049203505 -0.14669716467102512 -0.8064093409364093
0.8403761076608336 1.0896810319253112 0.7818957416469632 0.10140173864371682 0.020175907972876272 -0.5092288700149605 0.8623925471025268 0.5277975866037362 0.6096343838382754 0.5243120392640512 -0.644631718791318 0.4603366686334976 0.3139207875260595 0.06720324313131032 -0.2900321571118453 1.1957363851743439 -0.48781557364086303 0.8013432976224804 -0.2799297129397505 0.3153186527011695 -0.5414795205536317 0.2898549390577361 -1.3209533248683534 -0.8922148084183585 1.262444925844251 0.3925321334060695 1.2235047662638403
-1.3538759784951282 0.5688551662912293 0.6269476541416258 0.7956811308413715 0.9101129967545575 2.072819954056813 -1.3663184551689276 1.0780486509260008 -0.15066946770358713 -0.45721321976015755 -0.09428253902863609 1.4416699852550092 0.7425520784073711 -0.1817403669295014 0.19493805360888883 -0.1283419442072613 -1.8277079809021748 -0.9443144205106391 -0.6581328341218904 0.4123271314754675 0.95246830490833 1.1823654670458146 -1.2289894716889398 -0.2936047875671438 -0.6841501893061467 -1.384442989679205 0.3665456768394979
0.1900817414438658 0.4774607190412705 0.5119950829573954 -1.4952931747692637 1.4609602419029641 0.43425561670992213 -0.01618567412601485 0.599655012886957 -0.3030225391068705 -0.4817241789627968 -1.2740009797579053 -0.793888610674848 -0.8573070479829616 1.7702360202786434 -0.873298841233695 -0.6988809748385366 -0.3996115313055516 -0.4016395210699035 -0.9662576514603665 1.2684727390769437 1.3446569620200248 -0.7051452917749554 -0.19809215577332617 0.06571673003022183 0.34052379296890645 -0.6266224040666488 -0.7389170550092252
0.1086818793092692 1.008241102691523 0.06836154094510744 -0.9553554583446557 0.2984471257111511 1.157274112622217 1.4109563927980049 0.4431148193677855 0.6082357644531381 1.3264810516804055 0.7242296937596084 -0.429160399241575 0.36178520515699186 -1.000455192449107 -1.004721071715349 -1.6632528104705304 -0.7109231135042868 1.026768078166348 0.47742544433310397 -1.2168625641244097 -0.2405748794721302 0.9039300934875221 -1.1151247705880196 0.015625548191349647 1.8923947096772527 1.4373742086121268 -1.3872935179607921
0.013977430786219436 -0.08917601896606453 0.6248476559524252 0.9295641550272254 0.28095464856112906 0.7185240666493979 0.3837386958233705 -0.6467954682095962 -0.7293912473951667 -0.6265088792709992 -0.11980064679902624 -0.04129626708264211 0.47138933855232734 0.8914816559152652 1.390092312687324 1.3047243392252814 0.6182147990368827 -1.8315361210439214 0.3162153482700826 -1.2339799637937645 0.023564755983605024 -0.6385134887495179 -0.8645460134352867 0.891743062701049 -0.6846022680693057 -1.888836902445941 0.07186003994718781
-0.23186174613250693 -0.7398964699038371 0.8401406507442564 0.7241108392232274 -0.5855972900496076 -0.8864403622109382 1.275226001248087 -1.744882874858849 -0.08478989840596024 0.7137451602741045 -0.2966184963304132 -0.04175197317404883 1.0555249117041445 0.5973283404497357 1.0265976041483338 -0.2670850436214654 -0.19471185050594564 -1.1514691185151023 -0.2686515302479474 -0.06552434628412929 0.25988358424902236 0.6943234340861595 -0.38825559347561955 -0.09205195725420007 -0.10966647672519209 -0.08275633836638074 1.073550004011515
0.6801602135251652 1.359322378960526 0.7320669147569072 0.6298318571398573 -0.8668947818362949 -0.5506135617180912 0.07465323811468022 -1.0898784103219485 0.01500790980822514 0.5649888415866468 0.9424966400415071 0.9286279108785793 0.12283134983851701 -0.899693049206293 0.36836529766222875 0.04662507321759568 -0.9558544008183483 -1.1884861623474348 -0.4342069583484453 0.33039205039305425 0.2754353585054338 0.9030381399941065 0.6177106552993679 0.12496331563843788 -0.33982316642703847 0.547172766957052 -0.35805933031873166
-0.9473506913328227 1.2011399700138639 -1.4371539935320996 -0.7605318365957725 1.777921989763721 0.4332738445541612 0.18751674693355042 -0.1363071126926378 0.732949710711434 0.22956472303047482 1.5152624730696411 -0.6493605599636684 -0.4148384833389104 0.05043710076753194 0.6309362991407343 -0.8340880655140404 -1.0618376823827038 -0.7928292163966553 -0.8257145522045968 0.2841881249440021 -0.9033206450170768 -0.4352188361365069 -0.037988351730430414 -1.6877312654865195 0.8607878999663856 0.7294629202707349 1.109647140916922
1.2226443031658007 -1.2301439945648929 -0.9287000957159597 1.1361933025033069 0.2727473044821138 -0.7877938305579523 -1.0593271885543718 1.1940381489295715 0.284143218350693 -0.39064987588600003 0.13171744827446857 0.47180999459708356 -0.18522973742432813 1.6744428190026548 0.787089343403705 0.398996978612402 -0.7104097953662036 -0.8196096812772939 1.4394672807872362 0.716249445170243 0.23716837885973874 -0.49518364938152926 -0.05540965275945525 0.4744004591922866 -0.0739043989379935 0.5512210884835527 0.44955920647837005
-0.055272271059750466 -0.41058122821378684 0.27223527765128663 -1.4314877992542183 -0.7427992847865947 -0.05329188411271829 -0.9902215354077271 0.2501169487412427 1.6421800415781869 0.9447207682744553 0.30188510686908965 0.7081267385307182 2.061429786550049 0.2305516624671095 0.02312390500268452 -0.31003360877057423 1.0073247719868403 0.6608809374617474 0.8030853749950937 0.5291239885010497 -1.7260090577643785 -1.560603212288857 -0.05817779972948339 -0.5622877621211495 -0.044581181123905134 -0.720209111351098 0.8073205265571075
0.6749927086252574 0.03971881533409094 0.24321621003329652 0.45316556853610795 1.0283028691240734 0.02962302788704918 -1.0158371224304992 0.444504226611167 -0.3222597905175214 1.173935530922951 -0.7845491431536612 0.9017629610410092 -0.021107567068499755 0.48319640417440235 0.9926240487552347 -0.7818478759007004 -0.16013232004002564 -0.5913306713879178 -1.1962631690368066 -0.29552247438216767 0.8182565407388821 0.32042572919592 -1.3065799480870122 -0.9521849188267468 0.558909789762857 -0.48766985719921974 0.10467845827494981
0.22209825968106384 -1.5515466642476934 0.8839386746861019 0.34124666675909615 0.5719010915153214 0.48720243639502236 -1.5641932632576445 0.5054802770951614 1.6599896035117898 -0.08570961561377366 0.4117793251270689 -0.04876265135007851 0.6983045674978057 -1.574239363737313 -0.046420622718534144 0.04469263154637704 0.41647484024222126 0.6132443029984431 -0.5690139378591194 0.8405420609072844 -0.20927684724080448 -0.19850251311103018 0.3904010410268499 -0.28434617527345757 1.5625817375742943 -0.04131040405680636 1.1554365840845768
1.0950998170817408 0.6101267207689254 -0.6531019387870824 1.3530903745245935 0.0682239085144391 -0.5381809197309821 0.6692789297895851 -0.7103993765823032 0.8186690563160213 0.4842079110873274 -0.9678573905794738 0.5442894723591302 -0.43034939550499907 -0.5215447634525714 -0.43562461940102765 -0.0887116872335385 0.5258022294721936 -0.2819919985248391 -0.6153860297927596 1.1553599930959455 0.6004188260283385 0.8478256686962364 0.31307068670156707 -0.782613009725849 -0.4602164191037357 -1.4099079004139556 0.49789115196127115
-0.5925242507925585 -0.9417474145247182 -1.0840434621548307 1.7826008387760608 0.20278146627313104 -0.9881147208164607 0.5870657961027415 0.17235462849788302 1.0347906642728923 0.723708340501124 0.9975511933036436 1.103988072905901 0.1363638598251184 0.263138222757666 0.6597315804682948 -0.4498395922042267 -0.6050814507964977 -0.5203812153121903 -0.761044361715342 0.8822797474341311 0.41425799394247476 -0.17127227827871894 0.052735978853377885 -0.6310184634278935 0.9442610574386276 -0.4509624731721278 -0.09518785494700316
0.15868385169846905 0.15673563399408902 1.2172027720697864 1.5849073385954504 1.8707267069899252 -0.31390105609980323 0.026640979629235784 0.2042831922879133 -1.1303497776230502 0.20803147723549942 -0.46027059210674065 0.6507646368917448 -0.08632334015090759 -1.4963395062524238 0.6824856554636574 -1.3290983535413803 -0.36693195027115805 -1.203479435084819 -0.28893850498956286 -0.4059453155353997 -1.5211627852471443 0.8821409935113385 0.46752612133162097 0.3406299698340735 -0.4999456323511411 0.7987854556464258 -0.7862489072636126
-0.9043859506666105 -0.416969584328871 -1.314562847608168 -0.6275142587447953 1.1192209610237678 0.3361739010793251 -1.1412185636883043 0.33017303321363756 1.077588500096345 1.0172366566717943 -0.5309510492212204 -0.8908078150149659 -0.5477703289727156 -1.217542939103634 0.1303307243107606 1.0027743416481312 1.0587487820628265 -0.7812570234480261 0.7505797527618171 -0.11971685036124718 1.5518635146746769 -0.2858413102101714 0.2125003728167138 -0.9000983218749419 0.9604040993575598 0.4292481161635163 -0.6102405587348688
0.1588288805906613 1.0699743426181156 0.11962430337612134 0.8198731470857004 0.2376916067777498 0.637949421765595 -0.2388701311629856 1.286414589621232 -0.478673987253976 -0.5946606092492577 1.6624976148913206 0.054747562201036715 1.3502441117641628 -0.9530125953715101 0.7779768932524456 -0.9395632123342974 -0.23384700153691174 -0.6777726016439556 -0.3749298566353911 -0.017791498460504374 0.799944711773899 1.5860517627103854 -1.261998279290148 0.7464919555193812 -0.45133433659214756 -0.4455701638533717 -0.1394394305468401
0.34616340017715863 0.3115844250185271 0.7890317045125685 -0.5492082646645465 -0.04263240752360292 -0.27791813071657323 0.5055644827140692 -0.9033973431381839 -0.18807463800160412 1.1954886485656864 1.6037326474286673 -0.40753168930105116 -0.7198532457026984 1.1663028010450303 -0.4186251766398276 -0.2684994529518617 1.2335860809546515 0.7648611348321388 -0.05894785445524359 0.48008027851421553 -0.24385829202356346 0.5112475722790115 0.6706034293112848 1.5863617266444627 -0.06673858402848559 1.1185247124558952 -0.2759291165930044
0.22128970258240943 1.32082120343641 -0.6061183520958054 -0.8680084697271008 1.0481251091242751 0.6571216619658995 -0.9738556574971033 0.9709344669599398 1.2010801074688748 0.6812211315414398 0.49580492729515113 1.0678812407072793 0.20402705270037835 0.2510874782687718 -0.2388705555789688 0.6480066720763029 -0.7405399743767802 -0.2830720247899038 0.1539038741735489 -0.8772704836960766 0.18706576270198128 -0.17594330867707103 0.35282331054243515 -0.9289642287851014 0.43410141930424034 -0.6900085342565223 0.6792728795626175
-0.24478220683024654 0.8606279808925446 0.11202564531348053 -0.9664097529911627 -0.0872718463402421 -0.34766185873533256 0.16720700401875882 0.2747476519661519 -0.4469415505792907 -0.7822796959374998 -0.6285227372693768 0.9265395475120437 0.20904129185083026 1.2803424254445306 -0.38807848767702324 -0.4106010982851501 -1.238131439217617 -1.0798937656500427 0.42707289373569196 -1.2884988709099048 0.5679619193500192 -0.7642188623855315 -1.2551262252554927 -1.0450773786101746 0.13668716778892798 1.6319130703956046 -0.06014549726418217
-0.9292577868197738 0.16230999415413166 -0.2645750951857673 0.5303318983623049 0.902460784839942 0.26066069967457256 -1.3476412308292511 1.2619195943630235 0.9982631118863238 -0.49984559947354473 0.07498636778655088 1.0981227561398348 -0.09587258545481253 0.010816754628664993 0.48337348490723486 0.4277613287726912 0.2842137673983105 0.19663175962476198 -0.3310855887318904 -1.0827066565544596 -0.13708345300293062 0.2185832429640397 -0.7320925724599079 0.5476282454262792 -0.21376415623224826 0.8995661827192607 -0.45446617858241356
-0.707380422512127 0.17474257171648144 -0.8011491219480107 -0.6264792796688947 -0.06761869626184674 -0.0841594389717285 0.4865351770227895 0.9741185940762188 -0.8772064532324664 0.4819353720897754 -0.44981023963017525 -1.2897620942724044 -0.5530938854209093 1.3465328351373835 0.6612275799671719 -0.2587543890197081 -0.6247273483529728 -1.0095345769674138 -0.4536245244562076 -0.7104620704638736 -0.037871158304944696 1.55467868699241 -0.883657758797626 0.02145948648412005 -0.14827602650993393 0.7895355711648611 1.2341117280731504
0.5521833636256508 -0.6211475104109012 0.35939145644777476 -0.45465594784221863 0.3998220085738675 -0.3408425727735624 0.316477845660243 -0.31751961664203565 0.5917549719385164 0.07714930584785706 -0.9315858905985721 1.0944664669768551 0.6787300440555808 0.22514221772111137 -0.2043423097913708 -1.032982823899169 -1.4617602122605726 -0.022202754370219846 1.3680099270443402 0.1942409485155182 0.016154210217363796 0.44407365316068165 0.03713077249925417 -0.49654201852634405 0.054680305691515 0.43966713981073613 0.7220758317359095
0.7739615171717076 1.3498746006606448 -0.13406338738487178 0.3191860087202795 0.14813901875888535 1.2873448177206392 1.379386681005612 -0.6136847613408398 -1.1654850182897394 -0.6701465660338765 1.3221220527004511 0.5914225301488176 1.189876376174161 0.5500242766686105 0.4143835954694813 0.6808344700718003 0.7564300623530544 1.148619117602034 -0.42442264452225936 -0.6053060927889323 -0.6236577656043409 1.524371603271373 -0.47260285259274615 0.8608230268109862 0.5249663576375212 0.7148610323787838 1.6506827556719266
-0.2547060167609915 -0.8197805792259587 -1.2241417206950902 -0.5914795156304519 1.1559146446070812 -1.6928668315755186 0.04874423281263035 -0.3468562249567984 -0.6388142999195238 0.16303446306624936 -0.6921837171715728 -0.2470582734568409 -0.694315349219718 -0.17788815517746115 -1.4567009770317643 -1.2034712209502683 0.49701566109006134 0.47380334740998614 0.40461771710816924 -0.6888065532977956 -0.4769501838007165 0.2780717563493315 -0.11329163359457811 0.16711788615436174 -0.13094931756070238 -1.0531318781678805 0.5972636820855527
0.5551252269152367 -0.09537031052466977 1.181578354556403 0.05958387818646338 0.6784156788947808 -0.8058597951080606 0.8934069206596398 -1.6097826693735109 0.7644830140984968 0.17456618171769706 0.5404669940223645 -0.8845704917336065 -0.4371173715478771 0.08045852223100719 -0.2816846542545717 0.23248085846469907 0.03969164918791407 0.7935987823754986 2.009501865768277 1.2489540942858528 -1.4136145182165092 1.0830286008225438 -0.7522079278060858 0.8467691332457712 1.0296672350655642 -0.1426800147749001 0.8339710196807009
1.4710284632220887 1.2437635747582132 0.8693415553340306 1.6198280763199395 1.5007166665302112 -1.1028225908383669 0.13879413169282168 -1.0369336487019907 -0.3741200980824843 -0.5582421443546893 -0.8243624495132029 -0.43943573284795856 1.4006053026622833 -1.0374234183086102 0.8141138450364744 1.3101060457292852 0.7331901027088761 1.1002196812591096 1.1818457166390415 -0.4019458208203162 1.64079774647959 0.7336461085769527 0.9707910317008452 -1.4353664360347593 -0.4646316656673227 0.08401392472092728 1.468107693989571
-0.9728740079487551 1.0018870702824292 -0.014702902141755791 0.6909288828621993 0.7154045909962693 0.9830534528105328 0.5763376945563489 -0.6686614953011951 -0.3577055658212502 -0.10031235745260625 0.8275457366180814 -1.031809408435262 1.482992612279781 1.5805301908462805 -0.19149861303891963 0.9543394486793251 -0.14531620813950064 -0.2253760035566154 0.9998480900925488 0.8756825514394054 0.47973344592414036 0.6568667815226793 -0.37244670888994086 0.14624442970793466 1.6293833334759864 -0.7546403255325036 -0.06641625056541811
1.4699893630219316 -1.0323127971176795 -0.5654474565133898 0.5844277551727375 -0.6164476685389935 0.6460000128530498 0.610667483401524 1.1970148585847116 0.51975431629285 -0.3460330043021822 1.0831476813767822 -0.2412615917665517 -0.12120316368827966 -0.6386566976894521 -0.14108754989791533 -0.20170733866885387 0.39243042885015894 -1.0444941248858102 -0.3524849684767439 0.5029317629448893 -0.03020606450415042 1.0928672524076823 -0.09853966360027844 0.6957015122319306 -0.6911937545375956 0.7561217952144316 1.902724220422866
-0.4492708068965692 -0.20563030542379085 -0.5522536136905378 0.050738194078019605 -0.4099924112316267 -1.676560151258217 -0.004386941032385627 0.9780580326795666 -0.24298625378945504 -0.5088928245787668 0.2742373390043057 -0.06388031878080425 1.011357059427966 -1.8024363250797113 0.27469059319843303 -1.5676516744601068 0.8478922763000153 0.7315615562251543 0.4991808094079072 0.6465251604168465 1.4243569504519744 0.04783803341484477 1.0326188713473199 0.8906116712699266 -0.17140655865164 -0.21727619076591892 0.2624508726726733
0.7853515424996516 -0.366134914573791 -0.22566613475719327 -0.5962179169647575 -0.08682679372006741 -1.1153813041123481 -1.1152494534793067 -0.9657467288674573 0.4170524156191945 -0.738722597604669 -0.6910634246206723 -0.9663271172126177 -0.9485225794541903 -0.4106408001001354 -0.8054180790815049 -0.007249380442893194 -0.04890547698176184 -0.4981137136804934 1.1076569126191431 -0.3557404729422141 -1.8534077620543619 -0.15478091647054287 0.3982705239455451 -0.7783171033415588 0.9903255189114408 0.4074525540315479 0.9865020609839783
0.5030475286194751 -1.1534348234984013 1.6265982759876365 0.36009799079983834 0.5477362564333426 0.7802626872339475 0.25141122147237194 0.30213838981081814 0.32285850485219236 0.8250087122359859 -0.2728108963549839 -0.33412811584424107 -1.3988691604345158 -1.1649034476441535 -0.2599553476039295 -0.42017043501553536 -1.1070651249225583 0.3824036181893292 -1.3845328115884847 -0.19895227509922908 -0.8904507256455936 1.911922533112676 -0.30690205003171156 1.6635912113693565 -0.8394897443232907 -1.7113939766087503 0.02421049676015341
-0.31159164169199843 1.0886310122190286 1.3525204031945437 -0.20074847539016683 -0.4358762228667197 -0.21015613418603918 -0.06441722344012812 0.6856113652190231 0.16585205821945093 -0.4191800720223468 1.55275356092044 2.3836387513263038 -0.6590629864924072 -1.020441753062669 0.45946725360912866 -1.9066233764004972 -0.6471569092232661 -0.970475302292444 -0.6975975385731981 0.9252748162097963 -0.5974950247237871 0.47223447013457004 1.3673570330445675 1.2307601535747108 -0.8296170816447057 -0.9414586560600624 -0.23783219963014246
0.848382125908457 0.8153467816736284 0.08964535504361687 0.07287257019631654 -0.06719950179306183 0.9015037317186378 0.5832091001979505 2.202235594284298 0.3773190769930733 -0.03811518619638116 0.09402227391632989 -0.8931974988629753 1.1478260789150276 1.0086043058914744 -0.31288968897284164 -0.3172516184687284 -1.059343335521472 0.23822086914188234 -0.32057448209509115 -0.49685736710270195 0.12870752873466035 -0.06759303475852019 0.7638496960894678 0.4253950772336056 -0.3688210656558075 -1.0885913595055894 0.04967108541616422
-0.9512429326901735 -0.26571584061081577 -0.23755329031213013 1.3223675148303609 -0.15480218519770766 1.1653792305164241 1.7152459779350848 0.14103994541735587 1.8678149525067178 -1.720436125047163 -0.5702112551700951 -0.3924120770990416 -0.6914018883542485 0.36319783284507134 0.4463402401319271 -0.31413153718192655 0.7443040540761354 0.44852587696302065 1.7851323400624597 0.29883963571428185 -0.5008638498414922 -0.3851940846825028 -0.07708645101730843 0.26264379021757495 -1.38553310569425 0.1514901679854162 0.43240307426634556
-1.112001022810957 0.9548039411860587 1.535215572022699 0.7253539933755199 0.5075811051595056 0.12982682132462842 0.32177296806466194 0.29774485733482065 0.050457680370595726 -0.7706543798639394 -0.43373232092778363 0.8577338852414165 -1.5714291330900239 0.06870806159072362 0.530146210318216 0.49422263912803804 0.8541870749215916 -0.14183676769492093 0.2001922893965798 -0.47168931211340404 0.3508651127236666 -0.8562208943263174 -0.9402025681097665 0.28683500937752726 1.4782470530953187 -0.5934929346940094 -0.2056618067306789
0.31027577044790106 -0.651779539674024 0.5695070220114491 1.4499547689252117 1.2031965034367242 1.4323799603132343 0.6877992569016567 -0.16468009416347357 -0.16097689610864696 -0.2909608039443481 -0.22370896075283553 -0.9812865821396017 -0.6336112536911307 -0.2081262465801691 0.3707503714421989 0.7893413361025101 0.4828415308976941 0.9582218538152105 0.31854991047697706 1.214508406676684 -0.16387696206360658 0.007153335988822729 0.23382868362736337 -0.07046185193215798 -1.6833956401507046 -0.7215587995271985 -0.7169127813259657
0.8808816469893399 -0.005526910342515123 -0.9744354965030319 -1.1296504902139581 0.23703919346232166 0.5857780998962467 -0.5846023317545934 0.18756174055576585 0.6721770615902098 -0.37142359377005524 0.19942647189713203 0.5768596667776957 1.051661176314789 0.045580938789364034 0.3791499353943825 0.7872851447979015 -1.6186493733089604 -0.502286936893624 -1.0815289673828368 0.7065798823060323 -0.9628761203525238 0.5936375352389096 1.0163042842001824 -0.6099644242104498 1.4160828512681543 0.3296783631816799 0.8750267866478302
-0.9583893787776527 -0.25269024704886234 -1.2699729263114161 -0.39426451672716295 0.14069007350853824 0.042113815372146424 -0.5027119983686409 -0.5961260668645675 0.8186725074450518 -1.1777396577446508 0.9463677369862238 0.9951873428938405 0.6160898853873684 1.57267423149106 -0.9204090564922822 0.6604720132910837 -0.5987692486686318 0.6788405425740288 0.08618927204666593 -0.13981890261462854 -0.7912787295375173 0.20688577370961336 -0.5722231385664535 0.334923643555037 0.638397173557403 1.010321681470599 -0.8997028136166969
-1.029307588567973 1.0996099947102107 -0.17507798471433944 0.15711279037463527 -0.0035743186909821256 1.058151773222048 0.0549186873930228 0.02725390478483647 -0.2831287202484719 0.058886259159542265 -1.4389857733009896 0.5300924917869716 -0.29619016220727135 0.05602619682731724 -0.803848855470529 -0.7025965237699195 0.6712779112878935 0.7328679709322943 0.022265882305520623 -0.5054758274700082 -0.7573230460314977 -0.742632370770441 0.14749472669898112 -0.5200443916078551 0.5937619066282506 -0.13815059742345204 1.3113916841834383
-1.4436948657531823 -0.20719471392868632 0.9839462494427395 -0.3009489294897092 -0.1426723424242674 -0.6059317509521513 0.5054526074116857 -1.1337801562057783 -0.10887600768037214 1.153847300797607 -0.33352003145960396 -0.8711408148283372 0.22429003877378723 -0.6040553051951998 -0.16107148124929077 1.2649632235932884 -0.31762230344778947 0.20934250758817463 0.23749143736181594 0.2189431306484953 -0.9524428204757684 -0.5094560261527823 -0.5113607495086049 0.53341786479645 -0.14278334971752665 -0.28268493896588254 -0.40496092076003076
0.9565425513768129 0.8394896300414885 0.345255139558318 0.10807454692983265 1.006391923256695 1.2747141727339628 -0.7474626606377512 -0.8147117614137236 0.5669876987575062 0.0822684486498908 -0.12790781820157127 0.5985350046787226 -0.9807228591486168 0.16600367175901293 0.2603889830235095 0.9459185283923724 0.6246263943840142 -1.5906353932228692 -1.3061949907804795 -0.6721138535513418 -0.4943359376316912 0.7961757005575452 -0.2919834238447737 0.028558430861137574 0.18116650053544398 0.2344453668700494 0.5657571095622513
1.0786809916181044 -0.4764939815716799 -0.43910687622571215 0.9603063711704416 -1.0064868397031825 0.5167973055450703 -0.39244669034920554 -0.741363589697643 -1.1871835539086755 -0.3440540759485408 -0.9984212473012275 -0.10699997302646835 -0.87547371298619 -0.042392427323857895 0.26488444390315696 1.5532626941311334 -0.9980667936175642 0.20993822068858847 0.12894266691450001 -0.18027154517633087 0.4118127860921635 1.2642023389012695 0.4740411457291358 1.0439140939304377 1.377455865214353 -1.1012116403856793 0.5465365131735314
0.5781066135418904 0.3654163827729028 0.9142266212472867 -0.8640508563949367 0.7628031429665676 -0.22096073569673141 0.9786475086864708 0.5904899466688368 -0.7752062722165844 0.7242626639510329 -0.7450455810884178 1.049123159259939 -0.48229675861641247 -0.9984486552051854 -0.570800736658692 0.6839783592801483 -0.0998793715803234 -0.022343631309357348 0.22139295132546105 0.01749977762689703 -1.1350195685391042 -0.52235874588893 -0.6502661285391684 0.4275189066257475 -0.892578410471313 1.4113580804401211 0.7208934623527694
0.8901776458767797 -0.15784209907188246 -0.09913875948789463 0.027029107076222636 1.1221469197254024 1.3021793322519448 -0.7363626259364588 0.7229934902343145 0.3713131319441291 0.4822655215479273 0.26429422582814016 0.26853684751470414 0.3294966976026211 -0.26873681456145165 -0.26147975437290777 0.36725742692369145 0.30396014204288857 -0.3123986144708008 -0.7896872923676275 -1.9427077516295177 0.8472774145962712 2.130035831441951 -0.3407135180779206 -0.16647847937497384 -0.2574918855058036 -0.28599488627605785 -0.3424299252924624
0.14688498871326267 -0.4025792796100437 -1.664593160679138 -0.0015848405118415454 -0.3385403682011278 0.34946204009906956 1.0268449363894518 1.0149404395615182 1.582206755135557 0.2273648595553187 0.8815461464572371 -0.6209039888344772 0.25672737989888705 -0.4460005189858558 1.6461287168098444 0.9219462748305597 -0.2621217723416545 -0.45697476737228804 0.12897192641223038 -0.390622898730698 -0.8285888450576429 0.9121348545872818 -1.172121634355972 -0.9599363494153283 -0.19679520104945347 0.4686520265880713 -0.24156060494468556
-0.28816552685287555 0.642099714346567 -0.4072919533049413 0.03839267767625526 0.5556944879989751 -1.4617422771188067 1.192993556220837 -0.25798918422115436 -1.123503731673121 -0.8199240484677384 0.025946357935289877 0.3668658657744504 -0.11851055609353722 0.7159686077119735 -0.36777835767845873 0.1755040827690063 -1.9077299276080364 -0.8621957385794663 0.23518212467526495 -0.29755610683095884 -0.3465415263825522 -0.5066834035751071 0.20060812925870253 0.7845083306301981 -0.2886439361325187 0.2710378178705003 0.8277487661937488
0.1406251690394481 1.2692868998034053 -1.5609258704119702 1.3201921521357518 0.04501389033562864 0.12717924796340319 -1.254069212216321 -0.21138073411888997 -0.5459666424282974 1.1676870601135163 1.2264870504382044 -1.2127622914291245 0.38979460603631755 -0.7838830703048625 0.6784450906969595 -0.7657450769710648 0.645948188045296 0.01805655166543607 -0.02852042323326215 0.3068991239360352 -0.7336351162282304 -1.1557335408546243 -0.010937034476735885 -0.47995769547274764 0.026177588525187312 0.06506742559824985 -1.0933244666395867
