-0.32733049144704135 1.2274815501224001 0.7756384128590489 -1.3790733117700196 -0.11071020839367107 1.6935945970118085 -0.21760411169709332 0.21029930484721687 0.18650454503528557 0.9773683189635782 -0.1148164171714065 1.1993618693137695 -2.0895799791139926 -0.08185777919242754 -1.4843813239105408 1.3134687736343225 -0.033949345219292326 -0.20175229615767198 -0.017731115525290164 0.13745930329455952 -0.5137017910589556 -0.7507704206162971 -1.0832885080076946 -0.6183029752224101 -0.6036175075143517 -0.6966079866935176 -0.8139655254148508 -1.6377386972574675 -0.5165998095148292 -0.7965759241144839 0.10706702253360778 -0.5921437528825153 -0.8410576966744155 0.37412436257804205 -0.5725058585686749 -0.3194008967887543 -0.22389233832234795 1.2449752991672247 -0.33282213885909817 0.9715685408935659 1.8448111307213797 0.7564152144353617 0.7991241326290118 1.083542149199678 -0.17407970480984347 -0.010103045104023045 -0.9278503664036113 -0.6706744680287873 1.1807530111520126 0.26684981936119323 0.32227894855966915 0.013491412895549393 -1.6284771946336982 -0.2496463897877808
0.3478656810940078 -0.5956967518328766 -0.6561057874798684 0.4720602438225957 -0.6444829517202617 1.3161126795724187 -0.7515276333179167 0.025459892036012066 0.07208104017409928 0.030075168956703535 0.8765054992751917 -1.8425151933403954 0.586447018037906 -0.13851126050483914 0.8005089594529606 0.5931088191549283 1.3170535493876185 -0.23642036557064638 0.5412479118734028 -0.25023551123198257 0.09995978866175781 0.44493145049918575 -0.6090403173703172 1.5742583696381771 0.18208235168058884 0.8855029649639576 0.8654216686368457 -1.6577752562780683 -0.727885139305307 -0.9414348627322567 0.9637907350194918 1.1784552292710795 0.21840766629519187 0.0758531066107932 0.1643640985194948 0.008223481856838688 -0.6950419102252058 -0.15978608740374006 0.3253243900363501 1.3463132884882447 0.45991689367564154 0.021361125073423748 -0.5709011421878879 0.3800678675219428 -0.2311265000821322 -0.1005031506680577 -0.33320455186546233 0.25101307256926586 1.1506388683923354 0.549117152627402 0.4237279689279184 0.22446031584462067 -1.2774668615512104 -1.627738329158437
0.26651371383287364 0.19458272298943263 1.2744297951226562 -0.5010884134898062 -0.3277947729303997 -0.9712771598965467 1.0059088114052994 0.8115082569937145 0.24635060527539665 -0.19754517463815496 0.5051252437663252 0.38191973814868474 -0.14551460246300657 -1.9525263009187315 -1.012298317053454 -0.21762273219113715 -0.7559141558832606 -0.41800305738909915 0.7532935841972845 0.7605373546451777 1.0842082205273007 -0.5907888959531525 0.511098792505652 -1.1396122832514588 -0.07609230027477448 1.2539816128081567 -1.7257244022524891 0.19134078743372313 -0.708525825729694 0.05564596505807268 0.2000198737537311 0.97147494912315 1.3931668496789993 0.3652195784015304 -0.47811458594644235 -0.8618209674338249 -1.7769845105915159 0.09930388299983955 0.3349499788402527 0.2941394227791543 -0.837604876400617 0.43963672947863436 1.1858199004078231 -1.4068342668660994 -0.33046919105116646 0.4562633316932346 -1.2287894373393755 -1.9444345432104968 0.01669206023499653 0.25034764662978043 0.1706127868497957 -0.1043278960101654 -0.4823812261535505 -0.11403219968685718
0.40951848422815496 -0.018731636795996154 -1.0343088759450652 -0.5618677333861652 -0.05905695630054214 0.03690858475308295 -0.4363258880415116 -0.35253850162594713 0.4213744521268458 0.06092671896982893 0.3906224245316201 -1.8462971378813167 -0.5974828846619873 0.6619612433293534 1.2036359481081336 -0.24123784416365968 0.42350599080702456 -0.1902171292933847 -0.4150371005098434 -2.1582624761945617 0.6666795920021922 0.4841781616561288 1.214982308834737 0.06367552727952824 -0.33093756481737296 -0.39297316860571246 0.13584272211246606 -0.13092438017160157 -0.6271390820155809 -1.3502731895424334 -0.7612938005517094 0.23936399471979647 0.2523979043995225 0.4154015575704101 0.5359635130160945 -0.6634650437907759 -1.0263860130440603 -1.0413775660233704 0.1512511948477686 0.7116257703682066 -0.643179467562466 1.0453472998345539 -1.3438654535324615 -0.4568412243202893 1.8978353120825897 0.23723466964993584 0.3376865641316789 -0.11879065789351811 -0.9699725531108709 0.36907718541947626 1.365255032297606 -0.9785363213222485 0.008708341613204051 -0.1357470760259194
1.0778863890615105 -0.6177106348556594 -1.1747110401736605 0.8908168197901865 -0.041927247838355775 -0.6752755845286367 0.4234435323541663 -0.06433103284461328 -1.2011808751119284 0.2851602075353833 -0.16954538665089247 1.3098448350893621 -0.42337405347372614 0.8490151213690793 1.9787830346827093 0.2209760344558362 0.35287527154019627 -0.6109712928078818 -0.11147597038337637 -0.9909685594351051 -0.03315614977708792 0.04933441063988381 0.3674287544952482 0.16817223495629008 0.3129031222506888 -1.245874976820937 -0.5017797062185415 0.7376521061243553 2.2183118516477514 0.8128075341327589 -0.29186751402260225 -0.34367718622451016 -0.4226313560843552 -1.163666513426585 0.2341368476428542 -0.5593042992409405 0.10449876809845421 0.575829551494653 0.0793491457489281 -0.08761471368397156 0.07042648260316248 -1.5731303543064983 1.121586727110242 -0.9418266942365685 -0.843446075251167 -0.16053272381554767 -0.5716061862578168 -1.8880650387452946 -0.25609875327349035 -0.06259785052287525 -0.12043315007842437 0.4666506741291601 -0.01638025006052629 0.37551120793345616
0.9765553331614139 1.0407890658957546 -0.19065434963845868 0.8719659445526292 -0.49839006155062643 -1.1652937997264532 0.25726693416397106 0.11799073638618024 0.09872953472277574 -0.10725529758635471 -0.45538266439254316 -0.6014826142135723 1.283214026171085 0.2927306662940586 -0.6724824843971655 0.2326854836911434 -0.4778124081700931 1.2608293574313143 -0.5247659648536558 0.21317929916128553 -0.1909478364661638 -0.3890989874339111 -0.1539771534658516 -0.8617542554783644 -0.7532711694015795 -1.991160477025443 0.8942055012902983 -0.7843370985907192 0.9807181254120085 -1.7143167912940687 -1.0376221868660496 -0.7349871485280961 0.7314298157529033 0.6086826937600085 0.41674264326673766 0.877153560380846 -1.126584689676282 -0.03758320241533325 -0.15803291373199635 0.10068325991040106 -0.26922269826385964 1.1406169087238895 -0.891415798697513 0.7550831672726117 -0.047204869798505744 1.1296245322414395 0.8125099169879367 -1.6934894066476684 0.7128412939716353 0.5728103243006124 -0.8101828196971195 -0.23414698672335188 0.7033185119772851 -0.20383957559142668
-0.31024142707467384 0.9782935531230392 -0.27662403976732614 -0.16323335102319553 0.6876113817704872 0.35910272098531665 -0.286669181248485 -0.7813961259426202 -0.729669991532004 1.3636691455718157 -0.2685622779410991 1.062341055351949 0.8853254941798859 -0.6825723226870372 -0.3576881911699605 1.6801615980837008 0.7191640816806709 -0.20306429421059413 -0.5277547550214603 -1.2528973465534572 0.842989357900986 -0.6584508282525061 -1.0958232411312419 1.0019755994110002 0.11905943322140805 -0.07042502052630872 0.26550372120976634 1.2349075762229935 -0.3314633235164427 -0.08824453925986137 -0.08655424523236088 0.654148607539387 0.4948171876724736 -1.2067244476448131 -1.1108963491613724 1.0999254443932474 1.7144727871644805 -1.3838710381060872 -0.2540641478816036 -0.37154253282057126 -0.45164881110892763 -1.090541043352149 0.2005944269712749 -1.1493799674647862 -1.380899546974261 0.19135680018714862 0.24727236563336358 -0.7293377756180026 -0.7318928631003001 -1.6714102291520692 1.4303238141978674 1.276013984603146 0.1733113869790156 1.0122896908645995
-0.6245312293340757 -0.5192014193824432 -1.0822133587019116 0.15816892967220936 -1.0874098752880728 -0.7975962594746723 -0.6620508542464695 0.7507355038919346 -0.4477749449126949 -0.17714276790577654 0.1389432002630961 -0.555075469043683 0.4978041231580301 -1.1375151430650967 0.49319926827686483 -0.5073601395351096 -1.9730117411207475 -1.1795433680639436 -0.7667217716961224 -0.9845699829104104 -0.4768927823061731 -0.007175029542167866 -0.9258237917758734 -0.43664605221923475 -0.12962855256471922 0.1660330452511497 0.46027088051445086 0.4910274715204203 -0.5536187988762462 0.7890415000959107 0.1391164862355404 -0.9778085323403727 -0.05333648324211393 -0.32168932575455766 0.002474471094884856 -0.3433807233593378 0.05563624161603481 0.3245422859643397 -0.07223544073529553 -0.83809450396098 -0.5614977584117201 0.37499591380817615 -0.2819586095532404 -1.4208212621688967 0.1998018455134769 0.21358988793289463 -0.4196243968833781 -0.32500693870641306 0.23140697259430149 -0.8010456190544983 0.7521110945605509 0.5077314273085288 0.0346743713877361 0.28530285455262644
-0.17347325886181436 0.18783187361726372 0.846186668279596 -0.3842791013567269 -0.31338528818865824 -0.5664028212173267 0.5704855611146536 0.8356620508576571 0.04161747235858365 0.3372966587204295 -0.2105338761774736 1.0018858944968598 0.36022075949149807 -0.8429129419866834 -0.35990085096386676 -1.1162890674135002 -1.1356449111060736 -0.8705207390618623 0.6532765242208756 -0.3204108532660274 -0.1522944844678456 0.7226238946372833 0.6647855954068845 -1.2997761409342772 0.2684960859658182 -0.3453910478841092 0.382113722935217 -0.07990714551826283 1.443646052837071 0.1690941066553301 -0.4916981329573301 0.5238026296243702 -0.25312103380784984 -0.39481744344653086 -0.8695018595288728 -0.7006550713741433 -0.08739529258520934 -1.0981978037166469 0.30779977444965767 -0.5513721267597173 0.16131071666145858 1.4005616235940743 0.5985376343036852 0.4333466974090201 1.0853589648141129 -1.2133291719327461 -1.1162726196569857 0.6254176328176908 0.08610203308130765 -0.39796530165166905 0.8432454896157756 0.8365761073852793 0.5199392221311959 0.2757799008483366
0.1446248051236133 -0.7596171144775454 -0.8567058664792864 -0.06838104215726809 0.5908897951079319 -0.8742565154041733 -0.3195047814145673 -0.28626467654668325 1.2675773219720026 1.1366378840408997 0.7274149643803893 -0.19451079097609608 1.0053833989805052 1.4152876305628015 -0.12745187978471456 -0.991510858471427 0.02698435431361501 -1.16575945204431 0.23120848783283543 -0.9633846660752046 0.2615510711634752 -0.7686582857216889 -0.8859187310877655 -1.0815231450590073 -1.2301119503734295 1.151736263310425 -0.2114202505700732 0.6270536777619318 -0.761965647380061 0.6710246065559773 0.6062946383116495 -1.5116612474364595 0.44021850657642075 -0.48206645266511355 -0.8905531816296821 0.6485226271079738 0.1687337498925922 0.31898589579702347 1.2554558060351784 -0.18976240855621646 -0.5791156492162436 -1.4907644379396934 0.7176471718551563 0.5295152168668463 -0.25957286247300615 0.39817941752623637 0.22558053452554405 -0.6489322799149089 0.4625866298656916 0.3788245225826492 0.37154949728703807 -0.5644490004324969 -0.00409558159889023 0.6856710815114704
-0.15647156316335037 -0.413708499887269 0.3007115353545673 0.1455408791521849 -0.9591671707979745 1.2230458900200514 -0.2805644584410245 -0.07424895550662514 -0.11969374503753083 -0.8207485162940238 -1.172713870644939 -0.7530995736471812 -0.8845274315680127 -0.0037591111608251127 0.36108170088350416 0.19421089318041207 0.2534123868746591 -0.34648407194762715 0.9210581480629835 -0.6376743065745022 -0.19577405604394643 -0.5802502676444832 1.245560401047519 1.3787482238550801 0.0040976929732934875 0.4780794738415205 -0.8525923101035264 -0.5698442943260671 -1.203384969279855 -1.5441118598475327 0.04601656999072823 0.4474024137782438 0.8026301735887722 0.8664632785015531 -0.9495412405681736 -0.70592061262083 -0.8937604151255829 1.349473699429148 0.8693865406916221 0.4613639160836126 -0.11479044614180162 0.9605180256553778 0.11864643666028307 -0.5594601816664588 -0.9101312548055609 -0.08760897769027792 0.7118643948069869 -0.020110444702836794 1.0382615585293542 0.18415325149511852 -0.7526674333945015 -1.6181477976925085 -1.0923800565964583 -0.0007771847489780326
-0.16889021454847247 1.6229256980940374 1.157630308820546 0.3042892990735557 -0.45847790567353425 1.1328677477289888 0.09072711637141928 -1.0484319612644355 0.027867548440345058 0.05545192569734536 -0.6415132402332211 -0.4894335932182148 0.24033581658407177 -0.40931570714125876 -0.7006557753669447 0.5081047718800193 0.18788465633933504 1.0069608272388342 -1.3869189130338242 -0.2636456686154805 -0.3482994169364722 0.09750604141805252 -1.246723725179257 0.42358786549346605 0.7227596681736383 -0.8564692177901085 -0.14023521672709077 -1.3027232444394412 -0.5748368695479751 0.12106299072110416 0.6127106733743346 -0.5627408338879606 -1.7176781974375797 -0.0527404480042869 -0.30601340167331226 -0.3741089871857761 -0.7688363322766747 -0.8441357746744635 -0.7297877154736236 1.3476305700911455 -0.09460157887916387 -0.1473190604291953 -1.0288841135353637 -0.06520013978100436 -0.2541211421555572 1.2164752779074524 -1.1743689891754014 0.8760396391618928 0.08258658486243342 -0.1339552764614152 0.026406174976111085 0.3025840731310089 -0.5908015260890792 -0.10482503369135904
-0.02742425556201994 0.25184061829806437 -0.3827109790555902 0.6137049670331376 -0.121696305450329 -0.846794485507538 0.7875523041376095 0.3430078923203097 -0.12748006529333372 0.31747884937016957 -0.7456324857802274 1.162670339215117 -1.1354352854534808 -0.6070190506417259 -0.0372572584850181 -0.46560253980396116 -1.2117901685769308 -0.5430174783710513 -0.19336288361654763 0.07127644362021102 -0.10498977844673063 -1.0447262434898645 0.3485527951204001 1.0629691847931573 -1.134936215897182 -0.7046262400799056 0.8725364247129109 -0.36570556688013744 -0.3610594456508119 -1.3080605240814986 -0.23992332140950368 0.08623037681067297 0.21233697913072014 0.5724088892116698 -1.341393453391725 -0.7972732840168515 0.3104014133334298 -0.31058325321457225 0.4649828909055005 -0.3152171216091038 0.04714949033245186 0.01731103893506003 1.5131348418233315 0.9904900821803024 0.30355128385663804 -0.6002185732977068 0.7772639772702239 0.46788903821271594 -1.066865839988878 0.14308087363996896 0.7842519107881216 -0.4385579297784084 -0.004065667105814186 -0.9351195442330669
-0.6518275465905742 -0.252069880378978 1.4537373140365644 -0.15131434348945355 0.6191762334376383 0.7550822273752795 0.6614502885028781 -0.25429593141721674 0.43017421058215366 -0.721152504533093 -1.1010376284171415 -1.4911900245243148 -0.08104047016344151 -0.8533515884248604 0.2406994358790014 0.04511529716656282 0.6071865604766504 -0.6800138757862944 0.16287750793997546 -0.41338640794660353 -0.5643010502473952 0.7753792663604787 -0.08376864373582976 -0.8493849517346421 -0.7146410513752413 -0.10259673176855938 -0.277832251953572 -0.45885175335241385 -0.5681202740049878 -0.9748280219162679 0.0811301712740698 -1.5903271939433985 -0.6322672953978795 -0.1434952670826038 -0.36274620628607185 -0.32985088398816786 -0.3121419188154297 0.06027483597270372 -0.5505325195391644 1.4483926927086905 -0.6834534084101584 -0.24414016589849336 -0.32998085369769076 0.7226254361028692 -0.5072959510217445 -0.1654640338559048 0.6391497744696835 1.1279027291596697 0.40233978331268216 -0.992181561827978 -1.421548934089087 -0.31707353977085795 1.709019816493465 -0.4560151601710978
1.1793269312131793 -0.6463808589908109 0.16700760030876038 0.6679846833900333 0.09281115686592473 0.28710780828843696 1.258148231358375 -0.10952866847578646 2.1086638871507324 1.5303116159769674 -0.5420185883846813 0.5709334595845046 -0.7450523776629558 1.0044369155763915 -0.4561853691859452 0.6803612639633685 -0.24467575161735322 -0.6667180691598795 1.1622494212894183 -1.042313743369852 0.4576779353356363 0.14445221448108142 0.05449367925252063 1.3383524750363955 0.20662308160964327 1.3181354548779383 -1.1004374881626386 -0.2786642399818381 -0.07677448766471306 -1.0317609147948765 -0.3117618588406914 -1.8017319896603596 -0.05044183111261141 1.2290172255227196 -0.05285184092810302 -1.0197475645749539 -0.8041734056270289 1.5900692141855852 -0.16583496475100606 -0.744384559103188 -0.7030522465899102 -0.041352584635326706 1.865823738200401 -0.5548894766371686 1.8793198463707435 0.8071956757158174 0.06806854546296665 -0.6130686153872567 -0.40341670759362 1.0500950522124854 0.5838308939599234 -0.025888797487927606 0.030898313678742406 -0.696435397069954
0.7187085933087917 0.1919598626186359 -0.056404820715824644 -0.9089899745944989 0.7041020365713601 -0.572582090106547 -0.009142571774787667 -0.9007288284468671 -0.6504630618442843 -1.5084094609192555 1.619091541916255 -0.8480759074063362 -0.43424526943366415 0.8930781069638475 0.901466403137098 -1.119268528740569 0.010692787376101964 1.0481007991810212 -0.018309242085619404 0.7045940288058294 -0.6891994145473522 0.4238340403168768 -0.015189730531487589 0.9632202078298122 -0.07396059447080444 0.22099421959497406 0.9964203342671868 0.265249805426202 -0.9218222135841192 0.5413196313082835 -0.35915122321063647 -1.482043160216194 0.04836967020885857 -0.07196686844244815 -0.4601125051257015 1.050542519002922 1.133411913262738 -0.749047213062782 0.9219910553101105 -0.2715114419216307 -0.6198485536154882 -0.06497155898759505 0.6127715625280601 1.0458515833459692 0.5029951100006977 0.32724183962050096 -0.49187807734490135 0.6915789295176249 -0.6603823565321986 0.07111535455528856 1.273891743788875 -0.8497271381219715 0.6271240161972753 0.8622456670510913
-0.23441131430919776 -0.08527543139897881 -0.9629402713483604 0.7680804233732506 0.4135795027231803 1.2006105750584768 -0.6710375821915857 0.6188267231943211 0.11950291946632308 0.4792442399372409 -0.384742620645043 -0.5718981641499254 -0.8463817193058153 0.9980894114477775 -0.718118750335325 0.15249952455671423 0.5333870284709119 -0.6850296135393997 0.16949881432497094 -1.4993622170839287 -2.5067423275041025 1.032702037005698 -1.2783746467747177 0.8322744414689109 -1.0960054350005752 0.04809382662511552 -0.45699460558397786 1.0220664729967397 -0.01879939081164045 0.744677164523434 0.3975321597622292 -0.6229603774003847 1.1592755221065718 0.7962291046132339 -0.041513090736124414 1.121729014790418 -0.4715175768020758 -0.6411668194213063 -0.70524558512319 -1.2193276574426373 0.1438131278940496 0.8493460925160934 -0.01899780385256955 -1.2135882399410542 -0.30902889492838304 0.8778306413463106 0.16326380181100764 0.12562286801523265 0.14848674221802727 -0.3515939883200349 0.6830293157738122 -0.8027533498269066 -2.0769772007468053 -0.31569320223570524
0.5553603869139627 -0.058185221479310156 -0.19940969981373707 -0.019970027117774847 0.09839489065693996 -0.5443445655496273 -1.5449254753308108 0.055296471779723966 0.6750825857828104 -0.3411318216292213 2.1551817672543128 -0.7270171988730479 0.9430811468412766 0.7917515781242731 -0.796134710528554 -0.05557592423653407 -2.5165691393571676 -0.5345620452745521 0.7223817661874234 0.43017411423861673 -0.49221234649330775 -0.34024891012652275 0.165239303713955 -1.6456717528957199 -1.276952285255796 -0.14113863254515413 0.3571398290254867 0.6329562798115465 -0.44420179997305764 -0.9798478399199768 0.46315942569877766 0.7476252124495644 1.0212350025782742 -0.6101320296506999 0.34887274342166547 0.08697855507122176 -0.8751933717572835 0.6497990832843332 0.38090927940059177 0.6328451240681519 -1.0992641634178684 -1.024655231455531 -1.1246322491345422 0.33717687056500506 0.32328760576611354 -1.1157608320645036 0.9526414243124053 0.30758928908365324 -0.12675881828034302 -1.3882877049618556 -0.5882404109259609 -0.11451571443969705 0.18802316708717198 -0.3794081841021492
-1.1565731860547108 -1.0933654587331985 1.5867867557033093 0.654782237574348 -0.8033555697416083 0.46459972848771613 0.023210731251706196 0.7570327587259061 0.4574770136475657 0.15168138852568247 1.196106864936353 -0.10081503660272079 -0.5730972232587901 0.15569736395622902 -0.2601226690737173 1.0716263019678536 0.9428039845471721 0.23175579624152343 0.807574609261175 0.44355361837524476 -0.2351229727285455 -1.3113365122475709 1.4175760425732828 -0.7265876615870411 0.9745760850703586 0.19396409450804913 0.5096135230838281 -0.03377736014794813 0.03671895060395164 -1.2999710339113886 0.10720830152915456 0.2527662645257176 -0.5003811022421912 -0.27156158896992183 1.0779558366831736 -0.01898023630770962 0.34377117039349697 -0.3932041642234996 -1.0106118333647556 0.02968932746471792 0.8460562246621599 0.07190883365807804 0.8696855888222708 -1.1207182532767004 -0.48012728459786425 0.5338953229352148 -1.5482129020642352 0.12606714753639997 0.672542433000612 -0.03134454347918464 0.7802505512276029 -0.37846306383526657 -0.617450638398849 0.9451674554772608
-0.8476248262649018 0.8056589935504556 0.2601815620209414 -0.48814092952563964 -1.716610239074528 0.1576884867362381 -0.253547602081299 -0.8040309127333392 -0.13201637175022118 -0.3709259922441716 0.03237511221510542 -0.5731764402226482 -0.9264613217704507 -0.2561608138974904 0.7215694512353862 1.1156666147623646 -1.2697092168000332 -1.4150799022873874 -1.150205331002876 1.4472938300468274 -0.44728269854385533 -0.24608837641243758 0.8209503017731973 -0.28345770195228115 0.10896229106172783 -1.0199674158013252 0.1478522325629097 -1.2250351012284455 1.406347407751335 0.12949258768108607 -0.26061557655567147 0.8058090596095788 0.6970182700754766 -0.6899536247808514 0.21590581140739884 -0.4621302981243955 0.7705584910567183 1.8489737069785723 0.7935820954538345 0.5329376690655243 -0.4023812713966005 -0.35476777866277753 1.0651731361557384 0.1754562318672278 0.6339849849305131 -0.9153352741707698 -1.286498319578739 -1.0287229974862795 -1.8567488013088398 -0.411918278108331 0.01700117513622229 -0.17082539488864007 -1.3560635576848532 0.1245835866938369
-0.9116596686342323 0.714418497732066 0.5400844316475911 1.0642119747455452 -0.8103725833284823 -0.12372666118101983 -0.8209346004271065 -1.0356213691774618 -0.3715576884768931 0.8872404099058021 0.19769147710070434 1.1135224669377042 0.018739806689986982 -1.2295000704700714 -0.3756881588001839 0.24927192455048108 -0.07491926139580812 -0.8627775916771522 0.23648903459005544 -1.322999011163871 -1.4113010573351212 -1.0484436077063455 1.0922094253226398 0.0020226804607041404 -0.9273137312329882 -0.08708614842368312 -0.929409018689256 0.14631589867458772 -0.5522796118371067 -0.04213771603404143 1.206383578618805 -0.009175877309765046 -0.06188902428919746 -0.5686627085681504 0.6534889169119713 -0.6865069384997162 -0.005163802920435778 -0.3178407146292125 1.0227921636139656 -0.25947292269551536 -0.8890662345819549 -0.06076504012961276 1.0437211876310766 0.612880181464099 -0.48683883861380967 1.4336598370326878 0.24456701842278988 -0.23425255404542156 -1.619389344055655 0.4204851184030225 1.0868316295309393 -0.45284369102622657 0.20100414188837612 0.5708359385709695
0.8980765841685187 -0.008816604082666102 0.10296645251113157 -0.6487953185761552 -0.1544711250387304 -0.5294400338655187 -0.44015157818178763 -1.1191080318679396 -1.8507152634609856 0.13532121154378213 0.9476691308985046 -0.22715140038060178 -0.002928762215850589 0.4753405020954328 -0.32894703042884244 0.3777965702785415 0.8313874303296817 -0.2409354421989202 -0.5408813653280504 -0.031714199947768085 -1.0948602133465286 1.321228057272267 -0.3637140302535378 1.1145369571890942 -1.03417697241669 -0.23656642242837939 0.9645335144841582 -0.17797010100578714 1.2749306961859603 0.6307760547051386 -1.0431322533883731 -1.430074446050273 -0.08127850602303532 -0.5838161916118112 0.22860577347074396 -0.7091322616886425 -0.09629226844188216 0.203727755326717 0.3620687047985466 1.188551659965563 1.4981826212617848 0.9017875912850234 0.11600065785567809 0.4317136426563441 -0.7956081878932162 0.6495474865922499 1.028243132823696 0.855686734815859 -0.3468160414720086 -0.848879553702506 -2.3546270125886894 0.05308497030399867 -0.36564429179762364 1.2936796402465203
0.18170447338685208 0.894227228183172 -0.02646384334634544 0.9214215304990945 -0.21340882654350474 0.08189130441602865 -0.9001183676239208 0.15467175730010002 0.29068790891887847 0.42417128062916565 0.6852715868818702 -0.3518590099340044 0.6324737881071241 -0.06965548998660637 -0.12937054178866098 -0.26130672452167875 0.3224193636219026 1.0869811634491888 -0.821503082095367 0.0973186011688606 0.3154433951596259 0.1797021486705171 0.9681428415172848 0.03893383419095808 0.3840831111685177 0.5206725202937896 -0.49057111220726585 -0.2512135942379279 0.13416784983373675 0.24141528309231802 -1.4414030418253074 -0.6976576112937306 0.5349629197416663 0.6316462788398174 -0.535351397493816 0.21229579466257242 0.030403611905170103 0.8413005548769925 0.2898080087144525 -0.607003769705891 0.891457175539113 0.3535722517287289 -0.3385231644959741 -0.5873911643068875 -0.3200978619347069 0.1311049370798073 -0.620878775507035 1.5960623141716495 0.5354570838431529 -0.9908712936117883 -0.9596648446276392 -0.23721749840009498 0.9801612148853955 0.8544716857459662
1.0592800431067964 -0.6238114785609106 0.26623372726057326 0.47618660606417457 1.4242162128980294 -0.4428661300202352 -0.7954819114957636 -1.473938780486177 0.3518004488390127 0.5752359518517629 -0.1973166344794096 0.5249374421167633 0.10078063489753808 -0.8279945183197244 0.7754411735544051 0.5723280400916434 0.12757298752750157 0.7369523302340248 0.23051261884213148 0.07657688359730097 -0.3873289439048155 -0.11520485923189239 0.024483234604043225 -1.7830197546896165 -0.5628893448211736 0.5050880727331027 0.30031396386012243 0.1965019484327467 0.17569956472875303 -1.4042802551570077 0.03333433288792059 -0.829905070192454 -0.9433815413551698 -1.6018317496979673 0.944095732785827 0.5152662562567111 0.23299046013793467 0.6306305398920624 1.686711405527296 -0.6361955446441657 -0.7013659723046286 -2.209425297123545 0.07719693090170932 -0.9877985985995873 -0.1170966036351847 -0.2443129065806871 0.4041100588023954 -1.0696436888686436 1.6541966733985802 -0.3523713514252874 -0.6432136685259038 -1.1201414046939489 -0.42945331198714026 0.04168804072740351
1.5586131775745486 -0.7271943247493947 0.12513495770776273 -0.5144743307189066 0.17114421202190183 0.06130875733966473 0.6879895749032705 -0.9222091158271377 0.16755174925990957 -0.93101653974427 0.8505737059383147 -0.14845917582620372 0.23265857915674304 1.004665913848854 -0.36637777083802975 -0.04576851244252522 0.7311419454501439 -1.422961242940631 -2.1667750480511776 1.7607842288757443 0.2552154327183926 0.4631844756147205 -0.18828446282057476 -0.2980808596637473 -0.5013541727006298 -0.28129010943168375 0.027466964423661533 -1.150645980213599 -0.8061917848711829 -0.820706399081591 -0.20478532662496118 -1.0845134122779527 0.0980468472773513 -1.3756584092124453 0.5096118623165655 0.062043405779045824 -0.5416790731252555 -1.4328904181165762 0.29728029839233167 1.0323012413282135 0.18361520510665919 -0.733185548321029 0.9892442255129156 0.20650499887575374 0.19656047747898553 0.7095991947659513 0.4277896894730847 0.43029770663601474 1.41058029874123 0.9935458111927629 -0.007465648018972093 -0.4748872661775042 -0.6337411789575758 -0.9986106359927094
0.9181504120291345 1.2322295159262842 -0.9202112684341852 -1.1611776734738015 -1.5228831737112765 0.777453563495861 -0.014188671617511639 -0.19073340188454624 -0.6628533042259688 0.3282817189118034 -1.318399473382117 -0.6355312890185857 1.0277244654582471 0.6176330120420366 -0.9682844965247823 -0.8463677304287589 -0.14438471608267428 0.4313630768076109 -0.8834234771774976 0.33850933905514385 -1.3432877097708071 0.03839012252818885 0.4126468436929642 -0.41000661339045846 -0.784713425469046 -0.4847186570102935 1.2499229494573474 0.7580977663465979 0.7499434872927815 -0.5909647817431318 -0.39682561391248644 -0.47604732911682796 -1.2058909920843066 -1.1875571224710433 -0.7509113415079872 0.30402644938161283 -0.3518732586088725 -0.9203048957652237 -0.29553326101353383 0.6394952518638066 -0.053269351641877793 0.18494468688308324 0.35952670767531736 -0.24148084139974113 -0.9225309066930905 -1.1250518772574452 2.0568553742206763 0.45842616522455437 -0.3041822165090574 -0.6513143261769652 -1.0414558461099663 -0.11910949171421659 -0.3954556706379155 -0.7104869201370825
1.4968663060480558 -0.6468766708101259 0.2072600864041061 0.3461378309783303 -0.7255532174450681 -0.35830950347921864 -1.2000857381162762 0.78113956399898 -0.6130348851896259 0.7605392559519164 -0.7991331406734287 -0.2683787577000482 -0.6629041080424352 -0.10820724094951761 0.13769518492213711 -0.44691983733068413 0.3580613339749816 0.580254598937949 1.0098397539258095 -0.1389379302388578 0.6663036590752522 1.8957692934617898 -0.10341590223120684 -0.6575117035028637 -0.7633130362702905 0.2952741673329174 0.32431858334736 -0.23938327875590498 0.29705089473722257 0.6307735115330798 0.42863389579045463 0.13508067871602336 0.7771344432280728 0.7406022331917652 0.22108187805560992 0.6004605087688792 -0.2043562380611023 0.856224166175183 -0.29383121893770736 -0.24039332213203674 1.0156552133245726 0.6393652066049805 0.9356990019534497 -0.45699502422571814 0.2234579828658596 0.45618847660458683 -0.13256134011128495 0.8801605208346055 -0.5811119891965932 -1.6273134320990719 0.34507529225774075 1.4422426777037385 1.0187835520650985 0.8385091133718601
