[[ 1.30853754]
 [-0.314338  ]
 [ 1.1678303 ]
 [-0.78596391]
 [ 0.75685084]
 [ 0.47266592]
 [-0.86411594]
 [-0.2282422 ]
 [-0.6310642 ]
 [ 0.08101984]
 [ 0.46898539]
 [-0.32573893]
 [-0.50562812]
 [ 0.61787587]
 [-0.49029081]
 [-0.43594721]
 [-0.35228657]
 [-0.38401502]
 [ 0.63091684]
 [ 1.28168992]
 [-0.88639149]
 [ 0.10961049]
 [ 0.54445364]
 [-1.19953832]
 [-0.22771802]
 [ 1.05879891]
 [ 0.47072045]
 [ 0.21808113]
 [ 0.75935695]
 [-0.22676395]
 [-0.38026574]
 [-1.3393386 ]
 [-0.57855899]
 [ 0.13352635]
 [ 1.22418741]
 [-0.84506865]
 [-1.53795801]
 [-0.30840577]
 [-0.0913379 ]
 [ 1.07503679]
 [ 1.3942544 ]
 [ 0.58712116]
 [-0.64222517]
 [ 0.44980555]
 [ 0.06553326]
 [-0.78239208]
 [ 0.24784871]
 [ 1.06391904]
 [-0.33482664]
 [-0.36190644]
 [ 0.27544693]
 [ 0.29275489]
 [ 0.75287549]
 [ 1.29723814]]
[[ 0.22994703]
 [ 1.81706021]
 [-0.20089999]
 [ 0.61957278]
 [ 0.14427185]
 [-0.1734084 ]
 [ 0.32512761]
 [ 0.84479641]
 [-0.78895681]
 [ 0.68578119]
 [ 1.67449552]
 [-0.9766539 ]
 [ 0.66497639]
 [-0.37078492]
 [-0.68995618]
 [ 1.24301584]
 [-0.1805177 ]
 [-1.25117052]
 [-1.15257759]
 [-1.08203125]
 [ 0.45665885]
 [ 0.55128892]
 [-0.6737841 ]
 [-0.38840249]
 [-0.70300341]
 [-0.78874665]
 [ 0.83818315]
 [ 0.64836829]
 [ 0.85237888]
 [ 1.2546448 ]
 [-1.31968341]
 [-0.97021479]
 [ 0.15683387]
 [ 0.51799919]
 [-0.7556851 ]
 [-0.05495848]
 [ 0.07064955]
 [-1.34877203]
 [-0.39777611]
 [-1.34588395]
 [-0.01964442]
 [ 0.14667493]
 [-0.91498735]
 [ 0.10328866]
 [-0.75367412]
 [-0.34283073]
 [-0.66337688]
 [ 0.32120795]
 [ 1.07156611]
 [ 0.1175395 ]
 [-1.08369283]
 [-0.12788482]
 [ 0.47596348]
 [-0.27992728]]
[[-0.14544017]
 [-0.97958424]
 [-0.20403071]
 [ 0.69791194]
 [-0.43450759]
 [ 1.48240017]
 [-0.43939793]
 [-0.67857624]
 [-0.75016621]
 [ 1.15640573]
 [ 0.00252213]
 [ 0.96524729]
 [-0.82725863]
 [ 0.87748447]
 [-0.60040997]
 [-0.66987399]
 [ 0.24829048]
 [-0.08555839]
 [-0.42297857]
 [-0.16724766]
 [-0.22969101]
 [-0.31259278]
 [ 1.15303573]
 [ 0.09849055]
 [ 0.75075187]
 [ 0.8879048 ]
 [ 0.19953367]]
