[[ 1.08033374]
 [-0.11528367]
 [ 0.96301365]
 [-0.9127282 ]
 [ 0.56423955]
 [ 0.75017253]
 [-0.48854804]
 [-0.45139447]
 [-0.59286746]
 [ 0.04799711]
 [ 0.66732778]
 [-0.47995752]
 [-0.37714155]
 [ 0.69382103]
 [-0.27814324]
 [-0.60438992]
 [-0.36587922]
 [-0.5171128 ]
 [ 0.87530005]
 [ 1.28168992]
 [-0.88637989]
 [ 0.16729299]
 [ 0.32599274]
 [-1.23548563]
 [-0.22771802]
 [ 1.03128315]
 [ 0.55763129]
 [ 0.27075123]
 [ 0.78884071]
 [-0.22676395]
 [-0.21791451]
 [-1.13149536]
 [-0.50675741]
 [ 0.1545652 ]
 [ 1.22418741]
 [-0.8319491 ]
 [-1.60993348]
 [-0.71410604]
 [-0.23921778]
 [ 1.03952432]
 [ 1.40182522]
 [ 0.58712116]
 [-0.64222517]
 [ 0.52193245]
 [ 0.06553326]
 [-0.97735756]
 [ 0.30051881]
 [ 1.06303471]
 [-0.31021573]
 [-0.44593241]
 [ 0.20751003]
 [ 0.63214696]
 [ 0.75287549]
 [ 1.29723814]]
[[-0.04543281]
 [ 1.80573369]
 [-0.11125814]
 [ 0.64526997]
 [ 0.54966752]
 [-0.26976271]
 [ 0.8213106 ]
 [ 0.95522553]
 [-0.55599968]
 [ 0.89912938]
 [ 1.67449552]
 [-1.23090066]
 [ 0.66497639]
 [-0.33825384]
 [-0.81673189]
 [ 0.86344464]
 [-0.13796031]
 [-1.01293739]
 [-1.04494658]
 [-1.06253012]
 [ 0.97180217]
 [ 0.76484535]
 [-0.89831214]
 [-0.26861346]
 [-0.70300341]
 [-0.63193624]
 [ 1.06160065]
 [ 0.8510693 ]
 [ 0.97808227]
 [ 1.42589578]
 [-1.72976936]
 [-1.18786053]
 [ 0.32671016]
 [ 0.67889483]
 [-0.72159653]
 [ 0.12615706]
 [ 0.07064955]
 [-1.28033643]
 [-0.39777611]
 [-1.03000529]
 [ 0.25453669]
 [ 0.47490957]
 [-0.38249981]
 [ 0.10396355]
 [-1.00339172]
 [-0.22261368]
 [ 0.21627236]
 [ 0.43548462]
 [ 0.88353447]
 [ 0.51469325]
 [-0.9558469 ]
 [-0.19347909]
 [ 0.47596348]
 [-0.36331268]]
[[-0.30155668]
 [-0.77103131]
 [-0.43868553]
 [ 0.78511348]
 [ 0.03875464]
 [ 1.43300025]
 [-0.01229241]
 [-0.8533321 ]
 [-0.9460065 ]
 [ 1.15640573]
 [ 0.00252213]
 [ 0.72058824]
 [-0.82725863]
 [ 0.82591478]
 [-0.60040997]
 [-0.02002302]
 [ 0.49079356]
 [-0.58556298]
 [-0.42297857]
 [-0.67693803]
 [-0.26311453]
 [-0.12544097]
 [ 1.164334  ]
 [ 0.30168223]
 [ 0.99067489]
 [ 0.65531822]
 [ 0.04559576]]
