-0.7087478499079896 1.4612138473984297 0.19273898900886482 -0.17001004419403037 0.34925820740026103 0.2506382697541229 0.8949271828765055 -0.371861772720561 -0.3052668873939593 -0.214827058323457 -0.6235069555133761 -0.5192855941659174 0.38982859862870894 -0.4432954560104519 -1.8168448059232198 -0.12389386614653614 0.8925863890724173 0.3419270738522127 -0.2306983717130734 -1.1128037260222652 -0.04077125173672652 0.8464845709317761 0.2185148584913067 -0.5578226830036837 0.2814170206483168 0.015316687888326186 -0.10704295035865735
0.23359141327991617 -0.7577753117204578 -0.860318606276381 0.42458178731561674 0.4998571264775563 0.19644088680816874 1.0264075864175695 1.1864343855000303 -0.9733305539866492 0.34312335636962016 0.743695567967596 0.22257531601665032 -0.9226302294208915 0.2474228560894154 0.927568041840581 -0.2989916317997005 0.7381819935210907 -1.3067295941469304 -0.9935123291687862 0.48769799997998003 0.6727887542990016 1.0505461560685563 0.1782235285594233 0.34172468041389814 0.4667956514025412 -0.5452395022612347 0.6123750499157128
-0.43962928222261044 -0.3485053814445449 -0.6711340287507204 1.0790403015691694 -0.026317074703634424 -1.1520969969673427 -0.09758506779933973 1.253419687817849 0.221152186631215 -0.24990641160217836 -0.11702892916456498 0.9491061426804983 -0.7305806233776517 0.673649428400249 0.8034552137559509 -0.8238419024679859 -1.0363828291698804 -0.5284999141410851 -0.9474741672689548 -0.16235174812290393 -0.08446181994927776 -0.5078789015384062 -0.570803853724666 -0.7623140116899507 0.18746074988395633 -0.40640694653617837 -0.9407082958992145
0.13859419834999398 0.9467466463509436 0.28253279371683676 0.6482209826689358 0.05034552172884571 1.144733613275058 -0.5009627791046489 0.01835442498258294 -0.5214861347120385 0.9469482776900586 -0.5113397926231 1.2499716382744177 -0.7288789313915439 0.06471431713555714 -1.9265955654086828 0.3644587238051576 -0.4372013183855761 -0.12896249731909915 0.8111112239716739 1.0133852981566824 -0.5110315835879804 0.5120891729779108 0.26974232250342467 -0.4632004982524319 0.839152776357891 1.4707111728453333 0.8528166475830704
0.8233166461266883 0.513911647516199 0.9437608217965177 -0.5991389363736928 -0.06740458654285064 -0.15612430961696683 0.21366895462032387 0.30843042905650253 0.3452322601838356 0.5265298275332007 -0.016980787907167005 -0.5638632467186673 0.3440645069611129 0.13509519249613683 0.1343099747952105 -0.08190803325122165 -0.4355045508043261 0.5405648914379646 0.1740226461279915 -0.616468778969846 0.10796552675830368 -0.9357596669446477 -1.0922203878875645 0.026240224743716456 -0.22802542480007754 0.3700880714959542 -0.6634971083992509
0.18377447641259853 -0.45729805850855865 0.9557594270225166 0.49611730266196297 1.5641105816700656 -0.4097765040482021 -0.7666605095741246 -0.5814362286982191 -0.43403802216961557 -0.9397768650072147 0.45480182820121057 -1.4351505548763668 -0.40289440288506484 0.6655471338273653 0.6385355443481634 -0.12664301526550165 0.6932054572621591 0.0817241721861659 0.3146132156978431 0.5491690074488527 0.5375690302056235 -0.8035005272303508 1.1398673122951344 -0.44041627648129045 -0.48432396691557666 -0.3750213154694176 -1.2083673108345447
0.4234918017694431 0.821295437992061 0.1036254030393815 -0.0909936066588774 -0.16604346731048447 -0.7573846757483198 0.3983505788192126 0.0925701976129702 0.9617229386342652 0.703077701708267 -0.6287100610581208 0.11088983493803561 0.4068116472340157 -0.04072242614120297 -0.5994222578157685 0.4560927455147873 -0.7862607772851672 0.6780992963373499 -0.7187925002872038 1.1030619593603734 -0.34621846539949847 -0.0843617075310677 -1.0001465302641168 -0.8940856755600378 1.195095340188439 0.5100050360119459 1.322644726540661
-1.1100136538377419 0.9512849308733637 0.6198122826459398 0.600871692427806 0.6916945254405443 1.134611642097659 -1.4847783625506967 0.9496425749607227 -0.017352354184080765 -0.2514264881648227 -0.045187348077299516 1.2653924390436626 0.7105913445353966 -0.12890230239259548 0.20240929649386036 -0.02144389779248579 -1.5596997268879138 -0.9328972534452039 -0.6982251403110591 0.46126121077494914 0.5878543926409934 0.9421497424394162 -1.4252094446701868 -0.08128934115018482 -0.6258734572179843 -1.4484657042942386 0.5206083346668144
0.21745451680829136 -0.2094194397625141 -0.034355621724776686 -1.0191438341095538 0.9669615448897365 0.7533184971640956 0.27007471851509024 0.18782396117023165 -0.37863504791150865 -0.46789101698303925 -1.0685738548951855 -0.7193974654010862 -0.8106002710472928 1.0922322622339249 -0.5067368928333371 -0.464098724621474 -0.1912648814376008 0.046362511983795374 -0.9456826490243687 0.7520169787974524 1.4600714820335807 -0.2579255289481151 -0.3219236641511343 -0.34677987497607776 0.24880999107958085 -0.6355933109269885 -0.47538681079621353
-0.028616608581449876 1.2736794040851995 0.1394945941732867 -0.8921072695725154 0.20594964449016923 0.9619586622827708 0.441508636892459 0.589150525064966 0.19624723809833727 1.4086856533787135 0.5185222874817794 -0.3792810973672927 0.8410218762171151 -0.9909876876030821 -0.8948500431325017 -1.0130828844769386 -0.9868247250600063 0.4386814917803861 0.488758597949074 -0.9304717934314517 -0.640614734260448 0.31471853837999786 -0.8810270133283475 -0.025915095896606954 1.4217024236990223 1.320694275763847 -1.0962526468037779
0.11477880587992029 0.14584465272668196 0.49411559663405075 0.637455021556325 0.11826912573898768 0.8022319418311172 -0.3323248557643876 -0.47692969463835455 -0.7686581057348844 -0.679674083833695 0.17173215919789658 -0.2856874413225752 0.659275982825168 0.8246381164986964 1.0779569900882133 0.8776300440282886 0.7378571711769617 -1.4222697573491179 0.5026085611370033 -0.622618182895071 -0.08817215522014465 -0.4748434316457994 -0.8165640966943357 0.38435583577180304 -0.4808919142163559 -1.2646094364089062 0.24475665352716425
-0.5422286051537415 -1.020916726521254 0.5835598922921812 0.4901705755404965 -0.3854758425425361 -1.2246334604796685 0.7407419147240762 -1.4246804627072278 -0.38556654642229843 0.47496734897718945 -0.8114917402253754 0.39749071335014546 1.0034867132521708 0.3670684561680726 0.7551603956222142 -0.23266775182350835 -0.14026348807741207 -1.0202063866520457 -0.12108044552672687 0.4572112202022858 -0.22633307354553994 0.5788683960655363 -0.2712116713348034 0.0858310171266925 -0.359868020270513 -0.23688659805747037 0.8634896617175336
1.011851410035053 0.7301198193799987 0.33857233460268243 0.29959836286575264 -0.6974919108369009 -0.08678019184489788 0.18400186851551287 -0.40905941041953675 -0.21423055983442935 0.5209581291925789 1.1199466104826106 1.0631432995654808 0.33496926430799234 -0.6536933387449844 0.022099300513699904 0.2267733583311905 -1.052228318050315 -1.0784248708508049 -0.3965196632955189 0.06920104152172407 0.13080532335085088 0.7348844314680005 0.43527657302960504 0.41580581309237474 -0.20806473440833184 0.8927560898241855 0.3406859298604531
-0.811571812332514 1.0283658945642973 -1.7251032285012744 -0.8326039674561565 1.1823720354670717 -0.08733918205642072 -0.16777474507090856 -0.2011630293001771 0.17194652009487443 0.259520853080539 1.3784687837070106 -0.12417093722741607 0.0010934155741947338 0.3129499142475719 0.677638785115425 -0.8634914782200679 -0.6867718174039954 -0.27162894216288763 -0.669077429671878 0.5708892992598523 -0.6695387591595463 -0.19004226832882354 -0.09073605937889362 -1.520271519695919 0.9861169931691471 0.44897518101355205 0.6005593648473935
1.1334608777079422 -0.9400767323547286 -0.8170391985327563 0.583436622429808 0.026125935987212412 -0.9311444864769747 -0.8965559835553878 0.9663381304034371 0.5456932817400271 -0.09771652411662762 0.07392274581770647 0.07444980580716187 -0.4449810711643285 1.2773248962746206 0.6259823558267934 -0.16783998319634263 -0.9705376600350888 -1.0667497771846988 0.5530962400282282 0.5131808194219143 0.09683275624376053 0.04227909643248312 0.06669563914448667 0.5409964308629521 -0.4053560300357624 0.5773194540685771 -0.2146065338360334
-0.16206350302717476 -0.4073248441401026 -0.31175406863829935 -0.7620493518771769 -0.5426778372795232 0.023230847102785057 -0.9257832112209892 0.21370538821291607 1.6291491797202855 0.6561317098509426 0.5951376483062725 0.07001656600326855 1.7713706243366736 0.45342007287206043 0.0218617992605053 0.22889518256165653 1.3334419594169475 0.8528578693390088 0.09394094737917552 0.345880709211123 -1.5947547048639439 -1.2469132616584648 -0.40181654202573697 -0.8219034411546151 -0.6883836158675725 -0.05345559381763815 0.16539445019811982
-0.05045233579103098 0.015453469666455222 0.40997347655990507 0.20763308792437607 1.1980741164293436 0.03485091974813298 -1.282170064638997 0.5974747927338946 -0.46149278674063426 0.9121721911738221 -0.36310461573741026 0.9820266971927494 -0.12309164432743852 0.5067999103175399 1.428670022444219 -0.4136828616911098 -0.1424252856721297 -0.8081248130080212 -0.9544679212140748 -0.708219745384143 0.19812258202172378 0.4622229480843342 -1.0727712848373165 -0.7961782101523046 0.4650275419679896 -0.24074696539191653 -0.2630310990777959
0.5833531170841988 -1.5845020049863285 0.7247782308173507 0.0748154499094219 0.8783375347092104 0.44953879762178156 -1.1564206844455418 0.6938514365051116 0.9810776837607547 -0.10146337286550655 0.43306638612912296 0.007389375807105636 0.6147983299900519 -1.5170647683092449 -0.3365834831577371 -0.13496772950510633 -0.0514116880788657 0.005680007478906568 -0.971353221260751 0.44847072108229524 -0.3861818621795825 -0.2681622416670933 0.3572074155320868 -0.5013494217545433 0.8087742288572005 -0.004484847032175887 0.8083510996589414
1.0843014430034381 0.13023320852481696 -0.7964262749672217 1.1861946822787546 -0.10366053283443977 -0.533418767151629 0.23984255290647966 -0.35650369437678825 0.21061032833099724 0.6399393772843773 -0.7675458885289166 0.4106538296350086 0.06388651558557051 -0.42364867730633476 -0.2758669250538513 -0.3340737792679355 0.3856456453534307 0.012327214736587544 -0.624947397200535 0.8936614771462128 0.3332292520794537 0.8462259373700582 0.6909568696360127 -0.337382903341368 -0.594829616460774 -0.9045343767611376 0.16253905753936543
-0.6286999618905675 -0.6661218518186242 -0.7303581437682497 1.1109756606697276 0.06622352060279957 -0.5696742045310998 0.7380064414348607 -0.008285651749726453 0.6479082377042151 0.7602976631921545 1.0084164471966974 1.0492663113765592 0.12096125646284583 0.4398541775057916 0.018730740235171406 -0.31651177160124644 -0.910259832834924 -0.615677927480639 -0.5265843026656862 0.8548233559487418 0.3777316817308621 -0.04959366658949821 0.49594155602143525 -0.6518735236729956 1.0537766162674664 -0.28002122308535715 0.17505622550204908
-0.04115849105457986 0.3415218604843536 0.6999165730369763 0.9185719247041125 1.1435670646352436 -0.6208792831640175 -0.13859810338255946 0.1402786298450997 -1.17660383060776 0.35651807218388554 -0.7059695487787434 0.37146434544365203 -0.7253798026357913 -0.9745410716526073 0.8281952511296493 -1.330018875698193 -0.27592573221588146 -0.36737916642581214 -0.42431525295432926 -0.0884486303063326 -1.4769216601228414 0.9778377484607574 0.30411820566581627 0.04298851663148118 -0.33603222057387716 0.6342144185940591 -0.7131723489646351
-1.3290315938161947 0.2572663692210614 -0.9884855626880803 -0.7287040178151687 0.8653292326278976 0.6753371909085429 -0.7687169426072513 1.0374647821444463 1.138682420961261 1.0640801807738804 -1.083396780047455 -0.670925548598563 -0.4954212539146227 -0.8042904850889239 0.33698961253025556 0.4953411309130965 0.5760552253411082 -0.6340474044864011 0.5098121701686734 -0.12549736202776396 1.122108128790033 -0.5098639032015349 -0.09124512233402399 -1.0087233932414712 0.8111203383792318 0.46801028043997905 -0.46543952404320227
0.2990769145989086 1.5006522956756074 0.11955010803685495 0.7312254364453361 0.2587952725025765 0.38702138522696755 -0.6491173207721819 0.9613547176074273 -0.17710765176215876 -0.5672470261050613 1.4273312377609095 0.08927295933211316 1.3733510257373562 -0.7666382497407795 0.7409984649602573 -0.4501541385416119 0.07515435367807993 -0.5813496584671936 0.3412735106410209 -0.6406197389508645 0.5332052277161448 2.006054120167152 -0.9277135430228172 0.5199172820640159 -1.1168651085617758 -1.0206154363422737 0.06582369852353276
-0.13012713711671875 -0.11986992884848213 0.7828542545628319 -0.6433435121483906 0.3650255245935568 -0.8888189097719741 0.6064020648685979 -0.8470107917154142 -0.06081004699123588 0.9512915399015602 1.2505703291955772 -0.5849374030115472 -0.5986721941302953 0.9140736129625961 -0.21875526492996294 -0.5073358759292388 1.3271420373108234 0.767793265102637 -0.16617775598256873 0.8552459776799535 -0.5914341237873725 0.19877976228688765 0.5190076073349652 1.5792693589088997 -0.30022098954888277 0.8977362195878962 -0.41789289138298047
0.08057533153153246 1.1329531308834513 -0.6001625448944411 -0.49330021697172904 0.8690336584033922 0.4292506141614245 -1.0730525935378599 0.47026937734759106 0.9567455911125274 0.613103142157984 0.8543878488374095 0.831546828353779 -0.7094765613146645 -0.3072766572512131 -0.2114573535010506 0.13385332015862267 -0.4368718229549986 -0.7024622359380988 0.050641453024346694 -1.1407412759803628 0.08442954132905489 -0.6110474352372256 0.7357142520659474 -0.9159001338168267 0.6773961539013571 -0.9781080334524683 0.9412747794990654
0.23476124107377155 0.6531990200750031 0.1550792368109366 -0.3151055151070578 -0.3786735953900567 -0.6468744935664368 0.6760038456834004 0.46712568839671503 -0.5786220005688044 -0.49794915264558376 -0.5406130747970441 0.46085191428269123 -0.32436869905044896 1.10409139667292 0.020162512842383407 -0.21280040243721654 -0.2711003851011951 -1.2340112139826611 -0.012254520278369319 -1.4649801007627439 0.5523508634640744 -1.1268532209373452 -0.5702196365076233 -0.8432401590430829 0.19005428619795695 1.7671667373549729 -0.2105010456226597
-1.1184412508936181 0.2513549355564949 -0.5995187264097639 -0.06747557541473942 1.1419122725171078 0.3785850764320112 -1.103224448157927 1.0284505977051446 0.8029981150105916 -0.6263983580439016 0.044080951404876445 0.4268235857991119 0.03153702251801632 -0.13209201802394965 1.1095055824487512 -0.04919726939229002 -0.04944341604286567 0.12383222559745977 -0.2706024618447293 -1.0441703484482852 -0.14095676750961916 -0.5061238909821035 -0.4418242118536396 1.0109011933590082 -0.3595910552961832 0.6877931966017301 -0.4380852831544156
-0.5568047543548746 -0.0036356871304387695 -0.23662905841954657 -0.8951690408194062 0.0063597167904649865 -0.29758369482611224 0.12996456987529215 0.5698552461157065 -1.0205618025854366 0.39328974660003146 -0.5422604199059986 -1.316693568005336 -0.7769373517696503 1.2558805423901733 -0.1791772821654572 -0.502525463057169 -0.7895473615023847 -0.5218710921916027 -0.6442143041995656 -0.5411391548239048 0.10998537723804569 1.4903043684732467 -0.8076326597171803 -0.17944518046119523 -0.6870002497739247 0.5906253672810364 1.5494458065750147
-0.07096272531793796 -0.7523941734961466 0.7161985434062145 0.06489797727423191 0.28506013276963127 -0.29667501512415967 0.7538434579300743 0.00995515347784709 0.7272842192049856 -0.15181039944348335 -1.245010595272688 0.8110498812559745 0.23339523145766095 0.2983296545045687 -0.06664408896667656 -0.9085722162945151 -1.4939582899469552 -0.1645914801059427 1.316654502158661 0.007396758426964523 -0.42777192720168417 0.4282711593863848 0.8058485848807446 -0.745297329503747 0.8743119543023115 0.045197778911576725 0.7554961450057107
0.5459789637313592 0.6823060979184199 -0.6268424122502705 0.14711538238624722 0.3824363955763119 1.0762347787477187 0.5245442235015865 -0.5329854005044578 -1.3929350034146557 -0.6559521836583877 1.1930221341697311 0.2469611395746319 0.8928785895993436 0.47157193104030987 0.2531746167969579 0.14067031861575668 0.5016910557135854 0.8186955562473481 0.2298705318915421 -0.46883050414376604 -0.3114996037955972 1.3651298933179512 -0.6171344935295542 0.562006146384457 0.9331418777097695 0.41799054275213005 1.1198524563678849
-0.2183678359406151 -0.15272683394428144 -1.362775906258706 -0.46250506054970286 1.268115991305707 -1.2448315237805314 -0.02455916601665692 -0.7374311546803499 -0.6521253008871428 0.296856340056738 -0.8624808162944569 -0.2686980689085536 -0.6227206825956517 0.006215172730142993 -1.6793006778210697 -0.6945721158444493 0.6798142133033898 0.3698108848370056 0.014882590795750716 -0.5144442893979061 -0.6184278961575498 0.11723527368750292 -0.6801478761700085 0.49056523087101434 0.04735019103060589 -0.7063340686260917 0.43632445762829486
0.5981688263977794 -0.07747621860110104 0.6408333191918512 -0.0727612564330471 1.2251312477287872 -0.6663224479179759 0.7548451793223493 -1.567499861610955 1.0500588494432337 0.4365357143350096 0.804887182370104 -0.7877527661116981 -0.8035443024076233 -0.2642518239063974 -0.29272972144922327 -0.2489292378050763 0.11488962386911938 0.5554926442380681 1.9251874433156209 1.2143485434059271 -1.502999869656482 0.9943326381174532 -0.42634889542489346 1.2512248039126237 1.1866206435853752 0.6466286982301725 0.9235533514369465
0.8158678000028312 1.07620603770712 0.674146366868956 1.6563852446839595 1.6757027196695078 -1.1028225908383669 0.054397684739441454 -0.9522730857875632 0.2879064614944071 -0.3407086217836767 -0.5629431124083402 -0.4100518256244235 0.8730071332216007 -0.9234528893942727 1.0609298197462258 0.02139283205096859 0.959233457765668 1.0507431587793863 0.7499791636135891 -0.269992027681668 0.9150076790163891 0.7180879453124324 0.7794250775365439 -1.224145193034901 -0.827682997400369 0.04007146496293046 1.0718307096497035
-1.2802320533151426 1.3495860581275065 0.5254288792751207 0.07409733069356672 0.4494596210053721 0.15108245107597867 0.6351277813972884 -0.7783340674673804 -0.5036267188430062 -0.08396243838709266 0.4923377658383046 -0.8225034763861468 1.2903521466911 1.1519687237495044 0.24266094624616286 0.6790303697064662 0.013995394866585076 0.05787940373722006 0.07784306308113204 0.4582732615970777 0.47266379490653443 0.3325827106143755 -0.5427956631883113 0.0468701822462666 1.970093793620272 -1.2182196280668383 -0.20556276363332765
1.110967448761843 -1.0120123923536593 -0.3603617452767413 -0.03545236230645221 -0.4736269561167274 0.3800265037967976 0.44025172480228825 1.235855230647321 0.57284653426884 -0.30612714313771516 0.8924157395679518 -0.5490825646410447 0.1012268405161797 -0.7562424888634534 -0.33396369407658344 -0.07135115253532798 -0.0829614687601255 -0.5935238701607661 -0.41395338111834235 0.7217202231044941 0.07783442422207382 0.902530064178513 0.07381980432396007 0.3381411133884175 -0.5265632802070838 1.0806334598356022 1.4715191482382548
-0.5898078131871778 -0.22093220513907613 -0.6761824392577067 0.15434278044471522 -0.4050602684973095 -1.0621297511490746 -0.256694390904964 0.7539605029053972 -0.7309130161435852 -0.5088928245787668 -0.020075223790022356 0.1664635126816449 0.7852703370000398 -1.557214495583813 -0.37949110078568304 -1.5023231246410678 0.28277230454336855 0.5310615223887496 0.6641635876609782 0.5166903423838357 1.4243569504519744 -0.1745924176711679 1.1418958040770415 0.45321124107197974 -0.32668021892054055 -0.4520172296873765 0.13881693434514136
1.1241180859935687 -0.9090128209417606 -0.31166621992988747 -0.5847435967695342 -0.30798342308210286 -0.8034677868156028 -0.927045114655813 -1.1289427340017149 0.5035411875225577 0.008858461236724846 -0.10594694066381716 -1.1153140011941836 -0.6440564088294064 -0.11616084337560079 -0.17578802219099132 -0.4413550555559903 -0.009951689958344723 -0.25622408247864165 1.0022304761473024 -0.1729524410004536 -1.1981374773387952 -0.6492192955917542 0.19941200372227902 -0.7603512675507023 0.7817410222112879 0.6127496087033595 0.8783513053233072
0.669719519073694 -1.1319257151234567 1.3308681175096988 0.3307410628476491 0.8963572441103556 0.7701061298467128 0.14783553780942243 0.5479421453281734 0.37984827497838464 0.6660208647017254 -0.8270473491998493 -0.174283348458959 -0.9118666281761036 -0.7722696903247093 -0.0738856376255198 -0.24483622814450307 -0.8495284628918005 0.2943716695602946 -0.9441390125774762 -0.5208575910779145 -0.9223081443901777 1.4274178678154876 -0.49729301860147246 1.6081009726550934 -0.6135674359770547 -1.3068252675976193 -0.305369955647102
-0.33580920940053066 0.9083506618147054 1.282943156866811 0.3359731613729523 -0.0075502119387451105 -0.03813854462813082 0.06254995417255643 0.11964590595083985 -0.04270173425133372 -0.16409686939191792 1.1155494872892129 2.4009548152686273 -0.42663106569333215 -0.5034656041760057 0.2062098091642084 -1.5745167686624095 -1.1794206045075493 -0.6781024474801483 -0.38363714251537884 0.6880734753735582 -0.7389500267625566 0.37396854467856294 1.9312229546225193 0.6200151494117355 -0.8638297529436703 -0.9219431492071773 -0.22682127526928353
0.6305087631654658 0.9532897589108189 0.30405283766790125 0.2634489766120972 -0.3670645340887022 0.6950713906685171 0.21814208720966072 1.8347262472644903 0.976192671094758 0.6902008787242001 0.18115243781352797 -0.9298815032035795 0.5888877357241373 0.9643653788230371 -0.2373234908533881 -0.1641977753708656 -1.0773609958183439 -0.46795696419907834 -0.3001516688782074 0.013344788406163877 0.25805222411943285 0.38849054640475006 0.5392497759709118 -0.09052318782665231 0.042642312895130374 -0.2571783843205559 0.14137275048358378
-0.7706624280075115 -0.47561341885048664 -0.15955869372180553 0.6934261994041226 0.04483335499974428 0.6004987874166545 0.9391699700973466 0.2756749558931468 0.9956349533209546 -1.118443052030171 0.12205831484041213 -0.2352592663263376 -0.4521718747476204 -0.1464640088496869 -0.08109270452836675 -0.4696855821541867 0.6220712428649853 0.7618930779106686 1.2711229944774842 0.17086622463274076 -0.1826271830609224 -0.2740091520878731 0.07565396467099056 -0.26565413922438913 -1.230037059113672 -0.6072030316373249 0.34585478258631525
-1.1343085586182193 0.7473756597703076 1.1271192042370415 0.7783545579833608 0.1864716069357945 0.3578365220666635 0.009282365704098738 0.6156786277492714 0.19877877569702446 -0.2008320547591173 0.3028210999200827 0.09381157634641252 -0.431635240247001 0.06870806159072362 0.7070314896010145 0.22457774618778703 0.5441496590068056 0.10951706060304844 0.1793433627766794 -0.8974966575052503 0.3371969208203852 -0.6373516589038856 -1.1949420948558809 0.2513395970887808 1.1927582826954288 -1.098172739132932 -0.15759568810917018
0.27930309862303293 -0.38190213885685476 1.13003956230451 1.1470932792228314 1.1054144389332095 1.4256486836827036 0.6089285870673877 -0.9699885934143841 -0.4027509387441057 0.10080936059521312 -0.2168831228819702 0.34599201603424995 -0.5050105402071094 -0.5235100433495699 0.9769684415978042 0.7078778664827338 0.34962264308654883 0.8990993848742574 0.30234436407102905 0.9277231008098228 -0.08243327353313223 0.3490118247210613 0.08117283504577177 -0.27790801936478454 -1.5349976558516691 -0.41144131372427545 -0.36421785369954773
1.0258738818565698 -0.31951889478451856 -0.9563500838184382 -1.0725041320847681 -0.05664618070598654 0.7755237438674414 -0.31625286907421085 0.023453248804804705 0.8807780127938019 -0.3599079553779475 0.5348596895237437 0.13770987385624867 0.8068198984425705 -0.2313318986266497 0.45345290302573227 1.178882204982762 -1.1302518925042095 -0.6438929592433276 -0.8713929081527803 1.1871847731568055 -0.8044096891996082 0.6774386950819162 1.0274469853839623 -0.9355768910863094 1.3364133261507196 0.21291232465254273 0.9249494151028734
-0.9669417197016668 -0.042530562930377325 -0.9078538338529863 -0.45823110938763467 0.22443635224781677 0.018220315748046667 -0.6473914124895574 -0.18845877907049735 1.2594664824980064 -1.2704301201499484 0.93539334979221 0.7412183305304629 0.39637455345740347 0.8980703439080817 -0.770840710588635 1.182036597315841 -0.9890265800204853 0.8590005414431968 -0.3981485300742907 0.0010996673350650021 -0.7894049458590747 0.2847969246970045 -0.2763049128325324 0.41934491383378825 0.7663228928362724 0.6703746877597166 -0.5456803548284034
-1.0123922480196623 1.0275770732626763 -0.3261621747503147 0.0957601918412389 0.226051237295799 1.1363500869353662 0.18324938706726385 -0.2839196465751302 -0.650223800687819 -0.2979783746804331 -0.7384161401852833 0.38586625583177814 0.3264592872137898 0.09388533572371655 -0.9646006693804661 -1.1173441769291204 0.45100549592697997 0.9079390041227613 0.18109245020525888 -0.6565083923078041 -0.6283879127970524 -0.4799151523402729 -0.37690288131730276 -0.20965295017088065 0.5940846511555198 -0.44652787349347384 0.9639850955130858
-1.0711544679219522 -0.5100464856630027 0.7947976971333744 -0.5276675304632898 -0.30250873567307646 -0.6979799792334889 0.4539283397862422 -0.6545493002066611 0.3625329135529564 0.8312452532379482 -0.4602920115112947 -0.6839590387241444 -0.2832339540213863 -0.2657098194820617 -0.0635416233226187 1.1766840506938907 0.21995998018715496 0.17864740378546196 -0.017839544884065583 0.2557632702804595 -1.0370548884363502 0.17248138414151454 -0.6318916514179407 0.4960384883273583 -0.1732273926413958 -0.1601254177565402 -0.6110394097437943
1.1457697728056975 0.915894872010317 0.44388934385529594 0.18030894719551915 0.6275940122882111 0.8122696280019175 -0.9069284583226025 -0.6515442705061285 0.13237625890541027 0.5481066356874795 -0.04363171575643904 0.43861384045392915 -1.0290703861450334 0.034411430523891284 0.011901980680646851 0.6792366707656001 0.954400213654143 -1.3132689737586876 -1.5065298312660336 -0.849577324779157 -0.8146535021258235 0.8857163690802895 0.32382301257004786 0.13385314490697853 0.6537099558093962 0.29818582321105264 -0.02072127943248242
0.7818502452045433 -0.29966251403431776 -0.5594103823941131 1.4159870798974388 -1.176629813036861 0.5421025527155614 -0.6793107526292542 -0.7617714200737773 -1.1434329008757227 -0.4968707945787787 -0.8297928978093325 -0.2560150826132094 -0.6180560732860514 0.4086338784282001 -0.08573322921433824 1.6756132560150685 -0.7466765620798098 0.04161198910393327 -0.5313097227299328 0.12186037443845854 0.5077300452650261 1.06179838609264 0.5248349194594506 0.9256660498739009 1.3202288244833071 -0.798104655790445 0.2625232647274625
0.9857875986158466 -0.08659274275280804 1.4164809389379895 -1.1676189686120568 0.9937344704675811 0.1379280083006305 1.0564563622870304 0.26515207776542205 -0.4119952515185957 0.43855958524560584 -0.9953765491683046 0.8438256436190772 0.07886463136094651 -0.8247505343500608 -0.3819625318530028 0.7882907887006212 -0.0606033935432827 -0.31990814651199523 0.45537427107763695 -0.6136589758207127 -0.029802466090824098 -0.5309110868129441 -0.4610323681952606 0.024953474888722127 -0.7360860712166077 1.2078162520640539 0.6880996283531526
0.9381984380120685 -0.22724423431673407 -0.06316835144242888 0.2642032773692206 0.7158884356239874 1.0563586391668716 -0.678411241399737 -0.16244619116635306 0.4362817650815897 0.6655370959110418 0.6927613414602206 0.3974551056119714 0.04171361476438362 0.3550224582514075 -0.6167260666519518 0.007288379910378284 0.46477760004147217 -0.19542197996004446 -0.7352583743157325 -1.1640111891082705 0.5283080369154762 1.6137053642238162 -0.4126294323405169 -0.5002763968216648 -0.1563486020185728 -0.3657464985224786 -0.4028018641963351
0.12836165424413443 -0.07118179409018488 -1.2260783769188268 -0.7529924597048313 -0.08035474541841969 0.7108093525521681 0.7935804131592956 0.7159718821679162 1.300779657990192 -0.3633796094027399 0.9772275675053446 -0.7478759224919526 0.44438272828866937 -0.31960469885262704 1.1150724685908062 0.9350503722244042 -0.3211486517329405 -0.13390668445517068 -0.0011882864882523658 -0.042238762556786935 -0.8164298805654049 0.8437058635109616 -1.2152488445979195 -1.0982886784594448 -0.35806239542585105 0.7343539951824436 -0.42274279960576694
-0.6399301843290811 0.4685651214272282 -0.03486571118412052 0.7418522170068718 0.8913258953882615 -1.4065153350890085 1.0248217091688094 -0.4397220291930705 -0.858595205502731 -0.7424488519430188 0.19571470126976215 0.49833121905568 -0.007403426308451755 0.9151392941378103 -0.3321351108756785 0.3582147529972916 -1.8066912356584375 -0.7010551785552057 0.47068247168357014 -0.10683184973199294 -0.10797834097218634 -0.8462710505093676 0.2779790198881989 1.1820454200115278 -0.4473223868002282 0.10031925811308595 1.097749834157735
-0.002636203475580523 1.0175497873201018 -1.1227192588811403 1.0010245127438524 0.383847923897197 -0.05544063868996779 -0.8522700301198963 -0.07688879054634029 -0.3330278887262871 1.1364290620400235 1.3986224049225346 -1.0560996381649739 0.28337504805867403 -1.1038345677027868 0.6101087994864232 -0.7059465265559672 0.1457191647412841 -0.15008985879964432 0.2882140570779786 -0.1475018236878594 -0.4809093258752523 -1.233671064349875 1.142379474479094 0.11640831842702548 0.6910602903576766 0.09248100874244625 -0.8288600103721718
