[[ 1.24219455]
 [-0.00452901]
 [ 0.96301365]
 [-0.78596391]
 [ 0.56423955]
 [ 0.89924386]
 [-0.48854804]
 [-0.45139447]
 [-0.59286746]
 [ 0.04799711]
 [ 0.48382217]
 [-0.55248987]
 [-0.70091249]
 [ 0.69382103]
 [-0.23699942]
 [-0.60438992]
 [-0.35251435]
 [-0.46436326]
 [ 0.87530005]
 [ 1.38666347]
 [-0.84699724]
 [ 0.17257909]
 [ 0.32599274]
 [-1.23548563]
 [-0.29078426]
 [ 1.19952041]
 [ 0.74218601]
 [ 0.27075123]
 [ 0.87091737]
 [-0.22676395]
 [-0.21791451]
 [-1.13149536]
 [-0.50675741]
 [ 0.30152715]
 [ 1.40952205]
 [-0.4350195 ]
 [-1.57138268]
 [-0.71410604]
 [-0.15420715]
 [ 0.89166142]
 [ 1.40182522]
 [ 0.58712116]
 [-0.7824905 ]
 [ 0.64869675]
 [ 0.09623348]
 [-0.97735756]
 [ 0.22798646]
 [ 1.06303471]
 [-0.06288788]
 [-0.44593241]
 [ 0.24865384]
 [ 0.63214696]
 [ 0.75287549]
 [ 1.29723814]]
[[ 1.54195129e-01]
 [ 1.56525857e+00]
 [ 1.59749922e-03]
 [ 6.45269973e-01]
 [ 5.49667519e-01]
 [-1.41233978e-01]
 [ 6.68565121e-01]
 [ 9.55225533e-01]
 [-5.74473788e-01]
 [ 8.99129381e-01]
 [ 1.67449552e+00]
 [-1.23090066e+00]
 [ 6.78037623e-01]
 [-3.38253842e-01]
 [-8.16731894e-01]
 [ 8.63444636e-01]
 [-1.42542719e-01]
 [-1.01293739e+00]
 [-1.08449429e+00]
 [-1.06253012e+00]
 [ 1.15518714e+00]
 [ 5.63919661e-01]
 [-8.98312140e-01]
 [ 1.26110925e-02]
 [-6.38181833e-01]
 [-6.31936242e-01]
 [ 1.06160065e+00]
 [ 6.89314540e-01]
 [ 9.78082266e-01]
 [ 1.42589578e+00]
 [-1.72976936e+00]
 [-1.00447557e+00]
 [ 3.26710164e-01]
 [ 6.78894835e-01]
 [-9.51042860e-01]
 [ 1.26157062e-01]
 [ 7.06495459e-02]
 [-1.28033643e+00]
 [-8.71200815e-02]
 [-1.03489548e+00]
 [ 7.27568148e-02]
 [ 4.74909570e-01]
 [-3.82499806e-01]
 [ 2.46381854e-01]
 [-1.11664405e+00]
 [-2.27503865e-01]
 [ 2.16272360e-01]
 [ 2.66326638e-01]
 [ 8.08713107e-01]
 [ 5.14693249e-01]
 [-9.55846903e-01]
 [-3.94404778e-01]
 [ 6.55138478e-01]
 [-3.63312685e-01]]
[[-0.30155668]
 [-0.60224631]
 [-0.43868553]
 [ 0.78511348]
 [ 0.00241806]
 [ 1.56421181]
 [-0.20917126]
 [-0.61550349]
 [-0.88138056]
 [ 1.15640573]
 [ 0.06093141]
 [ 0.72058824]
 [-1.03501786]
 [ 0.82591478]
 [-0.60040997]
 [-0.02002302]
 [ 0.49079356]
 [-0.58556298]
 [-0.62481039]
 [-0.67693803]
 [-0.26311453]
 [-0.09666258]
 [ 1.164334  ]
 [ 0.13117531]
 [ 0.9852752 ]
 [ 0.8407733 ]
 [ 0.04559576]]
