[[ 0.80221942]
 [-0.62131066]
 [ 0.95299701]
 [-0.78404168]
 [ 0.34105774]
 [ 0.31077481]
 [-0.93307957]
 [-0.2282422 ]
 [-0.6310642 ]
 [ 0.08098653]
 [ 0.45829106]
 [-0.0967024 ]
 [-0.13090701]
 [ 0.38617959]
 [-0.2124288 ]
 [-0.28143085]
 [-0.08825017]
 [-0.58375806]
 [ 0.89416081]
 [ 1.55942479]
 [-1.03306686]
 [ 0.26306469]
 [ 0.38298286]
 [-0.88177299]
 [-0.22771802]
 [ 0.94669904]
 [ 0.47072045]
 [-0.12253371]
 [ 0.61712904]
 [-0.22676395]
 [-0.31882547]
 [-1.27746499]
 [-0.47671553]
 [ 0.42431476]
 [ 1.18576219]
 [-0.72313058]
 [-1.32075881]
 [-0.40316124]
 [-0.31354115]
 [ 0.93084934]
 [ 1.25160565]
 [ 0.54540624]
 [-0.64222517]
 [ 0.3161913 ]
 [-0.09775955]
 [-1.05952053]
 [ 0.23400348]
 [ 1.05621781]
 [-0.4934311 ]
 [-0.59511465]
 [ 0.13770295]
 [ 0.39172595]
 [ 0.8429435 ]
 [ 1.22675722]]
[[ 0.23109823]
 [ 1.59496477]
 [-0.05671153]
 [ 0.48632916]
 [ 0.34460667]
 [-0.14809869]
 [ 0.32512761]
 [ 0.61593887]
 [-0.81417746]
 [ 0.98238273]
 [ 1.53874992]
 [-1.45216692]
 [ 0.52996766]
 [-0.46459839]
 [-0.17762381]
 [ 1.29984029]
 [-0.1805177 ]
 [-1.12534863]
 [-1.00972734]
 [-1.2749296 ]
 [ 0.01245952]
 [ 0.49161297]
 [-0.90119983]
 [-0.31066648]
 [-0.71201287]
 [-0.76818952]
 [ 0.57552195]
 [ 0.58413204]
 [ 1.08655917]
 [ 1.24201976]
 [-1.2436345 ]
 [-0.54582968]
 [ 0.29111498]
 [ 0.63864313]
 [-0.61778295]
 [-0.19391323]
 [ 0.29837275]
 [-1.44142424]
 [-0.36709796]
 [-1.33320466]
 [ 0.07275681]
 [ 0.31533816]
 [-0.47945331]
 [ 0.24881315]
 [-0.77320607]
 [-0.20744087]
 [-0.50076814]
 [ 0.75485267]
 [ 1.2417512 ]
 [ 0.23384382]
 [-1.28620945]
 [-0.05684465]
 [ 0.3213501 ]
 [-0.4853475 ]]
[[-0.14968435]
 [-0.97958424]
 [-0.36801843]
 [ 1.0825442 ]
 [-0.63617621]
 [ 1.30283767]
 [-0.38004723]
 [-0.73958798]
 [-0.82081521]
 [ 1.15640573]
 [ 0.27657454]
 [ 0.93409601]
 [-0.7395268 ]
 [ 0.61327908]
 [-0.59786314]
 [-0.45379271]
 [ 0.06089577]
 [-0.08555839]
 [-0.66385938]
 [-0.42774874]
 [-0.21998964]
 [-0.2072274 ]
 [ 1.27685783]
 [ 0.25964436]
 [ 0.5875753 ]
 [ 0.82936608]
 [-0.21653041]]
