0.1053647075934161 0.3787245521250787 0.8342349351265799 -0.9725099714877252 0.8143969403716971 -0.8886600070764847 0.2821057660542629 -0.03268033154739075 0.7233607986298225 -0.19033608219067838 0.3732444916346948 -0.37015734168787107 0.6763234037729058 -0.4890204076564588 -0.0199206400648832 0.5688697943484593 1.5182319258114143 1.4271297418628202 -0.7379406728226203 -0.04597674482645059 -1.6052515761702755 0.008831935421736437 -2.14478917524317 0.20095181674493734 0.648539114029585 -0.23151429863815182 0.1503182315262362 0.05157274027999165 0.32870776690263875 -0.017740649100372707 0.6118970026386809 -0.799824588769583 0.576754727614045 0.9641411154709281 0.32756290868452015 -1.022107814712164 0.45392327599540416 -0.07993922499046613 -0.1596359452025975 -0.8807519605742566 -0.9394925870916857 1.147018761757327 1.4782569026102235 -0.28938840433403 1.426287182193774 0.6899915507050154 -0.2603150698716566 0.23472848292517529 -1.3372923020795628 -0.7516796886199106 0.4994929984066514 0.5847646609090777 -0.9130176332662936 -1.5020827844312483
-0.321819431867653 0.9485514561933537 -0.6432372282742354 0.6016878584810217 -0.778579627615305 -0.2166614740115892 -1.509527317434868 1.2055992105690165 -0.4145608318200052 1.3446662245447256 1.338944217379817 -0.828357276808837 -0.6085266828451299 -0.6284491725941987 -0.5719787782409016 -0.7040046127357285 0.7425604983455449 1.7203305077816726 0.28405466211744995 -0.9503502486011393 -0.07176205536832975 -0.4429183274514198 0.8747651789525654 0.18097508311452004 -0.5298001675312852 0.8960500253524952 -0.6617257493255435 0.7614082157257802 -1.1686793826774668 -0.4286590700932041 1.2323644086721992 1.0427222844892046 0.14935568312642034 1.2557941777019082 0.4514361797030997 -1.567795229607274 -0.39092622605544614 0.36995212106796027 -1.3562037952629005 -0.002863599245809645 -0.2687096271959388 2.009979412921408 0.6490324752436045 -0.1240788464269742 0.4265519576336142 0.42137503615099364 -1.2702648921377755 0.40528886428487054 -0.9823193502160498 0.30493627233568915 0.8419136943438441 1.5141039497629816 0.7924135932998658 -0.44783787945396303
-0.5810639423098323 -0.2589376352695104 -0.519628303435139 -0.2637881282457024 -0.7075450018772311 0.8345560182074514 0.12867801029313802 -1.1748939336403768 -0.5345216491153151 0.8459296629149307 0.7508744493564651 1.1090262504726922 -0.24754298898976618 -0.14928374291374524 -0.7668277535162237 0.8431147781286235 0.930847713645474 0.4811294569371757 -0.16830870468324793 -0.4588210516252133 -1.6858049287468178 -1.8067540316020139 -0.19530441855908892 0.49230018784187296 0.34221611642721994 0.03994157402290416 -1.3294240345601505 1.9098292241164112 0.4137573128629738 -0.13318900928396143 -0.7165847854394913 0.1445516256135776 -0.46696842625151586 -0.17315020383254903 -0.5996613462449645 0.6471473900448883 -0.11486895099022737 -1.16782236343272 -0.1436266201611457 0.1938527454124045 -1.1239423518641374 -1.112200479031933 0.6662822027548878 -0.1273117763782664 -0.27422506796094165 -0.6404271054037178 -0.28670138809794576 0.32078668588983245 -0.492409924428369 -0.5148616124512737 0.20504220534558998 -1.824294740829311 -0.9674466829197916 0.33208696460313103
0.6146159394157122 1.4826934217924213 -0.7950025081742418 -1.1537873145907893 1.1437972218554002 -0.545011091786705 -1.0584323882420994 -0.6471502161365903 0.8018451792925669 0.3263821510104793 -0.4710614246276541 1.482463010354913 -0.33218538700871836 0.7536424916477411 -0.04718276707984187 -0.41187315299060995 1.2058129246732783 -0.5832492948083847 0.2887441101749641 0.8560072591833068 0.014967280419463491 -0.5832471726641926 -0.47009412616070967 -0.46342806724372104 0.4218551907163659 -1.0169928570022062 1.1688967771151226 0.29491730180214176 -0.6546747908685397 -0.3253566320334812 0.4296674705779703 1.5785074074899452 0.8918126263739075 -0.6158913169164533 0.6908983700238253 -1.74153119651593 0.8022061297508144 0.8015149077691857 -1.2797031557597247 -0.5012585641032121 0.5958626461936272 0.42820573252673133 1.01653553497012 0.04648876600492524 -0.174337281771346 -0.47900498144021564 -0.42853807336028743 0.7683638329568743 0.285737842160327 0.055498161249436184 -0.925656093569057 -1.4303197625677904 -0.9136040500088201 -2.4071412218213144
0.5044666857659079 0.016017888499484767 -0.09758573199656978 -0.2454152137899775 -0.6156229250193579 1.6210830477901448 -0.5935370634400257 1.0470657615262362 0.2583058857420759 0.725750365123711 0.1552030269030456 -1.4507731018307506 0.9561990812523748 0.13109530077840398 -1.0184301823402788 1.0202522886829584 -0.4380850695655632 0.6018879626016721 0.30843994335764596 -0.28540085984937913 0.8430961398398057 -0.6325430307452072 -1.0521200783276432 -0.5945508675866182 0.024316166132417383 0.6364321851678467 -0.9313786147296501 0.668338475604562 -0.9663536170903619 -0.0003224017534938506 -0.4059649378833406 0.5386133291938193 -0.39593833905619297 -0.663305505703375 -0.31038767666223444 0.26406998496408474 -1.3440537463266333 -0.6878462842856832 0.7657113145044552 -0.9148461501688556 0.30916906556310997 -0.4520432472064482 -0.7188975055303346 -0.7258657703636351 0.32023102817086424 0.8058759518156495 -0.7560102821900219 -0.05368637667206366 0.7770183771880288 0.38584158437865984 -0.06418235485262763 -0.580977508604215 -0.407597583999732 -0.8225986440730659
-0.15497734722188278 1.328190159334442 0.8990321208320797 0.2812639787567028 -0.11928958372561077 -1.1031432185221612 -0.4440238187333941 0.020246477546283392 -0.050518345131384534 -0.1358845720768534 -0.5082148445593551 0.3846167981968722 0.008304203209162808 -0.7241885967636275 -0.3833964972304591 1.1061555574863695 -1.3947184691360741 0.09584876587104929 -0.6471711390317347 -0.06450145951752784 -0.9210818563473603 0.3076985158441976 -1.5865411809861159 -0.07961778785819457 -1.4583752840202602 -0.11669649945825322 -0.33064561336341897 1.1022534586257233 -1.5433395341160503 -0.35166722745211276 0.3652161953511062 -0.3947755069907253 -0.8466467510655562 0.25511991850251664 -0.33737549119166627 -0.8566397740894931 -1.0722676533274502 -0.5667484375724675 1.4801349202727414 -0.38254025508023054 -0.6912826999605526 -0.9704465911167313 0.9665880811963303 0.27350646758979885 -0.7738313846397402 0.7588017692821074 1.0156026405034373 0.38825449042213095 -0.6089253262993732 -0.9132954971841108 -0.16994657905974886 -0.23855456084905396 1.0798976005075807 0.22879833879991657
0.39914379278294804 -0.959706137915624 0.17764739917671757 0.4145644374097741 1.0212766576573151 -0.23467377545236034 -0.7471847556753927 1.4287195768420968 0.24875324081700023 -0.45056414939962364 1.020385321674992 -1.002890040764214 -0.7283174871792912 0.2073828087552384 0.1703602899970611 0.16134157097805812 0.6276084737825155 0.4085209014067758 0.9384119661683219 -0.20653841492856528 1.132027271574004 0.09365163417714889 0.9964402921878328 -0.8523019955996477 -0.6934018279877926 -0.8317959867231424 1.3455252937735547 -0.5800061843159252 0.6857891334131552 0.5639057593161331 0.15382037522429715 -0.8252156824631328 1.3370145662843123 0.621282855519961 -0.49691889367726483 0.5615003387384925 -0.776389330474115 0.6201478315117176 -0.3209488407094549 0.4459472036563706 0.3704882064224797 -0.7036192248959761 -1.0467983181492637 -0.06931900094222387 -0.42319037375584767 0.3144314699309132 1.1530099707264125 -0.7304103581398411 0.661736687579155 -0.7843791306203771 0.5549770605420157 -0.5032239831006395 0.6401547903684843 -0.5158138442287432
-1.0164281342146588 0.4233885556343323 -0.8969507803276278 -0.4250464279737903 0.6060402241473173 -0.6156530163916939 1.4851797140577512 0.46507842963668883 -0.1311082477584149 -0.18407689368611518 1.1426464883060619 1.3776921904690091 0.0012944575270801284 0.19315672927966754 0.10661348175124052 -0.9056400572896584 -0.6718754760210148 -0.06163241919167006 1.3711994663718137 0.29928057326669055 -0.37293770910390867 0.8733123957886895 0.48367606351710773 -0.7760299352609521 0.5474955219842932 0.34087275602161227 -0.19218395956305073 -0.1657513672225538 -0.7307926148643084 1.4750722898921973 -1.2845109520408065 -0.3857285454474859 -0.36752092958848986 0.9772384407760255 -1.2962638120078647 0.09194024754897656 1.586939849407306 0.8785546166856292 1.3569306652377153 -0.3297279635361002 0.8060656165611424 -0.46133532719811965 -0.9500972170825344 -1.2606721444226663 -0.9582784659212873 -0.06370503720194676 0.3436951832181121 -1.7337343762254283 0.3163641487957522 0.9020325600872082 1.090625618488371 -1.507314446880121 1.2706076167139397 0.13204802242552827
-0.5910087457482072 -0.6272656481060821 0.315906460875671 -0.5062411964034819 0.3685179673035972 1.431300031969826 -0.48447889946452144 -0.32468116642097167 0.05694951407558052 0.6967810615060777 1.1365585725512533 0.6616487193196507 1.1704914264921196 0.5438745856348636 -0.796971490026851 0.823962715590776 0.9934052843016508 0.43224750510163357 1.1728781440830267 0.3068180460609358 1.1369073315822247 -0.5653257018572189 0.14648416860265207 -0.5934870178490972 0.3152991977816633 0.08003098470691783 2.1150996870138146 -0.3900065141151472 -0.4132365957763135 -0.3522913004241972 -0.014658827356621107 0.8427232085491143 -1.0742173765891745 0.6400009165477729 -0.3208293968670867 1.0821773958588818 -1.1639087841504376 -0.4307872974525322 1.2069013249200815 0.2819691736485157 0.6770868147661269 -1.7849739771507533 0.4916123064103385 0.44902832096288053 0.5845095713428767 0.6243409734960884 -1.722172740165537 1.6656468164729892 0.2712977729305773 0.002242003213194177 0.3617573859975818 0.2797554454770851 -0.11296144752857207 -0.5067659263655355
0.6865197762540749 -0.33353586345288416 -1.1356255423356991 -0.4326535889223755 0.25614884333009824 1.3252992250193207 -0.2608781783392359 -0.034559265555541285 -0.09424663731495542 -0.6621114723086784 -1.3520985986594338 -0.19594712151045585 -0.41586879403475735 -1.716350294981285 -0.5523621899273667 -0.5851313530085478 0.17251191937919297 0.4305179034109512 -0.5056648815024654 -1.0358548102656986 1.635476188018557 0.12105128953247718 -0.7752798726350831 1.0231664271240761 1.9254220864729676 -0.011548842730554176 -0.004235826219538219 0.4740096668284128 -0.13611641308644767 1.5505256883225234 0.40989822108000384 -0.554091195662824 1.412035228538254 0.22790379484379114 0.11478650792074557 -0.4451689862650958 -0.3702460583973884 1.439651655499261 -0.5606302208821667 0.4786242830701192 0.04742456727774347 -0.33397474858720344 -0.26531022836779183 0.40352486710977054 0.3732308697052531 0.4998679881229724 -0.7386457636232386 0.2666544287103035 1.00991406805945 0.18682340576794837 1.2436283411787081 0.40053070465476986 0.16828281121966382 0.8899250683027506
-0.41673003951780174 0.2734783870663389 1.4226276335351495 0.8754984711081186 -0.24392892083483964 -0.07532797434823796 0.6286672071204185 -0.10725452931042967 -0.34341965582698714 -0.8104715008933719 0.7346278649234029 -0.12427031078169093 1.2547250787070463 0.7480130572578902 1.8058909412037385 0.4787733837102763 -0.7709035876997364 0.6034453370505348 0.3805316840355214 -0.0552213067087845 1.356223526047666 -0.5721861691374445 1.424929742800404 -1.6278288366007039 0.33899850027460865 -0.01985666757057264 -0.5665048350990738 -0.06373854559209235 -0.8077824359873675 -1.4854498414864021 -0.8064633520787832 -0.10883610232498497 0.8098003257177369 0.6753743880680432 -0.22133326048598828 0.3161484390440459 0.6033556294280633 0.06897036810008345 -0.362217498563143 -0.5948549060670083 -0.793581331006461 0.03512634642833501 0.10689133024249792 -0.9308146555931781 1.1258010055388261 -0.40851530372230116 -1.1605014488722818 0.18435925664854763 -0.3758152835614206 0.9433396679397799 -0.23599594755464137 1.7328169344391164 1.0217945643661495 0.8884177025354565
-1.2049800652228273 -0.9235424732652803 0.10574668939357007 0.6882075112122995 0.13721454450285625 -0.5275709337675002 1.0047341778729402 0.7794437980893383 -0.0273623084991253 -1.3700859144689548 0.6293061579149415 0.7061816783644543 0.09419065329588944 -0.7911004194974669 0.4396218065298613 1.170340083595363 1.4998457344583587 -0.049776187763520996 -0.8743048068662074 -0.003687136161113047 -1.0671060135454047 0.16614609464214386 1.8180574529266456 0.9393429514255505 -0.7740578791549292 -0.34917908439091727 -1.1917254409106603 0.5711692650673084 0.18074532585472763 -0.8523715257208634 0.0028171824506462717 0.8444496728674975 1.5484448973490237 0.060173117889540106 -0.8519570920616046 -0.7676525768275559 0.8260210651077855 0.07815435823043632 -1.2233267931146894 -2.438601896041488 -0.10374956780585187 0.8123523438844893 -0.548167511022341 -0.8279669936559712 0.6779352725243754 0.776101027054433 -0.09010592933815514 1.4681277955117686 -0.35538417665506267 0.7312280952333267 -0.0555213623962747 -0.4632102036356821 0.2145378338663691 0.41263925573255555
0.6090805405145396 -1.4839688409418932 0.29313447211976945 0.10927267728791262 1.287010932388966 0.08064147920467313 1.9105392512347859 0.7713948674754736 1.2884606907669183 1.1855267298456211 0.8825751653540679 1.1993104403994885 1.2660505500473702 0.3810708562008994 -0.45964696426575613 -0.8933932954324211 -0.429523056007721 -1.0072459685881143 -1.1620795973564928 1.1355892473951947 0.29469108298417573 -0.6194824358402202 0.21343298218561702 -0.42013202792707144 -0.49771668190461127 -1.2177957201500076 -0.5186500604024188 0.4871332197046124 0.8518479167214437 -0.7940757171478638 0.008562370878614112 -0.5283203650196068 1.3272472086783358 0.14997545294490466 0.1768812951406339 -0.033196401067044023 0.9760153769484756 0.27874208084050084 0.48231843724288703 1.16818256851617 1.2307093920027765 1.626020568229041 0.026508186879870776 -1.647416148673713 0.3834699572070546 1.9877174377198497 -1.473205586531886 -0.6221412215472355 -0.21312305169964296 1.4400563111607856 -0.20984049961919948 -0.26590297119976486 -0.014448828938786296 -0.0540765800793791
-0.40793147880479247 -0.12940310016386825 -0.805449027885661 -0.45132005713176165 -0.24506384672972448 0.7143759933934889 -0.4582252200908315 -0.7801962813817529 -0.3831365716810198 0.4347147589479828 0.7522551694302091 0.8382068497297606 0.03225914258193374 0.08422450618460148 1.3968573368350035 1.0070863985342642 -0.6962322572682673 -1.6122479939021468 1.5336075826172206 0.10050492859277893 -0.4412185494509133 -0.5595299978046961 -0.9873782400476723 0.450974775460856 0.7710991492656445 0.7087112806033137 0.48039834483757116 -1.232454417854153 1.052996948074202 0.4867030126835984 0.3936845494380697 -0.22231680619593275 -1.1664990627588427 -0.1702332482556005 -0.26089820422041476 0.042685578652855716 0.0544977655106732 -0.0364927298502703 -0.08863326622501194 1.6837813145604408 -0.8457804532186488 0.02959140743490085 -0.7220985441076592 0.5655327531059982 1.5791532996793562 1.086795511601307 -0.8703308305653938 0.2674474393324624 0.202012684943302 -0.7790361329891542 0.49234259767038485 1.4089559381957566 -0.8294888262000422 0.24113672449369927
-0.8568681742770672 -1.1402750734722138 -0.17497938520440554 -0.140034956692571 -0.615744953499437 -0.7048603499480814 0.0772586410154657 -0.307222967501248 1.5831272264498062 0.7124777557588764 -0.2706559722875426 0.4976505525031047 -0.507394173038305 0.1952450958709973 0.9501840735037234 -0.6481252780831734 -0.023144407915450305 -0.8156665097279774 -1.3363720162130117 0.06475926021753992 0.1385918475567649 -0.8521114206188443 -0.07196020487988242 0.7704943795584339 2.194455922563765 -0.14128193393202404 0.6327401138408882 0.4979054873252457 0.30031785684474904 -0.21114370307643715 -0.8294817743005338 -0.9343851420471192 0.5789655665290869 -0.981495454488372 0.6299343536186708 0.48984222878424255 0.9104971946937703 0.5305219464714817 0.021608087398905962 -0.013215633841200669 1.2093890468655248 -0.942521272033341 -1.2618649331053944 0.25081313298160257 1.0971989677546166 -0.22076861813526732 0.8882847979749582 0.749850712987166 -0.8466007663119972 0.09636925961211007 1.3230999216594412 1.0078407455388678 -1.0185932518054683 -0.4150384033169202
-1.7798391796793596 -0.19986509547029324 0.8364474582463817 -0.11233869152838305 0.6919633668175378 0.16397768418449354 0.2508571419325708 2.0314583469477814 -1.3144991701672168 1.6465067214596254 -2.2047649189551537 -0.6643451473768192 0.1282839302093597 -0.7686612429852155 -0.9462023068493561 -0.8203801522221581 -0.03239608253669002 -0.4485099970400193 -0.7599447523649799 -2.211628935484907 0.4628144496538075 -1.3426455476409749 1.9050980078576156 -0.7968736200422399 -0.041610103279528576 -1.0447320440002428 -0.28274433251202147 1.060708709672155 -0.8821412753626288 0.003183776021546625 0.8437263406032871 -0.35731575457770903 -0.2091716638160852 0.034428612056276786 -1.1522484757240832 1.2210394709734684 -0.8149786793218067 0.12911688500839086 -1.0737583272864635 -0.6747675718993298 0.6085572483878556 1.3246227661784629 -0.8884209047884619 0.3832188245738238 0.5014195150597609 -0.540150281773615 1.0532445979958576 0.5127065329860723 0.9746597453625669 0.09874370012589795 0.45436389626097773 -0.16114439354705057 -0.19978977747977178 -1.0980553950278749
0.6091733722633758 -0.6923720124540436 -0.06905205402761111 1.4944688582142434 -0.9166775924254575 -0.5393390641629388 -0.656077106912909 0.5864911395576131 -0.08060841250097117 0.6334572668240233 -1.690388895260046 -0.08490022072167519 0.63349731780156 0.728584714024631 0.13360089878135062 0.5495827568721976 -0.3732569634365989 -0.04604988523642545 1.4886927124009495 0.08599439753689181 2.4437103267165874 0.7983483497842534 0.6615390608302592 -0.5665753648186719 0.014528949265967483 1.271841132401201 -2.3057860173440954 -0.0909254750184289 0.637354522985335 -0.18058003397557043 1.7082089160282699 1.1340062499574775 -0.26521902084179827 -0.10658606691710054 0.3450516999403021 -0.7568412610814956 0.16293877676172347 -0.0587297718576682 -0.5732615716981735 0.5380834971814924 -1.086141305476147 0.9878348564872628 1.7085939132041341 0.5147795572044931 -0.9130965670493152 -0.36314687690139774 -0.5201597911750759 0.385225281761484 0.9300525348540879 -0.9489634093496995 -1.5139899942602917 0.0525572993581388 0.5609795672916758 1.348592606067387
1.3190385339797606 -0.48751443836974684 0.5042286893799744 1.1606258106826641 -0.03305025698740016 0.6117731048284394 0.5929836814192625 -0.6935409273881108 0.2488371039399218 -0.7982889242777115 0.37603761899834337 -0.20889479039973252 0.6240421144764499 -0.009309137511941679 0.2950912047964738 -0.14222033525268718 -0.605590676716373 -0.1657602378922664 0.5983537859837079 0.8108794701393744 0.5363762831474674 0.5002148073148591 0.7146353966222071 -0.8195723246482859 0.48879958420084685 0.31072690138115994 1.3618850887632912 1.8896947298676712 -1.0297377520073525 0.5682784389266313 0.7385137227927737 -0.6804952936216435 1.0090999454766962 0.2933405055419403 0.21161846601105277 0.13134685593525158 0.6942473707115959 -0.86149438065801 0.31681108292430316 1.077450680770356 1.4454200290229093 -0.9051923293851677 -0.4592944907401341 -0.5402449304560957 0.44650962376814374 0.07420512274433144 0.7255939424519653 -0.10063790627806402 1.364282844423151 0.09789103796936494 -0.41045576383485993 0.4766156234612581 -0.2569887514699329 -0.4140522748225154
0.5104033696952428 0.7113563506595669 0.0979890328460743 -0.5999139507205069 -0.32951244115965267 1.2510789235568842 -0.2827546718687814 0.8361653857611491 -0.8022044529649897 0.8895782053986272 -0.9437822978152579 -0.2900357359500938 -0.1150560383403244 0.44656342993021086 -1.8393840821677496 0.38837476115666925 -0.22457953436780775 -0.32299717251500437 -0.696705623666033 0.056843053316709136 0.1141540840000298 -0.9883264397278511 -0.8430587418551505 1.2132846132605835 -0.49474690320365683 0.5721605757522639 -0.49093643212678023 -0.10579377086776687 -0.7063872019833635 -1.168897208494077 0.467763117915037 0.18643077531934793 0.0857599576862369 -1.9018279196445074 0.0745843624881462 0.19235461370543783 0.45576200492323937 0.44903143756891833 1.2063321806568557 -1.5989570930444796 1.0829589498308925 -0.19331669952869074 0.8650099173155417 -0.28113801157774393 0.43533029170993565 -0.8280943305496268 0.12963150372052262 0.07318285203024238 0.6152063337165745 1.0425603076784966 -0.8873487647593108 0.3735040631671037 0.35690411895988816 -1.282248909073234
-0.42148778866858777 -0.13226964395201085 -0.518050579549518 1.100675625097343 -1.0826414353761238 0.49708307296833887 1.5752822094928156 0.005483231171692804 -1.1114933880669302 0.905183301253967 -0.10220821334292396 -0.6004961518640595 0.37152393403707856 -1.2211416265704513 0.8052464520741991 -0.10349596981180992 0.11247433166541415 -1.1707789383744234 0.4041803973250609 -0.04627181756619775 -0.028076636373650765 0.31155550884952515 -1.0755591500229964 1.2593540643841445 -1.3292662499184185 0.024498231629632827 0.29396792544952177 -0.8540266968964693 0.32965189472425926 -0.9382607034857884 1.4489914858948842 0.4945066548480403 0.7528673539858264 0.3606431092413992 -1.107205225415494 1.013963673870255 -1.027859267923263 1.2131837281479365 0.33869214961768346 0.2933192377014982 0.9820923631008478 0.4136878265987408 -0.6609491031448089 -0.20406341321302846 -1.02052051345827 -0.8447426926798676 -0.7417091208284332 -0.9909153875408724 0.5385755847844875 1.9761968853667713 0.012485520693438945 -0.63223545855896 -1.3724723523989106 -0.49026338836895933
1.5847289325226361 -0.8699019551386525 0.9374506769356105 -0.24403737010856819 -0.506700799640766 -0.5228558170323306 0.0909608553962955 0.26623670714367714 0.5393373319491174 -0.28164354155872856 -0.40619594197303904 0.25895357314179984 1.114891163117888 -0.3508943795602449 1.6477460831099304 0.857338743414102 -0.17891774369815427 0.20770579352338758 -1.0857631943467088 -0.8822899828283031 -0.28692724466016667 0.11014707831005227 -0.7465632102560268 -1.049351958718024 -0.2882637039956416 0.6817090340679824 0.5852563577853074 0.16760932726352618 -0.7903991860971937 -1.9056268581823508 -0.6259908342012317 -0.22668843494826446 0.5229882465478408 -0.11114636730053007 -0.8530910684822012 -0.5634609496106 0.33886845754286143 -1.2686404313207327 -0.8552946490808284 0.3631981446973971 0.6696514731428784 -0.5454583668691504 0.5662088094377682 -0.38529734404683286 1.5700655436729007 -0.17287978291340517 -0.07184424257508304 -0.42333409897304575 1.1446946432024814 -0.19498278262764035 -0.3211028126714617 -0.5809670307205448 -0.024211041147473245 0.7815029881960864
-0.22524896342004042 0.5436267781910615 -0.9648730440504254 -0.48928307025081763 1.3841974294645523 -0.010372200507763496 -0.2929257122428658 1.3285309292184888 -0.5451471476424868 -0.000771334693539516 0.506025069963774 0.2540193625228545 -0.5863896629704748 1.0115109470176584 -1.176304649343645 0.5765275206755951 0.7899881899568462 0.8451130741492542 -0.5020964023574267 1.057103610507634 0.2895420101886926 0.5100410638334513 -1.761239861977094 -0.9754154656685896 -0.45672674828600324 0.3905448281817345 -0.036618184892082795 0.24921113573388132 1.3821386461515104 0.09143953813634559 -0.3434333434067175 -0.07475957414153322 -1.2914040409327905 -0.04543823865302993 0.3478765802010052 0.28138258286451984 -0.7686249594891414 1.0177810663766504 0.07946781138023795 -0.32701475255489026 1.5008078699553693 0.7789878443546567 -0.07729739749527303 1.299366520713469 -1.713121654776569 0.007839976678076954 -0.22698635317622168 -0.25075946154068557 -0.4507391154536529 -0.44979421852292584 0.5730714413591167 1.4537938231513685 -0.6927737486679448 -0.3657356831149366
1.5882782930365364 -0.5510503134816845 -2.314446017037919 0.5384658425339359 -0.3989642817109466 -1.403469903914149 1.0145710645498118 -1.0030288607285525 -2.1240758937515793 0.17038871194216476 0.42398214297413395 1.1167958865295267 0.1972078897669433 0.9720791982219037 0.2796385114640069 0.20489089624725842 0.3767064798114853 -0.3798025823822354 0.31250118491951995 -1.0635615122282482 -0.26766926576528116 -0.8085814254516437 -0.559878125032802 0.5761509423233815 -0.8869421673509594 0.8587800806321167 -0.011168885045072241 -0.66202792179704 -0.533680139964902 0.620400390685673 0.29197729074558987 0.6292925971471517 -1.0353029165744507 1.0339433699023717 0.39567423646657307 1.1290184726414925 -0.083225038516348 -0.9885629774297746 0.3693659199031558 1.5143995771965544 -1.1168323479510054 -0.4461009659428603 -0.17192569266757635 0.6041081098652403 0.8460393410248538 0.1166124062082265 1.5375648107128164 1.2132176967842354 2.2200532106182105 -2.132814402631138 0.4250624792085227 -0.3551695777816969 0.36547980881976255 0.3421471763395192
0.15058148182953285 0.23264364314505065 1.4467581525459896 -1.2258299949134026 0.45902626418121983 1.1019538096511987 -0.20116060740938924 -0.37390202216740515 -0.5827308953043302 0.12309120339286456 1.1270459285682075 0.38518846914966504 0.43014565233573854 0.45955778311244744 -0.8674973939264528 -0.7291689470177852 -0.8903216999575712 0.3983126557579361 0.5200016526917202 0.47599800472983 -0.7153825910606932 -0.021452208324702515 -0.2975014403364485 1.625485060829627 -0.6132792618558869 0.006925827030547949 0.9331788039141342 -0.7329236358696165 -0.6658567853018742 -1.016827412311331 0.635225475159194 -0.01799321307620333 -0.14013276323363283 -0.40977293106783125 0.033853452569772735 -0.06787234123156155 -0.7990739309735007 1.5192808906640876 -0.08968881752677338 1.1291775953552983 -0.5885979156742461 -0.6906687532512075 0.2943666945337399 -0.5190996777900372 0.9805438839171545 -0.1215263667831486 -0.46149506996173967 -0.3427732809049989 0.268564733317927 -0.9591961511594695 1.4125807222884714 -0.8485915526864335 0.645956514360529 1.6140306944642377
-0.024422295276194383 0.5224094188738314 -1.2540845445875937 0.18597061272046128 0.3186294970818047 -1.251593143724854 0.9289066310211136 0.5261435161430494 1.3136767653563104 0.6424816647486569 0.549602477621395 1.1727232559276826 -0.06417140120455922 -0.978062838034488 0.9099290240617119 -0.8186116007493279 -0.7007395750163766 -0.12576456854777618 -0.0016090284766531182 -1.2826588699304844 0.6556243020353594 1.493333859795419 -0.275250588380686 0.5569612555961478 -0.4442500004850603 -0.09445447177996674 -0.8590464864398553 -0.08795688639762023 -0.5633555363423561 0.7036048813702147 0.335540032126129 -0.900917222201495 0.6783721907446231 -0.9123563034748428 -0.564510411139721 -0.7708076926757361 1.1143980605097452 -0.17170960086680875 0.7728899194543173 0.23014948911650573 -1.0161367723848476 1.3595212847575737 -0.18603531778591514 0.030033091309356053 -0.05839683127845097 0.8008560639311266 -0.31128771985293546 0.13094048276892922 -0.7862043827810202 -0.5074727732514817 0.5273395267042573 -1.3284800025227945 0.10576359399275859 0.9594420756248752
0.9740643465437162 -0.4114485569591142 -0.794184505528869 1.5964832039176542 0.2321183899468312 -0.8682656987358326 -0.8304423124982542 -1.9752230527637265 -0.42977910756185833 -0.513733196963283 -0.03373135776090225 0.046378918489593746 -0.04802971136446205 -0.3756130949705981 1.3355857562625786 0.9018658430438165 0.09441918451442738 -0.6562772106530483 -0.6907317747378405 1.2923788552559232 1.4532500075203176 -0.4750948353962871 -1.1986879818987122 -1.0197975053743333 0.5286223939772998 -0.10617323643344623 1.2471637798748378 0.8122227188460986 -0.5003053046175554 0.20483630412439996 0.19677483635944581 -0.3640189196239145 -0.07656439051885838 1.230130865196475 -0.0527191624979223 -1.3270249400617913 -0.2935143574093747 1.0207307597020134 1.6858045540652793 -0.017047890032871937 -0.6720043677858447 0.153674023267586 0.6878294216320935 -1.214969660647818 0.04858415821879247 -0.5895870286689273 -0.6541070038704249 0.6100655251464011 0.7121833308702948 -0.3313714004150062 0.3355968463180262 0.10077651358293571 0.568207231861003 0.8734253769562028
-0.7366794683277323 -1.4150358530157308 0.8472559931719496 0.3841604288221153 0.2051035182408134 0.7425509072513472 -0.25838021106969034 -0.8874946642190759 -0.37664790019729294 -0.26216810231123067 1.659637101281419 -1.6328693951013125 -1.1432867142784473 -0.08035546419464829 -0.11768402830192326 1.4737104175730598 -0.6477640889255354 -0.9074642705647805 0.7782853889540249 -0.21268187325863874 1.0939685974222677 -0.6880579688115874 0.21520638655301905 -0.4463304684191371 1.4183417557169034 -0.9490459331790839 0.5875534965152323 -0.6832780202260449 -0.942492478038055 0.7017680431341324 1.1369426153534625 0.2903894924331752 -0.7607933579335069 -1.2728930816013349 -0.8620984989368723 0.5173655111497082 -1.093177885779029 -0.18395301286361426 1.4472413088353295 1.0083525811795857 -1.2561199244673085 0.24380909103732085 1.1313231193443534 -2.536022327198105 0.1317107172328582 0.1252215221261947 0.4049475523867084 -0.04065551740923795 -0.522664506690133 -0.4033361925431081 -0.3156237262722442 -0.5735883395569941 0.6568434356249393 0.14818459658785538
0.7172998134837214 -1.2122951009639946 0.7083277464924572 -0.35644428157739555 0.4567776226107098 -1.0552446263509467 -0.6516768101270507 -1.6267263285928697 1.184684602669329 0.75740721659788 -0.09162466682745779 1.0565882793564885 0.9956996439397867 -0.33255854072056396 0.011407171573393993 0.8069628919589733 1.038843928824784 0.04040300741156416 -0.5068101752231351 0.210445319253039 0.7115070031744226 0.10361863048157416 -0.1248506708273528 -0.11949992740042037 0.856990261044442 0.24846303596452352 1.9546488794630923 -0.1394924966498695 -0.4035786506282923 0.5276313742771008 -0.3209185214297473 1.1585585607203042 0.48288103421642875 0.32340113885036553 -1.751722782082532 -0.14982263788123173 0.39752928741082466 1.976885920029351 1.0738246347818732 0.27195375751882 -1.0149831465882815 -0.10226679151032991 -0.9657049440721062 0.6906089290492634 -0.5132635578906579 -0.5368456617042624 0.2361492133638916 0.6554808284072318 0.11311164502615112 0.23268171622414646 -1.1956408380533834 -0.8612614587411603 1.0072486448371523 -1.234808471735398
0.8941924883620143 -0.5533686492272224 -0.9919841067319084 0.2601192234255375 0.5520146171332043 0.05772077258495889 -0.33716953183552173 -1.0292991999141319 0.44791380914591966 -0.04636249481088239 1.252479163349526 0.6032204769785446 -0.45575612310849606 -0.1722861587277234 1.0289396824544457 -1.3190050618750488 -0.35915434850375294 -0.261208180842835 0.6565362895708862 0.8278041981811548 1.2177298118254603 0.005263272633523719 1.4991976905740472 -1.187548418601773 -0.3909323211362584 0.3071496540791367 0.496231722413743 0.6111821246122433 -0.1266349979968951 -0.09703265171214781 1.1385065996421027 -0.5822074151205512 0.38876988259758044 -0.6084410328871854 2.121480663774532 -0.5857155751866792 0.5388779680986726 -0.641901373255328 0.07099304159966835 -1.0511869693672482 0.607984854316652 0.16960271999111343 -0.8984380369862328 -0.29022043461817193 -0.7952911647550238 -0.042479093305616944 -0.9757781605008846 -1.257641287277525 0.30103577563985207 -1.095471358259861 0.37716621263162375 0.3163122703343105 -0.2437338874418178 1.0662935777965092
-0.0662118011487659 -0.04985298115673631 0.3305064465193563 -0.285303386567228 1.334379120197732 -0.12953178117617903 -0.8083110214551281 0.28916460085131945 -1.2920493952890415 1.0460675664018733 0.33438723047672403 0.7014638454151872 -0.43899873922327465 -0.26252163967739456 -0.2463817444634192 -0.022483951550514913 1.2696001779827497 -0.43689391685465134 -0.3540656384769151 0.8159371408360779 -1.3085983946225568 0.5720738644681871 -0.07867292111994634 -1.724807457389054 0.25106639754575705 1.1359078976958803 -1.400871742213242 -0.8662372842187442 1.3233163465772273 0.8428340941287789 -0.6685283522781547 -1.4178217751573081 -0.49764781277899006 -0.11259411604672354 -0.8638942758050965 -1.931099205805033 -0.4122527413576131 -0.6042227218583398 0.27284559850143464 0.19997304861026877 0.2594381308189868 -0.518016416622848 -0.9585336442048231 -0.5078321716047198 0.93248872729349 -0.10918237220656563 -0.49483396693201653 -1.1870405477396289 0.5893616306212734 1.0539027844597666 -0.27645300962493946 -0.5309551568208981 -0.5964042364935394 -1.0672028104870368
1.0725344228337117 -0.39841425681827675 0.3280522255369435 0.5328854141942458 0.6931437595002855 -0.6033037158416168 0.01255041639418042 0.5729460785152298 0.725706571230673 0.4329944702285178 -0.735530837694165 0.16201656134355824 1.2804361541094098 0.08331261577490362 0.4025470747246315 0.5851672004885078 1.5588971753060237 -0.3504125509618181 -0.849268784814594 -0.4619194032318941 -0.5936461462052667 1.0272507953487802 -0.7667810681957021 0.6467886926553701 -0.7547300138441202 -0.9286212276649002 -0.660985825190892 0.6889159174416855 -0.10311831398133631 -0.11085489576387991 0.6518739851614881 0.6074014469277136 0.3514879024142108 -0.45104146504705045 0.45414679833848776 0.6043231826697366 -0.4680016503501225 -0.5112928469018672 0.5735430831370294 -1.6743632530451849 0.6328954308741808 -0.6794912720128046 1.0256098521949528 -1.4161313073064297 -0.17569476664935607 0.6900064615867196 0.27664359078801837 -1.2192464042809463 -0.5778680491729806 0.09492970060309674 -1.1275562796935548 0.7458156550762831 0.1341104845083423 0.44302357689549454
0.21407961715028978 -0.7693847111453174 -0.07608579097391249 -0.1839230900159945 0.8225952870712199 0.7255926024456183 0.042461883596541516 1.4192165076684387 0.7239211986948801 0.5551749244067468 0.40135138633621803 -0.17580063749241304 0.7873470715907858 -0.4997218567232741 1.370949444219291 -0.8326310592527525 0.32327033289765306 -2.03905314027069 0.4585940470446882 -0.7297747883821215 -0.1811548313840628 -0.18374665187949063 0.02758768019395552 0.7654741899578026 0.41122496528343316 2.3693278873132884 -0.12932054906798823 -1.0586176159282754 -0.4920065211782743 -0.9163420404636818 -0.2086747575636701 0.4534901651930074 0.39658091001381135 -0.0007296264849390166 2.4856791236111304 -0.003564608325891505 1.0488491604764456 -0.6434007503576382 -0.15385793445231127 1.1073728592833085 -1.0767034370139004 -1.264874689176618 -0.4252882756008762 0.8327684179118384 0.3635495105266439 -0.057639209928737556 0.6618052350186632 2.1053940966985207 -0.7552326692813431 0.7610449394948176 0.4932276975277293 -0.31683573049346353 0.8037140162149363 0.09671105319077172
-1.2695526088437559 0.04017357728626375 -0.4119800926888022 0.6269927356626616 0.03964806325757564 -0.9825280880626321 0.5972912215626338 -0.7736794784472234 1.4607639940200565 -0.7406433572792328 -0.6734273097590942 0.19995648769480284 -0.7034653020822349 0.22780597529900387 -0.22410140754374935 -1.2294228038892072 1.13197902209501 -0.31497852400211823 0.3645315499213902 1.6942672383832342 0.08841203883738785 1.595997009907556 -0.3860807468648732 0.8637207361619841 0.8532315550301321 0.42158602120666877 1.7044255255745986 0.8485207764482132 0.013055595376612827 -1.083050914585375 -1.0499006366343673 0.1768836672230391 -0.33480736629353997 0.09785736417890978 -0.7530163226141238 -0.32348590405951305 0.8217757821080334 -0.36032933059168165 -0.744207899605028 0.3425970714767651 -0.07151003957898067 -0.12779103127250663 0.8854940451657809 0.024187473478441635 -1.095539427177976 -0.21231897479374107 -1.4611138790730518 1.086660321161248 -0.3930365172192816 -0.24169926790184998 0.46155731837543673 -0.2441744864021545 0.31605483937258416 -0.5273176458012683
0.6323117124269515 0.14762937114363556 -0.49224512511503504 0.1676214655322938 -0.11736623146941144 0.7167829000762758 0.44955244004455996 1.2200493027351467 -0.4062829241537537 -0.5764275160806094 1.207121594881051 0.7695675414698896 1.3258922385704894 0.8744760652356558 -0.16145794192083668 0.4016679444951028 -0.053472877304578115 0.8449985280259995 0.4799581309203128 -0.7666017937624341 0.9249151690076974 1.8027315457254645 1.062678257539504 0.9599978945501428 -0.7855105866613421 -0.5163252396360836 1.100440350748165 0.7297600894219914 0.8380230468270866 -0.5009709951299849 0.9848408950032903 0.3673135364671121 -0.10558091858795415 -1.2557538949325697 -0.3955248514443781 -0.15376154468910386 -1.1872346302885082 0.6025521497560119 0.9488501299305734 0.5123698414319025 -0.7151943709891813 0.5638199436380069 -0.02074032754177041 0.07749087352644257 0.660193041246981 0.9278798558677035 0.050178904727203266 -1.0816844863676822 -0.016987827676501754 -1.3418975771125035 -0.39655875592584705 0.1660113415299192 -1.5080455615644144 -0.7951633692218216
-0.3144079462982773 0.596804254150028 0.6060384427966595 -1.2761968249616193 -0.818840609929788 -0.0820892548151737 2.0539640974800304 0.46700124158724515 -1.0643948648675963 -0.2936122547431258 1.0242602756231398 0.5872743006625561 1.3211359792157997 -1.0867224636236745 -1.4897393921365523 0.8472103183965966 0.2642760330695957 -0.3381704144930243 0.29759898242014676 -0.12015283137002758 -1.092331730975641 0.00712115394922358 -0.5035912576852017 -0.23320060484237742 1.2344242251163595 -0.09911389131081844 -0.6758390092083315 -0.9773337045236024 -0.43950227138701276 -0.10488723272652228 0.7177742788398704 0.7892815554422291 0.583406811309005 -1.2471751300295866 0.0842260340222526 -0.17871286047345625 1.2754072393173037 1.7552876397244737 -0.05276577322881254 0.4368420355215881 -1.1716746978955417 -0.002599504578971734 -0.29378696600747256 0.6847496626532732 1.7875140265020748 0.29254404567954934 -2.340914851050899 -0.19344389427837266 -0.41518070411558117 0.8666958930620342 -0.1403825208813747 0.550053376869323 0.3023405031719804 -1.2167824160574932
1.3130645304563369 -1.0969050680332881 0.016725756542251113 1.0895222630972596 0.930803256059916 -0.08403884286202146 1.6206426512156766 -0.647589957043166 -1.0549530605110535 -0.03583461223985929 -0.6462977875196234 -0.7988732623684903 -0.41386479052287295 -0.30801085462838634 -0.9583157413474301 -0.3831807718451745 1.49628298437531 0.035031750575796605 -1.2414016828365881 -1.7189711450212588 -0.30103586524824266 -0.5871500202438423 0.9205041661148328 0.20236682689588992 0.6443637871018384 1.0805718545181853 -0.616385588732819 1.2367957334676116 -0.07872851526265617 -0.45533119242868164 -0.7623507916425688 0.30782283561987167 -1.2659670981600364 1.6675002885447368 -0.963346704805762 0.07501426183577536 -0.4149224663244927 -0.6333599511766315 -1.3680791414280544 1.4205358626495852 -0.09755845624077603 1.4412659372864751 1.5238350562657208 -1.0928152490195802 0.1668323623663054 -0.49304972923409696 -0.038740458432085456 0.860869530670225 0.19922599211092157 -0.4751394552704398 -0.817729800976915 -0.20121200794910987 -0.6701833387086662 -0.5052287988452989
0.18172413149986388 -0.27528945283654704 -0.8329816278043549 0.2482582868289253 0.4133119009355708 -1.3840994874511425 0.6642258020795633 0.31780162312293664 0.4801481504282044 0.8855485631194386 -0.07845680198193167 -0.4589974377655044 1.1649418497363366 1.5360860057254175 1.4191529850630897 0.28273510104797667 -1.1825285489403297 1.000481095223513 0.7518560347702712 0.4444150771724032 1.2195539954401924 0.8891297554150114 0.99598011634176 -0.3354857494433518 0.03455342327057481 0.6780134601559125 0.41519324139782526 1.5051120650954555 -0.4617188627712427 0.39140018774280283 -0.1320422365676518 0.3532569781831505 0.9099060161824017 0.7417524966251619 -1.3707160479996023 0.7126061799971836 0.9542862486404349 -1.158732117856794 -1.3596687782985908 -0.5932698894793457 -0.9899280572076851 -0.14165549459844923 -0.17730323627968392 0.7794166723643645 -1.0595925239653168 -0.016151371417697846 0.8780352523601953 -0.7588346084675957 -0.06648315989145537 -0.26420421937194427 0.539937831298001 1.4367763427136946 -0.3565139946638498 -0.18532668445656825
-0.5697301511260682 0.9804665623390241 0.43683189342873346 0.7267504258074597 -0.12343074751839522 0.9299466233248503 1.1818955003818101 -1.729581061202505 -1.789826493491042 -0.1354205674753115 -0.043718766736548176 0.2799636470496872 -0.4014085758055506 0.5039806452324826 -1.1237236936739405 0.29315968634054757 -1.1285795765734143 -0.8764643927946383 -0.2201885091018132 0.2960790658882325 0.196445140341594 -1.443863367402441 0.4780769018250475 -0.21494736629660238 2.002114613238248 0.9009849620753518 1.2613102420466824 0.14432805074396143 0.7655286685593516 -0.0007781945181332683 -0.375166213375398 -0.5401884073548155 0.2735582535288613 0.4468045030772461 -0.18357980884138742 0.18195201276780926 -0.8454632473912258 -0.6473854534466151 0.6765304085677433 -0.3518173330106627 -0.5230556673553128 0.5934476167523854 -0.9045261631753627 -0.04160215016234009 -0.0462905040534618 -0.9304579886565214 -0.6877858895192388 -0.07096284497063615 0.13694330282925082 -0.9192757354722352 1.5125708502034414 -0.7336721056484432 1.2693433249472867 -1.0559952225536806
-1.6286542854082104 -1.5614452856355046 -0.9552604868040464 -0.6260109314456349 0.05275212960663522 -0.45373193201562434 0.39449249446262596 0.6810936903097387 -0.9596816615474537 -0.8395347447319287 0.22864703268356723 0.764663798490407 -0.5706415634719842 -0.912905392601629 -0.6556533292627883 -0.07642110597284069 0.6027839486804573 0.292868905528248 -0.1549441682420824 0.012665174468861506 0.793075183877491 -0.39009567335551537 0.6148463779684537 -0.1377860611403378 1.7820705234789684 -0.42083499844936145 -0.7058399793637756 -0.40278345688075007 0.5703198111539923 0.4762479254355459 -0.050666891376042855 1.0595788042824927 1.1063248385040854 -0.8392940290916251 -0.9540980535530021 -1.1558556945842273 0.026447364251798777 -1.0556967123080838 -1.4129693178324465 0.2289872386434612 0.4062187798086208 1.071879146514939 -0.8980214890843399 0.9911210460601161 0.47796986072565056 -1.030129390815207 0.19217567301271116 0.2824216786226952 0.03298199923164996 -0.07701012405285129 -1.3706903581395486 0.6563546613178022 -0.6300197282336069 -0.030297807204696714
0.46200117102997595 0.8191183741730017 -0.10478430219995266 1.7272514708542213 0.8309476447345814 -0.5867152205827179 0.8601594956371532 -0.28044441254465163 0.8209024550464965 -0.6000393656666709 0.8899260073944234 1.1566344585763733 0.381769141645778 -0.443332290380531 0.3485690237591679 -0.42293286489313925 -0.813715025968899 -0.07278953940427818 0.9563380174364046 -1.0231805341756215 -0.10755477801621866 -0.20350284988401562 1.1531439552703446 0.42891130626278273 -0.45018877109111577 0.19221270394759882 0.5052201157156608 -0.5391852386433305 0.01361775321756209 0.18469856931283607 0.3703263178667222 -0.3901792701458637 -0.6228804617678267 0.5164754279069963 0.06842419123931215 -1.2534386098796828 -0.873780146571886 -0.5552546433511389 0.37709387954075885 0.44172103057912077 0.9214788636339069 0.4068604970672091 0.5971345079939305 -1.3234110525474516 0.2295252160426144 -0.31925957706745567 -0.108008384894691 -0.5459057409356792 0.12334185404917108 -0.2219996172874582 0.2533551345345314 0.3220328330359244 -0.8158089844747349 0.9848684882442686
0.8565941733363462 1.264671432296358 -0.25121122530768913 0.7490868011123255 -1.215971642663397 0.17918272208211167 -0.6065576184918718 -0.250870618531686 1.440030363520653 1.5746288697195445 -0.5156567250829068 1.0068312880588641 1.6745315047596772 0.8008038051265889 1.352029937116971 -0.7111567310953633 0.2562255009528567 -0.7158407678656389 -0.11432742850269939 -0.4574540694114733 0.09448237930155906 -0.04207577158363224 -0.9589494993598027 0.37830811453155255 -0.865492062011723 1.0805498222978955 0.049048505464594994 0.8470117638085273 1.325933814410571 -1.1615690861449468 -0.04344291486715168 0.6989004830888063 -0.19778822504284005 0.21205202733493295 0.6221303317060258 0.5850790060629425 -1.5010849897851757 -0.6535045288215251 0.7449855539432011 -0.327265307887509 0.02595143564681307 0.59364223394724 -0.8109621062929924 -0.7646118847644634 0.226364953619553 -0.41264423997906796 0.5831024219973923 -1.9714448377772904 -0.6296960121438557 0.5406973424756965 0.17454634244376815 -0.3600492577160483 1.8030863653758775 0.8919645316982555
0.9993791892561512 -0.82297697151716 0.4152955204433 -0.4075203237265564 0.14760343918505847 -0.718875572507516 -0.48846676648981335 1.1228871296755711 1.8427730131112734 1.8788575707666249 0.035329853096990216 -0.3566241975946582 0.250221877019879 0.4765239919126109 -0.5770724303033508 0.2237890004874562 -1.6055458694871094 -1.048701096017999 -0.16124038123555706 0.29768475182164583 0.525248409914496 -0.8143292593675653 0.7333394789324275 -0.6433792426364598 -1.4140196205521238 -0.29455214354581727 -0.07222427705777373 -0.3648874491320845 -0.1715220104512618 0.7524965346334166 0.43248281471957173 -0.506663910258096 -0.33555309224959834 0.6953918689427219 1.7901189748135704 1.5172823743724613 -0.9542641506797627 1.4138831191975183 -0.05357295805598156 1.3297163783110757 0.7049599678005034 0.9137260876429705 0.7265543301615285 0.052330159288546174 -1.604630968215385 -0.769776979903182 -0.49302192119650834 -0.25451012605651163 1.319607648583069 0.06773203409154571 -1.1346627767206658 0.006881697119683894 0.3552040439709504 1.2745436223551758
-0.24922149972448615 -1.2859679673170474 0.04270358566273519 0.9648537132948312 -1.6603041805250405 -0.172732745861562 -0.5225378005317629 0.1572385339290961 1.1137945871763395 0.07887240253369154 -0.20070723640158838 0.07634721314295223 0.9817959319724519 0.7475503157680341 -0.06028848672010728 -0.3339949622693847 1.2926840910730961 0.9185780445462826 -0.43860609678330587 -0.727075880521325 -1.3336454323339169 0.20924698854274276 -0.3484140867141072 0.7196233123909989 -1.4356291031891657 1.0916299918302017 -0.5278051359725959 -0.009910130301708175 0.16160753681221618 0.11761717903918789 -0.5873714911077552 1.0774907195305696 -0.2838192517591625 0.0015275928642097258 -0.23261484473869393 -0.18585995391787685 -0.5791408495642374 0.7220924264289732 -0.6581279202877942 0.025046062869160834 0.1333146476104845 1.5574464037073406 -1.0408740907302396 0.5907225219024936 0.07012589239305267 -0.3892862348964134 -0.6221390710385536 -0.38094152003397996 -1.23955127589999 0.41257147072122186 0.08987126063322198 -0.2957183416537444 -0.1679679659509578 -1.1829340932266101
-0.6481196398607489 0.5290960746940327 0.8959409902887254 -0.5164363809086299 0.053917364518797695 -1.1688563446014213 0.6428051018824537 0.7902673066887065 1.3266980098437309 1.5861362020584555 -0.20735681492397595 -0.7077091632019621 0.3296288692319513 1.2311538330872223 1.9837775191563365 0.854812078183598 -0.3378356050669142 0.45717018460959047 -0.12291148083633341 0.7718616986031165 -1.2266938258615565 -1.5084154046428162 -1.394788353959139 0.21646506668383964 -1.4490134739688876 0.7127898609452137 1.4107184091486213 0.25771749039798847 1.428238670625126 -0.0291485003017799 0.5558840186213776 -0.3934891308531333 0.47673020231344937 -2.1594550097206215 0.3048857910072349 0.33918103229109137 -0.5786626443737987 0.9228735604669285 0.9532078217118907 0.07597307268104836 0.4449352538003137 1.254493981899411 -0.4637267219261744 0.968071615105427 -0.23939847076867798 -0.12314012233696914 -0.42809613481467074 0.19577115705626125 0.15656654945757525 -1.3234618697192766 -0.37167523549667536 1.7418056536225381 -0.22915801769703165 0.25822040678939684
0.13203092418938572 0.44361178066345397 0.18241050658558017 0.8525847336294665 -1.3419459016731534 -0.2556633931626423 0.2726317723643904 0.11137972647324768 0.10243737810566994 -0.18912470694861555 0.07393015222563054 0.6086738858608459 0.1789368975296151 -0.6486742887150382 -1.3981730150922687 1.2379687620252366 -0.46192832717092275 0.6314956147226264 0.7602417258816307 0.22036673689542818 0.9224806949008941 -0.3946966603168036 -1.0573804035521999 1.1128499765718332 0.26006293489129234 1.067890222046044 0.18290984890449097 0.3105576329680905 1.5918295577442683 0.7920167424471284 -0.5246182310642085 -0.8439423969757037 -0.0993622288374641 -0.26266236945425886 0.08562390748346399 -1.5507948908284095 0.1850988648530163 -0.9234190258296703 -0.2579404590412847 -0.4576238465142409 0.34077893173816953 0.7968982477679906 -1.2274713026097328 -0.25635506509181344 -0.20191356746597205 1.0088747220790373 -1.0341642470051893 -0.9669994752488846 -0.942827187321156 1.0071321591892257 0.30836307736944274 0.7969539042579787 0.7336269796424291 -0.5386004834687519
-0.08412359161179644 1.6253468492676568 -0.24258970469753088 -0.6263232867842345 2.3120930800642885 0.1552461068140944 -0.04368760458609494 -0.1554470947180694 -0.08221941396206767 -0.7044001957570099 -0.9616792601201978 0.7442492499660718 0.666917303907116 -0.33317860605781846 0.7173474410317615 -0.3533287490664767 0.01621261807120722 0.13530462338328925 0.7077300925916397 -0.4460714820782886 -0.15147410013354218 0.26102139921951684 0.14836645555015554 0.48395228045828115 0.6246202740871696 -0.2512440339728357 -1.394406685071971 0.6232633043158025 0.06445521911709629 -0.6768544437128234 0.7130988421316968 -0.9006334245500915 -1.034554760993017 0.87674463975645 0.053631783948086986 -0.20482946131276847 -0.9302785374865674 0.036764044661372564 0.5309933972385765 0.9662826300706077 -0.492393669264533 -1.3413855891406012 1.3266469638657459 1.8671091392339603 -0.9378171008370746 -1.275917474587395 0.38011163912410606 -0.7374456620769994 -0.8540423427042991 -1.3597592105723675 -0.9379194792162744 0.80905574944104 0.7696967032828333 -0.8677204896075414
-0.9488233697871915 -0.28545405649199856 0.6691910418487631 -0.41382963630581504 -1.3405657513563076 -0.6409318986885058 -0.7690232733451758 -1.1632573323243791 -1.3751580419778722 -1.5185536091834098 0.9033292657486871 1.2722429350543725 -0.21185969073719962 -0.36400642768125807 -0.6536939234374419 1.4130836491597376 -0.41805573955825287 0.581308388132485 0.7953010974948924 -0.03121144179527957 0.12045183427362727 1.6655790112148625 -0.6741346856786853 0.36014806937004296 -0.2076040864119974 0.7107161131512033 0.2542793407102794 -0.4890822057788405 -0.09317811500537887 -1.750644185906848 -0.6321277281932176 -0.31300252407783047 -0.523661467930185 0.163496426296167 -0.6685506827023947 0.21726979116461181 -0.3186285456111859 0.1766906965365418 -0.26106020607987834 1.248936318141664 0.8314835145583831 -0.4659495982208607 0.655998556873034 0.6783705293791162 1.6715833533511901 -0.0866456507805039 0.06179392565875541 0.5512909317057553 0.5742402288686467 -1.6717462981493896 -0.4541686487864224 -0.14813897253726477 -0.8871677760864798 -1.0619906924409388
-0.8809699524093351 0.9568594401859623 0.31928924228460787 0.6206525549941748 0.07680781053640134 0.28232175060414605 1.6639367735915154 -0.7731237524600384 1.0736788665309471 0.5660393132872614 -0.9622633262674736 0.35936909963388786 -0.42195343160523613 -0.8114140366297664 0.3431082092848388 1.1314219847354476 -1.1073662961056185 0.7946778327708144 -1.9838035030449357 0.44616595542930926 0.8727883758802364 0.2771329230556299 0.2456357895211902 -0.8870044180258929 0.6845231545537739 -0.7311174598516047 -0.012523769962582976 1.9734661244232465 0.42952885928694334 1.1924565179118887 -1.2398758862511703 0.48421918610639714 -0.2181158063583597 -0.0329499808137621 1.7086540087995392 0.4057920451559658 -0.30715425434597327 0.10861841321545113 -0.4470064658467406 -0.7865752581200256 0.8322377594335824 -0.04326186658587666 -0.7498851558690167 -0.7716569891706011 0.09540405924959128 1.2588592404461811 -0.6803905468008185 0.09697286051539394 -0.8614286131416616 -1.2044301899343863 -0.7915749769591742 0.5930170936020547 0.44980354640572423 0.5247352271558384
-0.050342545474014455 -1.0946645839612068 -0.5369758473096173 -1.8566067491144083 -0.3772540602760738 -0.14574391851577667 0.04295272048797305 -1.1427241540384614 0.739400220846105 0.8591506556085389 0.6360789023248541 0.7959818666080127 1.4941534895097315 -0.9091413967095258 -0.03440055103840761 0.4610386329572643 -0.5209023473213 -0.9592599784347686 -0.04315952321518307 -0.3697888147546747 1.1974171411139887 0.15364577121717754 -0.5276162417646968 0.8982310461400598 -0.43649035683161364 1.2382189066824587 -0.9099408583432791 -0.7069770977781031 -0.30087406681239587 0.26590690491226937 1.0492002553574746 -0.8441685504844534 -0.4684226545074613 -1.2798641627438059 0.9939226534404126 0.6016204846435054 0.12436240365789691 0.6885596352962186 0.46785742396815594 0.1404019875908349 1.0804420368174286 1.2927307857246688 0.929246267461384 0.6543935555315041 -0.5642011974242105 1.7655293066587328 -1.0311208609527407 -0.10853278414077894 -0.5087942754585351 0.17010989578910224 -0.5340774057853301 -2.2066328931811388 0.8929348409902937 1.7926377029013805
1.0527933787231207 -0.6051196973026303 -0.761874671993261 0.45696667823302234 -0.7267048514537122 -0.8203847973139778 -0.8344063051592869 0.4702295442707816 0.2464846189647224 -1.5389249049835292 -0.9414326862498174 -0.9919034851081892 0.1606168835122131 -0.29386293899002125 0.23712007841021127 -1.5063070181540748 -0.600502109867499 0.46776279190694825 -0.11841452809299685 0.7062540622368545 -0.6451383194090886 0.25998049505077964 -0.7760293999958623 0.07186012952885662 1.1582955710912795 0.841048764168479 0.5529484561171786 0.3503935780990055 0.049787018977487774 0.24456115113255056 -0.4106393487728511 -0.5797276652801047 0.2382202823531271 0.04341276697048285 -0.89360364011532 0.1023155928208691 -0.7621388222259706 0.07703491613467967 -0.5709021141041235 1.376348578179768 1.2249755158270417 2.0179326556587087 -0.6664257625321096 -0.4795996328848969 -0.8328302767987945 0.8527348737246454 -1.164387640819097 0.22970421647265538 1.2860234901204026 0.29139023356639354 0.12145292663082563 0.5382662507356717 -0.4167796398588336 -1.1024633264233379
1.0819951250884814 -0.5527024384639132 1.015713548225922 0.48377728115626517 0.40127609960087346 -0.5791365160481554 0.8712657096913792 -1.518350556803186 -0.46703811826167163 0.2850027136395997 1.6858313839687287 -0.6405266919212952 0.7251686365511795 0.20161123837039807 -0.06661214155243583 -0.9475023402099573 -0.722292851449768 -0.8557570937708036 1.1326429355185217 0.8393395047381788 -0.7487695643845786 -0.5285439268538838 0.04838860882669088 0.21971838964006463 -0.3175748340023598 1.4823857589767224 0.23627518242474116 0.29954866674448954 0.387014950090319 0.3265400933632375 -1.6084042140633368 0.8387850531730277 0.32721902141978226 -1.624345523912461 1.5557248062251805 0.547660627908545 0.13906425359534336 0.8459448485561598 1.0725789163039958 -0.6691545057418887 -0.3844430740051906 1.8053448102355332 0.0538101790790218 0.45015451336305407 -0.3216361252786265 -0.8697141701348005 0.21600134883518213 0.1532961430279844 0.9835254298374474 0.7121522942670387 -0.9521871247598566 0.5887975632904395 -0.025164469547731827 -0.796713569514601
0.8849569534818125 -0.78952887041095 -1.0556677172218691 0.9119498410732222 1.2318136771057187 -0.8784467076636296 -1.034605688296309 -0.724553344530392 0.4382935192168288 -0.7159627264773513 -0.3342804239245239 -1.1798714548480462 -0.4240281982516604 -0.9059269220933033 -0.09866875608191727 -0.30439683288269914 0.4659157551935325 0.2684168275322253 1.012430893769302 1.159198484782156 0.24581788733872917 -1.687952946363978 -0.8962552465332159 -1.196488289129943 -0.364443246262882 -0.4085440990320212 0.6458022981980136 1.1677729704675224 0.1801812283000223 -0.6277100513302987 -0.7775914509235899 1.3443211256771395 -0.7611512154488917 0.6579636192270789 -1.1916541031793335 -0.6209583057441264 -0.7212886231080615 0.30346737632606574 -0.518595137977071 0.2907623822067762 0.7910119465767096 2.0917238287113102 0.3973350564945701 0.12481134537679778 1.043030321650077 -0.40071428707433054 -0.35600133669078055 0.8132498114718887 0.6137631550228486 0.34374730610995796 -0.03955213888534265 -0.03315605400296989 0.1737274895995392 1.1192499756713925
0.2878014644330185 -0.946673441150795 -0.76876464860133 -0.33453050261278156 -0.9064151213896898 0.6466166001273466 0.578832804679658 -0.07652242062926407 -0.7334106403268728 0.6726416763732257 -0.5448205918836229 -1.21607497613826 -0.23609328016983838 -0.524922071273672 -1.5437702935754178 -0.14197103089900942 -1.445336940436215 -0.5672590157643316 0.8537877643186251 -1.1109947577338772 0.5967144729246254 -0.6882141030434522 -0.16495356096608838 0.021089667702878456 0.2725953953228325 0.5290964351280902 0.5993981182579593 1.0598452296195235 0.2372151141157368 -0.8562712821402633 -0.6742477053019951 0.7591027062453191 -1.0096831328791271 -0.6985155384320763 1.4687122539660766 0.08444671629117612 -0.3858493113610936 0.4819253044084652 0.5328539968835033 -1.12043300038237 0.5260632386602226 0.7822298273003959 -0.17068096812922867 -0.39041620908531116 -1.211010907642919 0.42117403158465616 0.1042156224094673 0.7029665057354756 -0.14525793262743325 1.0166149842207721 0.06180987544654737 1.2408308498777696 0.6478792245277312 -0.62322396496998
-1.4549088747412648 -1.043312431532906 -0.9979544710260615 0.30393331906363746 0.8549704045566742 -0.7526683713528342 0.9367977740927409 -0.8604908521056054 0.41919678458956106 -1.2716910937423087 0.2145013188204693 0.40464512201513403 -2.1270228848567005 -0.595537360674335 -0.3159513474763086 -0.5039002504020262 -0.40052250056198685 0.023816292472982503 0.25190656316740984 -0.6809025822086281 0.8783529474714439 0.8737202075543571 -0.3683627617956499 0.7969660946425643 0.8742448316328412 0.31895510614168954 -0.873773466366038 -1.1061231238717197 0.3158149445719741 -0.0787864144249466 -0.10847909776916786 -1.5829441192013491 -0.9426835268582655 1.0476847943614924 0.534697484848355 0.6101563409356747 -0.7359559743615369 1.2321379920812008 0.6671747158158392 -1.361711609085205 -1.2700569699993423 0.49449488103971634 -0.4711085466955944 -0.39132170515022224 0.04702493833898075 0.8734175300522935 -0.9084196181442605 -0.02853602081027068 0.6329011693097388 -0.20149288674749788 -0.6280012075598294 0.7249398106801188 0.6746317137334972 0.4814522653353618
