0.45327256449087444 0.5736415133397673 0.41882700023371366 -1.1115354787051386 0.5358833756892545 -0.41412046271935465 0.4614607249987813 -0.06088466190115627 0.6493339790430128 -0.0054660988479904304 0.3868321273087045 -0.9699381384531464 0.3167855813561636 -0.9951758712703618 0.2295591076419744 0.13747747248816422 0.8680096986265142 0.9383126018425425 -0.7359258203935808 -0.5322412108560535 -1.38727773765471 0.5032521014804516 -2.1748207483284565 0.39940287411620606 0.5333270751131218 -0.5038720867642599 0.1936222796735344 -0.10960396934361016 0.4138032373704479 0.3686817058738229 0.6725973539046148 -0.0476120638791534 0.8557457197719096 0.5487936361790546 0.8838571745532856 0.10090160589274721 0.799909057761469 -0.3201503017466767 -0.4526913933602994 -0.9707723014878628 -0.9786131553849464 0.9366576685234518 0.8113559871011602 0.2805754728767266 1.0971565147562188 1.0097171876659474 -0.7937487856351088 -0.14164592405842696 -1.1260692450882301 -0.6185115494078776 0.6049387887491084 0.45958759025100265 -1.0082486647518938 -1.0084168231677024
-0.273517612824861 0.8579399632407094 -0.6096974054747029 0.13295441459148133 -0.6436799890530016 -0.570808256282618 -1.3335160342525891 0.6169957593682549 -0.681571866353593 1.143463145804379 1.0566874947897822 -1.004343761640095 -0.0043230894077095905 -0.45634113731079234 -1.0803789000537831 -0.40516272523840446 0.986857632406871 1.1879306020117215 0.5466357825606428 -0.990712597981957 -0.14210625134916527 -0.5503748868711049 0.21822231665151975 0.6786982756089335 -0.5620794117325778 1.0691530402874132 0.10900235580557777 0.4043045730458027 -1.1280525875620673 -0.4664201578934062 1.2336583443897982 0.6957277528615339 0.30947029684119576 1.1399269577631443 0.8126926978680837 -1.2471433569055927 -1.0539954331450816 0.30575006844064717 -0.8694666780468582 -0.20656450680559957 -0.845596436294652 0.7798679422322576 0.1953386244202716 0.24758578239430667 0.5654590103278366 -0.06244002121633574 -0.7886400359677241 0.6815460073880494 -0.6057542398705167 0.35024440299712994 0.618901624461936 1.191194183734939 0.43600656798714515 -0.6355254328597528
-0.24082466576433903 0.05097919106506582 -0.041133839488747714 -0.0833619279355386 -0.44259182822878723 0.5163491031596189 0.023571562337854512 -0.7523616573692058 -0.46034132497030067 1.117497541962337 0.5805339752752081 1.2640445789815615 -0.588993074473008 -0.1867415802793782 -0.6152901806485199 0.636645076171379 0.9133429056049254 0.18255621851874937 0.12208456813243385 -0.7176084189127425 -1.4384985722133763 -2.03646009624991 -0.44382483709958553 0.655475487953016 -0.2728482247705601 0.4523284077201926 -1.1051268424095975 1.6139942165192185 0.21285684208396521 -0.4156707963822628 -1.1747558141221137 -0.23431209137142173 -0.957261217911278 -0.26228888480131535 -0.3706769702055679 0.13140116758957188 -0.029641563248481884 -1.0774617833680908 -0.04558653154357595 0.43010974408693 -0.7619913957858132 -1.0444812391373708 0.9593821378168432 -0.20847244177986912 -0.8818636015215067 -0.2601573511789362 -0.5044314860562258 0.27197449847227895 -0.6801626989742817 -0.18189684884234547 0.10071013876775348 -1.5691628424564057 -0.9220645443983295 0.8662142543153162
-0.02985948469527583 0.906413674943708 -0.42532069748284274 -1.0381679764981904 1.0033713636374344 -0.7743619044076233 -1.4197437010263554 -0.35846988422058285 0.6466220275867233 0.8051843210934937 -0.23336029173231787 1.095906280594683 -0.5164780374609053 0.5679620028088288 -0.31049812584349795 -0.8448694939893582 0.4099444412341097 -1.1265280209018687 0.2969520508181803 1.215717923592838 0.23831491361887686 -0.9450070837860866 -0.38037152569555904 -0.2958330381261117 0.4536677819053008 -0.9523247826511085 1.0252138760083147 -0.24295136109582305 -0.835001299603937 -0.23042639922298708 0.2214683178139787 0.8690978023260426 0.5823770813527123 -1.0486218095562247 0.6242073506007115 -1.5480749347912999 0.8447735750726177 0.7873678426904909 -1.0027260629782817 0.21228095657896617 0.0649944451445768 0.5060554142476734 1.2121742843694594 0.4708806704819549 -0.46379317029223055 -0.36938874831703533 -0.5701363133951274 1.0926535769208678 0.23656656540902127 0.20954541089896517 -1.88805481896147 -1.2339710736012937 -1.0979100698795687 -1.6271228972002882
-0.07743504804961793 -0.565620309233269 -0.17154333674865602 -0.4229952115801682 -0.04243080425804774 1.1217458207825584 -0.5486148657863421 0.7910744059708057 0.39739438652671555 0.20864101276139463 0.08502098100733652 -1.1643798309446012 0.8815722754294546 -0.21786136657434896 -1.0769965208248997 0.8910939194055323 -0.9827538001873015 0.02556719013975467 0.8358589238680498 -0.23718105955613 0.9992236770975607 -0.5083368090649535 -0.582151638203299 -0.6814362936218539 0.10870442192659951 0.6505314899849126 -0.7890641317139369 -0.003296634960786582 -1.1374881282037528 -0.313199123673683 -0.45379606471407935 -0.010207648207444242 -0.7008097828555437 -0.4081055766780252 -0.7503821601412102 -0.17776846454191836 -1.239106375148148 -0.13380750367326827 0.45244504824365595 -1.1839635738762913 0.341257013593111 -0.2110757877832381 -0.5394028641809219 -1.3498559116248086 0.2403030015782937 0.6627453807444161 -0.7281561599311084 -0.12691944487840917 0.8973090026220555 -0.20516674131996193 0.40861745079705697 -0.4771058564877683 -0.24687252199619408 0.1830827885957293
0.4576572332525557 1.2427413225453514 0.6631448627309617 0.3397188818924505 -0.2196275078775684 -0.6754757816469763 0.10981226991115983 -0.3082310514761897 0.7261145720811832 -0.23329586645430916 -0.7391264462945024 0.4066584196071377 -0.18591790972819427 -0.5033746211097887 0.19695922467696603 0.3148734535749332 -1.3715081916351681 0.0467770090052253 -0.1615410453902506 -0.16758717857547983 -0.809977215510788 0.39066456437191094 -1.7546202587820199 0.36131393094884035 -0.844131739894324 -0.20611717036107663 0.09992006852528706 1.0121765520021921 -1.3100937967325943 0.5937606586452367 0.7633619023814388 -0.08017665912252214 -0.7387850995921244 0.06308629615561889 0.5468453439919093 -0.6585047968529998 -0.6463054426241241 -0.4908400218544837 1.752791248004821 -0.9652456129212152 -0.8486541613204508 -0.7892901241487845 0.6382617851788625 0.17758008043631524 -0.4075504826665044 1.0936365599997055 0.27765565766880085 0.48852727674767366 -0.2754868371621058 -0.5715769341675014 -0.6583897515477206 -0.41594976524739685 0.7373367711530803 -0.08351194162625503
0.6099802830051039 -0.4989518688161947 0.608309722927435 0.31900820037473343 0.6175125371034981 -0.31876275257053255 -0.8496478739588146 0.8303737909328436 0.47993494569435746 -0.30192656409600027 0.9805487397003962 -0.5031300232909628 -0.6247563379887419 0.8043368839154607 -0.10145952231892108 0.5683816694027755 0.31403926890924344 0.1379844719294417 0.938458095145972 -0.38267190789845057 0.5910958267698219 -0.002210572649111231 0.9141965408137587 -0.5548631630956675 -0.6372567423253839 -0.8545271455774601 0.6191939133274871 -0.6394598385660786 0.7830957503220377 0.5639057593161331 0.17269263351186498 -1.4689926696221314 1.5746245890938737 0.17426605452791666 -0.056928671713803336 0.46745040214126077 -1.1220962289210068 -0.2893908347532528 -0.4037962411804281 0.031136911415257484 0.056208014158096176 -1.0263968557972942 -0.5600489576411788 0.348793932504799 -0.5028015965257615 0.6096845566447753 0.5441248666143523 -0.5810115757589367 0.6807468792108242 -0.6252136453816 0.9631825361837509 -0.42046793997942317 0.36890924181704854 -0.14026199764221903
-1.0164281342146588 0.18404692120788535 -0.9122106730713222 -0.2468960241270014 0.7423619194810477 -0.8878823778095964 1.8538003095652096 0.7418478751775374 -0.20380783845475348 0.04392495116049322 0.9270069081968497 1.294528342455629 -0.08336301666208756 -0.30663544438897883 -0.03269808035532096 -0.7699800004750561 -0.5604567638106775 -0.34563533577469086 0.9205547415634848 -0.005655335418340346 -0.6042788742117388 1.0976686624025722 1.0150830733657532 -0.7341823748488288 1.4840243783528568 0.5676065211119959 0.005752127985568012 0.024516343319695377 -0.6114375382708717 1.0474868351342312 -1.182864204748555 -0.4526559371327659 -0.5298900249385721 1.0138362351587216 -0.9769680516878627 -0.3605121123862868 0.9153784324639193 0.8057038928870164 1.5193833311797849 -0.16531766098550243 0.4255672669140563 -0.01574621610358784 -0.8791225958061291 -1.2668076035366302 -0.5643309327329604 0.2470975578213318 0.31644371097496377 -1.5752762859391096 0.14880371166128326 0.7950599487384943 1.4365543358328323 -0.9366950426873026 0.9531383856908784 -0.287019574299854
-0.4586170775901351 -0.7695456139987562 -0.7043404201290917 -0.3810716628749203 0.46152658216116205 0.9820691733149551 -0.06574714417902955 -0.24954468477156022 -0.25818485521183837 1.0130455021857303 1.0779455663013573 -0.017929286056478477 0.8678436354390835 0.24980311502298497 -0.6084340650545335 0.7345793106579637 0.6575689631731569 0.06906404981639314 1.223360089222428 0.6750639079002431 0.8954215034697046 -0.6636651651931679 0.08770098533237802 0.35085347687154317 0.5578738321522525 0.4193432357640447 1.5328792038351917 -0.11260279215910257 -0.5195078073533386 -0.5581221384464838 -0.10033653985735208 1.0655452904220928 -0.45785700812008695 0.30136304644317674 -0.7396572212862512 0.7807571946180694 -0.7095465582403118 -0.14902560737270643 1.1380333483368017 0.5422934462450759 0.46990493113574044 -1.3502962584951272 0.637664953114331 0.29995285792243304 0.9293000390143951 0.6612070108022481 -1.6901826985354722 1.572084584008424 0.24472348250583692 0.14238633884498975 0.09336964630709221 0.0436874564309625 0.1847751698975154 -0.022929793062304527
0.4621301560003202 -0.5993148142950964 -0.9649378955501179 -0.37577434553532224 0.36152738039570703 1.2897868134843635 -0.7259257500762119 0.431954816968684 -0.049812551675049 -0.3456081182741374 -1.4169938483416993 -0.8231182957069088 -0.5242201236900942 -1.7496822007020136 -0.5599762938473416 -0.4021975396897372 0.7043444448162914 0.07234574461168924 -0.3154999402918563 -1.3253796655006835 1.3573445171223804 0.46207588781447106 -0.560301835859111 0.905531076900822 1.5312718056382877 0.007300134812281089 -0.17487269571691205 0.6860042335809173 -0.1165317522656163 0.9969182259668127 0.30963366474393783 -0.4064352699216301 1.4684019163499271 -0.001453207840849402 -0.05480605473251565 -0.4808430483754736 -0.565897849194156 1.0891522958979063 -0.4945304926035936 0.59738732285668 -0.09903184817292204 0.17826590432076567 -0.42440308145864836 0.6589134104369063 0.3594155847792894 0.5472707554156302 -0.6236760708446265 0.7024458301862218 0.690147688292202 -0.00850169935984757 1.2823648724469232 0.7983705634598686 0.41089405932606415 0.2028044141952689
-0.3738542362116922 0.7838880555144987 1.160021697406141 0.9621198694675439 -0.473758016165302 0.24063968481713222 0.3709050985040073 -0.019258010595491037 -0.36838584779034494 -1.089776357918729 0.9010761144689134 -0.46301909307104444 0.9795203534863743 0.7372535239753388 1.7372336666603139 0.3515407206848373 -1.075786316128008 0.5524191964639189 0.3473582142354034 0.6250595345452283 1.5116961104861693 -0.2983382627587184 1.2065703744803742 -1.7249766638684547 0.3817726321905332 -0.2239288156561628 -0.12549508216775596 -0.6505291714207952 -1.0047022623845414 -1.0442091856653568 0.1429293005021281 -0.1084871445641068 0.89434858089887 0.44237424914702056 -0.2610125300857371 -0.10023693704584552 0.9617218059076742 -0.02122994930213906 -0.42833468058099383 -0.8978933746164035 -0.3308022209383205 -0.2139653050886423 0.08049490586974195 -0.8481917061594761 1.177766679922565 -0.5445149500841301 -1.06450647671459 0.6097519891380243 -0.396497849840708 0.5211836072759501 0.27072216090388795 1.3396789937052906 1.2091790159452163 1.326434016274313
-0.8650346405165741 -0.776234124323723 0.3888305403695581 0.78123431315706 -0.2818983522252963 -0.6171013299634944 0.722697633686032 0.4275821006941346 -0.351920528531255 -1.6488580167239806 1.0007516555851976 0.6122905555118665 0.443510714683092 -0.6513539984670835 0.11780906084558979 0.1531725108143943 0.8965251682113525 0.08090358785177865 -0.6239752310007938 -0.060100298162019394 -0.9378582685709151 0.7930648632096329 1.5536570943272456 1.2144441157841996 -0.6835926185391086 -0.14748765384016332 -1.220294423183181 0.39468987719692944 -0.11465499955821384 -0.7413739649904019 0.02296435306400646 1.0291069287755379 1.2023357048381058 -0.7022954522333429 -0.31423919214532625 -0.6849342065695544 1.2092581947750483 0.45628060650169644 -0.5947625734797923 -1.7241234127031522 0.09496984812024378 0.6879076992863582 -0.5209683184588059 -1.077390379939595 0.8127918206362107 0.9985166952424298 0.12676394575738842 1.5645915872412042 -0.48711598660135347 0.2353061295913661 0.5481288352941636 -0.029325792357767222 0.2101415936455316 0.6616132190395329
-0.036703008574856255 -1.0542028649423303 0.6639590066825651 0.055730566197371434 1.0620938737808368 -0.02250184515786735 0.8526538280551135 0.42814520971192377 1.1968091644765075 1.556091130141137 0.43083825394008146 1.3202576043614005 1.6214910799242568 0.14747572554995164 -0.4653915535826954 -0.5030572608640175 -0.8793872227179813 -0.6901192492739774 -0.8503636492989703 0.8295564397115684 0.9762635747710096 -0.06143855447985208 0.6052418323209545 -0.24851575165346917 0.35281763970736735 -1.0313580391052237 -1.036868306155427 0.3790466391649671 0.8822365813593231 -0.5447220052229216 -0.26316060818315606 -0.6324450530956025 0.8966017372980538 0.09929007360116776 -0.004063503114721423 -0.2778084687919048 1.6972003305224947 0.6436865250183776 0.2019348209403966 0.9469207822797849 1.2082095773350194 1.1764426845197642 0.2656537483244404 -1.0267637004191588 0.13656703091780725 1.4716623712602483 -1.0807628216256457 -1.3630656777732064 0.21246269894681186 1.0411116835508025 -0.4598933112152156 -1.0834872321516325 -0.17165848191386596 0.3354434774253228
-0.5130288054691228 0.19920313345626017 -0.4211414055847289 -0.8553465881059261 -0.19214661648465337 0.8840978739325498 -0.30771800500822 -1.2283054069980919 -0.2957700638147421 0.5394120588985634 0.46410303003115033 0.9009433822329966 -0.2162142201948058 -0.5817519994661186 1.0267786379021486 -0.005027859943307733 -0.6016051941485734 -1.8438334445580373 1.4973338853649676 -0.7574836657751498 -0.46118500299143705 -0.608059465727024 -0.7549746170935205 0.42751983667722304 0.6033074001572833 0.8161232368249947 0.683651235385333 -0.7569206548743987 1.3361065828497445 0.7309653432100789 0.4321949050443269 -0.5259746737948588 -0.6683182657566347 -0.2589093052158678 0.47695024144818127 0.2642215390318471 0.2896265890553636 0.12046666650252547 0.3084256603126885 1.0126194030675366 -1.0943012637219123 0.0043165264154925165 -0.518194166900827 0.14342964234392463 1.5901394809867226 0.43904018100548103 -1.2359669489924672 -0.1066718543846451 0.4189493025963644 -0.28216100573391 0.7852727635971504 1.5173615105507365 -1.041262768305172 -0.9069799365907816
-0.21746171474632525 -0.6294958994959796 -0.054787401375896994 -0.2834468212893196 -0.443618479458162 -0.18660112825171876 -0.14997700919365797 -0.5841631118776772 0.9462444012824721 1.1467214026716728 -0.3279549716378928 0.039860391116051 -0.8963142762119753 0.29809478590406846 0.05414290649002168 -1.4085335315701009 -0.09304986561406187 -0.4425420307216474 -1.4021168724415412 -0.14955569750176506 -0.05561067920974189 -0.5897566806999783 -0.5124714580366707 0.7469477230173445 1.7977483517392374 -0.1280770066915507 0.4907203446785108 -0.1669752950611349 0.30456045790597314 0.08895629017315415 -0.6135915458830425 -0.7256901105803789 1.0533003138013632 -0.7650046537120885 0.4893020985137365 0.4446956396685776 0.3332974573210037 0.2902914496839359 0.3453639446511428 -0.0630058239220539 0.722088639975687 -0.33408849155122083 -0.808964235301538 0.07153533376403132 0.8646118967379642 -0.12142622720874713 1.3502241492757796 0.2641425871942037 -0.6357731552031964 -0.3958441674755245 1.006350535099582 0.9641334003641324 -0.32778399174601763 -0.7718005594539608
-1.813450925737176 0.15547568966317904 0.9717884472145137 -0.15613570643942665 0.9704449892760315 -0.08752574901739951 -0.07869700143121167 1.0553081925999002 -0.8092501053902549 1.5431958162566817 -1.48681793920248 -0.8731429477626 -0.042751424298869745 -0.9327122144227068 -0.5940917140629454 -0.19669208553583456 -0.27153374976605643 -0.29120588125588537 -0.20932537039692517 -1.7676731173985265 0.5393457696722833 -1.5355979295226825 1.4185333714937136 -0.39873910609908114 -0.5311881155102116 -1.1974507753423391 0.0717181675843071 0.8706910792186703 -0.894104640792164 0.4941779072355393 -0.03163562793684982 -0.29891672116711737 -0.24127937119481163 0.3269276819510449 -1.3247692477047415 1.4829450716404629 -0.4535237104322792 0.0914069338963055 -0.6886559034795643 -0.8398123478010129 0.6023615269715226 0.8641512020007791 -0.44868227599822197 0.3085162962737936 -0.42134436981119844 -0.18477525988227628 0.8221028074821208 0.7593209931767226 1.528448965254644 -0.20597759049195352 0.44294178322353617 0.03979075330655951 -0.3856333154392165 -0.8751935658142765
0.5744598289514475 -0.8556619971249063 -0.21507136979854236 1.223770751328031 -0.9039342690157423 -0.43291217358218587 -0.19495846958560786 0.5254085468748121 0.1695560664329318 0.5896432807962259 -1.1114606480279474 -0.16177928665718128 0.680094408772346 -0.1345607853782516 0.43010277744434766 0.1869256312563975 -0.006545520803500848 0.6456645995596069 1.4059726805769717 -0.21576929130050249 1.901815503234637 0.666425998989666 0.5235530614641865 -0.5549808672026717 0.6542030531604456 1.0613261679406105 -1.6122083135650074 -0.31300999275625446 0.8401290853300081 -0.7616473588717925 1.4590794801961056 1.2053990935601302 -0.21781788921195044 -0.8200045517411371 -0.5020666977068221 -0.1619197510138099 0.8494004591646267 0.25034108919613 0.5291598695572296 0.3384605752679884 -0.8492559851924616 1.239407647558473 0.6746833168635942 0.31500348506517223 -0.6107998002812807 -0.7724213050467899 -1.1241131872426826 -0.0828254410250317 0.5646646650148046 -1.0689642988077774 -1.2975454043086456 -0.3003753727339893 0.8435050007745162 1.2444934872789126
1.207219002126462 0.022252374543854536 0.6311592185698727 1.322290043904251 0.6286252794713771 0.5591811885523941 0.6729834036125915 -0.7575127633298955 0.20743338038893472 -0.8090112033150865 0.5595276882062565 -0.22360620171476886 -0.35407725480909574 0.10450914123158883 -0.7229093550457779 -0.23637431182542656 -0.93381409696742 0.12382259324128381 0.6506354964860936 0.9181543486214594 0.7952933673099367 0.33967021006559706 0.7849067695606737 -0.29560363825990915 1.0403995564005626 0.1427190829227522 1.0418589341767897 1.722295931110727 -0.7573821620045561 0.5555287200400503 0.11878982680645767 -1.0818070137893443 0.9082809951339259 0.5918138239519053 0.1606256093767861 -0.12335126168402522 0.7685401922203843 -1.0169424871624 0.750854366654308 1.4406186917153148 1.3647553350267163 -0.9051923293851677 -0.45527555974939665 -0.44030837827608005 0.5266150407275683 0.42925438376602676 0.011216332955809205 -0.4015713303064331 1.5615947397228656 -0.0745478575680455 -0.4733472910364093 0.3765919633533839 -0.1523561436078586 -0.5310721860253771
0.43700594445163704 0.24320805134858392 0.016271350009869845 -0.357037256129869 0.06142521103167492 1.3961773782994489 -0.09955389684935767 0.8720982622707616 -0.8709655632863538 1.242447923724962 -0.8196687330529477 -0.03399665656592504 -0.34016531207980755 0.09545795277855718 -1.6801513108048465 0.6322389625471851 -0.12225632520595764 0.42468359042202786 -0.43219848024522733 0.4484886072454017 0.19127168370105901 -1.04474271278452 0.07343178216343221 1.074392825893482 -0.6256927714787273 0.7561869116529025 -0.16588872065225535 -0.06144854959022644 -0.8478705015733949 -1.14978930864245 0.7345553165675337 0.11550454655819764 -0.37340248288318467 -1.9116517620632365 -0.008550601926249957 0.10881095931986107 0.6755682177256341 0.3321032926511306 1.060277015867873 -1.2555998015260819 1.2583530016980666 -0.05100569914284897 0.8710385493911705 -0.12239387747224084 -0.15849230112980955 -1.1397719604147363 0.30067321481727904 -0.4916652143837239 0.4928910306837231 0.8288067163709316 -0.8719539930885583 0.569235028589042 0.1546701669666916 -0.6812849035175906
-1.2096230124857958 0.12678114007728786 -0.8446112590117212 1.2241575798358244 -1.1684927169869292 -0.11246221777232435 1.8094100626670089 0.07241200187359093 -0.9574540843763625 0.891467006314102 -0.05412881009839937 -0.3485810427768894 0.2638481058988513 -0.8349417980186036 0.995180376307566 0.26277709437031793 -0.731901891631628 -0.8467179227207385 0.7674901369111939 -0.037060757281507595 0.021386117672466953 0.7188406237097466 -0.8727006308602503 0.7433048245419299 -1.639356767995088 0.16958633203171836 0.03115725005095049 -1.1616854216999122 0.08754318459440419 -0.2935604251077466 1.1942832101634715 0.1884309738810841 0.5863546732076397 0.2529941766488041 -0.7969850707182364 0.8050194747824243 -0.34651918626172407 0.9790744062967125 0.3606394557149377 -0.027253329449735464 0.9039729073344238 0.7145911365201144 0.19062977654854218 -0.09032786887173838 -1.0322635992570068 -0.2437554825592882 -0.7222301277182429 -0.594113220305299 0.8496710117820943 1.3608544886709997 -0.04606916132547534 -0.5673731387738921 -0.9969121319997414 -0.5412100862510811
1.633236057504585 -0.4783525462386246 1.0061539443294205 0.044606195054736564 -0.3671731249442425 -0.6824740736516972 0.35769772109199105 0.22889463376411295 0.10319681279471582 -0.4526482010527 -0.3940940078081466 -0.015156089477921908 0.7160171882411533 -0.3494189646523409 1.4859652650276005 0.6292498314757313 -0.08058036621702425 0.3448952149447601 -0.9832300188491904 -0.6670257005064538 -0.32142473798246907 0.1463368274683492 -0.43768833892569237 -0.7144269562735561 0.06385168364367966 0.44391271176494895 -0.04607152097129913 0.13683691375284185 -0.874855927333213 -1.4687054346130524 -0.4810678869346512 -0.2518687312502732 0.4477910590740697 0.16598302630684475 -0.506608356392865 -0.7442545365637772 0.11618417771728212 -1.1707295789744099 -0.10290890959919963 0.46066659162143253 0.8705593362208144 -0.5759024221603297 0.5424870293112303 -0.22066459693960816 1.2457464795167146 -0.18922018749794006 -0.0027908608776668897 -0.09651562686875126 1.5645749171031273 -0.6037908156738574 -0.5017824956068058 -0.6176448140310986 -0.039806305923035135 0.6906158611445383
-0.6814092629008721 0.13930341577917654 -0.7278838630886992 -0.9739660330713642 0.5961968440401026 0.15204032222190872 -0.5098195420682474 1.0416003670924745 -0.9408171880285368 -0.18899109477354914 0.5696462748858464 0.15520263896505032 -0.47840189886093143 0.9988051535765425 -0.9627035031741893 0.9067999929274411 0.3013171483464406 0.5130928967833914 -0.4357188484750332 0.5642380704591743 0.8582462759060284 0.6297397524496333 -2.068692793000145 -1.160729564929317 -0.8666628982671978 0.19948878658626085 0.10581474653878559 0.20958001722206682 1.4434924915674432 0.3553008128983603 0.35446778646333005 -0.10265812869517543 -0.8363027126747389 0.4145020449958485 0.32513640279638695 -0.13601878042919185 -0.6359780362238022 0.8265223101991082 0.2832929326952159 -0.16123768215159784 1.4753072270576117 0.4367677379957004 0.11645412182177128 1.1905150004498646 -1.3298076664132952 0.25684728213580277 -0.10009110427105161 -0.3570812423172546 0.24787444016288251 -0.33079542314144733 -0.08135566164601932 0.9926229000926381 -0.6991989976013505 -0.44101706252258854
0.9710267124560037 -0.2240722695421663 -1.8420170438564065 0.5721765607975272 -1.0565387947408098 -0.6950932933947781 0.9503466191005059 -1.0893424285812552 -1.7437743381562223 0.7917114227182265 0.6022807726001389 0.4692261416810137 0.2597994838355992 0.9854229962718639 0.156671814219488 -0.1573324356151587 -0.15182316468257484 -0.4054684597733526 -0.13478222097492565 -0.8202808468839805 -0.4166946792786773 -0.4665182599258229 -0.4337580899716084 0.4593035880249954 -0.8787229151633094 0.9680979550978122 -0.5217421247426373 -0.44005813460224064 -0.3825913581287798 0.6763203611365043 0.2923012113138904 -0.07645765185099551 -0.7754123362555871 0.879411999713184 0.3642817069545561 0.5354545082468696 0.1482521035339231 -1.0240693738948567 0.6473362273638896 0.8461783428303932 -0.07959737282048707 -0.22817690587477119 0.15900257875018048 0.43530402975631705 0.1453160158327539 0.4884498521357705 0.5997079862461232 1.1416813543079218 1.8791848826952298 -1.645505137741427 0.28312560631591227 -0.9214118644200746 0.6485802293986553 0.3927364893233076
0.031725138073687986 0.17482288238722582 1.3201190129497955 -1.0912756437223485 0.28996031677854506 0.8152310960727187 -0.5132272385658956 -0.01581863671929773 -0.2354567316154615 0.20620325727287836 1.1663842124860966 -0.5645252506283818 -0.7411404475889716 0.2652905256268842 -0.6199114495331622 -0.6766541491172713 -0.521787212966382 0.7864007712743455 0.8062335163608871 0.7215766437576313 -0.5865510780346046 0.2879334887219247 -0.931089617909205 1.1386886846086475 -0.8756167849858683 0.15352742866112684 0.6086408622117268 -0.8594758160584473 -0.46295594850504007 -1.0299843546781333 -0.10127780149030435 0.053882359339649855 -0.13806287526955563 -1.0385204310080658 0.3317473121688206 0.3734499837036421 -1.065466099932968 1.0453770491336165 0.3554723412315314 0.9717637066690272 -1.051246022045864 -0.8453131490865817 0.24648448382173221 -0.5150159832952128 0.5226551260718224 -0.31658864242271056 -0.6138242350407637 0.07461990433423565 0.1385630255812953 -0.9716547568534475 0.5270971944494293 -0.8361709885511395 1.0129231110433978 1.0423583250433048
0.3277713195826002 0.7727035397767487 -1.5424676560165622 0.044039102846669564 -0.05947132649556963 -1.322833923707639 0.5902505033236256 0.4828472296427743 0.8014355290484286 1.3160007133146632 0.4392161863126192 0.8014206852219266 0.09354005608490296 -0.5774328540022735 0.42017116059054266 -0.8186116007493279 -0.5831791640626733 0.3650802874485745 -0.14880079014440206 -0.9345229506190815 0.2800323408651355 1.1063635288703249 -0.09393776903751616 0.4484661867804594 -0.5456502649034818 0.18455948804535444 -1.0898494623662283 -0.3718200727444334 -0.35630788964743915 0.6648901554803809 0.018308925069160764 -1.0157387545847065 0.4827940215559345 -1.1131956908837222 -0.3298416102505932 -0.7147797561127447 0.8962496424549306 0.2083326355580487 0.23080373940517468 0.3192933469530289 -0.8603921240744073 1.024066066612744 -0.42374673533939283 -0.03498706646203403 -0.08127828084877226 0.16097442995827965 -0.5405394850454415 0.41427017298587415 -0.5085806634046647 -1.0264050581933668 0.6727041469243549 -1.4520672313595155 -0.4101857407212703 0.9409307979546987
0.6489779626284713 0.11636267991950189 -0.8689626411033924 1.5055969698985496 0.35295395883894753 -0.9870372787383106 -0.549374704750907 -0.9648103016032361 -0.3381467528605753 -0.5308911020914286 -0.44614442629147183 -0.1991841292135667 -0.16400835531304891 -0.736145743931029 0.8656503332484693 1.3147808521281403 -0.7928631116230234 -0.08808152316926932 -0.5568399737933529 0.8001484795930514 0.9539181662333319 -0.9232525753283564 -1.0635519315336912 -0.7909329124857277 0.8251219763715714 -0.08934034488980308 0.8142404729826944 0.8620941747683339 -0.667563039030088 0.4464589711617428 0.05105515166020508 -0.446656585928335 -0.15323955706477083 0.8123980127597933 0.04361294787212705 -1.2071097891921014 -0.6743188347351019 0.7854069136548713 1.302958436336514 -0.4674976286436724 0.01900211904375959 0.06994527006881229 -0.05264882746037419 -1.1774117522076206 -0.20892652204986006 -0.6054120471346307 -0.6904673434805773 0.511007979003206 0.41610597929986093 -0.4486362636589086 0.03680412278133194 -0.06289450771951033 1.009500004088456 0.18303175990091747
0.16767462687373758 -0.9474541868184421 0.8905919566271274 -0.28356279416888447 0.21818230754115814 0.46906099261237116 -0.5664152611102109 -1.0339710579559167 -0.017966182941088926 -0.6220645305198802 1.4498792446316686 -1.5726409054897086 -1.0385110379675722 -0.2091065917955786 -0.08289451271701409 1.3921480875914538 -0.0695737286050957 -0.836956458660125 1.172153612919382 -0.15711850436941277 1.1065321028993966 -0.32209133220211367 0.033981264688291435 -0.6301600352606711 0.9087221580129078 -0.9692435626022516 0.5379715271629808 -0.36158718413942953 -1.0986699901901027 1.02440532828831 0.3713538844177586 0.2289780930134091 -0.4613586466698825 -1.2014439049798347 -0.14127068512419094 0.019121418695367265 -0.9679717828084209 -0.7962958763843067 0.7218309966830395 0.6622639663284964 -0.935268873845705 0.18403194464062417 1.0460206167777535 -1.5826574087165188 -0.19870415791906787 -0.31553648490596325 0.3961393382809132 0.5725841105285694 0.4857122304165842 -0.14979620831254453 -0.35759231969157657 -1.1526600956853144 0.28352255499879714 -0.009941465752219825
0.9722294587461346 -1.1445836620878793 0.12369738745369246 -0.3637629663822848 0.6159069185722958 -1.0044964600223092 -0.37502554667970944 -1.0385357536863153 0.7297477975609075 1.068869426296529 -0.2664064348158316 0.6764779108791987 0.6445832320531233 -0.7165768549085589 -0.33471530427675167 0.6765774840745535 0.35785140935731274 0.504480966998104 -0.5022654628088367 0.37204748468392895 0.5139295263443611 0.42775443477637254 -0.21862948421439699 0.4816290860967555 0.6449599402310653 -0.003028532660056815 1.8685196606380288 -0.39138237459922903 -0.15640571629721017 0.9902674607536842 -1.1440820234514115 0.7932698770076352 0.26197324533607186 -0.1417895167825729 -1.204687616318883 -0.022236355226640747 0.5132159387616098 1.702314120857144 0.813353222752392 0.5214982266070065 -0.8163809166755316 -0.6140979604070282 -1.005494171368951 0.5878753041432725 -0.3872738423760248 -0.3355940850176607 0.34297161036048285 0.47456522758942477 0.4085211348614094 0.4905028337071241 -1.3046553893454729 -0.9264879207274364 1.0652825870728684 -1.1470417442856562
0.2559706339473211 -0.6272243515263101 -0.5875268224347983 0.5621224823202718 0.7286412193243395 -0.03164447043898305 -0.7519248685623807 -1.179562782911015 0.857142144148334 -0.15043640640876166 0.6541555652765598 1.0207690756766028 -0.4845834058401872 -0.36485858084201434 0.8154799420187666 -1.2555938965692361 -0.3974414291670951 -0.00836411322850722 0.623099323220361 0.5709489214266908 0.5577428507762117 -0.725355620452144 1.2443681278771466 -1.08971800542318 -0.5826839092832226 0.397706359972846 0.6692499161599714 0.8769369694656863 -0.18443982242572 -0.7028858614120725 1.285902086076208 -0.6226836548201351 -0.052685925830426916 -0.4876320502328757 1.9052766456050403 -0.7848456602446487 0.14374278922090467 -0.43008630449207036 0.018865982179678664 -0.94838321253955 0.4868786503455768 0.6625799643357504 -1.2039309235706148 -0.16799630187879755 -0.8035101766671637 0.38151304760351284 -1.3745458940370805 -1.0502066686519265 0.7621424343115664 -1.099616091932729 0.4599571049218158 1.3003911663149565 -0.39507877788202084 0.72644013796288
-0.414539467211102 -0.013960570130131633 0.6956102771066306 0.199802170563047 0.8844720878624737 0.3323952182337852 -1.1024016927415667 0.32929877298834953 -0.7424149064687798 0.5334871722669581 0.2790551403125105 0.29124313257882795 -0.4521084631667118 -0.7160092023961906 0.06110608345723062 0.05501414498008761 0.7481851282407165 -0.09195596295069253 -0.5983359666735568 1.0537091480627458 -0.9148108433804935 0.8712384390028326 -0.10400198662136906 -1.5008991654788209 0.018042656398035928 0.7079039173557853 -1.1041842650901719 -0.8478098237276988 0.8163572599280895 1.076512596501535 -0.2807691067244933 -0.7611393059486651 0.0670069969058189 -0.5078550949439383 -0.7534364094267226 -1.3121124376078594 -0.30422634360199236 -0.5429559213011175 0.3852129296048241 0.5143912049991859 0.11662936641763688 -0.6535887598456305 -1.0179199431238015 -0.7629643855596051 0.6369940491323631 -0.2651889872883932 -0.44755728018155266 -1.678687732288906 0.298590938598457 1.1413474453551347 0.5056180890690065 -0.7546021388189383 -0.6865878385377052 0.02141402000622994
0.8056090369294826 -0.7654892029579563 0.3580796423379881 0.7822962801846365 0.5509490361964378 -1.0245260295893213 -0.2765309758847279 0.03943260128262255 0.7555369945701724 0.2024635923181456 -0.5914291272984016 0.36145509963593214 0.7091237922510532 0.04783903614354623 0.1375975269172262 1.1204617800971446 0.8277434117821321 -0.3680791552492528 -0.8974117552934753 -0.007730477242917422 -0.7569880892587302 0.7792350687917358 -1.0490081058939342 0.8719053098847089 -0.24541513828690836 -0.6039290477625248 -0.5772821719370942 0.580616156792644 -0.004290127225899831 0.04529475281774531 0.7994020743048628 0.8123628300746022 0.6066400648843087 -0.5313666616324757 0.42876435420259773 0.36380256066927263 -0.35983270718777405 -0.2568196091178743 0.4400395039829425 -0.8447260724723922 0.6290428661273494 -0.43404970707246315 1.0988705561844947 -0.8603392322183631 -0.05684369723464483 0.7116164657446897 0.6055926711545059 -0.8741759342860076 -0.19167515535713947 0.16926276542373342 -0.3985948026138419 0.4725613845826942 -0.05364675336474406 0.25039245102574387
0.06625797842177067 -0.8653015303417708 -0.49835384250918113 0.020011717304779686 0.8058603904877398 0.7523184020701477 -0.1855896100745721 1.1583578445567217 0.5444129309660017 -0.007553846217486948 0.35796665976861347 -0.2794514103150438 0.8052887586747486 -0.4212287017123289 1.0314928329878534 -0.6217630736816249 0.5037482958361923 -1.822540829577424 0.16686965327880016 -0.0616264920012794 0.02897993369125279 -0.6402941540248288 0.20184974394656313 1.2961395564946256 0.5216825079577214 1.5818299879082218 -0.5001639164777836 -1.0109710138060097 -0.4687013440528054 0.3406517497572206 0.23634150465642167 0.4373382665442284 0.14072132664582981 0.3557561288831434 1.8544404282157156 -0.13433554193273067 0.7784362749506202 -0.2909515613661008 -0.43366449217135256 0.6673685679976427 -1.3637457852632755 -1.091072284222446 -0.8267548193777465 0.7110285966382801 0.3860219426234116 0.44184848415787253 0.178753509787414 1.8602551350713157 -0.3760324998212889 0.6706462058574236 0.005837295874115855 0.004266410168630497 0.6588266288345402 0.0691007305176008
-0.75868556182852 -0.08907989800787508 0.07899280053707064 0.9957972866626046 0.22762811749439 -1.370870873587807 1.1367198808539438 -0.9460481204154705 0.6359095151040064 -0.5294258884762899 -0.15482491744943266 0.27606127864609387 -0.6445698270578993 0.05944388598639572 -0.2479850205521394 -1.2485898859297184 0.6926913167372424 0.18483248256236456 0.22132325787816903 1.1495175860688542 -0.28461271224691936 1.6784540084825426 -0.6668588924187288 0.9307226900000621 1.2701097742298249 0.5304943327081484 1.0829798937927848 0.7389867415397695 -0.6637997818096284 -1.1803208621054164 -1.2193021289873274 0.5538192169821465 -0.33915102216286014 -0.2557503977523811 -0.33733038379180563 -0.2604390673333112 0.9328106264749666 -0.48131474423007686 -1.1113674985883244 0.3425970714767651 0.43053735448018604 -0.46057126936548287 1.253578377909805 0.2748718222905764 -1.1707571066884 -0.2963785384636115 -0.6746133291814991 0.9995069612641522 -0.6979416763707496 -0.3559184829481151 0.09482554694252343 0.1494710980315923 0.09753921609036204 -0.9281490087660078
0.21289920784561095 -0.18459540331860336 0.180420187528941 0.2369052180607914 -0.5113756556782649 0.5448394868713353 0.2911786467488219 0.6542280398337456 -0.7920126662443565 0.1290652705843846 1.2194941392290173 0.6096723814358627 0.9670207351308722 0.3547327181829389 0.4622313539111285 0.7628597378075048 -0.1813827937578098 1.033430174445062 0.20456615099923026 -0.8445666347457759 0.7912720700630532 1.1545085576980565 1.1217010557652975 1.0758356399881517 -0.8936224987972342 -0.7490080873489195 1.0407173487750385 0.6108814185692311 0.2254517675306853 -0.4545133474869606 0.5708257582468641 0.5474660700373142 -0.5179244241583183 -0.9900104046204614 -1.0152197562669993 0.35411067563552623 -1.4371943420448772 0.2519580886667431 0.5762858516127225 0.48233695272715854 -1.0168414479192174 0.49900024494629563 -0.3772154991263666 -0.24597050026393763 0.8498310395090469 0.28728218029065256 -0.10139199170304847 -0.8057087896114643 0.3225159842518795 -0.8469729870215295 -0.502121658155535 -0.41291146770648646 -1.2692221602936213 0.2979170848050358
-0.21614008767621617 0.5680276516130557 0.4106708179025384 -1.1732392426785467 -0.9685631320332015 -0.8633174442636797 1.1601187716576682 0.4775862411828661 -1.1105097503572972 -0.12616092443366766 0.8619332516567005 0.8345917846349973 1.2805391080910968 -1.1500149333024385 -1.4670725904637372 0.44361340737902605 0.986008240929003 -0.12048183151491348 0.3753596597152947 0.673051526107936 -1.069660207778699 -0.31732139981402907 -0.6674272245304251 -0.028159938212478974 1.0590515111923726 0.1117398338229007 -0.7652723550767704 -1.0890795180342872 -0.37353992132365205 0.25298635231208777 0.8072677337714231 1.0529690066814987 0.5554417644237466 -1.0881172684977143 0.716930085701895 -0.044296628222311785 1.0006174400601204 1.8626691061831258 0.31583112451770284 0.4889814539279966 -1.0342207359049034 0.20382977967290072 -0.11454048644464837 0.26380730275481723 1.8979616766443397 0.043571195889338055 -1.324561287590726 -0.6503574025685503 -0.20056643099794869 0.05415219698529666 0.19275340304332717 0.6197900915961552 0.19380021797629532 -0.36357257759398093
0.9019468313833281 -0.9932991890493752 -0.28364423802103156 0.48758677433874636 1.0794404670253699 0.3636355938452013 0.9661377757673191 -1.0286429735861211 -1.048350702354431 0.4752735938099099 -0.9826997558694743 -0.5457064063013646 -0.32853317132583865 -0.37355838867796487 -1.8449275515942969 0.13207096866918266 1.6365002682680265 -0.22945526556702067 -1.0625182877066117 -1.5899017070776869 -0.4787298732222911 -0.7901182648968348 0.4615336168982006 0.18308805791025712 0.4482370878663782 0.984856485978306 -0.6313298249650545 0.9092701396755991 0.4644455450183498 -0.47878717851929214 -0.5435251122720981 0.005561414070372472 -0.6336767425522766 0.8547395094317394 -1.4928244170905896 0.01474698433365701 -0.7478239506924808 -0.5629814315816077 -1.3465367528712122 1.4124507267260176 0.13891327710889323 1.5629416390028705 1.5075322305983916 -1.233241107237546 0.41464561142638834 -0.33316730353347307 -0.34917736340519495 1.4962707136081226 0.21249240935280456 -0.5858939939188672 -0.7320460119365466 -0.04159184726925391 -0.5935081720783683 -0.8300059581608223
0.39996592748299115 -0.1820666513192314 -0.6266618312286606 0.6121185938042104 0.7300742807954972 -1.027962881106805 0.26371412614576106 0.48775032715395034 0.3731066969392827 0.8854275009527817 -0.37094139287414796 -0.3065158056438086 1.2995061924870268 1.352834529310538 1.7331813048070728 0.7209189402890648 -1.5389124716344287 -0.03081704640584665 0.567680324392138 0.21843140198080496 1.3243343311932434 0.9281317740877637 0.6900695980384428 -0.09296229024124497 -0.4403738603598676 0.5589131055440324 0.3720886258038175 1.0609608026692983 -0.39404713918566725 0.7478260217596852 0.14890000027112188 0.27481795083395094 0.9074255170960539 0.8221440348836828 -0.592118987844757 0.32434702684338623 0.8316040278123914 -1.3389567860051836 -1.1511482193488771 -0.9595098473015 -0.4161823036438393 -0.24065421942788756 -0.025635729673035235 0.6102047376761002 -0.7711143252317205 0.13458168725936276 1.3012193693450673 -0.4741196207083767 -0.11051362666615688 -0.06167146433442117 0.1495162279198184 0.9575757398448412 -0.05474331359514695 -0.03663952523793884
-0.1144089681209659 0.803570290892361 0.12751645030364056 0.528635453408623 -1.0338079702130805 0.8955973412024771 0.9405509811150585 -1.5350927897513005 -1.364670782349444 -0.35112889794962054 0.2015909295443563 -0.19595259096120393 -0.165763222939746 0.6927229898027569 -0.5276357239427394 -0.09067197115209458 -1.1807586209226097 -0.17897859344917466 -0.3710166795725792 -0.00623608383211649 0.154033295436869 -1.5050425917697752 0.6735391752671146 -0.09206317712854445 1.9161087960921972 1.0309385268981743 1.2605210071445803 0.049590651173921974 0.9380984481285322 0.38143991516191234 -0.13664161275470516 -0.4854817384057082 0.6097891486638078 0.7052730507406162 -0.5076575155848984 0.4788475404079732 -1.0145491434386598 -0.790544938549089 0.22447451974021865 -0.2578637317117929 -0.9138563626077973 0.4684346380858561 -0.10977644235127948 0.15170237420149435 0.43962080496564404 -0.02093843003154361 -0.9024381810040973 0.23298602937655927 -0.08072251127913782 -0.9344235196828605 1.0931225410936491 -0.470332352821091 1.2142110738326761 -1.1550234092387883
-1.267288676204257 -0.6764164823640569 -0.6747189154433205 -0.2514571230873656 0.13762084545218511 -0.5451456435096684 -0.293432178524663 0.6839189276726259 -0.7123589171753858 -0.7460352621219503 0.3391459001417797 1.015497490643229 -0.29995084086926016 -0.8007184134572863 -0.4280858959277174 -0.015167578078996213 0.8190172204595381 -0.06836603835804567 0.2952238298379102 0.295505308685428 0.7401581284099564 -0.33323541892409986 0.45902582065822506 -0.583715928526824 1.671256702692276 -0.7309241607883552 -0.7058399793637756 -0.6219120529350628 0.6041607932732831 0.21151823421489557 -0.1318042646758668 0.6024702405637908 0.8198309773392092 -0.5761171244523795 -1.00108002674314 -1.5994646006186752 -0.028123402381413753 -1.2567129561765302 -0.8219875909528643 0.023426991567950917 -0.24252128547616442 1.044194250810407 -0.5488504551461615 0.8111058246839351 0.3296477768935157 -0.7808140330366732 0.5930427854029321 0.35037416072325456 -0.49678672212603137 0.44999535896289217 -1.194619289912207 1.049414725838389 -0.6174270329260046 -0.21208603809536436
0.42415718625633303 0.8345669839908094 0.3024735128150142 1.7122755609214324 0.8552251209322173 -0.6321744625964812 0.5203299976023656 -0.3020369094678286 0.6988295639438344 -1.0279821110311484 1.1788312757054284 0.7167944451903683 -0.606707613095208 -0.5641426937935796 0.5695473938078772 -0.6130750598233757 -1.2130613045701633 -0.23056162178986095 0.789667107722986 -0.9032449158052848 -0.44696992326253615 0.17320808280061256 1.5291653411212813 0.2607955600297015 -0.41438582928272794 0.31727013729056613 0.5703480420744508 -0.5198602825037091 0.11008786007643906 0.002242930363054174 -0.39620393417528516 -0.8553482710753757 -0.6800399973438513 0.061745087299028945 0.8281340635920276 -1.5976473676601595 -1.002092639848912 -0.6550505827710792 0.0811470620381079 0.6053680196732202 0.7978652404029969 0.6435060708990754 0.5476483721148837 -1.2076275093000102 -0.415672028571458 -0.22351139494579625 -0.5338179176873203 -0.8977189839444579 0.3577812680433067 -0.38487434357887673 0.3796986045557704 0.3683703176994869 -0.5104804690461979 0.6844361247039022
0.2134170932660978 1.2035539216835265 -0.6219067787139342 0.8341530342538553 -0.9156680475181587 0.032686752189074963 -0.2846937913505102 -0.5336269443995096 1.0776913689083545 1.4037917021510298 -0.10102930137923483 0.7845248503397865 0.958071462596311 0.19861732799640813 1.0135406519987769 -0.06659802104694745 0.6671997033726549 -1.02576590415681 -0.28554776042035257 -0.3388910221696141 -0.465288693660506 -0.07447683983813996 -1.1496866454689123 0.14972800756471982 -1.0717250649000947 0.46350238655522963 0.08109576971069232 0.6687940442508835 1.101236010734602 -1.026613873937263 -0.5544426793004431 0.42396025118336184 0.3167313287531594 -0.09137927565451981 0.6100549512824581 0.2527994611301417 -1.8236030993407453 -0.48086421197431967 0.7889060258973692 -0.3638075087155563 -0.9828058865008649 0.8799226336396658 -0.457202353937356 -0.8756901144805292 0.37359983332306945 -0.12499947987463522 0.8480286674278568 -1.2335744274682074 -0.34506406625431685 0.39763675722180314 0.2630348839171046 -0.5607500468937192 1.1050457352614502 0.7850939514529033
0.8208661585446024 -0.7305501450684798 0.59456655606113 -0.5419379854415695 0.1365373182826361 -0.5545849300869193 -0.302730911245804 1.2271048696635234 1.3528642100607817 1.8778659589598945 -0.19933454209713608 -0.12437918452489222 0.05242431992515589 0.770232256065343 -0.3978837460733908 0.6948603309239216 -1.307026019974085 -0.6328045337481303 -0.06403956187410936 -0.3695725883581084 0.8406282119228567 0.005117404071272036 0.4281375537442554 -0.266167185437368 -1.1041668890844782 -0.6337415887175143 0.01612464739360997 0.031060643446824965 -0.30650168075270334 0.824342863305974 0.13253707937072778 -0.4191184945380521 -0.8646821826221334 0.6902554784390125 1.9841913028738745 0.6271551372030851 -0.8529770910251881 1.1620366705291083 0.0009249308887570029 1.2431369673171877 1.0481999442403498 0.6246656333140561 0.49405471492919195 -0.002619160982433366 -1.2013866678820626 -0.8471903348279571 0.08933783306009496 0.3679689634117351 0.23857076175264158 0.2638174535543175 -1.1713665016090204 -0.5510514972935728 0.43921372390472996 0.9485782420485978
-0.7751574872993354 -1.3504847227417098 -0.4635632771159607 0.997917659207855 -0.9817261777150352 0.46663765651909683 -0.4346089969144904 -0.3082775780757286 -0.03620389060583695 -0.007378545365167299 0.038508437802324935 -0.11392646359800046 1.1545016526489724 0.5801208390477532 0.1665523239781989 0.1227385543375567 1.4169424906832626 1.2117328018445763 -0.45625351892511273 -1.2867031861561251 -0.6682405422798974 0.25268078023572416 -0.3630010777431767 0.5908287562068597 -1.3455949933817957 0.8474707942092572 -1.0051458868248262 -0.3909471548099018 0.4003171033765283 0.38020500917282873 -0.5889764126188681 1.0750775426766652 -0.08199362204332361 -0.10553653945850233 -0.10619082826913984 0.33484649358806673 -0.512184335549204 0.5885896860961033 -0.22222339823299964 -0.17943235321846246 0.28518887647467456 1.1765455854314186 -0.8180714966858988 0.07042732315475408 -0.18917891436265988 -0.17549428058201672 -0.5623785966199768 -0.04281018325400043 -1.066650062719786 0.2396813137617142 0.7816297588700097 -0.33561540317670163 -0.6618202343660635 -0.716214702119338
-0.42354292438337077 0.03713764846488643 1.0069233543003313 -0.6361099175055756 -0.13761468426930673 -1.3074530629631602 0.8157063150626579 0.5608846927291735 0.7100902576928905 1.3539014889795957 -0.16304434006779212 -0.3291823230263686 0.6476996697251826 1.3607589855899724 1.7093386840040452 0.665193305897229 -0.32083267579519925 0.5205102518713743 0.3279219657742489 0.16454767850402874 -1.0458728952523748 -1.3021550965002036 -1.3478325943574823 -0.2839733748432344 -0.5826206006750563 0.47789631650102615 0.9272603739256718 0.6880067451029465 1.1951087281861401 0.18559522688094643 0.14333917660800527 -0.012984015866933096 0.6571521935252842 -1.539525993303607 -0.08368699718812506 0.46576914914912926 -0.7039195215589218 0.5053891252791317 1.2870636963303217 -0.03142276839797553 0.4547848544101973 0.9608922691496985 -0.49303250696645806 0.6767656454812059 -0.4198484904781146 0.4062274501321028 0.008076259372639172 0.20252934018359015 0.6302474800778808 -0.8877293361922178 -0.12459058049627958 1.157608943910017 -0.044624598281097105 0.6454096447191433
-0.2825587651136085 0.5311785034089173 -0.2893018973043479 0.8938288558460348 -1.529862651766169 -0.3131527920100402 -0.09122427087246388 -0.2770452263527685 -0.7530068526947206 -0.5232265079054856 -0.1574495954779953 0.47688151298892845 0.06872316340779555 -0.25113687225616177 -1.699239751968828 1.1931260940482475 -0.08388414571969721 0.321445004108992 0.6751059274598108 0.28840534318013983 0.5713045160455656 -0.20463134219481832 -0.5988956858607191 1.0880550147705106 0.04912944137232611 1.188323599355949 0.17177204057939433 -0.1984597852331733 1.2667725010064304 0.4144472184218724 -0.4854010692326581 -0.8933178208038286 0.1054727646085502 -0.8049581144290643 0.18868929320665923 -0.9669749961326053 0.041178067387541095 -0.5887870023316442 0.20864904304072918 -0.6756275265424565 0.023319513788145674 0.17235190025141517 -1.268158220018675 0.2209024124221977 -0.7216318582109618 0.6605534815697465 -1.2119890733366319 -0.728537429250874 -0.5954801475738553 1.0319832419464459 0.07895235254212568 0.05475470488666495 0.7141438419242858 -0.7778890728188304
0.054648675402710845 1.2608642811111712 -0.3059379603507936 -0.3455248400485196 1.562378052733127 0.17346579681536067 0.09252804390235086 -0.15227126829242127 0.036312265160877766 -0.4574529185573919 -0.9351928055015197 1.0946078568969848 0.3685120277035733 0.28007683254188515 0.31838542126988695 0.1863932638093131 -0.41337071313565915 0.5527377263445106 0.9638277947248084 -0.2929137493274826 0.35178617574823046 -0.3260892603384746 0.26344003853727865 0.9347031181479346 -0.09944875860699931 -0.31761411226230757 -1.2717301251642346 0.49619222337013036 -0.09954792339331103 -0.25453028901723324 0.9696979907654977 -0.31116375905179533 -1.2051664339500374 1.2505131186688456 0.28575119043783526 -0.417278273690689 -0.7642107102388046 0.05240756442921979 0.6565286168514854 0.7968448371523057 -0.8565649240320408 -0.8225135001357426 1.3268918835440597 1.3517941391538288 -0.9083740370092144 -1.2920868172649105 -0.1664035009848434 -1.679743105410703 -0.46247491081634334 -0.7891272541935354 -1.1566127858867772 0.9736466940764055 0.2228688773645065 -0.3312105254767157
-1.022832874977074 0.00491666063064794 0.6780846529523129 -0.7919004455811931 -1.3994461794337396 0.24848243565096312 -0.42675413764245174 -1.4245812131831497 -1.1691569316925683 -0.8662214393600813 0.7279290441462837 0.8663022000601486 0.19884737402025038 -0.8388213054893263 -0.28742206771200624 1.6839156228971521 -0.33700083255479624 0.7590540935926327 0.5376232366201761 0.370403360042334 0.39051311912436965 1.7020881387678888 -0.7192396624894117 0.17786961763221198 -0.1540503810571282 0.8275068911834518 0.36551560623429397 -0.6362810487525175 -0.08691774956756065 -1.8729651436302988 -0.9917197987470294 0.47490789611995676 -0.4689878398916516 0.6108972354794537 0.2509964189367784 0.10683489801772317 -0.11258093404157204 0.4258496633270407 -0.5402782755339421 0.5761892895136227 0.5960770386404302 -0.6539870456539978 0.4890946554159867 0.6338282044829433 1.5845362848883895 -0.015676302316876722 -0.04872362180806644 0.715170417631648 0.19167425492972284 -1.5372607636426947 -0.20269287511176592 0.8916105991030654 -0.8517166932365787 -0.9683777113548916
-0.451040749736118 0.7328263533825051 0.5469488778503648 0.4045486694093483 0.4077548923764785 0.25893345001483925 1.1413578570613605 -0.7482745543248316 1.6902930047178186 0.5260731355975135 -0.8016991587221338 -0.22145317310784768 -0.433232272206137 -0.6482480687576219 0.36293660807494105 1.2453341686898907 -1.7075176037133408 0.8230989472728765 -1.6506430121145121 0.7329706175238526 1.0474783829980336 -0.17427030022774825 0.9826850030532255 -0.5454710009326 0.7324749230687526 -0.8781917096082067 0.12391976249370285 1.3157120359995347 -0.0367622817215601 0.8569341198457162 -0.9894563517903263 0.3780168340158087 -0.6735489430721644 -0.7299675032890327 1.4331958034268009 0.9266213032252862 -0.5044095491326711 -0.21108856125183512 -0.44541351831736975 -1.374927114796324 0.6681415167408793 0.44842911715717076 -1.0294379808152985 -0.8945095695306537 -0.3101035618606179 0.8117419698344346 -0.043001690747492605 0.2789903650353213 -1.3051701746548825 -0.7554855669579458 -0.3256774096343922 0.8169005512552309 0.3288954282110154 0.7492483839876636
-0.8435544794815297 -0.8595258149496313 -0.46447080622812126 -1.6706385258929912 -1.1997619696660209 -0.05771281702088532 0.29205931039033683 -0.3963122213155223 0.5748540377645414 0.14449151714287473 0.5032076547292039 0.26593937263439443 1.1611872630731583 -0.9939835715889481 -0.2808538085042537 -0.5194919661162591 0.25581239315913096 -1.1272880230520743 0.4668491165519629 -0.5661635930363635 0.5675880116976961 0.2882277269881317 -0.48105587054989635 0.9579677389884289 -0.5907837645612439 0.9391841128445999 -0.8482387433811999 -0.04677521462267287 -1.220276988096526 0.3150084631116275 0.8053161181177791 -0.657751067878326 -0.517648157793271 -1.3253781159084976 0.4239312103761675 0.7745739415224633 0.6414187484517433 0.9440991584131833 0.18858657889187663 0.5169911960138642 0.14570351111481195 0.9032466961627172 0.9642964774772392 -0.24862369358044967 -0.5661413056240853 1.178430170524709 -1.355693279599342 -0.5171582452713965 -0.21599733709950703 0.2858838393769173 -0.598999822460351 -1.6517449656003251 0.7850891488127058 1.7727290486215548
1.0764977503717896 -0.9179845047148035 -0.8044411726925798 0.8424081172117601 -0.5670520732761446 -0.5073173306224079 -0.8317470083141395 0.35848874126565244 -0.02142949637368352 -0.9627743541124361 -0.9101149071308069 -0.9772290167652458 0.790875557917749 -0.18847784301498915 0.44977776913296835 -1.358176344215554 -0.24025273116017537 0.8853832255407995 -0.0004008769827680281 1.020821077132166 -0.6234044624172762 0.4452103000997507 -0.47349384067116596 -1.062215807447462 1.6686583741210503 0.8159479258598143 0.45230067054907536 0.187146930265229 -0.3697210708010686 0.528565838492923 -0.06671683151801583 -0.46842999673603053 0.31828905556897197 0.09066910068941292 -0.4249036360519505 0.2432306000994527 -0.8088701476924675 -0.18108283053680824 -0.30030972202427364 1.1476969035295888 0.22799824864610913 1.1118420688402118 -0.4789534922660125 -0.5377694597610299 -0.8616607781084501 0.32997064891025885 -0.5743700728882843 0.12183283142772505 0.8868245891014486 0.4043321826125619 0.4018565899177691 0.19706356717317886 -0.08216690737699517 -0.7591615013109645
0.8583643122753919 -0.5866363858371109 1.0564244889221879 0.2389010754762385 -0.15921760791875855 -0.9575071171609177 0.509789571691343 -1.4011215884988124 -0.3759027521798353 0.4802126658032913 1.5506445409014176 -0.5729878667401873 1.1382722679305746 0.18985204703352593 0.31627971148954787 -0.6321253560836766 -0.7669518810277123 -0.5522075826855465 0.6829125181498146 0.7203575766828607 -0.35692107123629857 -0.0965973726229124 0.4694691514588488 0.22346377031694287 0.28135801962211093 1.3503301818048095 0.30567486401927835 0.7652159232238829 0.049711546798841155 0.2023947441538579 -0.5623466915706022 1.2339439472366092 0.8828111332478772 -1.0520259352192618 1.0474680951188373 0.19692867289650323 -0.0704769129866078 0.6566640161249216 0.6192263348622635 -0.32894649934087533 0.005277712735350271 1.5204466722737402 -0.09469795730158503 0.8461165308968484 0.0006811923705299927 0.11534802360323176 0.5619394768270443 -0.14408523876480822 1.2898847788914316 0.6648697144003028 -1.2915869131043187 0.5706810915966453 -0.030205536076661266 -0.5867432933228773
0.9768296136878627 -0.6612083776535159 -0.8428520992856154 0.8705019116089941 1.2110092898639724 -0.9041332590674358 -0.7204459292389501 -0.7163351541002603 0.15527371548874364 -0.27616479513233344 -0.6848926423930277 -1.0360864728910508 -0.019364540384539664 -0.6315095451740806 -0.7171266499846765 -0.08501010336094533 0.15754578481440745 0.3878723684198478 -0.0038316818313400836 0.5395397439709897 0.5301530928760316 -1.3854724726629257 -1.2955845135820057 -0.6705886239691772 -0.5952864583406035 -0.4484476233229216 0.6368719896242806 1.0394700454167207 0.632594126444858 -0.3890140007240517 -0.5470146262017181 0.7251275257832741 -1.3603128175407728 1.0189688535513015 -0.9065033105394693 -0.7111185410457161 -0.24388022002288334 -0.07326083264631472 -0.458796212639913 0.39147288573249195 0.620538109147269 1.5622399243127392 0.6317189128262919 0.2663383880795808 1.1401547420132148 0.12124889185824134 -0.46395376079682316 0.16638996544756024 0.6835404462037709 0.07346259447514658 -0.2804755080690535 -0.274943920133849 0.219086808864202 1.0832845564882279
-0.4381849099566009 -0.6665403695321033 -0.6488767764714132 -0.6474169035577403 -0.8356888160228826 0.30341428457555075 0.3320718225733918 -0.10949780303634571 -0.5627265503940957 0.46342971464735605 -0.09138979261152852 -0.6636263789056639 -0.15022956045505403 -0.357709038854254 -1.2542423378311702 0.08308655577551266 -1.19904471988835 -0.21786271788738903 0.7982134032012902 -0.6784977255879243 0.22553605605470922 -0.5258181337469596 0.057159886584955744 0.09060522404747445 0.42899944793449124 0.49854258142471897 0.5923586142908452 0.8772489340761921 0.37165921106798666 -0.28027342780834286 -0.27939901734451134 0.5816105339078819 -0.643900946030916 -0.5594098625646505 1.0791387887573225 0.4287303689161483 -0.009892472001545749 0.3112442340061471 0.5073652441542112 -0.7395444811196927 0.17659980971797196 0.5192906743913508 0.017931859078491652 -0.46996952798992675 -1.0675854980464172 0.6775836568010315 0.029608601752560526 0.8209449224289551 0.02135129852532397 0.9253176610800491 0.012556957565125038 1.416514661894114 0.2625817149622436 -0.5763623352127907
-0.8708161930661071 -0.5826752822679596 -0.5267677202473025 0.8827314375506583 0.6981292757297557 0.19980647544096936 0.5771173722747969 -0.7786925475533346 -0.07503315348586809 -0.10498396823132483 0.3938784451461761 -0.29969884300948824 -1.6041335739042806 -0.7294375659929105 -0.6937324287457883 -0.592871601323631 -0.9385603203118134 -0.46650576400631283 0.1936492117522975 -0.8789334477673779 0.6196090241254354 0.7461846244604249 -0.4725217514983509 0.9843254945516953 0.3862902508656825 0.17077768876652438 -0.4222273667953968 -0.7842584754638009 0.20042629053592176 -0.18431516034925322 0.16189592036522138 -1.1427805699394444 -0.8463249340791268 0.817902798791739 0.2485443691601501 0.6649614721764026 -0.763070244184987 1.279730203381361 0.4545365637976867 -0.729640010478013 -1.1696750779945062 0.35457131849560036 -0.7809045965653831 -0.25769205119908356 0.36288678062866103 0.4897899483472833 -0.5629952999367072 0.03469933162310068 0.6559540886409208 -0.6411748652298538 -0.3973338185254291 0.5964623901405119 0.6999060640631971 0.8083741208255697
