-0.8569894434068774 1.1904622225465178 0.5722324515409285 -0.25712241255653695 0.24576593164242394 0.18860173005076353 1.522999624627781 -0.8000471408592473 -0.27256566962051687 -0.056957932053480376 -0.9589421475969007 -0.5567312406336187 0.1955556157466064 -0.43774646793336613 -1.7603848939313593 0.012971788802225381 1.588516040574108 0.9348070105057089 -0.22611417879474155 -0.8800693923576399 0.0659494591751062 1.641826823377428 0.29877941955469073 -0.5899716231822117 0.37856750371061665 0.41824708764924423 -0.09636143430484378
0.5630903332095613 0.12700822140265045 -0.4085361174853577 0.3162433925830057 0.5669588153136849 0.021317710600831985 1.1386815902063487 1.1039758101398538 -0.640650779555906 -0.14235582801224245 0.20965731479226246 0.5895718972371641 -1.1839290471881756 0.4215388879018844 1.3267347550262873 -0.43671200993985065 0.7304959931569119 -1.1587609075631042 -1.2822038112023166 0.4724056075006736 0.30120884436269474 0.8686061407690377 -0.06792076113333251 0.11679083936770251 0.5068754976776854 -0.9804669699798427 0.6825680364929807
-0.46323680474835605 -0.9783944778432385 -0.7716609854749856 1.3080617153031278 -0.3311061796750893 -1.0246930301391146 0.26855792708555154 0.9583357002302966 -0.3685484633692943 0.04461777175280457 0.26606726946053927 1.1043026623413028 -1.0137039099060619 0.2486247492253833 0.8091935669868988 -0.38251185153322925 -0.16440052346930029 -0.6296188822244893 -0.5554575706472578 -0.21126613393909072 0.33456267762017977 -0.5323136353552758 -0.6337292823131991 -1.009324327339264 0.521831832714309 -0.3704074761855584 -0.9811504430824585
0.05647914452461572 1.8129216106544284 0.00962311525085241 0.6482209826689358 -0.10707798708309402 1.5059484023127794 -0.5889692404951248 -0.3444076385970385 0.011313550439902231 1.0869779848420154 -0.3079658807202023 1.4363765957280838 -0.26625280543003876 0.21669338880715922 -2.247441829139454 0.06028363482538923 0.33878012576120337 -0.33839604135505613 0.4394943684544914 0.828554234265621 0.11408486262117756 0.5575639311946012 0.3474406419088124 0.3850962446058218 1.6595034676335243 1.5894596357595978 0.991157834563603
0.6813077455729548 0.15323634176981532 0.5676450729081262 -0.7015585058928769 -0.054431018789407815 0.12402486226991544 0.6492572567529652 0.432645908550516 0.031859062017315254 0.7364547326022913 -0.5509041744163627 -0.4331183039025791 0.20286366941252454 0.12501127614455848 0.02300168833897448 -0.06732432318055626 -0.7664101761322286 0.6236518193917859 0.014017561637093057 -0.7942535891540368 0.14629568001950927 -1.2794099517946007 -0.6944530778253825 -0.23995149886075223 -0.5174005167690092 0.6491376532497577 -0.5046415349708405
-0.00029675961645697635 -0.42263292494967086 0.5655487037204734 0.4529739378429895 1.6425695456739429 -0.05163643456912309 -0.5515898087507748 -0.3224248327528152 0.199323140635914 -1.7296492857143388 0.8351925154979168 -0.7966766393071623 -0.3239914103086324 -0.1322600193254746 0.6039300076801941 -0.07430675004535597 0.3499655837640386 0.37425389890717176 0.26225289310028344 0.9215802210147623 0.6856786110318739 -0.5390304443436957 1.1175016697355753 -0.5355976524181998 -0.2995024291914188 -0.14669716467102512 -0.8064093409364093
0.8846463213319127 0.9533253786860036 0.7794558046017422 0.10140173864371682 -0.11558825100369885 -0.447455444474503 0.9845803684197635 0.6306879696828178 0.6096343838382754 0.5243120392640512 -0.7988056061759391 0.4603366686334976 0.516214379950073 0.06720324313131032 -0.23387499788700727 1.1957363851743439 -0.48781557364086303 0.8456135112935594 -0.17246004222538086 0.3153186527011695 -0.5414795205536317 0.2898549390577361 -1.3168465073201263 -0.8922148084183585 1.4434905680510717 0.3925321334060695 1.0528903206059743
-1.283735348295078 0.5223617097981633 0.6269476541416258 1.0056396663286962 0.971886422295015 2.205754400138688 -1.3663184551689276 0.9556656971941938 0.13360836869462478 -0.5118225507988319 -0.09428253902863609 1.649923514534243 0.5860475557091951 -0.1817403669295014 0.19493805360888883 0.07395164821675221 -2.02251764976595 -0.9443144205106391 -0.4813661669723216 0.44649673904195175 0.95246830490833 1.1823654670458146 -1.2289894716889398 -0.2936047875671438 -0.6841501893061467 -1.0605479758189047 0.3665456768394979
0.4888531659519937 0.4774607190412705 0.6548444546108751 -1.4952931747692637 1.4609602419029641 0.43425561670992213 -0.01618567412601485 0.599655012886957 -0.24124911356641293 -0.4817241789627968 -1.2740009797579053 -0.964503056332714 -0.8573070479829616 1.7702360202786434 -0.873298841233695 -0.6988809748385366 -0.3996115313055516 -0.19940902938164162 -0.9662576514603665 1.098495893003811 1.3446569620200248 -0.7051452917749554 -0.19809215577332617 0.06571673003022183 0.2645730544183284 -0.5978004647992434 -0.4592524636934312
0.17935945503820094 1.008241102691523 -0.11135835560763002 -0.9553554583446557 0.2984471257111511 1.157274112622217 1.607212657926918 0.4431148193677855 0.498224698248028 1.3264810516804055 0.7182320605573137 -0.429160399241575 0.36178520515699186 -1.000455192449107 -1.0650799498850232 -1.6632528104705304 -0.6788926817237247 1.0585590118191621 0.40335700052142776 -1.0090261508363643 -0.2405748794721302 0.9039300934875221 -1.1194583132293454 0.015625548191349647 2.0886509748061655 1.4373742086121268 -1.3872935179607921
0.013977430786219436 -0.08917601896606453 0.6248476559524252 0.9235665218249307 0.28095464856112906 0.7185240666493979 0.3837386958233705 -0.6467954682095962 -0.7293912473951667 -0.630842421912325 -0.11980064679902624 -0.04729390028493685 0.47138933855232734 0.7921158200490384 1.3876523756421029 1.3047243392252814 0.6182147990368827 -1.8315361210439214 0.2062042820649725 -1.2339799637937645 0.023564755983605024 -0.6385134887495179 -0.8645460134352867 0.891743062701049 -0.6846022680693057 -1.888836902445941 0.26811630507610074
-0.029568153708493417 -0.6304434543383558 0.9221248947184548 0.7080221747246322 -0.5761441332172534 -0.8864403622109382 1.275226001248087 -1.7680088749654348 -0.22114555164526783 0.7710232626890374 -0.35723158109500297 -0.15176303937915891 1.0555249117041445 0.5973283404497357 1.0265976041483338 -0.28819905128360385 -0.21783785061253153 -1.1071989048440232 -0.2686515302479474 -0.08663835394626773 0.007539186847308754 0.6943234340861595 -0.3181149632755694 0.11790657823312456 -0.10966647672519209 0.15424166060128958 1.073550004011515
0.6801602135251652 1.359322378960526 0.7320669147569072 0.575222526101183 -0.7574417662708136 -0.7212280073759573 0.07221330106945928 -1.0898784103219485 0.01500790980822514 0.5649888415866468 0.832485573836397 0.7580134652207132 0.12283134983851701 -0.899693049206293 0.36836529766222875 0.04662507321759568 -0.9558544008183483 -1.1884861623474348 -0.4342069583484453 0.33039205039305425 0.2754353585054338 0.8799121398875207 0.6177106552993679 0.12496331563843788 -0.33982316642703847 0.29727170395313973 -0.35805933031873166
-0.9473506913328227 1.1993819948731428 -1.6672786194672986 -1.1824529011210883 1.777921989763721 0.6702718435218316 0.39747528242087504 0.2837460022696194 0.7647406443642482 0.04984482647773736 1.5595326867407202 -0.4725938928140996 -0.4434064278557704 0.05043710076753194 0.6309362991407343 -0.4532244520918338 -1.0618376823827038 -0.9725491129493927 -0.8162613953722426 0.2841881249440021 -0.9033206450170768 -0.4352188361365069 -0.21770824828316787 -1.6877312654865195 0.8607878999663856 0.9105085624775555 1.078944628371295
1.2226443031658007 -1.2205878992177732 -0.9287000957159597 1.1361933025033069 0.2727473044821138 -0.7877938305579523 -1.0593271885543718 1.27602239290377 0.2100747745390168 -0.39064987588600003 0.27456681992794835 0.47180999459708356 -0.15319930564376605 1.6279493625095887 0.6073694468509675 0.398996978612402 -0.7104097953662036 -0.6767603096238142 1.5977479857200843 0.716249445170243 0.1825590478210644 -0.5497929804202035 -0.07853565286604114 0.4744004591922866 -0.012130973397535938 0.5512210884835527 0.44955920647837005
-0.04581911422739632 -0.32019262879785015 0.2679017350099608 -1.4314877992542183 -0.7487969179888895 -0.30319294711663053 -0.9902215354077271 0.2501169487412427 1.6421800415781869 0.9387231350721605 0.011948906205753673 0.7081267385307182 2.061429786550049 0.24000481929946366 0.02312390500268452 -0.35652706526364025 1.0073247719868403 0.649642914908009 0.8030853749950937 0.7555383131455709 -1.6053773883563083 -1.3893744343583865 -0.05817779972948339 -0.5622877621211495 0.13218548602566366 -0.720209111351098 0.9517506072274302
0.5649816424201473 0.07174924711465303 0.34315685794992945 0.5330897854668875 0.8741289817394523 0.02962302788704918 -1.0158371224304992 0.42339021894902856 -0.49429177837839017 1.173935530922951 -0.7845491431536612 0.9017629610410092 -0.19313955492936852 0.48319640417440235 0.7427349720907876 -0.7665368536403453 0.2308855095910715 -0.5913306713879178 -1.1962631690368066 -0.46613692004003376 0.8182565407388821 0.28445470656235405 -1.236439317886962 -0.9521849188267468 0.558909789762857 -0.48766985719921974 0.3125148715629952
0.22209825968106384 -1.600111080787053 0.8839386746861019 0.34124666675909615 0.5719010915153214 0.546888523265332 -1.691731612650769 0.5347433492828626 1.6599896035117898 -0.08570961561377366 0.4117793251270689 -0.04876265135007851 0.6983045674978057 -1.564786206904959 -0.046420622718534144 0.04469263154637704 0.4140349031970003 0.5667508465053771 -0.5690139378591194 0.6166787801410816 -0.20927684724080448 -0.4255217735535784 0.3904010410268499 -0.13991609460313492 1.652970336990231 0.04474465271780448 1.1554365840845768
1.0950998170817408 0.7961043148410099 -0.5086718581167597 1.5169099065340683 0.04934517069349714 -0.5381809197309821 0.5329232765502775 -0.7103993765823032 0.8186690563160213 0.3891756178624263 -0.9385943183917727 0.6030996816277712 -0.43034939550499907 -0.5215447634525714 -0.43562461940102765 -0.27918781345598803 0.5258022294721936 -0.07203346303751446 -0.6513570524263255 1.1553599930959455 0.6004188260283385 0.8434921260549105 0.31307068670156707 -0.9367868971104701 -0.5043762240014995 -1.46451723145263 0.6073441675267524
-0.6037622733462968 -0.7274962520431898 -1.0840434621548307 1.7826008387760608 0.20278146627313104 -0.9881147208164607 0.5870657961027415 0.14165211595225602 1.1172811577566977 0.723708340501124 0.9975511933036436 1.103988072905901 0.3131305269746872 0.16810592953276493 0.6597315804682948 -0.4498395922042267 -0.6791498946081739 -0.5486944515426007 -0.761044361715342 0.8822797474341311 0.41425799394247476 0.06572572068895138 0.166872882880715 -0.6310184634278935 0.9442610574386276 -0.4509624731721278 -0.09518785494700316
0.07903279219161996 0.1859987061817902 1.080847118830479 1.5849073385954504 1.8707267069899252 -0.31390105609980323 0.026640979629235784 0.2815543591748898 -1.0685763520825926 0.20803147723549942 -0.27567934403192834 0.5557323436668438 -0.14668221832058181 -1.4963395062524238 0.6593596553570715 -1.3290983535413803 -0.36693195027115805 -1.0940264195193379 -0.36858956449641195 -0.46574775462849777 -1.4593893597066867 0.8797010564661175 0.46752612133162097 0.3406299698340735 -0.4999456323511411 0.7987854556464258 -0.5784124939755673
-1.0764179385274792 -0.6074457105513205 -1.314562847608168 -0.6275142587447953 1.1192209610237678 0.3361739010793251 -1.0705409879593726 0.33017303321363756 0.5842446929221627 0.9983579188508523 -0.5309510492212204 -0.8908078150149659 -0.7824484840344659 -1.177474478887973 0.1303307243107606 1.0800455085351077 1.0587487820628265 -0.7812570234480261 0.8956543723350718 -0.11971685036124718 1.3242823973263207 -0.013470188321859311 0.2125003728167138 -0.7199677305805289 0.9604040993575598 0.4292481161635163 -0.6102405587348688
0.1588288805906613 1.0699743426181156 0.1171843663309004 1.011281218000014 0.2376916067777498 0.637949421765595 0.13145150294369234 1.26753585180029 -0.632847874638597 -0.5946606092492577 1.8517736067911779 -0.19514151446341033 1.3502441117641628 -0.9530125953715101 0.8100073250330077 -0.9395632123342974 -0.4837360782013588 -0.6777726016439556 -0.3749298566353911 -0.017791498460504374 0.799944711773899 1.5860517627103854 -1.261998279290148 0.7464919555193812 -0.45133433659214756 -0.3656459469225923 0.03722868336131502
0.34616340017715863 0.20157335881341704 0.7890317045125685 -0.33495710218301816 -0.04263240752360292 -0.27791813071657323 0.5055644827140692 -0.7397962201563174 -0.1694130917596129 1.1954886485656864 1.5977350142263727 -0.40753168930105116 -0.7198532457026984 0.916401738041118 -0.4186251766398276 -0.1983588227518115 1.2335860809546515 0.7648611348321388 -0.05894785445524359 0.48008027851421553 -0.24385829202356346 0.4352968337284335 0.49857144145041604 1.7998886740268742 -0.06673858402848559 1.1185247124558952 -0.4099188451977931
0.30327394655660783 1.4237115865154917 -0.6061183520958054 -0.8680084697271008 0.8684052125715377 0.6571216619658995 -0.9738556574971033 0.9709344669599398 1.2010801074688748 0.6812211315414398 0.49580492729515113 1.1342647940170836 0.20402705270037835 0.44036347016862915 -0.2388705555789688 0.6480066720763029 -0.7405399743767802 -0.08084153310164188 0.1539038741735489 -0.9318798147347509 0.11111502415140323 -0.17594330867707103 0.35282331054243515 -0.8969337970045393 0.43410141930424034 -0.6900085342565223 0.881566471986631
-0.24478220683024654 0.6171852367222745 0.14381657896629474 -0.9664097529911627 -0.29458643774602994 -0.5018357461199536 0.16720700401875882 0.17971535874125083 -0.4469415505792907 -0.7822796959374998 -0.6285227372693768 1.0294299305911254 0.3983172837506876 1.2803424254445306 -0.46214693148869945 -0.22122386578888942 -1.238131439217617 -0.9370443939965629 0.40819415591475 -1.4130140259998425 0.5679619193500192 -0.8592511556104325 -1.1752020083247132 -0.8277878084897751 0.20682779798897816 1.4173803048413092 -0.06014549726418217
-0.9292577868197738 0.05229892794902158 -0.2645750951857673 0.562122832015119 0.7459562621417659 0.2494226771208342 -1.3476412308292511 1.2619195943630235 1.2005567043103373 -0.49984559947354473 0.07498636778655088 1.0981227561398348 0.11837857702671584 0.04284718640922708 0.515403916687797 0.1876825540502795 0.13003988001368938 0.19663175962476198 -0.3310855887318904 -1.0827066565544596 -0.13708345300293062 0.2185832429640397 -0.7320925724599079 0.5476282454262792 -0.0007741543787183058 0.8995661827192607 -0.6790455019797408
-0.7433514451456928 -0.036809583238682886 -0.8011491219480107 -0.6264792796688947 -0.2791708512170111 -0.29276253558465737 0.48220163438146363 1.160954648930855 -0.8214664439280285 0.44596434945620944 -0.4781234758605857 -1.5396631572763166 -0.5530938854209093 1.134980680182219 0.6612275799671719 -0.22696345536689388 -0.8044472449057103 -1.0095345769674138 -0.6651766794113719 -0.6721894899950892 -0.037871158304944696 1.5522387499471892 -0.8742046019652718 0.02145948648412005 0.13593870915252637 0.9323849428183408 1.1981407054395845
0.9645715355245967 -0.6211475104109012 0.4735283604751119 -0.45465594784221863 0.3998220085738675 -0.3408425727735624 0.20646677945513292 -0.31751961664203565 0.3483122277682465 0.07714930584785706 -0.9359194332398979 1.0944664669768551 0.43528729988531084 0.22514221772111137 -0.2043423097913708 -1.1051724673095915 -1.4617602122605726 -0.022202754370219846 0.958082170306324 0.33867102918584086 0.016154210217363796 0.44407365316068165 0.03713077249925417 -0.49654201852634405 0.054680305691515 0.43966713981073613 0.6861048091023436
0.853885734102487 1.3498746006606448 -0.21371444689172087 0.3191860087202795 0.14813901875888535 1.1598064683275147 1.1678345260504477 -0.4174284962119269 -1.1654850182897394 -0.5994689903049447 1.3221220527004511 0.5914225301488176 1.189876376174161 0.5500242766686105 0.4143835954694813 0.6808344700718003 0.7564300623530544 1.148619117602034 -0.42442264452225936 -0.6412771154224983 -0.458104013021055 1.9214840084592755 -0.47260285259274615 0.8376970267044004 0.6832470625703693 0.7148610323787838 1.6506827556719266
-0.05247552507272962 -0.8197805792259587 -1.2241417206950902 -0.6460888466691261 1.226592220336013 -1.615595664688542 0.2565806461006757 -0.3468562249567984 -0.462047632769955 0.16303446306624936 -0.6921837171715728 -0.2470582734568409 -0.6039267498037814 -0.17788815517746115 -1.4755797148527061 -1.3831911175030056 0.49701566109006134 0.47380334740998614 0.40461771710816924 -0.6088823363670162 -0.2907303598187936 0.32234197002041054 -0.11329163359457811 0.16711788615436174 0.05240243630661756 -1.0531318781678805 0.5972636820855527
0.5026341372198759 -0.09537031052466977 1.181578354556403 0.05958387818646338 0.6784156788947808 -0.8058597951080606 0.9376771343307189 -1.3996880898985784 0.7644830140984968 0.15144018161111117 0.6308555934383012 -0.8845704917336065 -0.4371173715478771 0.08045852223100719 -0.2816846542545717 0.23248085846469907 0.03969164918791407 0.7935987823754986 2.009501865768277 1.4257207614354215 -1.4136145182165092 1.1629528177533233 -0.7522079278060858 0.8467691332457712 1.0296672350655642 -0.1426800147749001 0.9046485954096326
1.4710284632220887 1.2437635747582132 0.8693415553340306 1.7227184593990212 1.7149678290117396 -0.9445418859055188 0.2529310357201588 -1.2075480943598569 -0.3741200980824843 -0.5582421443546893 -0.8243624495132029 -0.43943573284795856 1.4006053026622833 -0.9232865142812731 0.8141138450364744 1.1380740578684165 0.7331901027088761 1.1002196812591096 1.1706076940853032 -0.5924219470427657 1.64079774647959 0.5736074285033835 1.115221112371168 -1.607398423895628 -0.4646316656673227 0.38223893742490933 1.3580966277844608
-0.9728740079487551 1.0018870702824292 -0.014702902141755791 0.4702908920459883 0.7154045909962693 0.9830534528105328 0.5763376945563489 -0.6686614953011951 -0.45273785904615127 -0.03017172725255607 0.8275457366180814 -0.9984585483183015 1.5971295163071182 1.3306291278423683 -0.18204545620656548 1.0008613214245459 0.03135190576865449 -0.47527706656052765 0.9998480900925488 0.8756825514394054 0.2558701651579375 0.4862523358648132 -0.2695563258108592 0.09163509866926034 1.6293833334759864 -0.7735190633534456 -0.0346253169126039
1.6602479949485498 -1.0323127971176795 -0.5654474565133898 0.34098501100246753 -0.5936757992895823 0.6100289902194838 0.610667483401524 1.1970148585847116 0.51975431629285 -0.27134086200704494 0.9996628031005221 -0.2412615917665517 -0.043931996801303164 -0.674627720323018 -0.11182447771021414 -0.15743712499777485 0.563199462797433 -1.0444941248858102 -0.10381566412795906 0.5029317629448893 0.0839308395231867 1.0568962297741165 -0.09853966360027844 0.6957015122319306 -0.6911937545375956 0.7561217952144316 1.902724220422866
-0.4492708068965692 -0.20563030542379085 -0.6797919630836624 0.008797658978654255 -0.4099924112316267 -1.676560151258217 -0.16442562110595477 0.9780580326795666 -0.12884934976211793 -0.7587938875826791 0.2742373390043057 0.13835017290745766 1.011357059427966 -1.7706453914268971 0.27469059319843303 -1.4738478171390872 0.7993278597606556 0.9579758808696754 0.4991808094079072 0.6465251604168465 1.4243569504519744 -0.19560471075542518 1.1467557753746571 0.9198747434576278 -0.17140655865164 -0.21727619076591892 0.43911898658082843
0.7853515424996516 -0.44208565312436904 -0.02463915842308889 -0.5962179169647575 0.12742436876146096 -1.3652823671162604 -1.1152494534793067 -1.0607790220923583 0.4170524156191945 -0.6483339981887323 -0.6910634246206723 -1.0148915337519773 -0.9485225794541903 -0.4106408001001354 -0.8054180790815049 0.18202661145696414 -0.04890547698176184 -0.6276816246614594 1.1076569126191431 -0.14790405965416875 -1.8534077620543619 -0.15478091647054287 0.3982705239455451 -1.0282061800060058 0.8952932256865398 0.4074525540315479 0.9865020609839783
0.332433082961609 -1.1534348234984013 1.6265982759876365 0.36009799079983834 0.5477362564333426 0.6202240071603784 0.25141122147237194 0.2961407566085234 0.18650285161288477 0.8250087122359859 -0.2728108963549839 -0.33412811584424107 -1.3988691604345158 -1.1649034476441535 -0.23069227541622833 -0.45087294756116236 -1.1070651249225583 0.3824036181893292 -1.3905304447907794 -0.19895227509922908 -0.8904507256455936 1.6665720094548053 -0.30690205003171156 1.6089818803306821 -0.6293951648483582 -1.7113939766087503 0.03366365359250756
-0.31159164169199843 1.0886310122190286 1.3525204031945437 -0.20074847539016683 -0.25920810895856455 -0.21015613418603918 0.112250890468027 0.609660626668445 0.16585205821945093 -0.18218207305467649 1.55275356092044 2.3836387513263038 -0.48229631934283845 -1.020441753062669 0.6023166252626084 -2.329565078270507 -0.6471569092232661 -0.970475302292444 -0.6975975385731981 0.8967068716929363 -0.5974950247237871 0.2223334071306578 1.6065786407195932 1.0944045003354033 -0.6403410897448484 -0.9414586560600624 -0.23783219963014246
0.8423844927061622 1.025305317160953 0.08964535504361687 -0.15170675320101074 -0.06719950179306183 0.6479667187916869 0.4113945202174922 2.183356856463356 0.18250940812929795 -0.042448728837707006 0.1760065178905283 -0.8931974988629753 1.1478260789150276 1.0086043058914744 -0.31288968897284164 -0.3172516184687284 -1.059343335521472 0.18965645260252262 -0.2498969063661594 -0.49685736710270195 0.12870752873466035 -0.06759303475852019 0.7638496960894678 0.05370458664258071 -0.3688210656558075 -1.0885913595055894 0.04967108541616422
-0.9512429326901735 -0.26571584061081577 -0.12810027474664887 1.2620086366606866 -0.15480218519770766 1.1653792305164241 1.7152459779350848 0.181699363295675 1.8678149525067178 -1.720436125047163 -0.8201003318345421 -0.09368306963370299 -0.5469718076839258 0.44046899973204784 0.19643917712801484 -0.31413153718192655 0.8262882980503339 0.4296471391420787 1.7851323400624597 0.29883963571428185 -0.7254431732388196 -0.1752355491951782 -0.07708645101730843 0.33991495710455144 -1.243542962069148 0.07183910847856712 0.43240307426634556
-1.112001022810957 1.1086871786887356 1.3324772680987182 0.5711801059908987 0.6170341207249869 0.12982682132462842 0.4662030487349846 0.04784379433090841 0.050457680370595726 -0.7706543798639394 -0.43373232092778363 1.0341943976923011 -1.5012885028899736 0.06870806159072362 0.530146210318216 0.49422263912803804 0.8541870749215916 -0.06308626467506667 0.27033291959663 -0.47168931211340404 0.5276317798732354 -0.9302893381379936 -0.9402025681097665 0.4635031232856824 1.4782470530953187 -0.4906025516149278 -0.2056618067306789
0.31027577044790106 -0.651779539674024 0.7139371026817718 1.4499547689252117 1.2031965034367242 1.4323799603132343 0.6853593198564357 -0.16468009416347357 -0.18410289621523285 -0.09470453881543517 -0.06024388175857692 -0.9812865821396017 -0.6336112536911307 -0.2081262465801691 0.3707503714421989 0.7893413361025101 0.372830464692584 0.9582218538152105 0.26394057943830274 1.214508406676684 -0.16387696206360658 0.007153335988822729 0.23382868362736337 0.10620626197599714 -1.6833956401507046 -0.7215587995271985 -0.7169127813259657
0.8808816469893399 -0.13285281007287286 -0.9744354965030319 -1.1296504902139581 0.26906962524288375 0.3552011432966247 -0.5846023317545934 0.38985533297977937 0.8067771645648891 -0.37142359377005524 0.19942647189713203 0.5768596667776957 1.0660818986553693 0.045580938789364034 0.3791499353943825 0.7872851447979015 -1.4400436681473607 -0.502286936893624 -1.0815289673828368 0.5268599857532948 -0.9628761203525238 0.5936375352389096 0.9974255463792404 -0.4332963103022947 1.4160828512681543 0.61520305934789 1.0121934839185398
-1.2063721051890994 -0.25269024704886234 -1.2699729263114161 -0.39426451672716295 0.14069007350853824 0.042113815372146424 -0.5027119983686409 -0.6507353979032418 1.0149287725739646 -1.3682157839671003 1.0236389038732003 0.9951873428938405 0.6160898853873684 1.522645593710648 -0.9204090564922822 0.5845212747405057 -0.5987692486686318 0.6788405425740288 0.08618927204666593 -0.13981890261462854 -0.8516376077071915 0.20688577370961336 -0.5722231385664535 0.334923643555037 0.7478501891228843 0.9743506588370332 -0.9280160498471073
-0.7601073797373362 1.0996099947102107 -0.17507798471433944 0.15711279037463527 -0.0035743186909821256 0.663674046797979 0.0549186873930228 0.06723341083150702 -0.33773805128714623 0.058886259159542265 -1.4389857733009896 0.5300924917869716 -0.056832510544637616 0.05602619682731724 -0.803848855470529 -0.5215508815630989 0.8157079919582162 0.52131581597713 0.022265882305520623 -0.29538124799507565 -0.7573230460314977 -0.742632370770441 0.03252651749063257 -0.5200443916078551 0.4987296134033495 -0.29232448480807316 1.530803376503117
-1.6143093114110485 -0.20719471392868632 0.9839462494427395 -0.30338886653493014 -0.1426723424242674 -0.6059317509521513 0.6709812520075162 -1.1337801562057783 -0.10887600768037214 1.153847300797607 -0.3378535741009298 -0.8711408148283372 0.22429003877378723 -0.4018248135069379 -0.16107148124929077 1.2649632235932884 -0.5422016268451167 0.20934250758817463 0.3174156542925954 0.2189431306484953 -0.9524428204757684 -0.4190674267368456 -0.7542612046610409 0.7476690272779785 -0.14278334971752665 -0.28268493896588254 -0.40496092076003076
0.9565425513768129 0.6853157426568673 0.3406114457493536 -0.10347760802533168 1.018209389458259 1.2747141727339628 -0.7474626606377512 -1.0581545055839936 0.5669876987575062 -0.07190543873473032 -0.12790781820157127 0.3486459280142755 -0.8224421542157687 0.32428437669186105 0.1807379235166604 0.9459185283923724 0.6246263943840142 -1.558844459570055 -1.3061949907804795 -0.5138331486184937 -0.4943359376316912 0.7961757005575452 -0.2919834238447737 0.028558430861137574 0.18116650053544398 0.06241337900918065 0.5657571095622513
0.8287919149536573 -0.4764939815716799 -0.43910687622571215 0.9706581132033665 -1.0064868397031825 0.587474881274002 -0.39244669034920554 -0.5673760768438845 -1.2082975615708138 -0.5939431526129879 -0.9984212473012275 -0.10699997302646835 -0.8814713461884848 0.14688356457599944 0.2743376007355111 1.5532626941311334 -0.9980667936175642 0.030218324135851016 0.12894266691450001 -0.18027154517633087 0.4118127860921635 1.2642023389012695 0.6323218506619839 1.0439140939304377 1.377455865214353 -1.1012116403856793 0.5465365131735314
0.5781066135418904 0.43266885166906577 0.908228988044992 -0.6873827424867816 0.7628031429665676 -0.18893030391616933 0.9786475086864708 0.5904899466688368 -0.7752062722165844 0.8991424673850748 -0.7450455810884178 1.049123159259939 -0.48229675861641247 -0.7884901197178609 -0.46134772109321076 0.6934315161125024 -0.0998793715803234 -0.022343631309357348 0.3242833344045427 -0.010813458603513404 -1.1350195685391042 -0.52235874588893 -0.6502661285391684 0.4275189066257475 -0.895018347516534 1.380655567894494 0.8948809752065281
0.8901776458767797 -0.11357188540080343 -0.12745199571830507 0.005915099414084191 0.99158685013615 1.2418204540822706 -0.9429480942278909 0.7229934902343145 0.3713131319441291 0.3459098683086197 0.26429422582814016 0.26853684751470414 0.3294966976026211 -0.26873681456145165 -0.45402864598967296 0.17470853530692626 0.272396571688787 0.09985351344053733 -0.7896872923676275 -1.8909089137215278 1.2381966909859548 2.130035831441951 -0.3407135180779206 -0.16647847937497384 -0.2574918855058036 -0.28599488627605785 -0.5539820802476267
0.11618247616763566 -0.18832811712851533 -1.664593160679138 -0.0015848405118415454 -0.12679361894476016 0.34946204009906956 1.0268449363894518 1.1496071004227013 1.582206755135557 0.2273648595553187 0.8815461464572371 -0.6209039888344772 0.46082432617152486 -0.6575526739410201 1.6461287168098444 1.0248366579096413 -0.2621217723416545 -0.45697476737228804 0.12897192641223038 -0.390622898730698 -0.8285888450576429 0.9121348545872818 -0.9828456424561146 -0.9446253271549732 0.011041212238591891 0.5004429602408855 -0.1386702218656039
-0.28816552685287555 0.642099714346567 -0.23062383939678616 -0.24219891153381878 0.9671812819933897 -1.3789181655357574 1.3740391984276576 -0.2768679220420963 -1.0140507161076395 -0.7295354490518017 0.025946357935289877 0.23932751638132577 -0.11851055609353722 0.7932397745989499 -0.36777835767845873 0.35654972497582693 -1.9077299276080364 -0.8621957385794663 0.23518212467526495 -0.29755610683095884 -0.276400896182502 -0.5066834035751071 0.20060812925870253 0.9427890355630462 -0.20871971920173926 0.36791334792619407 0.8277487661937488
0.1406251690394481 1.2692868998034053 -1.5609258704119702 1.2101810859306417 0.04501389033562864 -0.12270982870104385 -1.254069212216321 -0.21138073411888997 -0.5572046649820357 1.107328181943842 1.2264870504382044 -1.2434648039747516 0.3140712673355048 -0.7838830703048625 0.7491226664258912 -0.7657450769710648 0.645948188045296 0.01805655166543607 -0.02852042323326215 0.3386900575888494 -0.7336351162282304 -1.5918650192071158 -0.010937034476735885 -0.47995769547274764 0.026177588525187312 0.06506742559824985 -0.8790733041580583
