0.7527824327460215 -0.9952709793839154 0.8483097264798751 0.25170315155141854 -0.9098573617240302 0.6262810726279713 -0.6891357994299678 -0.5192873260933188 0.5670045002944599 -0.1909866674857199 -0.43502355105145907 0.9522307934752599 0.03746786956142789 0.8738972294616407 0.11894512692495085 0.3976872655205981 -0.9080217829086128 -0.4854681527683977 -0.03520092072226788 -0.06714979152313427 0.7453225207575185 0.45794523868009906 -0.22638638439180458 -0.7270479948045141 0.7095476513673953 0.14590038137722483 -0.7319106350297002 0.8384232365506252 -0.8050520237350165 -0.40450579017691646 0.08368049486251383 -0.8957749705173836 -0.4586444909143343 0.5996008416841663 -0.19612961276039242 -0.2018992817842622 0.5062579358860493 -0.14188149577752696 -0.419182305631401 0.12697127666946195 0.10008073865232214 -0.6260805206700719 0.5708384294426554 0.015197943210816911 -0.8164350447182598 0.1324648711674472 0.4292361763997763 0.049079422431731023 0.11547367961385913 0.942602359042886 0.25776122280181046 0.07198630637513648 0.06917239393305041 0.7067819383119955
0.3176902498193792 -0.10627727474564708 -0.13668265616956243 0.580046437509133 -0.849673960553271 -0.9758675405442858 0.06797973952053815 0.06789088797381382 -0.36021109187594247 -0.3226893816836889 0.4544241688579689 -0.08411778797803593 -0.2339510600765542 0.2843474685431222 -0.562750434220809 0.11144155936122258 0.8250778634375615 0.18964354344615986 -0.7959650399082654 0.5777084684084461 1.1047012563098646 -0.8290441460489315 -0.7932385996402248 0.6384366833527175 0.2627329531983649 0.40703759177548826 0.043272516985405796 0.7972492146695078 -0.47075378152746716 0.7452563414561411 0.5632500707849291 -0.4008470374259494 0.2763705803775418 0.34597001168928077 -0.9180037139372534 0.45539412921667954 0.8242466474009866 -0.48145921583371565 -0.7119096775782945 0.39514529202549387 0.9081992308773874 -0.8888166644975013 0.5361352223362519 -0.26470867565732836 0.1659726346497421 -0.17472793383135077 -0.9795435439633535 0.581848456863683 0.8258263378671531 -0.8568767410330693 0.18517898399950172 0.42326229699644524 0.0962204310138739 0.7861005259839404
-0.03822189327697956 -0.5763698184565966 -0.1458937312954336 0.47931284445335054 -0.1777867693896067 -0.42489174953768205 0.4591273759369988 -0.7480261349728097 0.7389990398234192 0.486073902895388 0.5920694046754944 0.6889599543279976 -0.5549200618615922 -0.33518152584955496 0.6454433440274505 0.45282662378620264 -0.3691559250993845 0.30613962843549225 -0.31146204770597286 0.7929099439346028 0.3471042856919224 0.6291057844557206 0.3760244674172484 -0.5741745342484228 0.5932598569303686 -0.8672082256091601 -0.9179269050332346 -0.07797538630526435 0.3456890646186168 0.3005823632623452 -0.21005897584710742 0.8501233935128831 -0.5863598895643594 -0.4023290874143457 -0.09427451922314667 0.7298881498433434 -0.4818204706839273 -0.4491709524062344 0.8276957053613312 0.784036855133863 0.03707775036006655 -0.9558584244567978 -0.22464050617876286 -0.41480311215483767 0.7994998908466568 -0.611233914044959 -0.23018383119350516 -0.6660034208228549 0.3080770951194378 -0.4485210563302593 0.6771930754064118 0.31389584234115564 0.935271355903587 0.13551788062798442
0.4434879076158693 0.420615420956042 0.44395005662227116 -0.99417299189614 -0.06399706258528459 0.8542936572807303 0.2751412718699162 0.6003852103130243 0.6204495614759733 -0.8850565904039582 -0.5570481046150269 0.7338432264305317 0.681095545778877 0.3337912616021397 0.26758126794997494 -0.07774671416770129 0.30587729281725995 -0.8834803075155602 -0.12481736702106594 -0.02347237765580834 0.5177232198065791 -0.8993367773850522 0.8646925221970168 -0.7332000925663472 0.813530120571168 0.8864140984001985 0.550314181159619 0.5133362210042474 -0.878174117286183 0.15631561440253838 -0.426105415437259 -0.5425534126436908 0.9588311067174664 0.8268357371394636 -0.7920001487558677 0.9237222766870063 -0.4140172132648392 -0.3438401147964327 -0.7556808164428344 0.3955474632782934 -0.19426755860070966 -0.05224862663686092 0.9864721304212041 -0.5804686499513896 0.9254545090157795 -0.740965512435577 0.3311228425689494 0.3196891711282348 -0.5560181943695952 -0.3341729479687643 -0.5809656768351925 0.8149374259622464 1.1394961015060165 1.1663990534214033
0.27764857129331877 0.6392750907497362 -0.21074328610834248 -0.30786403398676376 0.9569676480414722 -0.7069503902724381 0.6830164501408269 -0.48273178669503114 0.9668754164823163 -0.3275886593188555 0.8012732456962139 -0.7167115046498831 0.8911646734703214 -0.5365228265166564 0.7524295928622113 -0.5710017340844591 -0.09894609799481313 -0.11296700910065915 0.96761502483911 -0.6016718436336848 0.1730541754943813 0.3428795581585027 -0.49059015417757856 -0.9592879764016671 0.41139600576847624 0.13480540014057096 0.23543976932077998 -0.028172909357703668 -0.08240249917440545 -0.7159283835481189 0.16574372162200834 -0.9138878157853536 -0.5437254054215002 -0.8787308373231919 0.10098555818234622 -0.5650579125904733 -0.9352090642905733 0.6234529434908547 -0.777749840528601 -0.11238589059899251 -0.2067841830461854 0.6407617566510722 0.5208108217265077 0.6910605057009687 -0.45720180640046415 0.6697728144193675 -0.9691049603218815 0.06342130292379089 0.9554998802481123 -0.2227513810251769 0.7896102764824902 0.24795691316972857 0.7914842380666363 -0.3991246926027312
-0.4031820575778979 -0.509327296348481 0.2503803643624405 0.7656828423514683 0.6096647987527875 0.22062215527270967 0.8283177907653743 -0.9151249871167761 0.45190797710522124 -0.49402375437504387 -0.18014161325736344 -0.3315068275495394 -0.6482945988483755 -0.5240986143797901 0.11075314526054258 -0.43948984262583224 0.7973267903606553 0.5755867704430455 -0.5425094442024088 -0.3455667786332761 -0.5712581996654253 -0.19509722431135645 0.2931835023545275 0.340499349424193 0.7111185033240457 0.7990203782244705 -0.84063452333563 -0.2532579936867785 -0.2857775733074497 0.6096066112712599 0.9874505649428733 0.24904429855983357 -0.7533500747898474 0.7741648622634179 -0.200701088375685 -0.13115588134150302 -0.6722820260680642 0.10567180706943152 -0.49280011642472643 -0.8413608483168815 -0.7789443409172594 0.748456105900511 0.2538144073705282 -0.17086673328907187 -0.08135363241190441 0.6927552450143943 -0.6966687520783206 0.6937822498427066 -0.2048835920271892 0.8415617035965053 -0.4564921309772405 0.785075531513945 0.6787505904342437 -0.9934756626252021
0.22688213708648042 -0.19231732191689788 0.553447350320613 0.7704752498867229 0.39736266073808846 0.5612977895753057 -0.981516325482376 0.8258251447079308 0.49523672254070616 -0.15754946455211805 0.5656166801240503 -0.4950891167590332 0.9094729512387496 -0.7774775783286834 -0.2801317608292897 -0.9974729236170876 -0.48139065870089603 -0.1458934204203286 -0.08221041161658649 -0.41817814182109597 -0.3798942760931606 0.03224064246702252 0.5098797161164945 0.20789431278495485 0.3196685816947138 0.8221218846035936 -0.6178281162928787 -0.6157030184210115 -0.25065251423907564 0.4510389133851347 -0.41503623935475464 -0.3672594567040455 -0.6022481519116563 -0.1134721554469329 -0.06838838390449342 0.004122521822361724 -0.943366333933324 -0.30954989074198314 0.17176208678956684 0.8613505679653197 0.7039317065321136 0.6623953558174585 0.5709534660322393 0.8310791708787408 0.26638660100112577 -0.5510386350535588 -0.725438768802273 -0.7161010780220145 -0.6352484241035379 0.544835381015031 -0.35232592554142417 -0.8252436820362394 0.2688934811196031 0.9968271486607196
-0.7758150995336299 -0.9117551013962091 -0.02896562674798142 0.22757057440699224 0.725282650093529 -0.632861227482344 -0.6783499143184883 -0.3019457823137035 0.04715896808167064 0.3377136227339468 0.012313361988363969 -0.4986982549357601 0.5693552635222412 0.9567319118900128 -0.08179015707564652 0.38128594863900056 0.3323989205194646 -0.3648517953172108 0.6021804314330437 -0.6196372774549879 -0.24140195177280566 -0.788052415867861 -0.9626617541232427 -0.41908615932499416 0.6957034749580582 -0.22192286347908463 0.015688706145759346 -0.44476547518974696 -0.948124030605177 0.6002929309375575 0.630263395134252 -0.9131448854977193 -0.10027833077266113 -0.9592970495534474 0.784640534877018 -0.11667598902663534 -0.2281369396813484 0.22827092553421302 -0.20084368512211825 -0.07733333305217432 -0.4793210171123823 -0.5693830434852387 -0.3892449470943904 -0.012616564437627265 -0.02480327266146909 -0.5652941424897766 -0.3195245011638015 0.9219949827333636 0.2838398165085607 0.5355703060876407 0.9916968474569632 -0.14160291885575743 -0.29123875047641823 0.6811311941798819
0.24275946900524015 -0.025222343143939785 -0.8741012439800269 -0.24994341613230442 -0.1634201588540216 -0.8119550186973494 0.2095412881284826 -0.813694659102671 0.15611771721858309 -0.11234117850182423 -0.9697761373623583 0.09405741767260678 0.9232939741779214 -0.511517571733477 -0.569153426210774 0.01029309198581374 -0.4871215829992426 0.9580534393601468 0.05557622743183366 0.5871093975759332 0.9257032726001271 -0.9005903062910723 0.5666421036573888 -0.9202852543160502 -0.17293798390223958 -0.2924449392014643 -0.5338595784442088 -0.7635583743384309 -0.6157410875160159 -0.9862797858051038 0.10496557253761907 0.2011452647786658 0.9754418396964668 -0.027447678442114543 0.8519275376689359 -0.7545797487933883 -0.7336805203480188 0.7337679475505312 -0.043328796500106126 0.5512160283590539 -0.5139516689627535 -0.6487901670029614 0.8611434627289212 -0.395299969024995 0.7530483009261664 0.15271105810872387 -0.7019457145507597 0.15508138265022953 -0.11621893703202879 -0.417346579384376 0.9345333032099785 -0.9009662936059994 0.19196633696955567 -0.8216632896268885
0.8010129042409222 -0.10176532386956438 0.7762111660387521 -0.019245981704441473 0.30929812984176186 -0.9397531151885568 -0.17949054389757335 0.7725084259529744 0.1290165915095347 0.7476476585892302 -0.3294508732006185 -0.8319845822646648 0.7888198938091859 -0.9725914378638996 0.09481421819859515 0.29412022365309 -0.34764116853818194 0.22171544267509047 -0.5956297395916779 -0.12268393115565357 -0.09968830948192076 0.5854381529994606 0.2421491991513961 0.21247172590487517 -0.9556082519168305 0.26885266856817625 -0.5901130340263356 -0.6541206011841805 -0.9399637495108706 0.1852298155402432 0.23513728914779342 0.8019531313958639 -0.3524112589264403 0.06591716551436044 -0.8122118249440866 -0.05334522817434584 -0.9584800547045813 -0.14660807988929392 0.7416557622244047 -0.8522063033543144 0.9456591171672339 0.35357997773806393 0.3178538165352114 -0.0807381055276335 -0.12213313927590064 0.811520544716724 -0.5793927877712743 0.8598178078783536 0.49742447862456984 0.3756896165495145 0.8077803135034389 0.20551917297185995 0.9999253544785791 -0.25241765484013867
-0.19732482406171803 -0.7061836303873756 -0.6750294172547278 -0.7447770928752016 -0.2147456325634265 -0.8648222545768127 -0.13009823854124564 -0.5812484472532609 -0.10114278002188803 -0.6798475068506884 0.533971740506594 -0.9427537049763435 0.027528105784547563 -0.5999737399086877 0.42337181027573845 -0.7371380836440704 0.3588803617133143 -0.48057458193377856 -0.4258533832910546 -0.8750269937332109 -0.4614394955553296 0.25998291054995915 -0.5954039391829118 0.39482517403984474 0.26627630794003476 -0.2613836553939748 -0.04708894411353359 -0.12398803712288953 -0.061015732449619 -0.06956196648304025 -0.5669673817528225 -0.2735321993519666 -0.5346214604424222 -0.20765255923233417 -0.08703898219148476 -0.3703837849595974 -0.6708962658901949 0.7488275739873644 0.09417773477095315 -0.13675367691478435 -0.9969123866159721 0.12233911968489619 0.7147848371311443 0.9389014531816622 -0.536953768603631 0.8783919344053712 0.5181129708887735 0.8047560908079052 0.1510012873718103 -0.759133509754693 -0.08821492620172999 -0.27290881301857217 0.02902897058952858 0.5864345157957205
-0.9425502488771125 -0.5622130062640376 0.8839870318824348 -0.34564317046146753 -1.1898055190075427 0.3561550868697645 -0.1417536580363714 -0.7752236727458786 -0.9809773930012593 -0.06802340232535986 -0.8848737204893704 0.329327862972284 -0.23922842929428206 0.5626319127366108 0.974615022695756 -0.3388808445118301 0.9964575817091628 0.49671398343133344 -0.37384056699441714 -0.7340863795984505 0.749649996374778 0.8948932030935106 0.31375060851330905 0.2899146938378774 -0.05429872341264996 -0.5885592299228707 0.30568440748804004 -0.4653778999042266 0.004971991121312858 0.6703728808334799 0.6766220175731651 0.7488271908172655 -0.8395011644982056 0.5274569260551267 -0.11700241818134827 0.06993113081716151 -0.19487048232876703 0.423077644743584 0.7478171242982605 0.797201417890707 0.6414902805959655 0.9423006566418428 -0.35670478405448947 0.006028650375931255 -0.8619816787196861 -0.7142112436071284 0.5251608821223612 -0.7120952298272536 -0.6874350215641096 -0.37475715619650174 0.6298461417818528 0.9276734081271207 0.7290888502288182 0.546847928119419
-0.4465030410325672 0.11340148500076963 0.5773555667544255 -0.38335927531661507 0.6934662861650602 -0.6620107151095838 0.6790453848338944 0.032288829315855194 -0.8271358483672286 -0.7848299777816719 0.6421618174408794 0.5560502824678879 0.2513052964266116 0.4396300020863808 0.02584399468885601 -0.251240312330292 0.5252341214563387 -0.9027074602830749 0.8304961815656607 -0.7026717796183737 0.21988198698399142 -0.5630268157856206 -0.6908661193596954 0.5876035824503771 -0.6092114610119397 -0.5543214077540386 0.5532360894835902 0.09469391449975761 0.8586823079641357 0.8849131298168647 -0.7252562365038442 -0.1806915954602215 -0.9648018796382394 0.3498867084450046 0.1034199691185338 0.01861355983108215 0.5375176720253996 0.21549282521063506 0.583428288622138 -0.9425774713537545 -0.6084680629172119 -0.6807299419321768 0.5592943047866379 -0.5654595716680353 -0.21807886367700902 -0.3472115746189901 0.9649893006376269 -0.13860626362942918 0.9362571758038756 -0.13257234791494366 0.7669017182810047 -0.21519824298737633 0.7202788211025768 0.48857363858099245
-0.6390324232683364 0.9202368549779079 0.5535740670938203 -0.7261053836052329 0.668839509154092 0.6431637781515565 -0.6681318317829565 0.041017097021048166 0.17639621248105147 -0.7118650065798804 0.7123661766572427 0.4974809271139182 -0.712388872173821 -0.3287263674863887 -0.9499271649739378 -0.5953361049517556 -0.8304460058861336 -0.05542351934788958 0.9334710777506912 0.5528762986028042 -0.7238694471892122 0.9874163423829616 0.8966338409565795 -0.8025497739785277 -0.3117327017418159 0.09206229403477728 0.019390750011708147 0.8508178847625174 -0.5284529180752722 0.3902948914789277 0.06723576742735254 0.25402853610736087 0.44112837085125567 -0.30953923992875954 -0.27932100069223176 0.7796049724378207 0.11666026527090567 -0.18139488072628795 -0.2698980579945609 -0.09250012348105896 -0.7189096446869583 0.29486479124617104 -0.1435878976891194 -0.044131401965704586 -0.4289370502769221 -0.950693339586013 -0.0975418066316176 0.46044048544379046 -0.4434383135527882 0.2524031962774642 -0.7650427894089891 -0.47514059643654916 -0.5461905700389593 -0.5025642540612769
0.35419186892733845 -0.23484924755299996 -0.052919240847054905 -0.5018351050599329 -0.5975288364897182 -0.059943228019552874 0.6791588116352234 0.09804000692733394 -0.036696714493722915 -0.5592803090127061 -0.51984607826317 -0.8233662832605821 0.20549826999592957 -0.15885794757587246 -0.009432382785236948 0.7601688995449238 0.6342145458295549 -0.28961979653807224 0.6133135205305416 -0.1016993937670787 -0.9698560232986124 -0.5140592894130196 0.2196502311170978 0.5525460491179566 -0.6268247673078535 -0.3085914009953483 -0.3268111233411133 0.4432196584051784 -0.059565778939765446 -0.15145850558658913 0.9963554032371176 0.02243588213486536 -0.553953986025298 -0.7997308832847139 0.8221208528556957 0.613929520880397 -0.5533407236431815 -0.44951242072015707 -0.19012984109783382 0.0659012845123712 0.03466204169018905 -0.19010742163560956 -0.22494915323308384 0.43126493678274125 -0.37685404888154594 -0.050953128096891565 0.12658284930259822 -0.7670764197061917 0.36955680654341605 -0.19733159502848685 -0.33294784332502614 -0.07094198442143157 -0.46927945485009404 0.2953191794718333
-0.13875488168091454 -0.6580835463782033 -0.5683360624084692 0.3110695274371984 0.10305636747808511 1.218227982265672 -0.3036775375377403 0.999885890433392 -0.4889849402285693 1.0120195686082298 -0.8101568127848018 0.25572719684791667 -0.7586840387356468 0.8697299625040158 0.5814766061573307 -0.2971115838515559 -0.7749057406804405 -0.9746440358100088 -0.10817162025457328 -0.014910344791538799 -0.5638251437165516 -0.8014317254781038 0.7998078549966547 0.5599290146810623 0.4965133229113694 -0.5721375463043255 -0.5101109925966165 0.8358755061047114 -0.02234479335347417 0.9973124455628386 -0.8048668723535131 -0.46992752253320313 0.43068526261571316 -0.4580022748453696 0.6893389027127499 0.07438118613142519 -0.9062072610653615 -0.1570588344950743 0.16747742526161602 0.47300693417176665 -0.32798993564066126 -0.9628372395462355 -0.5743060103914963 -0.778203508589129 0.38285808565869833 0.05737374930403005 0.48566698040865175 0.11864153213173512 -0.2916098115568493 0.3728111029166925 0.1897497824817802 -0.03095318280694781 0.7602897994347544 0.655523599592996
-0.8374570948947146 -0.6377116774153737 -0.46362242030733847 -0.8930392583611557 -0.45009455251568053 -0.08603883652770339 0.7912638108566392 -0.8193292808852304 -0.4819091457268383 -0.15543656843982134 -0.06907096475209484 0.916857492203355 -0.2711864721685573 0.609791918516916 -0.10821943688777647 0.3940072891691415 -0.27595856669848606 -0.09189828571595388 0.6390985719249862 0.6495078285122007 -0.9108218568529229 -0.5389059413910853 -0.05485201869326306 0.18217197118408945 -0.09165834090483083 0.3178370531293846 -0.19490467600982098 -0.8278366566193613 0.9842729386012243 -0.4344505251078463 -0.46320933411035337 0.47806669879151165 -0.5281029362428638 -0.9730531313136643 0.10334017414215912 -0.16779010958420915 0.27621059042758533 -0.5344209557807498 -0.8680609474039822 -0.7815583174126419 0.07323690112154613 -0.20512586066193061 0.12228194509148893 0.3192254914192625 0.48460384179938676 0.2924930514920807 -0.9045116847575243 -0.7031374820603604 -0.7567416637879587 0.8316432792964328 0.9998901172770491 -0.4193530100849199 -0.9874320514238744 -0.10176174400194293
0.684612651154545 0.10981132014896722 -0.6445912516600725 0.04649910572106197 0.482703656307528 -0.32873414248582744 0.13745134192227337 -0.18003947299408862 0.8684031270117767 -0.2367721524677573 0.07100678232302093 0.2167981039929091 0.9925053762825014 0.13469674425730327 -0.48429277434341533 0.16880671979685857 -0.33408010694665347 -0.4609735153875365 -0.09224005590628481 0.1312851016408022 -0.30808063859042734 0.18112717967328584 0.6601122721574544 0.07798909938571552 0.03610916308349821 -0.9917022792039676 0.7769971546066265 0.7774533512728823 -0.07235516643653872 0.41961657439848743 0.7122715885739699 -0.692637187419155 -0.7177367906432639 0.2545560044783908 -0.25214510281475033 -0.3609921353978891 0.05311075859301195 -0.26770978106332044 0.06954828397564738 0.0907990673591259 -0.37102465996807216 -0.21276380028805142 0.19099931633314582 -0.8456841574109402 -0.4157892102651861 0.5176145840634239 0.3530137370825204 -0.04993984265191487 0.5651286805028672 -0.6194278136937577 0.254321020356723 -0.7926728665495051 -0.0018840494405829578 -0.09190996151420516
0.7406146900365926 -0.7782180097306886 -0.2957760893053192 0.9163973219659269 -0.5110878012254523 -0.557267508016535 0.795107530772839 0.09704908884819319 0.8934408896456614 0.6687491869572388 -0.9089133816016264 0.7842443806496362 0.7575670631973528 -0.23982584811422902 -0.5299939380364564 0.5335398660875392 -0.8114632909245099 0.4114747749628749 0.6064116364304517 0.24727005508621597 -0.8673469524364603 0.7035654723579452 -0.22228828783844756 -0.2764296761646785 0.22881158891420128 0.17255145805878724 -0.8947523278241427 0.020065218153134667 -0.0797510732202138 -0.004679703255818346 0.3025290570996113 0.27879490945302665 -0.3707863202773874 0.19103844694251038 0.4900145433306695 0.636936820716649 0.7111001505127679 0.8761568816752094 0.32639060054269864 0.08811992393996154 -0.03469258018812238 -0.9990286865475331 -0.34429159228293615 -0.15895220836744905 0.04811645855164315 -0.31629028973656803 -0.6279419191489086 -0.7859806554772149 -0.18784090374582973 -0.6600374569609746 0.679401911103406 -0.8742238320262532 0.6817778662103431 0.2705007750689623
-0.12695887273928963 -0.03004623014679786 -0.5067883660147766 0.9737152422237862 -0.7846314717994236 0.04433223588135832 -0.5645946544788545 0.712135786642442 -0.4773740586519965 -0.9601850089777832 -0.189755185967738 0.591252470226759 0.23869808281621352 0.5359989673509056 0.023956392773400115 0.09556711265420947 -0.04726777092296586 0.45326075663491006 -0.6075707816185012 -0.796855643063541 0.41436890847850716 -0.020273675821171233 0.15493549582722776 0.3926094598664685 -0.33698155033841704 -0.9938784828410694 -0.34013616995160456 -0.057348519077349835 0.3158909095069693 0.39646199388348313 0.9401173910331895 -0.4681909356967142 -0.9704804334955097 0.15322881916473818 0.3639211541842733 -0.8584956474828724 -0.5411138266477713 -0.5106699451327195 0.6735641784720505 -0.876570364224815 -0.7536834250334328 0.38448140409719933 0.1468111001281922 -0.05635310351075229 -0.5035189730472387 -0.8638282249649942 -0.02379020117283881 0.9756931505862527 -0.8708679863595206 0.6995754346456131 -0.6259364463800918 -0.25977306959149016 0.17034197231139547 -0.22422037895356417
-0.8691902457272347 -0.6713841712518749 0.2161601211428681 -0.20303721971091515 0.8478030669077459 0.7072632189004404 0.8143311825690409 0.5062818720537154 -0.914669846060054 0.24715146713155867 -0.6641726710122138 -0.9914536285715563 -0.4326707284890985 -0.5458798163833651 0.9950803422688514 -0.3684186736144799 -0.5655125002315942 0.9787090427594305 -0.12554106560131267 0.0964770348033428 -0.24498866861752044 0.704275873722549 0.247182997399928 0.7522137429340727 0.5744136134943245 0.10085355651582417 0.0275428054870257 0.9303514104125556 0.6868430001081229 -0.5654933873947086 -0.8656555753485633 0.1249821272043874 0.11992783542780372 0.07559637150939946 0.3507591525512752 -0.6133175528597252 -0.5819794819506425 0.038127524506072374 -0.8600825948099384 -0.412110489706383 0.09683982008145575 -0.20380793901362937 0.9781375912281165 0.3633992857713737 -0.6622979394637261 -0.32307769093693706 -0.4227808277057059 0.5180091666626958 0.42439647790270096 -0.7517809011928127 -0.2304143001072072 0.049608601320214385 -0.5695668880442886 0.35195174744453417
0.10470699697505337 -0.5560973884976481 0.13682097022052542 -0.8474134277976888 -0.9678605749143834 0.506592049481619 0.48639122169239335 -0.2582972611262526 -0.9550240194397823 -0.9030604762537422 -0.33923169017677857 0.1271994396278593 0.42998411306526685 -0.29308646784322767 0.6221487426128165 0.7410879568532398 -0.752797290994325 -0.2902916473139501 0.6812062964336696 -0.7088817447973645 -0.8257674513699682 -0.23633724500145314 0.0572057093600446 0.9928797263480058 0.20077565914028006 0.6388355371147043 1.0031516604965676 0.6704190006591977 -0.06241121086168122 0.9222216959621883 -0.7805265623925828 -0.22101176366797493 -0.05241944036456192 -0.441080471835704 0.2942163454844584 -0.664989755115408 -0.5335362844973723 -0.3680209115183577 0.8299792843024131 -0.03665144413961374 0.2412647509031638 -0.9484471136280752 -0.4075092967780951 -0.35482057517910515 0.7428060315876623 -0.257702519300264 -0.10621746529969256 0.3520406054311478 -0.5393633131271423 -0.5989635410635858 -0.306313131079087 -0.7952111748742425 -0.49439690902636285 -0.34748207945243753
-0.06795981361539516 0.3848335801464835 -0.42790073547104884 -0.6429591437241393 -0.4244477673865168 0.09713140362351114 0.7409398516500187 -0.03957183041123846 -0.3899141070167036 0.5024597886375499 -0.14780981135324933 0.025442285546696475 -0.8854377317798223 0.4000773793883796 0.7996864742737295 -0.2183992985795109 0.8421976832587785 0.27695602150751 0.9392546253754279 -0.678217347335788 0.7669706222002628 0.2612961757604466 -0.5834441577788829 -0.13824379848507307 0.023601695385794264 0.7066883559451578 -0.6508110272584633 0.0881501035926131 -0.4497419198357169 -0.9567730432570811 0.5113004432488852 -0.955945830307408 0.5233776158158627 0.28658583499821155 0.7074747414326714 -0.6771769893293407 0.7334564617431738 0.4393379992583444 0.12894191770101826 -0.3491387107360624 -0.02054712146983917 -0.3741248371261505 0.9391327921630184 -0.8674384553061125 0.8319637823602897 0.46973089233338405 0.5592089748011362 -0.288785094572658 0.4648488429011939 0.11557813232865777 -0.027831378379572058 -0.10510807262471733 0.198769739708472 0.09393655581609472
-0.08740602623484084 -0.3825915438978569 -0.8315713532186004 -0.8181954551972828 -0.5849133490783383 -0.29514419661193736 0.6045984112599856 0.8412289862604145 0.9477911554002301 -0.8013226395968898 -0.6065349069829643 -0.9030728441308629 -0.713731225927174 0.2552284658935413 0.17903965724649384 0.714693569408851 0.4520689533534652 0.33424184285492253 0.13833511137899634 -0.8408663480122085 -0.23214670659705616 0.8293835103462621 0.0991667082785277 -0.511852365354563 0.8863891157817698 -0.08504930903420616 -0.09588676145645358 0.6190517151250374 -0.9363833638619619 -0.2877899154012433 -0.4130510664331299 -0.8574181441482982 -0.04180270033673383 0.7403647424550601 0.7664333840353497 -0.5637762874670782 0.34045346384385056 -0.6224303325441227 0.7993879494771512 0.3637322627601327 -0.4899454311158813 0.72606552493962 -0.36913385959594147 0.7709438265632733 -0.4671198061886046 0.11796712354470684 -0.7260207039786537 -0.2877175300992243 -0.19619761715543182 0.9729953320227172 -0.26314702189074435 -0.24100513562401127 0.4635262519370854 0.9079576980554147
0.172857860394807 -0.007064695037454383 -0.9104335588080401 0.5427655927284585 -0.4220867707965459 -0.053289775440482634 0.34429065503124967 -0.26054055661359365 0.5279690938301935 -0.3975049709332521 -0.6664040292696058 0.9524519112838663 -0.043663850799456005 -0.682293350892218 0.8801613335324077 0.43897935990849457 0.12205889293474637 0.3580914711873869 0.6125843423756141 0.3514731434232945 -0.2994703838513644 0.19700745992879065 0.841414908672403 0.9225717093970804 -0.48812361694606565 -0.7781362787970054 0.3907353766335211 -0.9935299208581265 -0.22126414966789199 -0.48259593802742806 -0.7188376536941261 0.21579703154561747 -0.1961472609617021 0.7227505616200101 -0.3579957346858482 0.8929224650990519 0.9145756771482674 -0.09104343506012658 -0.7089301164384869 -0.1565404552894425 0.5838266970792036 0.7999125309317667 0.18844380244303194 0.4387838923927479 -0.5541521363381545 0.7711641211486002 -0.7598531698548632 -0.2997867774687246 -0.6043391229325157 -0.8441357033174237 0.27805030099035366 -0.43293358335215704 -0.29922924160715714 -0.986847916023343
-0.3223627448174835 0.8906045860038578 0.6434381376823546 0.3750157518087782 0.9833024443012537 0.16615649828547285 0.49408318374517113 -0.21431927921016336 0.9099592252478588 -0.13357719396460488 0.567323174827985 -0.9206974022627699 -0.41683813741939924 -0.756917139326357 0.23385564176922102 -0.7991858433360968 0.2611480975525595 -0.19109302907796843 -0.28518436043955075 0.11908190991119394 0.36859123092233625 0.5792327606604342 0.5723253754096989 0.7875265172616466 -0.08161288242195147 -0.639314023363249 1.1026423503054408 0.3716549083678906 0.27605993519565675 0.5917160005880484 -0.9650268069903696 0.36428994305083906 -0.47899361751939584 -0.6108095454657474 -0.69187726736943 0.8582377790580125 0.15285471379452176 0.7205762452656792 0.46509295100537607 0.15334120832855014 0.29991106868942197 -0.4200562728862336 -0.2719401589475938 -0.2243212780585424 -0.7171744144572718 0.6118169683084598 -0.3135834623785392 0.678991078823765 -0.10885241938084134 -0.7743625619240795 0.5878496155773396 -0.68129175777889 0.18616789315866655 0.4323991525207047
0.09681934070939668 0.8619640029135562 -0.5033937483000073 0.96291595929845 0.3151962812404499 -0.5909548280139743 0.27337179780012955 0.48686407190600356 -0.7688515930973718 0.3093766631298407 -0.7956450293580903 -0.7633349934536697 0.7524107349351294 -0.9358997968237028 -0.22547566165340838 0.24169640106629875 -0.23422193216762732 0.7604590192261438 0.8059266967419305 -0.0732419719434163 -0.09616143214929407 -0.05188770673006582 1.1571348901185106 0.13782178640042075 -0.527703681599357 -0.12145481501654465 -0.9406876041872145 0.6512022470281322 0.36869346195112107 0.5006147513408286 -0.19306194411054095 0.10273491335817653 -0.8789419939066005 -0.04265581229516102 0.33351737388104397 -0.16813482144054115 0.6113666430611666 0.09340372986200807 -0.21057387574155317 -0.7008593904492202 -0.7169253794749677 0.5951234439161408 0.6333459846208982 0.10983841227473023 -0.54994405434955 -0.021290585720696642 0.794224871035953 -0.30057117091670554 0.849602395734617 -0.574542162128576 -0.062001293867293805 -0.4982597078021676 -0.9316117571323392 -0.14504757039468696
-0.6845526821571613 0.8448472763049242 0.7697931399238673 -0.2727669414922165 0.4260268361545958 -0.1414464780054221 -0.3528595630954121 -0.4947550691915898 -0.5440112676772408 -0.9702702394042829 -0.3242435810346802 0.37462893151163357 -0.11870756701753926 -0.3069177240894845 0.2938504387557004 -0.13010222752639322 0.2403014251223501 0.8986401668613879 0.06150391770063224 -0.7059487649856502 -0.5979763541835039 0.1760073455636304 -0.8274993969380724 0.4763302347609788 -0.49494412684180683 -0.7933256998843794 0.772122216491095 0.9585204657771875 -0.698567672017983 -0.8330687795290921 0.21748604202528088 -0.3019559375674885 -0.3114807392753627 0.1939601572273404 0.7179268546733224 -0.5953585054496411 0.6597336195454744 -0.2373112094239216 -0.6088652096366127 0.8404187501601281 0.18601660133516829 -0.9580332521755148 -0.19724520077488128 -0.9235522959358897 0.3393703898126348 0.5753309871564254 -0.6157133025996719 -0.803995928239756 0.9630439488588898 -0.5026572490555212 0.5306197929476839 0.4656293553012 0.9992508957579191 -0.037955930198244614
0.9099948214623026 -0.6226458450116557 -0.24477764732814244 0.2020719396947515 -0.4472994675740898 -0.5430525097016825 -0.45800167062205244 -0.7337524358100624 0.26001709452145905 0.11256654473219974 0.87263509984763 0.9040534865648613 0.6045839229219321 0.9986444832201153 0.438817347822986 -0.3309246612092244 1.1974256517332036 0.51771607769587 -0.6858824082584236 0.9233304149008341 0.5164334035812326 0.4959986144823204 -0.7349941215045228 0.07075039971642272 0.7950870968899724 0.3158915136693534 0.7950058947610459 0.6349062399308658 -0.4227294899110663 0.650272637881348 0.6788422784618169 0.7427599741719475 0.18098551832346693 -0.37326609208621564 -0.916588979325311 -0.4822958856089099 -0.10542920615693885 0.11134050310691301 -0.2039462247087125 -0.10927629753875423 -0.3236991373972087 0.09561250739040106 0.31823215745201905 0.3261013666011876 0.11692814880705021 -0.11291704965166799 0.718747088674486 -0.3009216662437559 -0.14912469245963655 -0.41605447493839254 0.7478436337815744 0.4609052563128717 -0.06816807825061133 0.7805611068791496
0.08645197810613392 -0.7907210554392075 0.8068515068863169 0.045792244039758456 -0.9192286716826563 -0.17604931945242064 0.2763689653647823 -0.36197631283494003 -0.2577577642671897 0.3996237838428143 0.6180126752834603 1.177238819981112 -0.6766491107178789 0.6058005535151763 0.8782290009711562 -0.9895485013675571 0.2802525902769266 -0.7787749202035141 -0.9403253048811566 0.9483672001698913 -0.8015600919927779 0.20551065789147738 -0.597224965359082 0.45901270658568816 -0.48434403309402363 -0.5058688451115818 0.9221279659109483 0.8332005893939061 0.3063555173404158 0.5966636253758397 -0.11518473293430942 0.8431700705988032 0.19235917608916764 0.2917552582092467 0.9089810128725739 0.49208645455173894 0.304308850758674 0.7464010457091559 0.7439959034047516 -0.6685203616626001 0.449328736896754 -0.6894158339751777 -0.5767004551454356 0.8661189770462884 0.6076674657350944 -0.18979026603651028 -0.9040266834431869 0.3275345343564824 -0.21599506120086254 0.8359835598066441 -0.461759605607184 -0.6578110962482848 0.03291159493121293 -0.01477373501783874
-0.5805772578618433 -0.6956167547509535 -0.5029486848980622 0.34042943999112785 -0.6373468015660648 0.8940174698885712 -0.3495296339247125 0.7656164304963897 0.5191865365620334 0.009108018534371265 0.44238401790641957 0.10690355412734864 0.37422755898221993 0.20430528967320827 0.9008420334136269 0.15002958892905904 -0.5132787513647166 -0.15887767500762173 0.8055445477950263 0.1308781007941282 0.43945641747308306 0.6333394567193826 -0.5763871812733068 0.088045865297121 -0.8044931854161588 0.9927769878271469 0.941705584960709 0.42982898069755726 -0.6689545659140119 -0.04263108003135141 -0.044454808740760576 -0.9056388649319418 0.1905576518277563 -0.968610144279485 -0.6643226444630259 -0.8990970534397382 -0.15397668258276354 0.9832196212337354 -0.6817887515023964 0.773395432236142 0.49436173364073843 -0.7868437715926035 0.7828235465733033 -0.8988028619096784 0.37648186299914466 0.0025676094744357947 0.2650646921982818 -0.9549123494912815 -0.3879946916820123 0.03112952514187617 -0.4121427001536086 -0.1507120538636212 -0.5471883672328348 0.7307997182965913
-0.3578753105609027 0.7029121975613246 -0.8088556968028429 -0.17532987156495405 0.2656155252492771 0.42930995066778976 -0.5625340674915784 -0.8908688059434211 0.01908212885803162 -0.03448841765253863 0.7564255288412036 0.27809907194480066 0.15668301260833295 -0.10645348530157811 -0.47121343211274014 -0.42388992126520453 -0.61065248149897 -0.03477337476035536 -0.24585935340486076 -0.08433692721838959 -0.9598629043716791 -0.09628611040436041 0.526349773354952 -0.7658937148386888 0.8299378954474796 -0.5540282342236975 -0.7541203290720107 0.8043696894944721 0.3852636756016652 0.5200684817470475 -0.32953233347257216 0.508328390354772 -0.6613985055592037 0.739766075182489 0.9970659841133112 -0.8979209089003028 -0.13429364005232913 -0.9992569815421797 -0.0634735097358079 -0.9392542040289762 0.8246128307331719 0.10441103260270879 0.4070065755197083 0.9046904972435943 0.5285355683735482 -0.8998419048782749 -0.6964921387916034 -0.3277157932631134 -0.770101141449373 -0.9686126888787387 -0.5422346966074567 -0.5682890476927607 -0.5020136688076129 0.9301249570698777
-0.08645669223532915 0.7618879406053205 0.41216363232037656 0.9313425991598605 -0.05890894165681865 -0.4099442038741201 0.5437573108053666 -0.7845737387928089 0.4580520460167481 0.2195384046641422 -0.6990830464871673 -0.6132286436122181 -0.15759644860575484 -0.4366190018538689 0.7352258802736444 -0.9088590418370509 -0.08132939501863423 -0.13563478178721877 0.86314385351394 -0.12872440277879416 0.11934871317462914 -0.6272366692322457 0.21100136289458926 -0.502385666630841 0.04212585413998182 -0.7550590104223449 -0.7362344156555263 -0.20645627122697996 0.5260900918134792 -0.088803953854806 -0.7357488631748745 -0.9826180909903326 -0.6250880895794431 0.5521354016241395 -0.7801238361858087 -0.3625683506844186 0.7385381975244272 0.506239971431945 0.7807595486689118 0.36261780674386745 0.8767291367096937 -0.8934999576121136 -0.3048133167578062 0.8412449288489134 0.6221628991107839 -0.14743090584450713 -0.05085531915542507 0.4988043199213503 -0.6070976583450123 0.5478662079366379 0.7394996015252684 -0.9996529999101997 -0.15309541368873103 -0.22235475919523662
-0.5450062305353744 0.33663177653848386 0.4073420790561031 0.6976473832123362 0.5318310593471804 -0.2916244889688573 -0.1716688846443386 0.11943121758752762 0.7114829150116122 0.35360903708814573 0.6648413536423949 0.36266606183927985 -0.3844372168915422 0.7991283843082302 0.6177616456317312 -0.3257123924363794 -0.8760225061233382 0.6004076968802463 0.6625288688426627 -0.49447810715835794 -0.4637754167564987 -0.5094173436981115 -0.4637622329373561 -0.6910530640154973 0.4635481267066037 -0.9910107226617855 -0.5967072969863523 -0.07606286955214747 0.107123296299247 -0.42443227571453335 -0.059794594326852524 -0.1982629887974392 -0.5089449566324713 0.28434643895127465 0.04283154143555157 0.8297798159682579 0.2957232419033955 0.6320881616148628 0.1289969083376592 0.622774575274428 0.39870711653335866 0.9281233822690838 -0.8067325134192858 0.34605375669532146 0.5454976674366558 0.7431090638595093 -0.2936775969668699 0.14296860882996887 -0.7166841088669531 -0.312509307327838 -0.30593267000968094 0.4781383626810136 -0.4922362202391162 1.0863450995955426
-0.1858153903504589 -0.4277911441814841 0.9818569313669416 0.14522861226959605 0.37760886539681326 -0.5772919649666421 -0.1279261587379077 -0.5333674923525258 -0.924136657608178 -0.8159153711638095 0.7739880350594561 0.5962595583736674 -0.3415352648499925 -0.5422294331439717 -0.5109080645790851 -0.9637291528537515 -0.9947318910088099 -0.5678420660717958 -0.9804702667311045 -0.838754619670321 -0.04653743346721928 0.8876136222478712 0.7002644560048483 -0.8621895217121338 0.9906275809139935 -0.694656940018983 -0.004372143157886921 -0.5487388728043303 -0.636200095252786 0.8123314054151893 0.047074417296489646 0.2140917511123448 0.9174910730473254 0.12848764935834922 0.5517901571670192 -0.947676305883383 -0.22091127572982838 0.6749287097826386 0.7878738739818958 -0.7219909624777079 -0.19665433642322605 -0.7762310289129237 -0.9244277382408963 -0.8784645825215356 0.7249082092835283 -0.8388766219980843 0.07371381111555547 0.2906404631866879 -0.49874519122281846 0.1527160960750562 0.5030086510744527 0.10354360077769065 -0.6971809133042863 0.012782540049765867
0.32928996165286506 -0.2881070530891341 -0.06660769061343319 0.5581299072052059 0.4969530578893755 0.47612370417743954 0.9048565192971985 -0.6140115121882117 0.687876934304648 0.9984391451884131 0.9083585197304218 -0.7156724241502119 -0.5575791604266653 0.5939961158659814 -0.4183814832371575 0.26136496955854005 0.40490865751741767 0.31682881200780755 -0.41378752040573974 0.8344301761176249 0.6928117424537804 -0.5147226529682032 0.0535925698157127 -0.3266012467742576 -0.6352638243731947 0.3644159779237993 0.48571713458515986 -0.30061299645450745 0.8729947425882776 0.5848634265675814 0.15120967340711844 0.07798652656279037 0.0323287264152059 0.6873148231989101 -0.9875843503624389 -0.3535322647000583 0.972255398055647 0.6816885305035327 0.25541489185139254 0.2281122211655653 0.27660195363972484 -0.28447997237773714 0.2234911871388856 0.5796895995747011 -0.16751488830553884 0.05893703685427165 0.26279604855682215 0.11454374552491076 -0.2952625265459734 -0.953715759027012 0.1702229984633834 -0.16815004947439083 -0.7033747141760809 0.9216173426660694
0.91314671295276 0.6589178537152056 0.9685828126439704 0.3770238220115454 0.08660215243073521 -0.8761134110950692 -0.6313022146942002 0.6374384020858195 -0.7580355047813705 -0.2774244581428682 0.5299945468725289 0.5594457534400881 -0.8905717825620456 0.2654478520717938 -0.41524992814707473 -0.4844835801522862 0.5313769647486257 -0.7535592242482227 0.09194862809219623 0.13386040480558892 0.35463344316005596 -0.14588958100049565 -0.9793901994048464 -0.050516741119333686 0.04430255015256068 -0.23666117924483498 0.545752381247596 -0.883327762999562 -0.8507923430082109 -0.591507444050198 -0.7941850118403 -0.4456125526532668 -0.818708363783335 0.7679164856192131 0.8608409131221564 -0.8865399749797176 0.3221221467058984 0.5174797021768429 -0.5401188321858443 -0.7654933126660628 0.3762686316666719 0.3683556226911413 0.6026574155071776 -0.5540243503083802 0.8059850144282934 0.8250761253249985 0.5809595473681963 -0.5910762646229626 -0.9366144436045851 -0.13459219574116998 -0.020167013100415465 -0.6243622921077667 0.1982212505365446 0.5997024683561671
-0.23221663750550903 -0.5412673400245465 -0.7757820532236543 -0.11562567399150314 0.5855433068652522 0.15161559544734637 0.4446009318428288 -0.855522123943423 0.7742769089849828 0.8852323073302146 -0.20251457796389816 0.6428378761144269 0.7728018113882575 0.04773015359713484 -0.5350021772500573 -0.9722296572222944 -0.46226548288137215 0.26821718026674124 -0.7552066484714124 0.0242373319152398 -0.9551493793535457 0.10551528477937033 0.3056349745126148 0.2843209865281169 -0.8086005800913427 -0.7559738134766061 0.31783105446167204 0.43996688485235214 -0.8283855717821951 0.874180853650729 -0.8067160297826392 0.2840894350458425 -0.2339839463822495 -0.10494003839441213 0.48243063172298006 0.973026792020314 -0.6242700859255528 -0.9385874087231065 0.730670355045056 -0.5342320031660084 -0.2693894129193448 0.6184679787124701 0.5968767413074181 -0.639569169934161 0.6403252377639304 0.12461197650693756 -0.46789789357615086 0.2961940904206142 0.023097860210559817 0.1725540170864437 0.3911412745826746 -0.18163519092892283 -0.8310144246186566 -0.2129221915796944
0.41252829125933155 0.453452502592647 0.5539493983932069 -0.7340204957037382 0.6446166027520148 -0.29866103668146926 -0.3567209642304934 -0.9399483579488956 0.6068957820616926 -0.5760030020686859 -0.09290247339948765 0.9637616137628153 0.9782999454299615 0.7522086622555155 -0.24120644898583832 -0.008166658951289874 0.4990682201500296 0.898315356936396 -0.9125330778522138 -0.9436973083174038 -0.4253605401021321 -0.38618035730586486 -0.03415371360887676 0.43624884371338024 -0.8408599852126593 -0.41306741143662834 0.5979041632496991 -0.049164378997218705 -0.5473278515593729 0.40566062633672684 0.4438065536140907 0.5216240246877959 -0.16983754256864403 0.4696060398353319 -0.16762982872822452 -0.9355281883445161 0.9543338251611737 0.6657004166946099 -0.15504894305868677 -0.3978402463994776 -0.9583443756706587 -0.4128128742496242 -0.10072238494506536 -0.8871281930774586 0.31256468344165 -0.502300127732122 -0.5587702819883233 0.29082021346429165 -0.9275456041194401 -0.19996422247048312 0.3014114084964019 0.9659179100390649 0.4453808227098093 -0.38905519597365457
-0.6542838368427142 0.6907368348895273 0.5420906723341419 0.3344214035664439 1.051116721845691 -0.8750315511490234 -0.7539839241658859 -0.0662493020908157 -0.5183060414225784 -0.9054717962156178 0.640430336050567 -0.31095861593056034 0.6327928801605534 0.4928959062060183 0.7089332345927688 0.9958241149756597 -0.1100479648686421 0.33482223881862727 -0.6166621430124068 -0.24012844771051434 0.47561935808420674 0.2947652251501498 0.7036772565489811 -0.27371531952465533 0.34830141038183743 0.9685006486440433 0.820198917869239 0.9309350584001005 0.6798422835624931 -0.7620414818083874 -0.4111438986397238 0.2791885423761291 0.7977317015523266 -0.6549735974327564 -0.3763007713873314 -0.9972418129867842 0.3955044942019348 -0.6377606586136766 0.9226566204278039 0.605544548042203 -0.40297305197735755 -0.48742814007184476 -0.11725190468787572 0.22995208161103453 -0.00639265810843237 0.37067857274404803 0.4378881384807163 0.74124174281172 -0.8399029977180641 0.11959718715817735 0.9140100418905801 0.8074443394998774 1.0513777009224416 0.4178883389265642
-0.43333727745063033 -0.45078549670609314 0.10415200822716142 -0.13427061786407934 0.6625222865055636 -0.6810070871608511 -0.30320478837754994 -0.6146960689549963 0.5501281000722755 0.28607021899637575 0.8480565728494673 0.17834922800258468 -0.7129200594727698 0.2062186495874947 0.7995557788925012 0.0016914220643392541 0.9761397243698047 -0.12868375553514366 -0.8735932257610306 0.10762923810133351 0.7706845932747477 0.6277355470829378 0.7092399574068513 -0.41114448659120817 0.02024129695118604 0.6893887641430678 -0.6693473374965646 0.28803213576662334 -0.19508199492479572 0.8622829102995417 -0.9880212650098659 -0.20406664198564473 -0.7969553287281057 -0.2262534408506196 -0.31057128555242697 -0.21485049048806948 -0.780853294234487 0.06382123931291561 0.048714255228097525 0.12339903601746804 -0.10880802840499038 -0.615529402328709 -0.4128153151702689 0.0431934797339355 0.5887772793622572 -0.5387205210014414 0.18738214726364988 0.10563020692786163 -0.5158477937937587 -0.22823338727827336 0.222165403596001 0.19371159050015363 -0.5285177117894924 0.34026318762937036
0.06473327112378136 0.7267761613450492 0.04586942258806359 -0.8970735802970919 0.9315160388294754 -0.8481222352980038 -0.46744385228065055 0.3618030246574715 0.2863749178522208 0.17147303963699945 0.6603601173204536 0.5083083969095803 0.44787324750271984 -0.42623169992163246 0.019658423506571765 0.6048272499592975 0.8545301774085052 0.45694161784033427 -0.8491855191297111 0.11769196234944501 0.11233314124950722 -0.5339673818458996 -0.5446203727790211 -0.46323979573018814 0.29405610137117666 -0.5454612588144114 -0.7937509883178684 0.3575283859202918 0.7621319960027169 0.9088514295785592 -0.9210939190387144 0.09764219384724604 0.17517281125820938 -0.2941169622049391 0.5106521983388375 -0.5923558897291608 0.8449591306090356 0.8637342795126675 0.7133968104277346 0.49410752360116283 -0.17717185829270332 0.19372739037091335 -0.6774029294575241 0.8051776367802768 0.17640367851440208 -0.5904353778391809 -0.7456550349219335 0.5268103873305472 0.7828376417690228 0.7979616702684664 0.353147696308866 0.8022133000481515 0.07059965957497805 -0.0785796572791091
-0.29714839133534143 -0.058171548549694085 -0.19731803055677477 0.05494638854322864 0.415859673862772 0.7726552892703533 -0.08696848254311185 -0.3420529437466606 0.02396494024707163 0.07815515766733117 -0.4980725353893092 -0.6186116985526968 -0.5758814186504244 0.8027298772849107 -0.6057743238255409 -0.7859057841959902 -0.36601817635420003 -0.341346681617853 -0.03467340995145529 0.5176254977282275 0.6613588640715233 0.2847512947444997 0.5022834465583594 -0.36964167629501565 0.9662493239970837 -0.8624615111699621 0.7613463909981233 0.16429963416422333 0.6116796902669803 0.4132964126249763 0.2247630887690404 -0.6727587896680527 -0.3663542876832091 0.1592339415387285 -0.2539425250035703 -0.6312905611458783 0.3226981033202667 0.3895898417975967 0.9273587459397208 0.9436094423851307 -0.3767471857575022 0.3254134939252391 -0.05525746754204297 0.5827024987281941 0.3427044619387125 0.7852768070048328 0.2767345378708439 0.4498119039079582 0.6416445048720045 -0.5398745199393733 -0.020810692105297512 0.1658105180634517 -0.9980552566484178 -0.7108363082537581
0.8555946213331864 0.06980639083495199 0.6175041824257239 0.9740168816890393 -0.6170185942458295 -0.7003020738032959 -0.8693514330554326 -0.765339628955261 -0.13917802872151808 -0.7814441817789932 -0.45989640661678144 -0.9784393331735479 -0.566673342712638 0.014523529376102573 0.32238660325059043 0.8426062654179307 0.6939558872067855 0.44161668577824287 -0.8548955249052905 0.8963422738614952 -0.9755809465680712 -0.4968449362494951 -0.8478671102101707 0.5114525230517821 -0.10639147029468465 0.1381900705795318 -0.5605523279599405 0.1636972906429215 -0.4010436924744629 0.049208510526896454 0.5736921171681766 -0.2979657246779135 -0.03737905247473838 0.5652421306172981 0.8325407378298271 -0.24886679189014882 0.1998982849943598 -0.07919689614005865 -0.32960191303426223 -0.6484177908866327 -0.028837537693598092 -0.8111230991087066 0.45021281714619965 0.803374879754083 -0.6684532322323212 0.4418407385507064 0.3860778364516617 0.4210473981961793 -0.46912496519778757 0.353629093683377 0.6995170116818028 -0.49226714123308324 0.17226063526097013 0.5242714778559985
0.3634833347993831 -0.37353928281861526 -0.6183871660078168 0.9503945202247528 0.948848395857949 0.5479744143079783 -0.616229269999012 0.42798189803396824 -0.4158784103779456 0.30598953764116477 0.31642994203239083 0.4466429260822382 0.021601063175845203 -0.8555031237112123 -0.27713150227618377 -0.382381598154951 0.36982159158326455 0.9242720694038975 -0.5450564990441735 0.866869412727528 0.021660017839440604 0.9636524109609743 0.3267241735383022 0.04210261725113096 -0.4611599816702179 0.050485004492222485 -0.8309659292446605 0.81784531191443 0.6352107771244362 0.1640525468406342 0.5596141540437136 0.7113338163510525 0.032961698323669575 0.9425509395366936 0.795033791886101 0.9066532665171223 -0.19593122352860703 0.8240613632984317 0.8609967397016245 -0.988770240382431 0.6314127692378579 -0.5682843062136822 -0.9126564538698958 0.48787374373321263 0.9441629555260911 0.623650079682365 -0.6326104446431038 0.5268858179745781 0.5664584868832703 -0.05780224225631114 -0.484910424700876 -0.6955153458557939 -0.36395928267611294 -0.9210741728591947
0.9219413555175446 -0.22667155094924807 -0.7284983325543006 0.7259284423259231 -0.13359914056811584 -0.9087060850679309 0.43745666500058933 -0.9546300040420757 0.003135884467608596 0.027430421344732947 -0.7920829774665838 -0.6138201867799788 -0.17756072403348067 -0.7133004782367578 0.5676050262861423 -0.03466133263901283 -0.6532075139993485 -0.8839745491858171 0.40371038719048213 0.8336797574947212 -0.10985677588117393 0.8138228492441459 -0.43648082213377615 0.013459463549934547 -0.4025573198190653 -0.5529017960042018 0.6289939825083679 -0.1510290578731741 0.19060639660407785 0.9013006569758599 0.3096924747915957 0.9821389140554959 -0.4277325964242209 -0.13598862904713882 -0.40360032691191816 0.6657013213088685 0.58102647030705 0.982422945379354 0.48203150630543024 -0.8146930592602208 0.03274482925673938 -0.025978149060776834 0.23639867281582738 -0.834228221771216 -0.35640704255657396 0.028833779200579945 -0.6886429771944993 -0.3695038094476195 -0.7445658684763117 0.330302403987645 -0.6055255045931476 -0.08262998334949234 0.5171477292678597 -0.5169000039525418
0.498582201923802 -0.9279129434562499 1.192286642466817 0.019995293569903705 -0.7521365422186266 -0.9677935358844134 0.7009059248787999 0.6975445425474336 0.9588437364853255 0.253721940698038 -0.05727589245342246 -0.7002684928072571 0.699269809521633 0.0057264419505618225 0.3953573230523604 0.17721432331768172 -0.5696305537051367 0.4721381878246844 0.8158718710865114 0.544857526046024 -0.8885575379909341 -0.023198769100455097 0.35834509792327585 0.7196331316633684 -0.03740007209632834 0.49554304195592236 0.5523674313058349 -0.2128832566798482 0.40165814963959345 -0.0506332454745253 0.3140359645621662 -0.24532829658575572 -0.7257999187003128 -0.24258032257477802 -0.4498644519619825 0.45525614113874835 0.120007642963192 0.8636578857829948 0.1541869863302665 -0.6660312980282752 -0.3065213037524559 0.3763431129645807 -0.047795123027776 0.4825731954174701 0.3477579956419643 -0.45527352241522245 0.6724953223134797 0.5034602769722185 -0.42289455702412826 0.5522837993611853 0.4778546772533624 0.9404561504906057 0.8193700027647179 0.041852908742105066
-0.058022679328335824 -0.9951663096895327 -0.803896914857078 -0.2556476582308862 -0.6440375468201702 0.3131965196385622 0.787925140514472 0.0541657057495899 0.45918206703768316 -0.26614119186085294 0.36905509337582787 0.8967348130160027 -0.2860877335626868 0.5110686809457365 0.46979199091840296 -0.47876003356368746 0.6946118001174801 0.4286020582708876 0.6316369047219592 0.10863067817833622 -0.634233328742762 -0.5960897036644826 -0.2392205682982862 0.4933448330231234 -0.48274263748927027 0.8784215842348699 -0.2733572811456766 0.29083800929230086 -0.42820351872919793 0.33854196050076624 0.7579049851718731 -0.05455529048271335 -0.407900755895686 -0.15413675955596595 0.12765336524721516 -0.17740467192802356 0.3855775591085997 0.9695603711367669 -0.41285782132897464 0.000633929724318083 -0.5520345482599716 0.1534186056545357 0.1442465946927931 0.08470425926919334 0.4162855170384941 0.282445305736412 -0.9939380212725308 -0.09220633938513068 -0.1571437321261262 -0.46794307834081006 0.9755726248164418 -0.5561809448283641 -0.328775557346602 -0.2122649208791827
-0.6406757457537526 0.7306051647994583 -0.6955025177612439 -0.5671986508972344 0.8095396648031434 0.35471443761150123 -0.9305689438286413 0.9704880426842981 0.44012716800369955 -0.7583601411839302 -0.23634831163340642 -0.19561731050462727 0.46669293207457585 0.5411019360848166 -0.15795263621640365 -0.2612366402111215 0.22074228018591757 0.6637772322658522 -0.12460849371039462 0.51120457926917 0.3391637941515018 0.6580712073987056 -0.9018213879315997 -0.6605231479636804 -0.4150559122576394 0.3049039580807023 0.29533465368902 -0.2696183680759472 -0.4568948821045964 0.8371448948719447 0.37959994166365973 0.1978456908727113 -0.4272343667368432 -0.5196392806826151 0.27460797447993435 -0.33472068267132893 0.999323356733105 -0.1885830505793411 0.33665438460534114 -0.4553028152335137 -0.28446868512084755 0.009634854181211017 -0.5496341005707848 -0.34619502665731927 0.7209448907062923 -0.002950063498913469 -0.2723803491374408 -0.7747219613035923 -0.18297138692157477 -0.9469943464397272 0.6456603347075882 -0.9937417010657217 -0.6131122951678821 -0.743461696249188
-0.2213060910010829 -0.4233759021203045 0.27333492073674126 -0.4641036711108344 0.8701599646610094 -0.05947169072238023 1.203006231556271 -0.46429858404040925 -0.1290030009203187 0.48659747142504384 -0.6184169627643934 0.4619617652569461 -0.0132920438655324 -0.8831511247589301 -0.7678494767989179 0.1268368754657856 0.7363687060358832 -0.8175616983525897 -0.9165257202533985 0.18635742876795325 1.1279548016287269 -0.37535169121953205 -0.9426222120953174 0.721869140587323 0.4971531330200285 -0.8470319972407649 0.6561799730734474 -0.09923271514310894 -0.6686389665765813 0.6739603431208312 0.14211873097358296 0.15722555055500997 -0.48254833222864146 -0.35059131945140454 0.9322525623713542 -0.19189351342803385 0.44390239446775137 -0.4153383284261736 0.8580262106036189 -0.24017066203193904 0.7549581089883417 0.8253908866950408 -0.8685881036695138 0.06709041416861328 -0.309092310958649 -0.7587179394099344 0.7501861542690209 -0.7177130593934633 -0.8025478466408948 -0.523378030122593 -0.5097115188844361 0.6291144956083026 -0.5544970877359161 -0.796834328538474
-0.027328527295917615 -0.2787995690947229 -0.3671700661756485 0.7293081098587237 0.0137966976868793 0.6053884855251492 0.9071411271641634 0.5972350811833798 -0.013427832724220767 0.6299353425932541 -0.09240686023330213 -0.9497039183162734 0.1891604007026928 0.7460207035483049 0.47710766813697125 -0.5093380923171487 0.0689553176990168 0.13939493102267275 -0.09769796632856975 -0.9649645206135411 0.2375580986716278 0.5679957203824209 -0.7458814467505503 -0.8389401649737904 -0.9510226622915474 0.7057950619236424 -0.2217248057885266 -0.683949284943953 0.9140413732404449 -0.5859262677537633 -0.8546901230465587 -0.28803930501596514 -0.6733045393181322 0.655389501654579 0.9489294627375777 -0.8337115506015815 -0.5587511741458802 -0.16715833865503837 -0.7531710164670429 -0.9393431583340393 -0.8764569529306643 0.5651248782893339 -0.05807990842546462 0.7989502153489536 -0.1069814452052642 -0.3200208894939922 0.38523379710630135 -0.5840128966739708 0.10830212369372294 -0.36124881870892045 0.3632888623847914 -0.8205723361018089 -0.15450063626068644 -0.5204794197347034
-0.28340973245129186 0.9403876002148903 0.7832146846428261 0.10410341438478177 0.6986846196761147 -0.6894314397576065 0.6635728747799585 0.7867999501265077 -0.5234960926929408 -0.4483034650837523 0.714199075983694 -0.7557869307106677 -0.16921199320675018 -1.0346124750009724 -0.1212947426807105 0.3256996386548081 -0.7961417013721597 -0.8850557315861343 -0.4986343334430787 -0.3589885760893543 0.17101947783075966 0.18339055429030138 -0.28907716611088885 0.6454562922266482 0.28167946967282 -0.8454646303667877 -0.926972752902353 -0.16118136277460238 -0.8857551748273402 -0.054432626021850616 0.9281423053053182 -0.2235530570095885 -0.907332288362273 0.8849004593264707 -0.5740662700955821 -0.46450459096458485 -0.29616465702657546 0.5377031574774855 -0.8532729096368503 0.5723838342493426 -0.6349013715436509 -0.7048296989957212 0.1620101548628068 -0.09140396873636081 0.04496406209467585 0.2708415336350627 -0.5062618896795839 -0.6886237664257793 -0.6418057576207958 0.5568996706843652 -0.7395365079726666 0.9831258833576879 0.0732356857955716 0.8487981044570825
0.6283380552256093 -0.07270488426137356 -0.08608091505863125 -0.3941405878969084 -0.39851802939977143 0.9485838951070242 -0.28040665769635265 0.7836305403566888 0.46072985968045366 0.912287281786957 0.8029952076926152 -0.5966589584730793 0.11823061273398072 -0.36929699751266853 -0.6298874148802347 -0.6461185777670732 0.10040296115880487 0.9819265380098721 -0.9277932970193346 0.08158415839000921 -0.3840863804284731 -0.6442542900083155 -0.789610628291918 0.9994504277957028 -0.36364818834558665 -0.23637017409576444 0.555392031839332 0.5490619370957868 -0.026746971227505023 -0.04215081236354257 0.02978150885811326 -0.14916676326806577 -0.22311637208625545 0.35572305311041297 0.6069628663004019 -0.6003462409845246 -0.5015174895009562 0.42061336845863395 -0.3059667762927718 -0.4663218977242747 -0.7081031604902386 0.6150084695117097 0.8750021911202899 0.8213421366703018 0.1575813648022275 -0.5733811641349043 0.5223354414255246 0.07069328235265915 -0.34970125098352356 0.5207898752984699 0.8044999624883928 0.8740498914584314 0.42141086851639953 0.13506366982603168
-0.7928939083255402 -0.7966219703443453 0.641547981900636 -0.16254732926341625 -0.2505911845192472 -0.6563026943013734 0.6631606735390565 -0.446096680019493 0.6693613560756337 -0.6389873295665924 -0.25891514653340364 0.9186223611827915 -0.06728346907444388 0.980806707053993 -0.3026854970449046 0.07407261854938918 -0.06946836941743695 0.8838320212480251 0.530791363164896 -0.5829915783805533 -0.3707013464565636 -0.3238610462359939 -0.7993592661039897 0.665491989514359 0.2318696606269357 -0.17375349646456173 0.24775117516848116 0.09092771867883842 0.2496671652545439 0.6352832902910637 0.6049405229553362 -0.9981875537661191 0.07355183785189079 0.17912123556755422 -0.6368831950298419 0.01867674147659848 -0.7576635601307637 -0.5544791107494793 0.9557138827881162 0.6137442032595848 -0.9429471825070395 -0.08771390421833475 -0.16562456094419797 0.6368563166834937 -0.12250167281815383 0.7066491197518352 0.3339755961641877 0.8323172520414646 0.9986706522532518 -0.9509147919931329 -0.12885523887448502 0.4663867394008945 0.9109826148798665 -0.9839310219102186
