0.45327256449087444 0.5736415133397673 0.41882700023371366 -0.8835969596514621 0.31882272080906193 -0.4108799803510182 0.4614607249987813 -0.10955033525564789 0.6493339790430128 -0.0720131379846638 0.6366944605710365 -0.9699381384531464 0.626155733008464 -0.8110294836895839 0.17338415679754493 0.13747747248816422 0.8680096986265142 0.7422401235222955 -0.614543104367953 -0.7719381964716117 -1.38727773765471 0.488887826931419 -2.1590134471507025 0.39940287411620606 0.5333270751131218 -0.2970172606052429 0.1936222796735344 0.05925317484652565 0.4138032373704479 0.522031447404762 0.6725973539046148 -0.23949540431061506 0.9942028047905819 0.07585752831544812 0.8838571745532856 0.2413863592000819 0.799909057761469 -0.3201503017466767 -0.43155512487515624 -0.962124685777545 -0.9786131553849464 0.9366576685234518 0.8113559871011602 0.2244005220322971 1.0971565147562188 1.2165720138249643 -0.6802029969466408 -0.14164592405842696 -1.2046107268870014 -0.6185115494078776 0.4708836537003071 0.3094745988177303 -0.9480825674670454 -0.8818723871435493
-0.273517612824861 0.8343417710316929 -0.6096974054747029 0.13295441459148133 -0.6021134389957543 -0.4739465662481749 -1.563031780685845 0.8563919663264123 -0.6493884986935814 1.2165895018085953 1.0566874947897822 -1.194164142267779 -0.0043230894077095905 -0.45634113731079234 -1.2722622404852448 -0.40516272523840446 0.8764319900255234 1.1879306020117215 0.5466357825606428 -0.990712597981957 -0.22150098959550174 -0.5503748868711049 0.46781917077570295 0.6786982756089335 -0.5620794117325778 1.3092292054041754 -0.2841482863269039 0.33519357137808325 -1.1280525875620673 -0.348277924236115 0.9923635042511351 0.6957277528615339 0.30947029684119576 1.1399269577631443 0.8126926978680837 -1.4456486678934728 -1.3019742950856628 0.18386595576325143 -1.0917221083833022 -0.20656450680559957 -0.9957094277279244 0.7798679422322576 -0.000733853899975323 0.318025862091993 0.4127470182109893 -0.06244002121633574 -0.7886400359677241 0.6815460073880494 -0.6057542398705167 0.12401431672608676 0.4635968096819652 1.1117994454886024 0.43600656798714515 -0.7382005130862892
-0.35125030814568653 -0.16869147946419755 -0.25919608097433505 -0.0833619279355386 -0.44259182822878723 0.5163491031596189 0.1924095646084904 -0.6073484899510123 -0.46034132497030067 1.034970852330558 0.5459974372660432 1.2640445789815615 -0.6503727682308972 -0.1867415802793782 -0.6152901806485199 0.5581035943726077 0.9133429056049254 0.18255621851874937 0.12208456813243385 -0.6302702544115015 -1.4384985722133763 -1.9554357652582142 -0.44382483709958553 0.38429805357383 -0.2728482247705601 0.773428903828651 -1.1051268424095975 1.6139942165192185 0.09763256532786657 -0.4156707963822628 -0.9346796490053515 -0.1984640477633729 -0.957261217911278 -0.26228888480131535 -0.3332085485753428 0.13140116758957188 -0.3813620457684926 -0.846464646328287 0.024853548154110394 0.43010974408693 -0.6013031784612799 -1.0444812391373708 0.9593821378168432 -0.20847244177986912 -0.6454374400463885 -0.2601573511789362 -0.4223930872222245 0.21579954762784948 -0.7071343467309809 -0.14604880523429664 0.10071013876775348 -1.5691628424564057 -1.001459282644666 0.804834560557427
-0.02985948469527583 0.906413674943708 -0.42532069748284274 -1.0381679764981904 1.0033713636374344 -0.7743619044076233 -1.3002471242789664 -0.6657690107592953 0.47639505464162024 0.9463998788525388 -0.23336029173231787 1.0991467629630196 -0.7101834668356126 0.45833085843606247 -0.33612922736661976 -0.8448694939893582 0.4099444412341097 -1.031362542099957 0.2969520508181803 1.215717923592838 0.3724573725751387 -0.9450070837860866 -0.24622906673929718 0.009729304891093582 0.4536677819053008 -1.0168288368961464 1.0252138760083147 -0.4131783340409261 -0.835001299603937 0.0005707378168168797 0.2214683178139787 0.7811985273385088 0.5823770813527123 -1.1131258638012627 0.863603557558869 -1.5480749347912999 0.9713180110967707 0.5476708570749326 -1.0027260629782817 0.21228095657896617 0.0649944451445768 0.6241976479049647 1.2121742843694594 0.567742360516398 -0.33724873426807755 -0.36938874831703533 -0.6580355883826612 0.864455848629506 0.23656656540902127 0.21294899452405575 -1.5081738586959779 -1.2307305912329571 -0.8736549307758561 -1.6572805051510846
0.14082942437603413 -0.565620309233269 -0.17154333674865602 -0.18656905010504998 0.1969654027001097 1.1217458207825584 -0.3039281961048979 0.851240503255654 0.5662323887973515 0.2959791772626357 0.08502098100733652 -1.1643798309446012 0.8815722754294546 -0.21786136657434896 -0.8407527251768157 0.8910939194055323 -1.0706530751748353 0.27959773213555733 0.8358589238680498 -0.23718105955613 0.9992236770975607 -0.5083368090649535 -0.582151638203299 -0.6814362936218539 0.10870442192659951 0.6505314899849126 -0.7890641317139369 -0.003296634960786582 -1.1374881282037528 -0.313199123673683 -0.6547879910553225 -0.010207648207444242 -0.7008097828555437 -0.5867513300005569 -0.5435273339821932 0.15935059662896395 -1.3004860689060371 -0.13380750367326827 0.3278506205366681 -1.1839635738762913 0.341257013593111 -0.36638060256320887 -0.49615010901456774 -1.1657095240440307 0.2403030015782937 0.6627453807444161 -0.49503109092664976 -0.12691944487840917 0.8973090026220555 -0.3994498365157704 0.40861745079705697 -0.6120499904304925 -0.24687252199619408 0.11770244425444193
0.557667728464178 1.2427413225453514 0.6472764515060321 0.3397188818924505 -0.216633577676967 -0.6754757816469763 0.10981226991115983 -0.223966238116157 0.7992409280853996 -0.3551799791317049 -0.7391264462945024 0.2309754869492872 -0.18591790972819427 -0.5033746211097887 0.19695922467696603 0.3148734535749332 -1.2990264745738416 0.12762605001972854 -0.1615410453902506 0.08860813011589702 -0.8158260106744049 0.39066456437191094 -1.7546202587820199 0.1587698322722838 -0.9687261676013119 -0.03727916809044074 -0.19310051998470246 0.9327818137558557 -1.3100937967325943 0.7471104001761759 0.7071869515370093 -0.08017665912252214 -0.961708768779503 0.06632677852395535 0.5468453439919093 -0.6585047968529998 -0.6463054426241241 -0.6927011928712865 1.8338155789965171 -0.9652456129212152 -0.6085779962036886 -1.0372689860893656 0.7344770279711504 0.2727455592382268 -0.25420074113556523 0.9409245678828582 0.27765565766880085 0.2603295484563118 -0.2754868371621058 -0.6608138192206265 -0.3444918146450201 -0.41594976524739685 0.7373367711530803 0.08610550165565972
0.5089660090395755 -0.7014959674927512 0.8082634116859666 0.10922481270980389 0.369533675162917 -0.16541301103959338 -0.8496478739588146 0.8303737909328436 0.3900849349708103 -0.30192656409600027 0.9805487397003962 -0.5031300232909628 -0.6247563379887419 0.8043368839154607 0.04342139382785848 0.5683816694027755 0.20141498294556576 0.1379844719294417 0.7441749999501636 -0.38267190789845057 0.7046416154582898 -0.002210572649111231 0.8913943154488388 -0.3860060189055317 -0.6372567423253839 -0.6151309386193027 0.6191939133274871 -0.988437689859792 0.7830957503220377 0.4845110210697966 0.21020391369055497 -1.2848462820413535 1.5746245890938737 0.17426605452791666 -0.056928671713803336 0.29722342919615774 -1.1220962289210068 -0.4112749474306485 -0.4037962411804281 0.031136911415257484 0.056208014158096176 -1.0263968557972942 -0.5600489576411788 0.348793932504799 -0.42076319769176024 0.6096845566447753 0.5186989156086796 -0.5810115757589367 0.6807468792108242 -0.6252136453816 0.8282384022410267 -0.25741427124491634 0.36890924181704854 -0.16386018985123546
-1.0164281342146588 0.18404692120788535 -0.7940684394140309 -0.3229305326367794 0.6583987494362389 -0.6810275516505795 1.6256025812738477 0.5716209022324343 -0.3565198305716008 0.19727469269143239 0.7309344298766027 1.51603742675466 -0.32465785680075077 -0.30663544438897883 -0.03269808035532096 -0.6968536444708398 -0.5160963085940551 -0.237192645756373 0.9205547415634848 -0.005655335418340346 -0.7745058471568418 0.9449566702857248 1.0150830733657532 -0.7577805670578451 1.4840243783528568 0.5676065211119959 0.005752127985568012 -0.06338293166783843 -0.6114375382708717 1.0474868351342312 -1.0570460514818183 -0.653647863474009 -0.5298900249385721 1.0138362351587216 -0.9769680516878627 -0.2263696534300249 0.9153784324639193 0.8057038928870164 1.1739888595143042 0.07407854597265501 0.5064163079285595 -0.01574621610358784 -0.8791225958061291 -1.2668076035366302 -0.6482941027777692 0.2470975578213318 0.31644371097496377 -1.5752762859391096 0.287151429229098 0.34608916045667004 1.4365543358328323 -0.9366950426873026 0.9531383856908784 -0.287019574299854
-0.4586170775901351 -0.7695456139987562 -0.7043404201290917 -0.5311846543081926 0.46152658216116205 1.238245340086832 -0.06574714417902955 -0.07955418220724952 -0.25818485521183837 1.0130455021857303 1.0779455663013573 -0.017929286056478477 0.6574735579734475 0.41864111729362086 -0.37200790357941527 0.7345793106579637 0.4833180427143835 0.06906404981639314 1.223360089222428 0.6750639079002431 0.8954215034697046 -0.8640497460890671 0.0639698199440153 0.5864168009065376 0.25046708393750033 0.4193432357640447 1.4104084013570897 -0.11260279215910257 -0.5195078073533386 -0.619501832204373 -0.10033653985735208 1.2104262065688725 -0.45785700812008695 0.1052905681229298 -0.82362039133106 0.7807571946180694 -0.5914043245830205 -0.4064405437935327 0.7694902928415968 0.4296691602813983 0.35728064517206276 -1.8705329864487963 0.637664953114331 0.4533025994533722 0.9293000390143951 0.6490359884308425 -1.779161235085776 1.572084584008424 0.3852082358131716 0.223235379859493 0.09336964630709221 -0.15885664224559404 0.1847751698975154 -0.059482315502918215
0.4621301560003202 -0.52618845829088 -0.9649378955501179 -0.4784494257618586 0.36152738039570703 1.3224106572380376 -0.7913060944174992 0.20903114778130533 0.031036489339454243 -0.3456081182741374 -1.5697058404585467 -0.8231182957069088 -0.5242201236900942 -1.9439652958978222 -0.6333415767580015 -0.4021975396897372 0.8308888808404444 0.19048797826898045 -0.507383280723318 -1.2652135682158352 1.495692234690195 0.575621676502939 -0.560301835859111 0.905531076900822 1.5312718056382877 -0.07209460343405538 -0.17487269571691205 0.583329153354381 -0.17191601168757487 0.8026351307710042 0.30963366474393783 -0.2375972676509942 1.224490070602603 -0.001453207840849402 -0.21011086951248642 -0.760376456515488 -0.565897849194156 1.0891522958979063 -0.4945304926035936 0.521352814346902 0.06980615409771385 0.17826590432076567 -0.42440308145864836 0.6589134104369063 0.4859600208034424 0.5472707554156302 -0.6236760708446265 0.7024458301862218 0.6236006491555286 -0.00850169935984757 1.379674447782258 0.6186869235863219 0.41089405932606415 0.1135675291421438
-0.6218330981522733 0.7277131046700692 1.160021697406141 0.9621198694675439 -0.4872811065124244 0.24063968481713222 0.3709050985040073 0.1648883769852868 -0.8353056756760717 -0.9056299703379511 0.9010761144689134 -0.5609881695274903 0.9795203534863743 0.7372535239753388 1.6810587158158845 0.3515407206848373 -1.075786316128008 0.5524191964639189 0.3473582142354034 0.47036477844732344 1.5116961104861693 -0.3993525367242468 1.3432915012119953 -1.3834923561263102 0.3293137410904678 -0.2239288156561628 -0.12549508216775596 -0.23013898819193335 -0.5290622597782999 -1.0442091856653568 0.07381829883440866 -0.34818413017966504 0.8733604043389245 0.44237424914702056 -0.3171874809301666 -0.25034992847911786 0.9617218059076742 0.05979438168955714 -0.42833468058099383 -1.2937472031823276 -0.3308022209383205 -0.3762493188933202 0.2646412934505198 -0.9321548762042849 1.177766679922565 -0.5445149500841301 -1.06450647671459 0.5303572508916878 -0.4857347348938331 0.5211836072759501 0.27072216090388795 1.1694520207601877 1.2091790159452163 1.4952911604644488
-0.8650346405165741 -0.776234124323723 0.37665951799815256 0.5893509727255983 -0.09972108157445503 -0.6171013299634944 0.722697633686032 0.36220175635284724 -0.4001760648915017 -1.6488580167239806 1.0039921379535341 0.49966626954818877 0.3728965675661588 -0.6513539984670835 -0.07919171905523448 0.06612379173876737 0.8965251682113525 0.08090358785177865 -0.60816792982304 -0.20087473016624507 -1.074091569007377 0.7930648632096329 1.7509341197236554 0.9963818742986124 -0.4787569388357328 -0.14748765384016332 -1.220294423183181 0.23938506241695867 -0.11465499955821384 -0.8669592120946836 0.02296435306400646 0.861051504207714 1.272775784535792 -0.8049705324598793 -0.2411128361411099 -0.6849342065695544 1.0724927446966548 0.6404269940824743 -0.5947625734797923 -1.643099081711456 -0.060334966659726985 0.6879076992863582 -0.5209683184588059 -0.8801133545431851 0.9469342795924726 1.104804818548165 0.12676394575738842 1.4144785958079318 -0.3981823294193833 0.09907282915490428 0.3252051661067849 -0.10687715907046014 0.2101415936455316 0.6796271698687654
0.1081779075719233 -1.0542028649423303 0.6639590066825651 0.055730566197371434 0.9695479789488377 -0.02250184515786735 0.786860607316338 0.42814520971192377 1.0712239173722258 1.421146996198413 0.6709144190568437 1.3202576043614005 1.6214910799242568 0.03705008316860414 -0.2253153884659332 -0.5030572608640175 -0.6393110576012191 -0.7566662884106508 -0.8503636492989703 0.8295564397115684 0.9762635747710096 -0.06143855447985208 0.6052418323209545 -0.24851575165346917 0.35281763970736735 -1.0313580391052237 -1.0405832071002603 0.3790466391649671 0.8822365813593231 -0.5447220052229216 -0.35105988317068987 -0.4014479160557985 0.6486228753574728 -0.14200476653749544 0.41947909142421386 -0.2778084687919048 1.54250557442459 0.6436865250183776 0.1140355459528628 0.9627280834575388 1.2082095773350194 1.0988913178070714 0.2656537483244404 -1.0267637004191588 0.25011281960627524 1.2434646429688865 -1.0807628216256457 -1.2216389544592008 0.21246269894681186 1.1794594011186172 -0.7534713838478648 -1.3273990778989566 -0.17165848191386596 0.3354434774253228
-0.0715463277165817 0.3375508510240749 -0.6154245007805373 -1.051419066426173 -0.43344145662331657 0.8840978739325498 -0.6112955786404664 -1.1472810760063956 -0.2957700638147421 0.5394120588985634 0.30879821525117956 0.9009433822329966 -0.36632721162807813 -0.8061927026127232 1.1403244265906167 0.11311437371398347 -0.6016051941485734 -1.892499117912529 1.4973338853649676 -0.7574836657751498 -0.46118500299143705 -0.608059465727024 -0.723507238363795 0.2774068452439507 0.3330245274120487 0.9849612390956306 0.683651235385333 -0.7569206548743987 1.1104978811772281 0.7309653432100789 0.23791180984851845 -0.5428975555822007 -0.6683182657566347 -0.22306126160781897 0.3523558137411934 0.2642215390318471 0.03016273105713546 0.18555125878058637 0.10588156163613194 1.0126194030675366 -1.3172249329092909 0.0043165264154925165 -0.6437794140051087 -0.006683349089347701 1.5901394809867226 0.32861453862413353 -1.341838722272732 -0.03623177468695876 0.4067782802249589 -0.28216100573391 0.7731017412257448 1.2593816155442294 -1.1774960687416338 -0.6669037714740194
-0.4571587003618835 -0.3483194735447226 -0.054787401375896994 -0.2834468212893196 -0.3615800806241608 -0.18660112825171876 -0.14997700919365797 -0.6143207198284735 1.0911253174292517 1.2705327513833522 -0.3097278088043712 -0.2097613200753885 -0.8963142762119753 0.5049496120630854 -0.18555407912553656 -1.4571992049245925 -0.09304986561406187 -0.4425420307216474 -1.7606940026053683 -0.14955569750176506 0.025413651781954316 -0.5897566806999783 -0.3151944326402608 0.8113979678149011 1.7707767039825382 -0.1280770066915507 0.4907203446785108 -0.21564096841562652 0.4949166331691932 0.028815653933607577 -0.6135915458830425 -0.5723403690494397 0.8507562151248067 -0.7650046537120885 0.8302993836290153 0.6135527838587134 0.3332974573210037 0.2902914496839359 0.426212985665646 -0.0630058239220539 0.722088639975687 -0.3642460995020171 -0.808964235301538 -0.017701551289093787 0.8646118967379642 -0.12142622720874713 1.474035497987459 0.2641425871942037 -0.7337422316596424 -0.4129180891172224 1.4821729035328577 0.9154677270096407 -0.32778399174601763 -0.7718005594539608
-1.813450925737176 0.13448751310323342 0.9717884472145137 -0.15613570643942665 0.8479741867979294 -0.08752574901739951 -0.20116780390931382 0.9051952011666279 -0.7525747201246589 1.5431958162566817 -1.48681793920248 -0.8731429477626 -0.000235747447980994 -0.9327122144227068 -0.7045173564442929 -0.02785408326519867 -0.27153374976605643 -0.3791051562434192 -0.16661808027384295 -1.7676731173985265 0.5393457696722833 -1.2955217644059203 1.4185333714937136 -0.5906224465305427 -0.5233311218074707 -0.9664536383025351 0.0717181675843071 0.6681469805421137 -0.8041414671086741 0.4941779072355393 -0.03163562793684982 -0.32588836892381656 -0.24127937119481163 0.6480160560591343 -1.2296037689028299 1.4829450716404629 -0.41767566682423035 0.16453328990052185 -0.6528078598715155 -0.7577739489670117 0.3842992854859353 0.8641512020007791 -0.44868227599822197 0.39055469510779484 -0.42134436981119844 -0.18477525988227628 0.8221028074821208 0.9872595122303991 1.421263805241633 -0.20597759049195352 0.5187116977025963 0.2762169147816777 -0.3856333154392165 -0.7063364216241408
0.5744598289514475 -0.8556619971249063 -0.21507136979854236 1.223770751328031 -0.9340918769665385 -0.43291217358218587 -0.19495846958560786 0.7618347083499303 0.1695560664329318 0.5896432807962259 -0.8882408820085922 -0.16177928665718128 0.6959017099500998 -0.13942946404179662 0.43010277744434766 0.17475460888499195 -0.006545520803500848 0.5094312991231451 1.2850100706243661 -0.046931289029866596 1.7913898608532897 0.666425998989666 0.5235530614641865 -0.5785790594116882 0.766885246506152 1.0771334691183643 -1.6124675228026928 -0.31300999275625446 0.6900160938967357 -0.7616473588717925 1.3037746654161348 1.2053990935601302 -0.32824353159329794 -0.5125852537953903 -0.5020666977068221 -0.3166145071117148 0.8494004591646267 -0.3266156208079218 0.6825096110881688 0.3384605752679884 -0.8492559851924616 1.239407647558473 0.7840610672724702 0.31500348506517223 -0.41352277488487077 -0.7724213050467899 -1.3266572859192391 -0.1315221940923157 0.7051494183221393 -1.1455596283056717 -1.0574692391918834 -0.3003753727339893 0.6205813315871376 1.2444934872789126
1.207219002126462 -0.06564690044367927 0.6189881961984671 1.246255535394473 0.5160009935076995 0.5591811885523941 0.6729834036125915 -0.7575127633298955 -0.13338863386610483 -0.5954000940035354 0.47029080315313143 -0.22360620171476886 -0.03662676234228135 0.2733471435022247 -0.7229093550457779 -0.5778718606593802 -0.93381409696742 0.12382259324128381 0.6506354964860936 0.9213948309897959 0.8090466571707635 0.24170113360915113 0.7849067695606737 -0.37414512005868045 1.043640038768899 0.28759999906953176 1.0418589341767897 1.5042336896251398 -0.7573821620045561 0.5555287200400503 0.2758212500352394 -0.9284572722584052 0.6601989272442076 0.3636160956605435 0.4084274762530452 0.08350356447499174 0.7685401922203843 -1.0169424871624 0.9271871635696916 1.4406186917153148 1.3647553350267163 -0.9051923293851677 -0.2484207335903797 -0.44030837827608005 0.5970551204252545 0.07328077674438965 -0.1434784231420957 -0.5240421327845353 1.5615947397228656 -0.0745478575680455 -0.4733472910364093 0.3765919633533839 -0.2649804295715363 -0.6673054864618388
0.43700594445163704 0.24320805134858392 0.11313304004431296 0.00909691345667668 0.06142521103167492 1.3961773782994489 -0.09955389684935767 0.8720982622707616 -1.0410908389196016 1.0011530835862987 -0.5570102665473662 -0.03399665656592504 -0.3491199706284577 0.131305996386606 -1.7520142619071906 0.8601774816008616 -0.12225632520595764 0.42468359042202786 -0.43219848024522733 0.4349655168982792 0.19127168370105901 -1.04474271278452 0.07343178216343221 1.132500776339966 -0.6256927714787273 0.7561869116529025 -0.16588872065225535 -0.06144854959022644 -0.8478705015733949 -1.14978930864245 0.7345553165675337 -0.01008070054608412 -0.3970006750922011 -1.9116517620632365 -0.2266128434118373 0.03026947752108977 0.7460082974233205 0.39226938993597893 1.060277015867873 -1.1747507605115786 1.4945967973461507 -0.05100569914284897 0.9975829854153235 -0.20093535927101214 -0.15849230112980955 -1.2011516541726255 0.30067321481727904 -0.26759244110704533 0.4928910306837231 0.8288067163709316 -0.8719539930885583 0.569235028589042 0.44733865986850696 -0.6081585475133743
-1.2096230124857958 0.12678114007728786 -0.9416339440814449 1.2399648810135782 -1.1684927169869292 -0.11246221777232435 1.709975464808809 -0.006982736372745546 -0.5731072058056194 0.7788427203504243 -0.05412881009839937 -0.433788015564664 0.2638481058988513 -0.5085909143189762 1.0205747966846859 0.20660214352588846 -0.8872067064115987 -0.5176906189931811 0.5756067964797322 -0.037060757281507595 0.17473585920340612 0.5487153480764987 -0.8727006308602503 0.7433048245419299 -1.7187515062414245 -0.026486146288528578 0.03115725005095049 -1.0887180484733847 0.08754318459440419 -0.2935604251077466 0.8167550695883465 0.1884309738810841 0.5863546732076397 0.2529941766488041 -0.9516798268161414 0.9583692163133635 -0.34651918626172407 0.9099634046289931 0.42080555299978606 -0.054224977206434655 0.9039729073344238 0.7145911365201144 0.19062977654854218 0.05455304727504118 -1.0322635992570068 -0.2437554825592882 -0.8441142403956386 -0.3968361949088892 0.7842906674408069 1.1926860045365528 -0.237952501756937 -0.6892572514512878 -1.2732425588013443 -0.5412100862510811
1.6210650351331795 -0.7012762154260033 1.0140109380321616 0.044606195054736564 -0.3671731249442425 -0.6824740736516972 0.35769772109199105 0.2167236113927074 0.10319681279471582 -0.24579337489368303 -0.5901664861283935 -0.015156089477921908 0.7160171882411533 -0.3494189646523409 1.4028186664264717 0.9098155944909998 -0.08058036621702425 0.3448952149447601 -1.175113359280652 -0.7211023888562782 -0.44601916568945693 0.1463368274683492 -0.43768833892569237 -0.839021383980544 -0.13222079467656728 0.1959338498243679 -0.04607152097129913 0.048937638765308045 -1.152631544591286 -1.4687054346130524 -0.4810678869346512 -0.37375284392766894 0.4477910590740697 0.16598302630684475 -0.5731553955295383 -0.7442545365637772 0.3471813147570861 -1.0441851429502569 -0.032468829901513285 0.46066659162143253 0.8705593362208144 -0.7312072369403004 0.5582943304889841 -0.22066459693960816 1.2457464795167146 -0.4121438566853187 -0.2440857010163301 -0.09651562686875126 1.6350149968008136 -0.6037908156738574 -0.5997515720632517 -0.684191853167772 -0.039806305923035135 0.6906158611445383
-0.5813987676892498 0.017419303101780803 -0.8990203389212931 -0.9739660330713642 0.37813460255451536 0.15204032222190872 -0.42248137756700643 0.7928319123486003 -0.9408171880285368 -0.38448778644239845 0.5696462748858464 0.15520263896505032 -0.21479074246597668 0.9988051535765425 -1.1587759814944363 0.9067999929274411 0.10299223097755927 0.5130928967833914 -0.4357188484750332 0.5520670480877687 0.6102674139654474 0.6297397524496333 -2.068692793000145 -1.160729564929317 -0.8666628982671978 -0.14045756757672223 0.10581474653878559 0.20958001722206682 1.4434924915674432 0.3553008128983603 0.3480155924136334 -0.2969412238909839 -0.8363027126747389 0.4145020449958485 0.32513640279638695 0.09191973862448455 -0.6359780362238022 0.862370353807157 0.2832929326952159 -0.4092165440921789 1.4451496191068154 0.4367677379957004 0.11645412182177128 1.3593721446400004 -1.466040966849757 0.25684728213580277 -0.15626605511548108 -0.6473301910399495 0.24787444016288251 -0.33079542314144733 0.24163302762052913 0.8701520976145359 -0.6991989976013505 -0.27215991833245273
1.2074528739311219 -0.2945440160262952 -1.8420170438564065 0.5721765607975272 -1.0565387947408098 -0.8503981081747489 0.9503466191005059 -1.0893424285812552 -1.5369195119972052 0.9985662488772434 0.6022807726001389 0.277342801249552 0.03160175554423733 0.9854229962718639 0.156671814219488 -0.1573324356151587 -0.15182316468257484 -0.4054684597733526 -0.008237784950772653 -0.5553886932920128 -0.5177089532442057 -0.667510186267066 -0.3633180102739221 0.4593035880249954 -0.8787229151633094 0.9680979550978122 -0.5217421247426373 -0.2712009904121048 -0.3825913581287798 0.6763203611365043 0.2923012113138904 0.041684581806295695 -0.7754123362555871 0.879411999713184 0.3642817069545561 0.5354545082468696 0.1482521035339231 -0.9882213302868079 0.5859565336060004 0.9845260603982079 -0.07959737282048707 -0.22817690587477119 0.1614854279431054 0.2825920376394697 0.1453160158327539 0.21686050959390024 0.7338504452023851 0.9944706130380663 1.5015664574099463 -1.7701176039159718 0.28312560631591227 -0.9214118644200746 0.6641569416306774 0.3927364893233076
0.031725138073687986 0.17482288238722582 1.3201190129497955 -1.0912756437223485 0.07189807529295772 0.8644333497107723 -0.5132272385658956 -0.2709880127673588 -0.3349863899741784 0.20900266602132045 1.1050045187282074 -0.5645252506283818 -0.8939624131760175 0.36430034660628496 -0.2753685238048903 -0.608460318072059 -0.7499849412577438 0.7864007712743455 0.9030952063953303 0.6561962994163439 -0.5865510780346046 0.2879334887219247 -0.931089617909205 1.1386886846086475 -0.8756167849858683 0.23556582749512806 0.6086408622117268 -1.0823994852458259 -0.46295594850504007 -1.0299843546781333 -0.21390208745398204 0.06613221073868225 -0.13806287526955563 -0.8022766353599817 0.3317473121688206 0.17737750538339514 -1.0956237078837643 1.1987267906645558 0.3554723412315314 0.9987102993814605 -1.2730690158304308 -0.7501476702846701 -0.09582463028245941 -0.5150159832952128 0.5016669495118768 -0.24502135582981543 -0.6138242350407637 0.02595423097974403 0.1385630255812953 -0.7743777314570377 0.5270971944494293 -0.608232469497463 1.0129231110433978 0.8896463329264575
0.2151470336189225 0.7727035397767487 -1.697772470796533 0.044039102846669564 -0.05947132649556963 -1.322833923707639 0.5902505033236256 0.4828472296427743 0.6795514163710329 1.3160007133146632 0.4392161863126192 0.8014206852219266 0.09354005608490296 -0.5774328540022735 0.2945859134862609 -0.8186116007493279 -0.5831791640626733 0.3650802874485745 -0.14880079014440206 -1.0224222256066153 0.2800323408651355 1.0501885780258953 -0.1630487707052356 0.424867994571443 -0.5456502649034818 0.18455948804535444 -1.1386072190394076 -0.13539391126931521 -0.35630788964743915 0.6648901554803809 -0.2098888032222011 -1.0157387545847065 0.4827940215559345 -1.105338697180981 -0.3140343090728394 -0.7147797561127447 0.8083503674673967 0.2083326355580487 0.14156685435204958 0.27907418740946427 -0.6241483284263232 1.024066066612744 -0.42374673533939283 -0.20315555059648088 -0.08127828084877226 0.16097442995827965 -0.30114327808728397 0.41427017298587415 -0.6788076363497677 -0.8384136323644165 0.5717971474060195 -1.4520672313595155 -0.1737595792461521 0.6996359578160355
0.6489779626284713 -0.10169956156608545 -0.8689626411033924 1.5055969698985496 0.35295395883894753 -0.7507934830902265 -0.549374704750907 -0.9648103016032361 -0.3381467528605753 -0.3914356255659383 -0.20971826481635364 -0.1991841292135667 -0.26197743176949484 -0.8253826289841542 0.8656503332484693 1.213766578162612 -0.6240251093523874 -0.08808152316926932 -0.5568399737933529 0.8001484795930514 1.024787092047522 -0.9232525753283564 -0.98151353269969 -1.0389117744263088 0.8251219763715714 -0.08934034488980308 1.0115174983791042 0.9859055234800135 -0.8594463794615497 0.40661325731834824 0.20440489319114424 -0.41890589756161134 -0.15323955706477083 0.782240404808997 0.04361294787212705 -1.2071097891921014 -0.6743188347351019 0.7073641606142722 1.302958436336514 -0.25173013196140154 0.01900211904375959 0.057774247697406744 -0.05264882746037419 -1.1774117522076206 -0.08511517333818053 -0.6054120471346307 -0.6904673434805773 0.511007979003206 0.43191328047761474 -0.33049403000161737 0.26474264183500834 0.13135692068985555 1.2374385231421325 0.24198473922239572
0.045790514196341836 -0.9474541868184421 0.8905919566271274 -0.11472479189824858 0.1600430961516054 0.46906099261237116 -0.21193230603238145 -0.8366940325595069 -0.017966182941088926 -0.6188240481515437 1.4498792446316686 -1.635285114263137 -1.0385110379675722 -0.2091065917955786 -0.21783864665973823 1.3921480875914538 0.017764435896145347 -0.836956458660125 1.0372094789766577 -0.27946326910535807 1.1065321028993966 -0.32209133220211367 0.010383072479275002 -0.8442517211354077 0.824758987968099 -0.9692435626022516 0.2982745415474225 -0.36158718413942953 -1.0986699901901027 1.02440532828831 0.19270813109522694 0.12009064146592968 -0.29252064439924663 -1.1254705065172326 -0.14127068512419094 0.11517442179244708 -1.0925662105154088 -0.7962958763843067 0.8751807382139787 0.6622639663284964 -0.6988427123705868 0.18403194464062417 0.9617258834494711 -1.5016330777248226 -0.07489280920738833 -0.20199069621749527 0.6355355452390706 0.5725841105285694 0.4857122304165842 -0.18593819139252687 -0.35759231969157657 -1.1526600956853144 0.09163921456733548 -0.009941465752219825
0.9722294587461346 -1.193249335442371 0.12369738745369246 -0.5190677811622555 0.5541889031797484 -1.0044964600223092 -0.5006107937839912 -0.8075386166465114 0.7297477975609075 0.7082662783922704 -0.2664064348158316 0.8030223469033517 0.6445832320531233 -0.7165768549085589 -0.2642752245790653 0.5448738325001659 0.35785140935731274 0.5563617578813089 -0.5022654628088367 0.5709491970264846 0.5870558823485774 0.6346092609353895 -0.21862948421439699 0.27018916974987955 0.5087266397946034 -0.003028532660056815 1.8685196606380288 -0.587454852919476 -0.15640571629721017 1.1140788094653638 -1.2420510999078576 0.7932698770076352 0.26197324533607186 -0.38148650239813114 -1.0972101658866364 -0.022236355226640747 0.16703046900809054 1.3716754665326651 0.813353222752392 0.5214982266070065 -0.9409753443825194 -0.44525995813639235 -1.005494171368951 0.5878753041432725 -0.1593353233223484 -0.3355940850176607 0.1468991320402359 0.3619409416257471 0.21244865654116246 0.4905028337071241 -1.3046553893454729 -0.9264879207274364 1.1621442771073114 -1.1050695336692171
0.2559706339473211 -0.7799363436431574 -0.5875268224347983 0.7026072356276065 0.7286412193243395 -0.03164447043898305 -0.5125286616042233 -0.9627756486617811 0.9175207326563044 -0.24840548286520758 0.5466614566433134 0.9447345671668249 -0.6649924180520521 -0.36485858084201434 0.8154799420187666 -1.3341353783680074 -0.552136185265 -0.00836411322850722 0.8595254846954792 0.5735925820143556 0.4076298593429393 -0.725355620452144 1.2443681278771466 -1.08971800542318 -0.7176280432259468 0.397706359972846 0.6380204896986698 0.9589753682996875 -0.026555142749373095 -0.7028858614120725 1.285902086076208 -0.8252277534966916 -0.18891922626688873 -0.4876320502328757 2.045761398912375 -0.7848456602446487 0.14374278922090467 -0.31194407083477915 0.2582621891378361 -0.94838321253955 0.29499530991411516 0.6625799643357504 -1.3540439150038872 -0.08697197088710135 -0.8035101766671637 0.05546222049012034 -1.6142428796526387 -1.244489763847735 0.7621424343115664 -1.099616091932729 0.4037821540773863 1.4482601339451469 -0.3219524218778045 0.72644013796288
-0.414539467211102 0.06706376086156457 0.6956102771066306 0.4362283320381652 0.9718102523637148 0.4292569082682283 -1.094544699038826 0.41032310398004573 -0.7424149064687798 0.5334871722669581 0.25545694810349406 0.29124313257882795 -0.4521084631667118 -0.48807068334251413 0.30118224857399284 0.05501414498008761 0.7360141058693109 -0.17795236563548117 -0.5174869256590535 0.8576366697424989 -0.8722295774011493 0.8712384390028326 0.23293586852983628 -1.337845496744314 0.2804536728259486 0.8462516349236 -1.1041842650901719 -0.8478098237276988 0.5982950184425021 0.9212077817215643 -0.2807691067244933 -0.7611393059486651 0.0670069969058189 -0.6334403420482201 -1.0306253368840892 -1.3121124376078594 -0.4569383357188397 -0.5429559213011175 0.46606197061932736 0.23485779685917152 0.17679546370248522 -0.9334880023325891 -1.0179199431238015 -0.7629643855596051 0.6369940491323631 -0.2651889872883932 -0.4216938321919809 -1.7491594787730351 0.298590938598457 1.0584586369112725 0.6686717578035133 -0.7546021388189383 -0.6865878385377052 0.029271013708970894
0.8056090369294826 -0.7654892029579563 0.3292499706410333 0.38988730245223097 0.5541895185647743 -0.88246053741476 -0.21636487859987957 0.03943260128262255 0.8736792282274637 0.2845019911521468 -0.5512578099705645 0.36145509963593214 0.46252691401859136 0.04783903614354623 0.09597576545362729 0.9890479611558516 0.8277434117821321 -0.3680791552492528 -0.8974117552934753 -0.007730477242917422 -0.7569880892587302 0.556311399604357 -1.0490081058939342 0.8719053098847089 -0.24541513828690836 -0.6039290477625248 -0.41422850320258736 0.580616156792644 -0.004290127225899831 0.04853523518608177 0.7994020743048628 0.8123628300746022 0.4810548177800269 -0.5313666616324757 0.14110822814302626 0.36380256066927263 -0.35983270718777405 -0.45781153545911746 0.5210638349746387 -0.8447260724723922 0.5728679152829199 -0.35444858985495237 1.0988705561844947 -0.8603392322183631 -0.05684369723464483 0.7116164657446897 0.6055926711545059 -0.8741759342860076 -0.19167515535713947 0.16926276542373342 -0.22973765842370608 0.22458252264211315 -0.05364675336474406 0.25039245102574387
0.2972551154615746 -0.9898959580487587 -0.49835384250918113 0.20496851321822107 0.6923206190760868 0.7523184020701477 -0.1855896100745721 1.1583578445567217 0.614853010663688 -0.007553846217486948 0.35796665976861347 -0.13457049416826422 0.8052887586747486 -0.7186856814442527 1.007894640778837 -0.6217630736816249 0.5449178518933034 -1.822540829577424 0.08832817148002886 -0.05838600963294294 0.2729850780917242 -0.6402941540248288 0.09917466372002676 1.2961395564946256 0.29875883877034276 1.5818299879082218 -0.5001639164777836 -1.0109710138060097 -0.4687013440528054 0.23797666953068425 0.23634150465642167 0.1669563319868752 0.14072132664582981 0.41592222616799174 1.8544404282157156 -0.13433554193273067 0.8649019051767773 -0.2909515613661008 -0.09590271346760804 0.737808647695329 -1.3637457852632755 -1.2577683392909538 -1.0764447915558049 0.47632904361197287 0.48118742142532317 0.3438794077014266 0.178753509787414 1.9548570802411893 -0.3760324998212889 0.6706462058574236 0.005837295874115855 0.004266410168630497 0.6588266288345402 0.150125061509297
-0.75868556182852 -0.10441681373317041 0.07899280053707064 0.9957972866626046 0.45862525453419395 -1.4010284815386032 1.2335815708883868 -0.994713793769962 0.5818429901067634 -0.4589858087786035 -0.3508973957696796 0.07506935230485073 -0.7136808287256188 0.05944388598639572 -0.2479850205521394 -1.2485898859297184 0.2660714774998584 0.18483248256236456 0.0252507795579221 1.2733289347805337 -0.18775102221247625 1.227332611003802 -0.6668588924187288 0.966570733608111 1.2701097742298249 0.43567826323936976 1.056062768210325 0.628561099158422 -0.6637997818096284 -1.1803208621054164 -0.9883049919475235 0.5616762106848875 -0.3577205553234456 -0.27630269489402415 -0.33733038379180563 -0.05798703121311477 1.0463564151634346 -0.4211486469452285 -1.1166345718684711 0.27348606980904566 0.3059429267731982 -0.4409266321316759 1.253578377909805 -0.06434715838660304 -1.1707571066884 -0.2828453509729464 -0.7992077568884869 1.0785974599538501 -0.6979416763707496 -0.3559184829481151 0.17686394577652464 0.1494710980315923 0.09753921609036204 -1.0160482837535416
0.21289920784561095 -0.5222614653906075 0.09645701748413221 0.36071656677247094 -0.5113756556782649 0.39014473077343037 0.2911786467488219 0.5416037538700679 -0.7920126662443565 0.11689424821297906 1.1958959470200008 0.6096723814358627 0.9312515205504502 0.3547327181829389 0.6593807210350084 0.7628597378075048 -0.1813827937578098 0.8051698471142439 0.20456615099923026 -0.710424175789514 0.5776335101338471 1.1545085576980565 0.898777386577919 1.1631738044893927 -0.8936224987972342 -0.9037028434468244 1.1217416797667348 0.6108814185692311 0.2254517675306853 -0.4545133474869606 0.41552094346689333 0.5474660700373142 -0.7038985456231954 -0.624384478157026 -1.0152197562669993 0.35411067563552623 -1.2967095887375426 0.1957831378223136 0.7942931237637184 0.48233695272715854 -1.129465733882895 0.49900024494629563 -0.28987733462512555 -0.24597050026393763 0.8498310395090469 0.05908445199929069 -0.10139199170304847 -0.8057087896114643 0.09020622919313626 -0.8469729870215295 -0.502121658155535 -0.4050544740037455 -1.3486168985399578 0.2979170848050358
-0.21614008767621617 0.5680276516130557 0.4106708179025384 -1.1732392426785467 -0.9685631320332015 -1.0658615429402363 1.1601187716576682 0.3749111609563297 -1.1105097503572972 -0.0022437421628324072 0.8619332516567005 0.6116681154476187 1.1795248341255684 -0.9099387681856763 -1.4670725904637372 0.44361340737902605 0.986008240929003 -0.3379233031191006 0.3753596597152947 0.6460798783512367 -1.1822844937423767 -0.31732139981402907 -0.8617103197262336 -0.028159938212478974 1.0590515111923726 0.1117398338229007 -0.6790249742013303 -1.0890795180342872 -0.37353992132365205 0.25298635231208777 0.8072677337714231 1.0529690066814987 0.5554417644237466 -1.3360961304382954 0.822062116875933 0.03666124098029022 1.0006174400601204 1.6446068646975385 0.09290745533032418 0.46799327736805096 -1.0342207359049034 0.20382977967290072 -0.3326027279302357 0.30365548142168797 1.506553845072404 -0.04432807909819575 -1.1557041434005901 -0.6503574025685503 -0.04721668946700952 0.05415219698529666 0.19275340304332717 0.6197900915961552 0.19380021797629532 -0.36357257759398093
0.8532811580288364 -0.9932991890493752 -0.28364423802103156 0.6564439185288822 1.2482976112155058 0.3636355938452013 1.0836498700480808 -1.106980525329115 -1.048350702354431 0.4752735938099099 -0.9826997558694743 -0.4725800502971482 -0.41777005637896375 -0.37355838867796487 -1.8449275515942969 0.010186855991786925 1.5015561343253023 -0.22945526556702067 -1.141059769505383 -1.4515539895098721 -0.4787298732222911 -0.7640637877626426 0.4615336168982006 0.18308805791025712 0.46404438904413203 0.984856485978306 -0.700440826632774 0.8427231005389257 0.4644455450183498 -0.47878717851929214 -0.7445170386133412 0.36524716111279004 -0.6336767425522766 0.6318158402443608 -1.7325214027061477 -0.09567865804769049 -0.7037917545148478 -0.6992147320180696 -1.3465367528712122 1.3132384944177942 0.13891327710889323 1.5629416390028705 1.3065403042571484 -1.233241107237546 0.41464561142638834 -0.33316730353347307 -0.7591229453222439 1.2565737279925644 0.14338140768508512 -0.7607464998552319 -0.7320460119365466 -0.04159184726925391 -0.4983426932764567 -0.9426302441245
0.4601320247678395 -0.1820666513192314 -0.6266618312286606 0.7150648376193469 0.48877944065683404 -0.7878867159900428 0.26371412614576106 0.6508039958884572 0.054636877399958206 0.9012348021305354 -0.37094139287414796 -0.3065158056438086 1.2995061924870268 1.0488364467028175 1.7331813048070728 0.7209189402890648 -1.2971698654532062 0.005030997202202181 0.5461310373458996 -0.02954745995977609 1.1696395750953386 0.7100695326021764 0.461871869747081 0.09118409733953287 -0.041076395977276636 0.5589131055440324 0.23714449186109338 0.8703864474552281 -0.22194951262719498 0.7478260217596852 0.08235296113444851 0.7504447175323572 0.7521207023160832 0.8221440348836828 -0.5888785054764205 0.32434702684338623 0.8316040278123914 -1.3389567860051836 -1.3908452049644353 -0.49152493329913255 -0.6187264023203958 -0.24065421942788756 -0.41941415930139075 0.48561030996911225 -0.9609347058594044 -0.0044633722389129105 1.3012193693450673 -0.6294244354883475 -0.01534814786424532 -0.21636622043232606 0.15498551941235666 0.9575757398448412 0.011273509107834145 0.0871718234737407
0.023938749446848817 0.803570290892361 0.10652827374369495 0.528635453408623 -1.0338079702130805 0.8955973412024771 0.8043176806785967 -1.5350927897513005 -1.2740430816620387 -0.35112889794962054 0.13848398511211085 -0.19595259096120393 -0.165763222939746 0.6927229898027569 -0.390252782618141 -0.09067197115209458 -1.1807586209226097 -0.17897859344917466 -0.3710166795725792 -0.00623608383211649 0.30651177396855656 -1.5050425917697752 0.5856399002795808 -0.09206317712854445 1.6879110678008353 1.0309385268981743 1.5788032016266655 -0.15295344750263457 0.9380984481285322 0.38143991516191234 -0.13664161275470516 -0.5747186234588333 0.4072450499872513 0.7656516392485867 -0.5076575155848984 0.4788475404079732 -1.0145491434386598 -0.7096958975345857 0.22447451974021865 -0.2578637317117929 -0.9138563626077973 0.3704655616294102 -0.10977644235127948 0.29005009176930907 0.37307376582897067 -0.02093843003154361 -0.9024381810040973 0.28773375008648466 -0.08072251127913782 -1.0223227946703943 1.0931225410936491 -0.47843375492217594 0.9961488323470888 -1.228693834344997
-1.267288676204257 -0.4401726867159728 -0.7773939956698569 -0.571797087465741 0.13762084545218511 -0.6787581060332917 -0.3813314535121968 0.487846449352379 -0.7123589171753858 -0.7460352621219503 0.27259886100510633 1.015497490643229 -0.06645709243706699 -0.8007184134572863 -0.4280858959277174 -0.2908658166165503 0.8190172204595381 0.0657764205982162 0.047244967897329126 0.2660763597803517 0.7401581284099564 -0.33323541892409986 0.45902582065822506 -0.4963777640255829 1.994838662841601 -0.7309241607883552 -0.7620149302082051 -0.458858384200556 0.6041607932732831 0.21151823421489557 -0.062417693189736445 0.6024702405637908 0.8198309773392092 -0.7771090507936226 -1.00108002674314 -1.5994646006186752 -0.028123402381413753 -1.1162282028691954 -0.8219875909528643 0.023426991567950917 -0.24252128547616442 1.1623364844676982 -0.572448647355178 0.6855205775796533 0.2809821035390241 -0.842873378405895 0.5930427854029321 0.7260669891529075 -0.35843900455821665 0.465802660140646 -1.1253825740121117 1.049414725838389 -0.854201045007781 0.09873677598951347
0.42415718625633303 0.8345669839908094 0.05439144492529596 1.5543794167206935 0.8552251209322173 -0.6321744625964812 0.32425751928211866 -0.3020369094678286 0.5961544837172981 -0.8874973577238139 1.3476692779760644 0.5620996890924634 -0.606707613095208 -0.5641426937935796 0.5695473938078772 -0.7140893337889042 -1.2130613045701633 -0.23056162178986095 0.6474111099924545 -0.6985397280071002 -0.5595942092262138 0.17320808280061256 1.5291653411212813 0.3418198910213977 -0.41438582928272794 0.31727013729056613 0.5703480420744508 -0.5198602825037091 0.30433928848580494 -0.07112235254760574 -0.39620393417528516 -0.9533173475318216 -0.6819386305243571 -0.02615418768850486 0.8281340635920276 -1.358251160702002 -1.002092639848912 -0.6550505827710792 0.17631254084001946 0.6053680196732202 0.5581682547874387 0.4888113148011705 0.47161386360510577 -1.2076275093000102 -0.415672028571458 -0.345395507623192 -0.5338179176873203 -0.889861990241717 0.3577812680433067 -0.5067584562562725 0.3796986045557704 0.17229783937923998 -0.6756243517793923 0.6844361247039022
0.10079280730242013 1.2844029626980298 -0.5617406814290858 0.8341530342538553 -1.2825814219800296 -0.06528232426737096 -0.2846937913505102 -0.7361710430760662 1.1650295334095955 1.3798713810013599 -0.10102930137923483 0.7191445059984991 0.958071462596311 0.19861732799640813 1.039264083602914 -0.16456709750339338 0.6671997033726549 -1.02576590415681 -0.23399774904130638 -0.46348544987660195 -0.38443965264600277 -0.07447683983813996 -1.1496866454689123 0.14972800756471982 -1.0717250649000947 0.6265560552897365 0.08109576971069232 0.6687940442508835 1.101236010734602 -1.026613873937263 -0.6423419542879769 0.08324899160227517 0.3571099698645282 -0.31430294484189847 0.6100549512824581 0.02460173283877981 -1.9029978375870817 -0.48086421197431967 0.7889060258973692 -0.05311668511062545 -0.9828058865008649 0.8799226336396658 -0.5451016289248898 -0.6958069360782114 0.37359983332306945 -0.268458458912683 0.8480286674278568 -1.2335744274682074 -0.34506406625431685 0.39763675722180314 0.2630348839171046 -0.9383684721790027 1.1781720912656666 0.5371150895123222
0.6989820458672067 -0.5900653917611451 0.5459008827066384 -0.6259011554863783 0.3053944624727719 -0.3957574127009624 -0.11858452366502614 1.2271048696635234 1.4766755587724614 1.6598037174743072 -0.19933454209713608 -0.2551226047703074 -0.19555454201542516 0.5251983668230564 -0.31054558157214973 0.6948603309239216 -1.3037855376057486 -0.6328045337481303 0.17220423377397476 -0.5495837671212463 0.5359194743457009 0.005117404071272036 0.4281375537442554 -0.38805129811476374 -1.1041668890844782 -0.5495028488542946 0.0772887390764756 0.3771413961577926 -0.416557175386774 0.824342863305974 0.13253707937072778 -0.4191184945380521 -0.8646821826221334 0.6288757846811233 2.1530484470640103 0.6271551372030851 -0.7656389265239472 1.083495188730337 0.07136501058644334 1.2431369673171877 1.0481999442403498 0.6246656333140561 0.49405471492919195 -0.2051632596589899 -1.2013866678820626 -0.8471903348279571 0.08933783306009496 0.2840057933669263 0.23857076175264158 0.2638174535543175 -0.9950337046936368 -0.4675502749046825 0.43921372390472996 0.6325469241065645
-0.7751574872993354 -1.0649635688438697 -0.5475264471607695 1.1384024125151897 -0.8128690335248994 0.5931820925432498 -0.4346089969144904 -0.19013534441843738 -0.03620389060583695 -0.2486733855038305 0.038508437802324935 -0.11392646359800046 1.1545016526489724 0.4438875386112915 0.1665523239781989 0.1227385543375567 1.4169424906832626 1.2972095874463465 -0.695950504540671 -1.2867031861561251 -0.6682405422798974 0.25268078023572416 -0.4522379627963018 0.5908287562068597 -1.3455949933817957 0.863278095387011 -1.0051458868248262 -0.3909471548099018 0.25973385304438457 0.38020500917282873 -0.4651650639071886 1.0750775426766652 -0.07413662834058266 -0.18949970950331113 -0.10619082826913984 0.2338322196225383 -0.512184335549204 0.7516433548306101 -0.22222339823299964 -0.176191870850126 0.28518887647467456 1.1765455854314186 -0.7360330978518976 0.08623462433250789 -0.18917891436265988 -0.17549428058201672 -0.741281603608964 -0.13204706830712554 -1.066650062719786 0.17775129439772913 0.7816297588700097 -0.20147294422043976 -0.6618202343660635 -0.716214702119338
-0.5460137268614729 -0.31396726930962904 1.0069233543003313 -0.8371018438468187 -0.22157785431411553 -1.3074530629631602 0.7030820290989802 0.5608846927291735 0.7100902576928905 1.1126066488409325 -0.16304434006779212 -0.23232063299192546 0.7612454584136505 0.9765468232129295 1.7093386840040452 0.665193305897229 -0.32083267579519925 0.05261553796445423 0.3279219657742489 0.13757603074732955 -0.8364183815339559 -1.0659113008521195 -1.3478325943574823 -0.08669634944682458 -0.7373153567729611 0.47789631650102615 1.024122063960115 0.4778014973201001 1.1190742196763621 0.18559522688094643 0.14333917660800527 0.06014234013728326 0.6571521935252842 -1.539525993303607 -0.08368699718812506 0.5923135851732823 -0.7039195215589218 0.38291832280102955 1.2870636963303217 -0.015615467220221724 0.4547848544101973 0.9608922691496985 -0.49303250696645806 0.21809213689123735 -0.4198484904781146 0.4062274501321028 -0.10454802659103851 0.12649483167381215 0.6302474800778808 -0.8877293361922178 -0.12459058049627958 1.157608943910017 -0.060387194210331674 0.6454096447191433
-0.2825587651136085 0.49349162973483834 -0.3558489364410213 0.8938288558460348 -1.2024483221481659 -0.3131527920100402 -0.09122427087246388 -0.3424190539683748 -0.7530068526947206 -0.5232265079054856 -0.21362454632242478 0.420706562144499 -0.09403440849473477 -0.08808320352165494 -1.5543588358220486 1.0404141019314002 -0.08388414571969721 0.321445004108992 0.3841778709254441 -0.09988387125055054 0.5713045160455656 -0.20463134219481832 -0.5988956858607191 0.7308631009632365 0.12997848238682935 1.1217765602192755 -0.029219885761848807 -0.4266575135245352 1.2667725010064304 0.4954715494135686 -0.4854010692326581 -0.8933178208038286 -0.04723922750829712 -0.8259462909890098 0.18868929320665923 -0.9311269525245565 0.27217520442734505 -0.725020302768106 0.20864904304072918 -0.6756275265424565 -0.07769476017738275 0.1069715559101278 -1.3571565300067634 0.14150767417586124 -0.7216318582109618 1.0636833154210155 -1.2119890733366319 -0.728537429250874 -0.5954801475738553 1.0319832419464459 0.07895235254212568 0.05475470488666495 0.7141438419242858 -0.9697724132502921
-0.1634135660828765 1.2608642811111712 -0.17939352432664063 -0.3455248400485196 1.562378052733127 0.17346579681536067 0.16565439990656722 -0.15227126829242127 0.036312265160877766 -0.7668114742558622 -0.9351928055015197 1.0292275125556976 0.5753668538625902 0.28007683254188515 0.31838542126988695 0.1863932638093131 -0.41337071313565915 0.4099558324300366 1.047443179943994 -0.2929137493274826 0.33079799918828484 -0.4139885353260084 0.4996838341853628 0.8655921164802152 -0.09944875860699931 -0.17926639469449285 -1.2717301251642346 0.49619222337013036 -0.2938310185891195 -0.14098450032876525 0.6500624341151953 -0.4658585151497002 -1.2051664339500374 1.2505131186688456 0.1632803879597331 -0.417278273690689 -0.7642107102388046 0.05240756442921979 0.4283308885601235 0.7406698863078762 -0.886722531982837 -0.8225135001357426 1.3426991847218135 1.3216365312030325 -0.9083740370092144 -1.2189604612606941 -0.1664035009848434 -1.679743105410703 -0.46247491081634334 -0.7891272541935354 -1.1566127858867772 0.9736466940764055 0.2228688773645065 -0.40032152714443514
-1.022832874977074 0.00491666063064794 0.5819504605360986 -0.6680890968695136 -1.552158171550587 0.054199340455154676 -0.5061488758887882 -1.4245812131831497 -0.8598985516875058 -0.7851971083683851 0.7279290441462837 0.909625928698059 0.19884737402025038 -0.9644065525936081 -0.28742206771200624 1.444218637281594 -0.49169558865270113 0.5671707531611709 0.5376232366201761 0.370403360042334 0.39051311912436965 1.5093450427455708 -0.7192396624894117 0.17786961763221198 -0.38813987540136957 0.6912735907469899 -0.09719595676042903 -0.6362810487525175 -0.08691774956756065 -1.9420761452980182 -1.040385472101521 0.47490789611995676 -0.4689878398916516 0.37120024986389544 0.2509964189367784 -0.005789387945954516 -0.11258093404157204 0.4258496633270407 -0.5402782755339421 0.5761892895136227 0.672443877012983 -1.0795814709564033 0.40088912453480313 0.6338282044829433 1.3884638065681425 -0.015676302316876722 0.1485534035883434 0.715170417631648 0.19167425492972284 -1.5372607636426947 -0.20269287511176592 0.6686869299156868 -0.8517166932365787 -0.9605207176521506
-0.3115852732106276 0.7328263533825051 0.5469488778503648 0.20355674306810517 0.3185180073233534 0.14008673752498318 1.120369680501415 -0.7482745543248316 1.6902930047178186 0.11614917703685224 -0.8016991587221338 -0.3433372857852434 -0.546417568543071 -0.7267895505563932 0.28392582272889944 1.1950746235933916 -1.6343912477091245 0.8230989472728765 -1.6506430121145121 0.7329706175238526 1.2875545481147959 -0.17427030022774825 0.9984923042309793 -0.47151599764799734 0.8708226406365673 -0.7562202730233504 0.277269504024642 1.5521381974746529 -0.0367622817215601 0.8569341198457162 -0.9084320207986302 0.3780168340158087 -0.7861732290358421 -0.48954307250600176 1.4331958034268009 0.9266213032252862 -0.5044095491326711 -0.21108856125183512 -0.44541351831736975 -1.3147610175114757 0.6681415167408793 0.42483092494815433 -0.5121861075519933 -0.8945095695306537 0.1689592889409942 0.6892711673563324 -0.17923499118395442 0.2176106712774321 -1.1916243859664146 -0.6733128002345605 -0.3256774096343922 0.9573853045625655 0.2396585431578903 0.5945536278897586
-1.061616720967117 -0.8595258149496313 -0.536565555808495 -1.6976101736496905 -1.1997619696660209 -0.05771281702088532 0.21266457214400036 -0.7123435392575556 0.509473693423254 -0.11812800031404558 0.5032076547292039 0.12610448358459275 1.1611872630731583 -0.9939835715889481 -0.3818680824697821 -0.29155344706258274 0.39629714646646563 -1.1272880230520743 0.4804014459621279 -0.4320211340801017 0.5284218082693168 0.41746872845023897 -0.6363606853298671 0.7069477480368211 -0.5907837645612439 0.9529399669222088 -0.8482387433811999 -0.04677521462267287 -0.980200822979764 0.3150084631116275 0.8053161181177791 -0.657751067878326 -0.6055474327808048 -1.2074916734664476 0.5420734440334587 0.7624029191510577 0.6414187484517433 0.9440991584131833 0.18858657889187663 0.5248481897166052 0.04773443465836602 0.8366996570260439 0.9642964774772392 -0.40331844967835456 -0.5661413056240853 1.178430170524709 -1.4802877073063299 -0.5171582452713965 -0.21599733709950703 0.2858838393769173 -0.51166165795911 -1.5133972480325104 0.6148621758676027 1.7727290486215548
0.7303122806182702 -0.9179845047148035 -0.8044411726925798 0.6194844480243815 -0.6455935550749159 -0.7098614292989645 -0.8317470083141395 0.35848874126565244 -0.02142949637368352 -0.9627743541124361 -1.0767155003565838 -0.9772290167652458 0.790875557917749 0.03946067603868725 0.5679200027902596 -1.3942608582043954 -0.3170289735158042 1.0922380516998165 0.09646081305167509 1.020821077132166 -0.6234044624172762 0.4452103000997507 -0.6097163188438601 -0.8442085352964659 1.6686583741210503 0.6940638131824186 0.2126036849335171 0.32763168357256367 -0.1332949093259504 0.528565838492923 -0.06671683151801583 -0.6237348115160013 0.48712705783960786 -0.20342764930595242 -0.4249036360519505 0.2432306000994527 -0.8088701476924675 -0.17784234816847178 -0.30030972202427364 1.0293767665900049 0.5964215210071202 1.1118420688402118 -0.4789534922660125 -0.5377694597610299 -0.6928036339183143 0.32997064891025885 -0.5743700728882843 -0.11946200871093815 0.8868245891014486 0.38377988547091885 0.24655177513779836 0.034776873896954275 -0.08216690737699517 -0.7591615013109645
0.5779776476878123 -0.452493926880849 0.8654588974766186 0.0788590689391171 -0.15921760791875855 -0.9542666347925812 0.43199647787986584 -1.3746828528872568 -0.5004971798868232 0.4802126658032913 1.3717415339124304 -0.5729878667401873 1.1540795691083283 0.18985204703352593 0.413141401523991 -0.7567197837906644 -0.7590948873249713 -0.5522075826855465 0.6068780096400366 0.7203575766828607 -0.11684490611953635 -0.0965973726229124 0.5663308414932919 0.15610717872027902 0.28135801962211093 1.2849498374635222 0.06842728961728811 0.7652159232238829 0.049711546798841155 0.2023947441538579 -0.7566297867664107 0.9623668930870115 0.7572258861435954 -1.0520259352192618 1.0474680951188373 0.22298315003069535 -0.0704769129866078 0.5586949396684757 0.6192263348622635 -0.32894649934087533 -0.2297423573529851 1.3001059376851192 -0.09469795730158503 0.8461165308968484 0.12449254108220953 0.11534802360323176 0.5619394768270443 -0.14408523876480822 1.2898847788914316 0.6648697144003028 -1.1074405255235409 0.5585100692252397 -0.030205536076661266 -0.7414380494207822
0.9768296136878627 -0.5476625889650479 -0.8428520992856154 0.8705019116089941 1.2110092898639724 -0.9041332590674358 -0.7204459292389501 -0.7163351541002603 0.15527371548874364 -0.27616479513233344 -0.6247265451081794 -1.0360864728910508 -0.2203564667257828 -0.6584811929307799 -1.020196871709719 0.059870812785834226 0.15754578481440745 0.3878723684198478 0.2957306224116657 0.49033464667553817 0.5301530928760316 -1.3854724726629257 -1.2955845135820057 -0.4395914869293732 -0.5952864583406035 -0.4484476233229216 0.6970380869091289 1.0394700454167207 0.632594126444858 -0.3890140007240517 -0.5470146262017181 0.7251275257832741 -1.176166429959995 1.188956899589961 -0.9065033105394693 -0.7111185410457161 -0.24388022002288334 0.2562585964947469 -0.458796212639913 0.25523958529603014 0.5539910700105957 1.5622399243127392 0.6317189128262919 0.18779690628080953 0.9458716468174063 0.13299555410456848 -0.46395376079682316 0.16638996544756024 0.6867809285721074 0.16862807327705814 -0.2804755080690535 -0.12159417860290983 0.219086808864202 1.1706227209894688
-0.3571605789649047 -0.6665403695321033 -0.40880061135465096 -0.48405520510936084 -0.8356888160228826 0.30341428457555075 0.3320718225733918 -0.24573110347280752 -0.5627265503940957 0.4666701970156925 -0.09138979261152852 -0.5387769342257329 -0.15022956045505403 -0.4681346812356015 -1.2542423378311702 0.08308655577551266 -1.2869439948758838 -0.4460604461787509 0.566373411288473 -0.791122011551602 0.22553605605470922 -0.7218906120672065 0.057159886584955744 0.12645326765552328 0.5528107966461708 0.49331050613822625 0.5923586142908452 0.8772489340761921 0.37165921106798666 -0.17129902819607767 -0.4563716988625322 0.7054218826195614 -0.643900946030916 -0.4783855315729543 1.0791387887573225 0.4287303689161483 0.22635132364653837 0.28108662605535084 0.5728157106976166 -0.7395444811196927 0.2160702890597782 0.5192906743913508 0.017931859078491652 -0.5726446082164631 -1.0675854980464172 0.6775836568010315 0.029608601752560526 0.8209449224289551 0.006360514975494003 0.9253176610800491 0.012556957565125038 1.416514661894114 0.23898352275322715 -0.6155050053408955
-0.8708161930661071 -0.6666384523127684 -0.5267677202473025 0.8827314375506583 0.433784811790841 0.4308036124807733 0.8133611679228809 -0.7786925475533346 -0.2112664539223299 -0.10498396823132483 0.39711892751451255 -0.15117195652190385 -1.6041335739042806 -1.0113764029158037 -0.5403826872148492 -0.45872914236736917 -0.6991641133536559 -0.46650576400631283 0.1936492117522975 -0.9769025242238238 0.7600937774327701 0.6726339083311301 -0.4725217514983509 0.957353846794996 0.5835672762620924 0.09400144641089553 -0.4222273667953968 -0.7842584754638009 0.20042629053592176 -0.18431516034925322 0.16189592036522138 -1.1427805699394444 -0.8463249340791268 1.285143731479627 0.2485443691601501 0.36875094498376404 -0.9858742875114008 1.03175134144078 0.4545365637976867 -0.857185688301303 -1.1696750779945062 0.35457131849560036 -0.8440769793913201 -0.08883490700894775 0.36288678062866103 0.5718283471812845 -0.5629952999367072 0.1315610216575438 1.064207439789214 -0.6075194413719858 -0.0848112555630553 0.8365385552572742 0.6999060640631971 0.7073598468600413
