-0.12356111131062841 1.1596028724423137 0.660056319770529 -1.5682039817102247 -0.23693497122918078 1.6369595087710658 0.10571258662533134 0.5831066444680404 0.5206744903283892 1.0669708611034885 -0.020652571245879436 1.215840879838617 -1.8616721002386984 -0.032923892080889416 -1.5871553716715205 1.2527451357636081 -0.0382033002488229 -0.36399576289554525 -0.0032558880601886164 0.38119564190106386 -0.40845151178590683 -0.29987821822550326 -1.0773806564876296 -0.8360126621611408 -0.39812356148326306 -0.6519492194354517 0.006316100078301301 -1.414780460154513 -0.4954981713394263 -0.8990803006065665 0.10706702253360778 -0.7564536759964415 -0.35021614980611976 0.3584980612707757 -0.5725058585686749 0.09808678946588928 -0.18147062975598344 1.1906457793484724 -0.26416472885205594 1.147980571221817 1.6747272057118483 0.40605456010394686 0.6739746437427873 1.0122604687075611 -0.17407970480984347 0.02575988188950895 -0.9614522840225708 -0.7638172515869821 1.1807530111520126 0.4357454225934884 0.347527120078801 -0.10002572793218911 -1.4878343329913086 -0.37517151142002314
0.23569812289169156 -0.7327617685684389 -0.39395805567812225 0.5891830904527868 -0.007076385703164045 1.3161126795724187 -0.776685536464777 0.42951282823166304 0.1811254117745188 -0.42666324676458445 0.733809272502719 -1.9752294754499187 0.13774177008782534 0.29880266399718225 0.9522105567711008 0.633607034677713 0.9285453223591802 -0.06837769574719293 0.5759555333958961 0.10156113666063593 0.009554431693606202 0.3991004771699771 -0.5420621426775252 1.2619258768214803 0.23977870628646208 1.0903174747320306 1.0688773728716208 -1.0604180582311202 -0.42018102146918884 -0.9414348627322567 0.7784596709115292 0.8141148497930966 0.24020549147559295 0.18763884326395303 0.1643640985194948 -0.12113454944926239 -0.7800387757101531 -0.041475047585972036 0.5726111105123182 1.2754676432542236 0.4006508816051515 0.0442738038792444 -0.845695913637321 0.4188278021443228 -0.19000332372970535 0.19765917349237438 -0.5340078586235634 0.42042296047557093 1.1506388683923354 0.2478835352220884 0.4641369173354601 0.26011621397628437 -0.9680124215989462 -1.3695906813104624
0.15110474418659914 -0.008378405182042692 1.27562012276622 -0.414773984178654 -0.07408845217212046 -0.7223993266251529 0.7972872223051415 0.5490358936842379 0.2984412564297317 0.2113037306808166 1.032928085014542 0.26850895802734875 0.49682194031551064 -1.7863068214296902 -1.0071246727178353 -0.2709509920175017 -0.6649983128913926 -0.13235521689020063 0.05110801060000553 0.7388230552049868 1.2292951936587553 -0.5919721201493672 0.300159422858325 -0.9828469412662493 -0.10680556157059756 1.105920400458647 -1.5744171794305812 -0.15688816346703893 -0.49421503377735815 0.07546668831088843 0.2861829684877677 0.8219185904301357 1.2932684285163036 0.4492539528054001 -0.19318784490384455 -1.0623229965076215 -1.7175602008374908 -0.08323722363311647 0.4216488058825321 0.21358955903381766 -0.8363926993219166 0.2306949076081728 1.0991983694598126 -0.996733547065532 -0.5493633647478853 0.5690436484363789 -1.3995987737043412 -1.9444345432104968 0.07645514802863385 0.3146650277182986 0.2429858604625627 -0.37412431086098796 -0.3119216789827284 0.1623415390402716
0.2481024404756315 -0.21883417164886687 -0.8556846744678799 -0.35056194787726747 0.12661053347315543 -0.2854146353431425 -0.3067451676817269 0.06318657524648141 0.5708867794233701 0.14484403329814122 0.1572852940130013 -1.815838083838186 -0.5687243282038998 0.9584827342252662 1.2017734092906593 -0.13563434895368404 -0.09315841611972853 0.2701229410223924 -0.7310896284706454 -2.075642514926371 0.5700856790286033 0.09857007791509603 1.1801984681220012 -0.19025004072498625 -0.1858140359599642 -0.3876863578949753 0.1135623765057418 -0.13092438017160157 -0.5727802593322296 -1.3758835224956563 -0.6366770392625218 0.08825812668393707 0.4132347242296767 0.4154015575704101 -0.019746514375412416 -0.8238779871745479 -1.1496130150968613 -0.9163233804622892 -0.11543000036674284 0.6403557253461456 -0.5878619423446341 1.0453472998345539 -1.260868160416834 -0.46959662583845246 1.4268440039344878 0.4263902185793743 0.1813257269520377 -0.25430661873965693 -0.8290107352852649 0.18799450139698348 0.9058360501823042 -0.7776512436337131 -0.028725259416475635 -0.14911829011703664
1.3172021324053182 -0.7171410183315752 -1.2683187249668264 1.0226588022261878 -0.2756791162304261 -0.5663188811085287 -0.05461301251393885 -0.29988847497084403 -1.1600576987595015 0.5805990743802635 -0.16954538665089247 1.2789176589378113 -0.1828637743442706 0.47682210858124086 2.294785084528943 0.29609683571123097 0.6124668037244286 -0.30833141131101977 -0.26591816566245136 -1.0324726822216737 0.7992468564550388 0.41409990913816364 0.06579660453378311 0.1377507007748328 0.3421091295219119 -1.17487710612613 -0.68655547866009 0.7376521061243553 2.085319210097695 0.9908943995405224 -0.8540383498089994 -0.27131605751137494 -0.136745740074179 -1.3945462490637601 -0.07269621124104098 -0.5488628417299829 -0.27435627489933206 0.43345100643545315 -0.062201463574973526 -0.00918230542064169 0.04967180776993635 -1.5225122750224034 0.5259981666062878 -1.439149041662632 -0.7216515380438591 -0.15268005788607364 -0.33035434090800203 -1.9631982376265764 -0.25609875327349035 0.2591829986140145 -0.0033015811871820455 0.3907743182056575 0.09751109032814226 0.37551120793345616
0.8292879692181161 1.038692261830906 -0.6131688371377637 0.6998223096987134 -0.49839006155062643 -0.9120226545475452 0.3232587893494552 -0.18434030065355322 -0.5611372476768843 -0.10725529758635471 -0.4780533458404954 -0.38279874680470505 1.1931027436825623 0.17118790564661795 -1.2361586771982673 0.3910628966787951 -0.40325603468242543 1.4634449353630516 -0.5050118886469447 0.2738957630336762 0.07036865285177413 -0.0221331161291623 -0.20096391365990585 -0.7541246264728503 -0.8931662023223745 -1.763836475028387 0.5668816354901397 -0.7843370985907192 0.7966768334937342 -1.4084338205399523 -1.0490807173959766 -0.7349871485280961 0.5823429792422284 0.2650415628400655 0.26718628457372345 1.0568698514484658 -1.2693288304153025 0.283303884830036 0.05597197877645366 -0.21972136391781794 -0.26922269826385964 1.1406169087238895 -0.7227051546006624 1.2014029647196864 0.2745778723169643 0.9586652347133342 0.6443004049290306 -1.508331360248538 0.7128412939716353 0.6890630360749106 -0.7848876112077001 0.027544242055053403 0.7363114059462975 -0.021517613011489745
-0.351003837084266 0.9782935531230392 -0.27662403976732614 -0.1706044272441004 0.6253600569654059 -0.048971183585001576 -0.29363817466156505 -0.7126456424709993 -0.6149859525107488 1.4243856094442064 -0.5285916279998721 1.0383369544097643 0.7152723266731611 -0.9864856855813148 -0.44523220328655866 1.14048129024851 0.5241101690779473 -0.20306429421059413 0.06444358060292993 -1.2374595118317009 0.5980482827035396 -0.5024215516014396 -1.2283081952400385 0.6427946081690419 0.41123104101178903 -0.08888312616257626 0.27276962624845524 1.152435793780517 -0.46630621578682685 0.04923628006225611 0.09791938484160234 0.865053399820386 0.1499401464208749 -0.675994213050362 -0.9406175041487396 1.1479831743600553 1.414581584792503 -1.3179542001090625 -0.20517432954678294 0.28889021159041656 -0.45164881110892763 -0.5774807096985448 0.08213183013809644 -0.9050918087869587 -1.0971386147477924 0.14234255396193024 0.046240432148645094 -0.9369554119772068 -0.46912652461330934 -1.039926795687359 1.2705853132293308 1.207529096971464 0.03735734690212078 1.0519293429560699
-1.121802531151268 -0.3078956338735455 -0.9887974037385432 0.11674809023280441 -0.7854928127006886 -0.9863779442995768 -0.5123538275339111 0.8519341048665179 -0.6724088452308103 -0.45729658085463365 0.10008000773061926 -0.39546612980264034 0.6344184676464518 -0.8224214812806669 0.35916816319981876 -0.6597045035838522 -1.3769631263833921 -0.8780714626832629 -0.8560918198605809 -1.1600297273817017 -0.4768927823061731 -0.3676046130009408 -1.0388602306621335 -0.35469829801643804 -0.24022806076322706 0.6061953593118201 0.46027088051445086 0.09849105782236933 -0.3596181837482348 0.5736379033563384 -0.31039157770525205 -0.7810274936081257 -0.4102587073347882 -0.4850640227075914 -0.14667081822620215 -0.33877887021863073 0.12095380556562968 0.533433610790424 0.06402431432924505 -1.150849761676408 -0.42185097121314397 0.29691906520620137 -0.1368716364217859 -1.4538549301623656 0.3489280037059939 -0.014132148051756832 -0.6241075389414246 -0.1634867183458349 0.3071564859413124 -0.6576332321006568 0.7521110945605509 0.8985335970992759 0.000938172255410985 0.3675923451460343
0.08433683986022794 0.5237122450474627 0.6080559925059577 -0.5769332250455801 -0.3649018650108666 -0.4522636076973561 0.50598544299904 0.8030327171607281 0.24849753843056865 0.5118396655496092 -0.35740033709331037 1.1988534133808002 0.3970760699591319 -0.4217139520600938 -0.6330449697312628 -1.1548754942987554 -0.9150256438370724 -0.9924090761504154 0.8185949766492372 -0.31623210479609015 -0.4782785976994437 0.8439555215127463 0.25611768463994145 -1.0446878846894865 0.3469708949585385 -0.3453910478841092 0.19213347966248023 -0.14451677973413768 1.371502694344341 0.22799174120442434 -0.9037879525565435 0.4681182987366518 -0.32588400020866765 0.1811296113145361 -0.9680212933789306 -1.0896644060520746 0.01184862167277656 -0.5190164338054627 -0.4488865375622751 -0.4940365120387884 0.27770440402518687 1.4040923851459088 0.8357516139489114 0.37734469204043186 1.2105069748127575 -1.2606684772405856 -1.0604205288378818 0.5582021181388387 -0.1266730499987292 -0.5573497720309237 0.853146070460896 0.7418936279847317 0.8745458532889787 0.23305767610925998
0.3050358092731835 -0.5818298364848717 -0.9776236224607137 -0.11010081742781386 0.3623548837257183 -0.6896432484556744 -0.23457344405377684 -0.17327465821876392 0.8230873705369357 1.0010513150919595 0.49612519885587686 -0.4003241657104949 1.2079989769122426 0.4766533642597059 -0.24375366092407647 -1.3890113589373683 -0.3790753897221914 -1.2975391554425948 0.3511333983145965 -0.7722698680924858 0.1351437374454435 -0.7609395653988511 -0.6975804605222634 -1.4752052086440088 -1.1224386526729138 0.9516337284575542 -0.48706821834322106 0.8492298784529617 -0.7323810247009283 0.7059708288937322 0.8994226924990802 -1.3295051536563578 0.5324581292355302 -0.3141330044212428 -0.9942385359591087 0.7532855644314934 0.20901996669067907 0.5011085630421961 0.9703071737870858 -0.32162661844333096 -0.6799400826831056 -1.3662614752547664 0.6594139252194572 0.39870135964491177 -0.19090036262075094 0.4126513356030671 0.15000682067451443 -0.6267880460056086 0.4320666090818799 0.8980188830548628 0.37154949728703807 -0.6705023024407042 0.09901687145865928 0.6834294603918756
0.10405918693879934 -0.33315121992925556 0.1591060026312447 0.35543559259173285 -1.3086249064247428 1.4585365149048206 0.0010040476454443725 0.32150021926539707 -0.044123019288607124 -0.6175124731276311 -1.153828638417949 -0.4402394650984837 -0.7674892498530805 -0.2805247021763903 0.30704408938683536 0.1256542667130991 0.24654965214413216 -0.41321009383614904 0.8392146210196005 -0.5673217836498595 -0.25869163950598534 -0.693498443393417 0.9339885799071346 1.4051281229276043 -0.3321008954846278 0.42007197744608404 -0.3239216100433641 -0.6417413532766898 -1.0615152456687953 -1.3472322826008536 0.18433457559835886 0.4550439379355803 0.6698310558206042 0.5787446169293441 -1.1135130493415248 -0.70592061262083 -1.022948109394413 1.1295111267233562 1.1512640152367313 0.7392132702426626 -0.4468621449085583 1.1429220513561893 -0.14680443192965864 -0.7268553094056829 -0.9740964260570395 -0.32385304235932 0.6351915615125727 -0.13636263784995517 0.9776548534399381 0.23441275462355676 -0.783758279940617 -1.6181477976925085 -1.2208451378011371 -0.23178167612403278
0.26185370803652186 1.4198844105813484 1.1652718329778824 0.06886851498087165 -0.31747343041957315 1.0276197367086077 -0.1485653132182096 -0.6425627817444334 -0.07253035158615811 0.3833029752754967 -0.7605083588519641 -0.5257046754720167 0.24033581658407177 -0.022886521493861667 -0.46469537572032193 0.4890780178476719 0.18755058424435556 1.2074065807800958 -1.4580359465194987 -0.12835112880257693 -0.35688859927080446 0.12344307174876346 -0.960624405542229 0.6162917457172852 0.7072868703907652 -0.554702793950673 -0.3787518583132594 -1.079255504194566 -0.7200957784937276 -0.5775766424900697 0.6127106733743346 -0.503395176830153 -1.4062926882735205 0.19981365570001647 -0.21057758436933766 -0.4719067486356644 -1.0858656831222353 -0.6378407327363927 -0.30813122291911677 0.5946233089577226 -0.1065087338468334 -0.20038866872226824 -1.0995590791006835 -0.05388196557316288 0.29619708678386697 1.3029353168354614 -1.2492083122050217 0.4881505233552996 0.08850633495808508 0.2659706763877397 -0.15299504821051746 0.2433828502002815 -0.7118455688583872 -0.41438756346343375
-0.14753226262795388 0.037650189975930226 -0.4345946780889016 0.4825222831902442 -0.058148678747203364 -0.874347945363616 1.0357336789948508 0.4297071928835649 -0.162780005279357 0.17565435526793832 -0.3536664560418548 0.942259588253392 -1.263928732657351 -0.318823059452797 -0.18613942191868788 -0.4443920406727026 -1.4492599077171366 -0.7922400581800297 -0.2332090626599308 0.5217502384472857 -0.32286856314753454 -1.0350817521590283 0.48610553725604394 0.6525023003242016 -1.2364215526080298 -0.08610620098931554 0.8725364247129109 0.3899507232578728 -0.4347414446067159 -1.0146952015601263 -0.08332051404981944 0.11346205672261589 0.2434167674365123 0.4130244188324151 -1.4109121080733864 -0.5759017448086293 0.4509740915528954 -0.21675317803320987 0.6356832211658225 -0.46714942356940486 0.1763308627145912 -0.14617662308584295 1.23953645791237 1.1075282638952346 0.17479306274753426 -0.7124378610174513 0.9021009360088638 0.38574136032497897 -1.0511159932901784 0.26782963295266504 0.5275732730727309 -0.28127841360336536 -0.30794551619672256 -0.7107242613708162
-0.5299139527260696 0.29669919565133185 1.3183401283772902 -0.14690151593709722 0.40615193333601546 1.075066119235227 0.891266517541633 -0.2742075643845868 0.310694504364093 -0.8270030360781557 -1.0150267261476578 -1.0755473054186395 -0.18197584370502323 -0.6687774527107342 0.2406994358790014 0.3993701055252349 0.3319763959498025 -0.502091766922885 -0.043342118156171394 -0.3215921290968955 -0.4561604431908517 0.6085246278271932 0.02574208868706873 -0.7613383885909231 -0.6758136712614524 0.19543894642966853 -0.370049847311825 -0.470060035456096 -0.6548650593984775 -0.8723275160904722 -0.14509212657417753 -1.6367580181341481 -0.4199559608425604 0.13154984504357237 0.03502183297534667 -0.4192627625527659 -0.23840938384233368 0.26101145641738027 -0.4444556813608318 1.4627894359857805 -0.6670485990997992 -0.32373716130637853 -0.22688260579975617 0.6072164664565947 -0.47131501605467424 -0.3769387246046692 0.35330053663917527 1.0110470736602966 0.7012726322771631 -0.7900522486776624 -0.9967288949625233 -0.08225702688016323 1.837868849769235 -0.07181450350975349
0.8498462119646578 -0.2686230430423332 0.3449411974010566 0.7607006980535918 0.07709451532771605 0.40497059868797936 0.8395751562687155 0.015137314727303675 1.8705102887013796 1.7771410896171007 -0.39459648307175405 0.31726611397534077 -0.9528041533568031 1.0044369155763915 -0.4561853691859452 0.7966139757376667 -0.0679302636227303 -0.7057436416482701 1.1346390611022383 -1.4045775390692719 0.20823967705597501 0.5053186669784374 -0.08112324370101298 1.7346235774698329 0.16875111222184203 1.4098050607935433 -0.8536080145225053 -0.3778815639916852 -0.1657974974327795 -0.6795182107354468 -0.6485806888355814 -1.500345069533216 -0.12922797238205352 0.8959906946620945 -0.4182828864308244 -1.0710755346433458 -0.8041734056270289 1.5920702287707993 -0.30624801116375455 -0.9676570808672129 -0.24533847137992998 -0.015245223272706054 2.0143014074322325 -0.41796305371320985 1.792977436940603 0.4694767005075267 -0.07144698005277667 -0.8252694432933279 -0.2801792196283491 0.7888333465182933 0.46298845752150836 -0.5150570825989867 0.33669571870280673 -0.8999800653249931
0.5339328208672431 -0.334743067228211 0.08981847878227905 -1.2257131582524314 0.5227647082084923 -0.4886647757782347 -0.009142571774787667 -0.8220254928822773 -0.7469845586480892 -0.893661686079771 1.3977230551695101 -0.6913955125359896 -0.20086710101476152 0.8984495126284076 0.872285045990882 -0.8695318141985406 -0.1749189293237121 0.9267054385079251 0.3928633451233301 -0.09062732675395668 -0.3384967267136126 0.12320081651240383 -0.015963440393288286 1.1213879731115828 0.3583588207315466 0.0630520350779889 0.8397965136292097 0.4444860259170927 -0.8588421939786075 0.8342144177792452 -0.7162251212290967 -1.3126584335645888 -0.055595531926333264 -0.15664086395577814 -0.7029005948920277 1.3178204690194273 0.9034095662272775 -0.7273438902560239 1.092586513154526 -0.6260673855683547 -0.137882297904858 -0.22199126624267274 0.8494025938167423 1.3310238055809596 0.3874312053204621 0.32724183962050096 -0.4122332050413128 0.5641949828099873 -0.2575358548750815 0.08483747412926163 1.061591124970802 -1.0113069942438764 0.40078034513258937 1.0434355788698064
-0.04874382453550019 0.22834819941458995 -0.9234252586021163 1.0024876601596655 0.7405338271499766 1.2185788733298049 -0.5807801142968025 0.554609191724443 -0.09035930894382249 0.31985976955798623 -0.6774219142642042 -0.45967026700006475 -0.30802864151264336 0.9980894114477775 -0.718118750335325 0.5262748509264045 0.9025744311335369 -0.6630408277578159 0.26276118773836943 -1.1472138578221323 -2.033521530149754 1.108338542477446 -0.7443742422633095 0.5455996533029114 -1.0960054350005752 0.09449959702041838 -0.5848468322023206 0.9156337830447239 0.5081872154270421 0.5402396283965928 0.5323617232994897 -0.5632540333845146 1.395870525458219 0.48554125052542246 -0.024611022405772454 1.2827649422988312 -0.6602379890492543 -0.419542693892238 -0.8255699962801455 -1.177835590660409 0.2280396169167615 0.714019779926838 0.13467215528588328 -0.9921212773289863 -0.41243223386431493 0.2298977826317835 0.4399930343865244 0.12562286801523265 -0.1466486603819398 -0.5092888767880532 0.6121247410654282 -0.9934211634069985 -2.1142820103623863 -0.47022885685215826
0.19460231394797223 0.09551690252125494 -0.19633315998137596 -0.13739069052760539 0.07526022024011014 -0.7381620260129863 -1.4610081610024985 0.1375859623731318 0.7385829705848385 -0.31746606684626494 1.6504770897567067 -0.6324099137669377 0.8833970399063197 0.683625425241907 -0.796134710528554 0.24515182162439314 -2.1632292628360066 -0.5276942309790162 0.714229696726135 0.4542837806461428 -0.7588789898783448 -0.34024891012652275 0.20173099769881825 -1.5261536561509956 -0.9797413849360165 0.10569084109497923 0.23948474551150972 0.8135997656216294 -0.8949659549102179 -0.9501833627521448 0.025743451724558886 0.5120390056087323 0.5954509989407122 -0.432498254746243 0.6008664176183286 -0.07808083657589882 -0.6516109391298976 0.6871538711390494 0.16276902141811206 0.7992256405108699 -0.9437223492377 -1.1891541005949053 -1.3301094616925293 0.04071609229535733 0.2358916726800258 -0.4709192710626782 1.2786889080546255 0.34863687342395455 -0.13676746062007705 -1.083581250885719 -0.9965594457411964 -0.14369707158591305 -0.02475191599286486 -0.22854330896840785
-1.0514915569907837 -0.7959684964979882 1.4133702896615983 0.6612201342611271 -0.9434164486489589 0.4936191101692668 0.05364294383549345 0.7570327587259061 0.25460252430064445 0.0010558139655852394 1.252391418718636 -0.2578020745135906 -0.5966006407850695 0.6073165202379729 -0.026155287429110496 0.9844364288750198 1.1076541031285505 0.01356076160122105 0.7676270767608928 0.54534174327287 0.18554284091108558 -1.5386426610636914 1.3429298074350566 -1.049910851087269 1.0154558662909707 0.4477387143195403 0.36847656188927197 0.2347031424202523 -0.2569236762517417 -1.091617457397474 0.5428131725568894 0.37736546680884525 -0.6022287259280608 -0.3052587397043171 1.2490240641764614 0.06818146090674976 -0.24024603589929766 0.007034666119350275 -0.7959774682002069 -0.12506662213425634 0.8356339890638633 -0.08231649196288188 1.090814282335985 -1.4560447426135295 -0.6171603572989961 0.5599365382465452 -1.3458135974023717 -0.17496748457451583 0.5296632033413251 -0.3560745927875183 0.8238578091655433 -0.020933978828265087 -0.1308635006507986 0.5073894066245193
-1.0350669061918847 0.7188533891228686 0.25286172798409945 -0.43452717856368406 -1.4006738700925527 0.025824276849123584 -0.31086897083823434 -0.8040309127333392 0.07811553809511801 -0.410907517784317 -0.17046640616964626 -0.2289181893748533 -1.2159118580876251 -0.12869051907206214 0.28257061578712717 0.9513566916484384 -1.469811751652904 -0.9665568744631328 -0.7487383664017534 1.215944414981009 -0.475220947345575 -0.15969371722313414 1.0594248016566787 -0.6374420934211945 0.19172516768735032 -0.6098970060221665 -0.07864005000050067 -1.0856015955740879 1.4065004192877215 -0.05375733050026421 -0.03532146264243796 1.3265724106939412 0.7437585715567452 -0.8618162909086525 -0.13332694460432187 -0.4635748249548238 0.7705584910567183 1.5708271800942346 0.6867857457457545 0.5640576045699999 -0.04195585738225077 -0.35476777866277753 1.218180616855117 0.6677667496534274 0.27989601772195266 -0.3611786059228951 -1.016639743163672 -1.0424937210936571 -1.8358488870067877 -0.5934706988480205 -0.017656684779510046 -0.3548666868069144 -0.9321209741527283 -0.08069218752476359
-0.7454528637125122 0.7138484939374482 0.7066210220770592 1.01735521338572 -0.7773625856592307 -0.31932304222705055 -0.4047657575716267 -0.9578814387823781 0.07116324643131644 0.4304465083424687 -0.14600678054362803 0.8993893756662965 -0.35887686836083804 -1.4412696114167265 -0.5604639312417324 0.3803157996354675 -0.5375039137528219 -0.831910817173004 0.13560255631308393 -1.3311684817695435 -1.5406590886412224 -0.6837218338662497 0.934318285042415 -0.13666322159106054 -0.9273137312329882 0.24117509476209642 -0.7814154826189239 0.17089528923453928 -0.44154589612945716 -0.2534495988601288 1.0244085715582931 0.12280360241768246 0.02799884340983877 -0.5905806983408832 0.33538854258870787 -0.6270826287456912 0.12312216991413549 -0.21307777730569288 1.4267930651161183 -0.18093697263476544 -0.7870176310960072 -0.21979786083533703 0.5076357730699835 0.7582999035667559 -0.1200120686790832 1.4864700780227575 0.30346465297188413 -0.35946166874395036 -1.6900643096209749 0.4204851184030225 0.38332333227640036 -0.36612002891290674 0.190190753229461 0.8996357543161029
0.8658551444653118 -0.16281314938638364 0.31662422648247884 -0.5304608890587367 0.07949625660587639 -0.6048989661184259 -0.5843175387287722 -0.7374531896841741 -1.9436026161032767 -0.03993609085768318 0.8455840528101748 -0.06455429451046751 -0.1484812735232195 0.2690594335748289 -0.5215487432359254 0.45015589956477897 0.8897913661282404 -0.3855933245242956 -0.37378293730973133 -0.3261384911021401 -1.3266138253419517 1.346529342202518 -0.544492469058526 1.1032049770519685 -0.934889014439857 -0.23160149977247207 1.0616978657218892 -0.4468280680332081 1.1446740282648615 0.7007876150979826 -1.3503954213152551 -1.1809113917227028 0.10983629195968347 -0.5716230583889772 -0.014997452873447559 -0.5657605102470199 -0.22008679833514944 0.25436334572121444 0.48569519214445994 1.1667128687063313 1.0827937358376498 0.7252500992148148 0.27452208871534134 0.5640817659783688 -0.5328065334697913 0.5094866076848993 0.6766226667676731 0.7872623105315419 -0.6098932596820374 -1.4429583583388301 -1.7596307897827184 -0.2721168863236352 -0.5446625477596994 1.1903936457048179
0.18214785997555194 0.7288530836971545 -0.02646384334634544 0.7358098137992803 -0.21340882654350474 -0.09624211471883326 -0.8296002512041926 0.0165834572154705 0.24764585599695527 0.039289503081231414 0.7858473039612364 -0.28789443116809477 0.4947012665137112 0.19956626277905554 -0.04435122577405054 -0.6326774262781076 0.26143569586815013 1.0774116380073384 -0.47368495328247284 0.006789295687328556 0.12047991339259523 0.04280648244824614 0.8587632876749564 -0.17996033950576074 0.5010113775274443 0.5987409055661913 -0.6044302736967533 -0.30479494192392353 -0.10573168180563602 0.5051382789485559 -1.3727305419730522 -0.2802810861028385 0.36244873192224253 0.5575327673541299 -0.6236938478865109 -0.06251891861452763 0.11694503878059254 0.5908013910310861 0.07201748124178353 -0.8506541972521093 0.829173955678103 0.4370183517740858 -0.28853668648852326 -0.28835526853567234 -0.3321761379771396 -0.010719557022423942 -0.4965274269177866 1.5318324854306054 0.2832877321254012 -1.0756289091083526 -1.04007437709194 -0.315919210899294 0.9801612148853955 0.8325536959732334
1.0233829295346433 -0.6333339900207009 0.42182518033521194 0.43522428759849685 1.244098800058865 -0.4082050813561013 -0.5213718197620056 -1.5201923861846396 0.18420818186979038 0.20996227589301913 -0.1310714444959165 0.46086850454644906 0.45415496492070084 -0.7635082446929575 0.7754411735544051 0.6877449282809645 -0.09323981084231897 0.5121363836485571 0.1214542643383576 -0.04954969545835408 -0.3914419919589413 -0.09797192685200262 -0.1370615593323271 -1.78286674315323 -0.401543527782675 0.6957929957259426 0.37164779478328736 0.20940213122135998 -0.17598507882266295 -0.8779946827135494 0.19858482715249748 -0.8080240642436348 -0.990581620129513 -1.7817402017349067 1.2579662009700718 0.5242500209376565 0.45876088000399873 0.47114204425674866 1.6378797223838346 -0.5279113995742785 -0.8845802565360579 -2.2639370469124964 0.2833285065546793 -1.1841629266023155 -0.16726194274258394 -0.28285535708562265 0.9847537279039159 -0.7830549861281749 1.6541966733985802 -0.1743195470008546 -0.46815892678936427 -1.1199883931575623 -0.8116694267984828 0.09138934989553255
1.0598456426332015 -0.5492722158859854 -0.1048673893276979 -0.6845274982256314 -0.21566711275717843 0.4381350816257894 0.3790258640997534 -1.049925219510957 0.38357079103254355 -0.9876287825257661 0.9335696779715211 -0.4108327244086959 0.3078920394357657 1.2445738915676186 0.007061785898386519 -0.4933682140692662 0.5777542875191544 -1.303354038419171 -2.3620436407400636 1.7430592325086003 0.10702512103445999 0.30290538184614546 0.07478886398628753 -0.40502896425368917 -0.5510609768763919 -0.057910010238324594 -0.2716267351894134 -0.9929203447177006 -0.8608382322274277 -0.6361340793289214 0.047534286558037375 -0.9587676709588155 0.3481858741890413 -0.9408039724168935 0.9793960223088518 0.1506325549769444 -0.4362390095586691 -1.4069533877858653 0.16438004979601595 1.2282664259149987 0.35232584920350973 -0.34855574948466694 0.8304472442332316 -0.023497348159706888 -0.2075296036834665 0.6361025499673425 0.309022773280134 0.3925501169928316 1.3641837886241694 0.5610664368388236 0.08345019497289596 -0.29953567425282307 -0.5312588861049057 -0.6829408784763882
0.853617164722554 1.0417115833601776 -0.7847743154819575 -1.1611776734738015 -1.0177677087550796 0.38698734037646954 -0.08365696683353158 -0.0786139493251109 -0.3363338499771139 -0.003309310943193977 -1.7301179176791839 -0.6260882576635025 0.9014009243948249 0.4389567095231218 -0.9848813609242169 -0.9361600361196695 -0.32887000572426317 0.44894630881261094 -1.0979749456202832 0.4100547142313883 -1.258805144458434 0.10580966101072581 0.4574251083723872 -0.6925037867281116 -0.7835596232643705 -0.5490729185588108 1.2575644736146838 0.21041012927855574 0.7730268761922408 -0.7702778850494774 -0.7429912075683343 -0.5338246328647491 -1.2603928240053182 -1.339585336672172 -0.4343559886732076 0.3672569871633294 -0.034868070690944164 -0.9266650149667137 -0.3990565330212701 0.9303618529246644 -0.04305278467193935 0.19117139130951344 0.3135196335690684 -0.11842321723521926 -1.2010653390935384 -0.8427917865860615 2.12876343490104 0.5516885386379529 -0.35259908736347756 -0.5651512314429286 -0.7059942168730626 -0.3655597312408514 -0.3444094116384891 -0.7572218923662362
1.4968663060480558 -0.40121903692385963 0.05468270411779902 0.23582473695746797 -0.9324390176126769 -0.35830950347921864 -1.1639429746754362 0.888155819308557 -0.6359376204303386 0.8723249926050762 -0.8512451907882852 -0.21585903311737842 -0.9208293636374796 0.005749696662413095 0.1289196584433474 -0.7134868520359534 0.13190861505903828 0.6040486771353275 1.0579090924931376 0.1385617855275167 0.5807571086237903 1.7571821388345774 -0.1526004173455376 -0.18332673778660208 -0.504453354257759 0.17506767259826 0.5328499823062384 -0.5876743226820806 0.29705089473722257 0.6307735115330798 0.42863389579045463 0.5135325316509579 0.6247900791793302 0.947466737570187 -0.2971273204086812 0.2216676517785124 -0.5409414626423299 0.8134125251708165 -0.25558860458211796 -0.4304943977276537 1.17524574067218 0.631075996240682 1.0496397901363164 -0.2063423139770112 0.5348929091193226 0.06492814988089751 -0.10133091742826195 1.0501789626234763 -0.46870094790641165 -1.3045435777550067 0.47191334774316884 1.0514045107559182 0.6662915570837229 0.8584395718283333
