[[ 1.10495723]
 [-0.10693164]
 [ 0.95299701]
 [-0.9436206 ]
 [ 0.3252575 ]
 [ 0.70626404]
 [-0.84675352]
 [-0.2282422 ]
 [-0.6310642 ]
 [ 0.08101984]
 [ 0.45829106]
 [-0.09336121]
 [-0.37714155]
 [ 0.38617959]
 [ 0.01001051]
 [-0.28143085]
 [-0.35228657]
 [-0.60534311]
 [ 0.81729092]
 [ 1.43620628]
 [-0.93737477]
 [ 0.26306469]
 [ 0.33989513]
 [-1.02046058]
 [-0.22771802]
 [ 0.84963534]
 [ 0.47072045]
 [ 0.07389367]
 [ 1.02243882]
 [-0.22676395]
 [-0.38026574]
 [-1.3393386 ]
 [-0.57855899]
 [ 0.13352635]
 [ 1.23952389]
 [-0.84610122]
 [-1.49440042]
 [-0.30840577]
 [-0.0913379 ]
 [ 0.93084934]
 [ 1.40545462]
 [ 0.46532685]
 [-0.64222517]
 [ 0.28550323]
 [ 0.06553326]
 [-1.00566913]
 [ 0.11410123]
 [ 1.06391904]
 [-0.32362642]
 [-0.32244486]
 [ 0.14104414]
 [ 0.34097089]
 [ 0.75287549]
 [ 1.29723814]]
[[ 0.38493225]
 [ 1.73589131]
 [-0.19946757]
 [ 0.66852731]
 [ 0.35712059]
 [-0.1734084 ]
 [ 0.32512761]
 [ 0.84479641]
 [-0.57188933]
 [ 0.8651716 ]
 [ 1.67449552]
 [-0.9766539 ]
 [ 0.66497639]
 [-0.37078492]
 [-0.59401866]
 [ 1.29984029]
 [-0.1805177 ]
 [-1.01293739]
 [-1.15257759]
 [-1.08203125]
 [ 0.45665885]
 [ 0.61581973]
 [-0.7839997 ]
 [-0.38840249]
 [-0.61988117]
 [-0.78874665]
 [ 0.83818315]
 [ 0.58413204]
 [ 0.85237888]
 [ 1.2490744 ]
 [-1.31968341]
 [-0.97021479]
 [ 0.15683387]
 [ 0.44646686]
 [-0.7932371 ]
 [-0.05495848]
 [ 0.1487262 ]
 [-1.34877203]
 [-0.41383716]
 [-1.34588395]
 [ 0.07275681]
 [ 0.09799093]
 [-0.90940161]
 [ 0.46039975]
 [-0.8015141 ]
 [-0.34283073]
 [-0.66337688]
 [ 0.54511615]
 [ 1.06599571]
 [ 0.30177318]
 [-1.08369283]
 [-0.07076677]
 [ 0.44729939]
 [-0.27992728]]
[[-0.14544017]
 [-0.97958424]
 [-0.20403071]
 [ 0.69791194]
 [-0.43450759]
 [ 1.48240017]
 [-0.34889595]
 [-0.60293576]
 [-0.96805803]
 [ 1.15640573]
 [ 0.00252213]
 [ 0.96524729]
 [-0.82725863]
 [ 0.87748447]
 [-0.80529256]
 [-0.57349438]
 [ 0.05191875]
 [-0.08555839]
 [-0.85926774]
 [-0.22608012]
 [-0.05153804]
 [-0.30197444]
 [ 1.15303573]
 [ 0.12616376]
 [ 0.75918424]
 [ 1.09572073]
 [-0.03219449]]
