[[ 1.32685631]
 [ 0.12690116]
 [ 0.49303539]
 [-0.92931426]
 [ 0.59877444]
 [ 0.66384228]
 [-0.57887085]
 [ 0.19475536]
 [-0.57828942]
 [ 0.04335017]
 [ 0.70557505]
 [-0.57340894]
 [-1.02773102]
 [ 0.59860629]
 [-0.75140747]
 [-0.45340622]
 [-0.95367496]
 [-0.29703256]
 [ 0.5184739 ]
 [ 1.02290217]
 [-0.59547355]
 [ 0.35587018]
 [ 0.1765316 ]
 [-0.96248521]
 [-0.1172709 ]
 [ 0.98757619]
 [ 0.79038027]
 [ 0.54449596]
 [ 0.87091737]
 [ 0.24506454]
 [-0.23487594]
 [-1.23311361]
 [ 0.00519552]
 [ 0.03852662]
 [ 1.45857841]
 [-0.43167503]
 [-1.34857664]
 [-0.72152821]
 [-0.066848  ]
 [ 1.01552731]
 [ 1.40182522]
 [ 0.58712116]
 [-0.31737792]
 [ 0.81973861]
 [-0.54525627]
 [-0.80352753]
 [ 0.45339147]
 [ 0.8662731 ]
 [-0.22403174]
 [-0.239251  ]
 [ 0.34995222]
 [ 0.63920041]
 [ 0.55294925]
 [ 1.42560119]]
[[-2.28766456e-01]
 [ 1.56525857e+00]
 [ 1.59749922e-03]
 [ 8.37289911e-01]
 [ 8.28443882e-01]
 [-6.59340806e-01]
 [ 5.07191356e-01]
 [ 1.41530324e+00]
 [-5.13530348e-01]
 [ 1.19923297e+00]
 [ 1.50440387e+00]
 [-9.65938572e-01]
 [ 5.60485489e-01]
 [-4.29163800e-01]
 [-7.99551706e-01]
 [ 6.48567166e-01]
 [-5.34356220e-01]
 [-1.09767238e+00]
 [-9.77875199e-01]
 [-1.32925765e+00]
 [ 1.01119697e+00]
 [ 4.77338955e-01]
 [-8.05483008e-01]
 [-5.30411765e-03]
 [-1.52198460e-01]
 [-1.65249338e-01]
 [ 9.76270116e-01]
 [ 4.48232740e-01]
 [ 8.10848580e-01]
 [ 1.63964032e+00]
 [-1.78775981e+00]
 [-5.91628356e-01]
 [ 3.87596877e-01]
 [ 2.74751655e-01]
 [-1.02181603e+00]
 [ 1.12883682e-01]
 [-1.65074283e-01]
 [-1.72031014e+00]
 [-1.74917877e-01]
 [-1.24989836e+00]
 [-5.58551821e-02]
 [ 6.98484987e-01]
 [-8.03309039e-01]
 [ 4.14715994e-01]
 [-7.60373739e-01]
 [-5.11681458e-01]
 [-1.64451908e-01]
 [ 8.66716524e-01]
 [ 5.66819519e-01]
 [ 1.58098279e-01]
 [-1.00882682e+00]
 [-3.90341892e-01]
 [ 2.50584865e-01]
 [-2.84470065e-01]]
[[-0.60136673]
 [-0.48851596]
 [-0.6421915 ]
 [ 0.90873736]
 [ 0.11588552]
 [ 1.35312218]
 [ 0.01753158]
 [-0.42782635]
 [-0.70065269]
 [ 1.36700665]
 [ 0.00252213]
 [ 0.95449774]
 [-1.03586418]
 [ 0.6667372 ]
 [ 0.05889452]
 [ 0.29889382]
 [ 0.73484798]
 [-0.08887572]
 [-0.84145555]
 [-0.58826763]
 [-0.43363732]
 [ 0.00626572]
 [ 1.38240614]
 [ 0.22594515]
 [ 1.14945774]
 [ 0.55635084]
 [-0.04716624]]
