0.1053647075934161 0.3787245521250787 0.8342349351265799 -0.8047697854070326 0.6762012493176413 -0.7472841817359328 0.2821057660542629 -0.03268033154739075 0.5472417720136261 -0.19033608219067838 0.3732444916346948 -0.37015734168787107 0.6763234037729058 -0.4890204076564588 -0.0199206400648832 0.5688697943484593 1.5182319258114143 1.4271297418628202 -0.7379406728226203 0.1453531503470903 -1.6052515761702755 0.06934692462432579 -2.14478917524317 0.20095181674493734 0.648539114029585 -0.09013847329759989 0.27850409043076974 0.05157274027999165 0.32870776690263875 -0.017740649100372707 0.6118970026386809 -0.23768768297527754 0.576754727614045 0.9641411154709281 0.3227181403592732 -1.022107814712164 0.45392327599540416 -0.07993922499046613 0.041129022486722344 -0.8807519605742566 -0.9394925870916857 1.147018761757327 1.4782569026102235 -0.06265384412368052 1.5147563929579215 0.6899915507050154 -0.2603150698716566 0.23472848292517529 -1.3372923020795628 -0.7516796886199106 0.443922481779916 0.6699256726782636 -0.9130176332662936 -1.5020827844312483
-0.321819431867653 0.9485514561933537 -0.6432372282742354 0.6016878584810217 -0.778579627615305 -0.2166614740115892 -1.509527317434868 1.2055992105690165 -0.4145608318200052 1.3446662245447256 1.338944217379817 -0.828357276808837 -0.6085266828451299 -0.5807088355970831 -0.5242384412437859 -0.5626287873951765 0.7425604983455449 1.7203305077816726 0.28405466211744995 -0.9503502486011393 -0.07176205536832975 -0.4022769598711993 0.8747651789525654 0.18097508311452004 -0.5298001675312852 0.8960500253524952 -0.6617257493255435 0.7614082157257802 -0.9574635120987685 -0.4286590700932041 1.4331293763615192 1.0427222844892046 0.2775415420309539 1.2557941777019082 0.4514361797030997 -1.567795229607274 -0.39092622605544614 0.47611075046655704 -1.3562037952629005 -0.002863599245809645 -0.1273338018553869 1.964493277015941 0.6490324752436045 -0.1240788464269742 0.4265519576336142 0.42137503615099364 -1.2702648921377755 0.4904498760540565 -0.9823193502160498 0.30493627233568915 0.7760221365814542 1.5141039497629816 0.7924135932998658 -0.44783787945396303
-0.38973404713629134 -0.2589376352695104 -0.519628303435139 -0.06302316055638257 -0.7075450018772311 0.8751973857876719 0.18919299949572738 -1.1748939336403768 -0.5345216491153151 0.8459296629149307 0.7508744493564651 1.2372121093772257 -0.18702799978717682 -0.007907917573193313 -0.7668277535162237 0.7772232203662336 0.930847713645474 0.4811294569371757 -0.16830870468324793 -0.4588210516252133 -1.6858049287468178 -1.8067540316020139 -0.19530441855908892 0.49230018784187296 0.34221611642721994 0.1411772673730528 -1.3294240345601505 1.9098292241164112 0.4137573128629738 -0.13318900928396143 -0.7165847854394913 0.1445516256135776 -0.46696842625151586 -0.23308311716314428 -0.5996613462449645 0.6471473900448883 -0.11486895099022737 -1.16782236343272 0.047703275012395185 0.6081354405311747 -1.1239423518641374 -0.9091336544918611 0.6662822027548878 -0.1273117763782664 -0.18575585719679405 -0.6404271054037178 -0.4980340997393001 0.32078668588983245 -0.492409924428369 -0.467121275454158 0.20504220534558998 -1.824294740829311 -0.9674466829197916 0.33208696460313103
0.6146159394157122 1.4826934217924213 -0.7530783704590276 -1.1537873145907893 1.1437972218554002 -0.545011091786705 -1.2697650998834538 -0.6471502161365903 0.8018451792925669 0.3263821510104793 -0.4710614246276541 1.482463010354913 -0.33218538700871836 0.7536424916477411 0.03551695591922427 -0.41187315299060995 1.2058129246732783 -0.6287354307138522 0.2887441101749641 0.8914119242201154 0.014967280419463491 -0.6403588740899024 -0.47009412616070967 -0.46342806724372104 0.4218551907163659 -1.0169928570022062 1.229411766317712 0.29491730180214176 -0.6546747908685397 -0.3253566320334812 0.4296674705779703 1.5785074074899452 0.7649464089100702 -0.6158913169164533 0.6908983700238253 -1.74153119651593 0.8022061297508144 0.8015149077691857 -1.2797031557597247 -0.5012585641032121 0.5958626461936272 0.42820573252673133 1.01653553497012 0.2826583987310537 0.03900958890237349 -0.47900498144021564 -0.42853807336028743 0.7683638329568743 0.285737842160327 0.055498161249436184 -0.925656093569057 -1.4303197625677904 -0.9576455042557743 -2.4071412218213144
0.5044666857659079 -0.02946824740598264 -0.05694436441634931 -0.2454152137899775 -0.5143872316692093 1.6210830477901448 -0.5935370634400257 1.0470657615262362 0.2583058857420759 0.725750365123711 0.3229432129837382 -1.4507731018307506 0.9561990812523748 0.13109530077840398 -1.0184301823402788 1.0202522886829584 -0.4380850695655632 0.6018879626016721 0.3689549325602353 -0.28540085984937913 0.8430961398398057 -0.6325430307452072 -0.9748659599933105 -0.4984737090566803 0.024316166132417383 0.6364321851678467 -0.9313786147296501 0.668338475604562 -0.9663536170903619 -0.0003224017534938506 -0.4059649378833406 0.5386133291938193 -0.39593833905619297 -0.663305505703375 -0.14264749058154186 0.2069582835383748 -1.3440537463266333 -0.5993770735215356 0.7937606248479312 -0.9148461501688556 0.30916906556310997 -0.4520432472064482 -0.7188975055303346 -0.9371984820049895 0.32023102817086424 1.0524964874311564 -0.7560102821900219 -0.11780808367828288 0.7770183771880288 0.38584158437865984 -0.02877768981581902 -0.580977508604215 -0.407597583999732 -0.8225986440730659
-0.15497734722188278 1.328190159334442 0.6612154089572728 0.2812639787567028 -0.11928958372561077 -0.8919273479434628 -0.4033824511531736 0.020246477546283392 0.05615407585298865 -0.1813707079823208 -0.5082148445593551 0.3846167981968722 0.008304203209162808 -0.7241885967636275 -0.17218062665176076 1.1061555574863695 -1.4387599233830284 0.20801843532500647 -0.6471711390317347 -0.01676112252041212 -0.9210818563473603 0.5608385241381102 -1.5865411809861159 -0.07961778785819457 -1.4583752840202602 -0.11669649945825322 -0.33064561336341897 1.1022534586257233 -1.5433395341160503 -0.35166722745211276 0.3652161953511062 -0.3947755069907253 -0.8466467510655562 0.25511991850251664 -0.13661052350234643 -0.913751475515203 -1.0117526641248609 -0.5667484375724675 1.4801349202727414 -0.3490690330057341 -0.6912826999605526 -0.9704465911167313 0.9066551678657351 0.27350646758979885 -0.7738313846397402 0.7588017692821074 1.0156026405034373 0.38825449042213095 -0.6089253262993732 -0.6684915634682601 -0.16994657905974886 -0.23855456084905396 1.0798976005075807 0.22879833879991657
0.39914379278294804 -0.7159979457953315 0.3784123668660374 0.4145644374097741 1.0212766576573151 -0.23467377545236034 -0.8027552723021281 1.6735235105579476 0.24875324081700023 -0.45056414939962364 1.020385321674992 -1.002890040764214 -0.7283174871792912 0.2073828087552384 0.2588295007612087 0.16134157097805812 0.6276084737825155 0.36447944715982156 0.9384119661683219 -0.06516258958801335 1.132027271574004 0.09365163417714889 0.9964402921878328 -0.607498061883797 -0.6934018279877926 -0.8317959867231424 1.386166661353775 -0.538082046600711 0.6857891334131552 0.5639057593161331 0.15382037522429715 -0.8252156824631328 1.3370145662843123 0.621282855519961 -0.4549947559620506 0.6499695495026401 -0.776389330474115 0.6201478315117176 -0.3209488407094549 0.4459472036563706 0.3704882064224797 -0.7491053608014434 -1.0467983181492637 -0.06931900094222387 -0.42319037375584767 0.3144314699309132 1.1530099707264125 -0.7304103581398411 0.661736687579155 -0.5836141629310573 0.5549770605420157 -0.3939978547166141 0.5802218770378891 -0.5158138442287432
-1.0164281342146588 0.4233885556343323 -0.8969507803276278 -0.4250464279737903 0.6060402241473173 -0.6156530163916939 1.4851797140577512 0.46507842963668883 -0.1311082477584149 -0.18407689368611518 1.1426464883060619 1.3776921904690091 -0.08336301666208756 0.19315672927966754 0.10661348175124052 -0.9056400572896584 -0.6718754760210148 -0.06163241919167006 1.3711994663718137 0.29928057326669055 -0.007568098582063365 0.8733123957886895 0.5243174310973282 -0.7760299352609521 0.5474955219842932 0.34087275602161227 -0.19218395956305073 -0.1657513672225538 -0.6215664864802829 1.4750722898921973 -1.2845109520408065 -0.44566145877808117 -0.36752092958848986 1.065707651540173 -1.2608591469710562 0.09194024754897656 1.586939849407306 0.8785546166856292 1.3569306652377153 -0.3297279635361002 0.8060656165611424 -0.5234151483855296 -0.9500972170825344 -1.2606721444226663 -0.9582784659212873 -0.06370503720194676 0.3436951832181121 -1.7337343762254283 0.3163641487957522 0.9020325600872082 1.090625618488371 -1.507314446880121 1.2706076167139397 0.13204802242552827
-0.5910087457482072 -0.7654613391601379 0.315906460875671 -0.5062411964034819 0.474676596702194 1.431300031969826 -0.4239639102619321 -0.32468116642097167 0.05694951407558052 0.6967810615060777 1.1365585725512533 0.6970533843564594 1.2182317634892352 0.5792792506716722 -0.796971490026851 0.823962715590776 0.9934052843016508 0.43224750510163357 1.0346824530289709 0.3068180460609358 1.1369073315822247 -0.5653257018572189 0.14648416860265207 -0.4653011589445637 0.3152991977816633 0.08003098470691783 2.1150996870138146 -0.3900065141151472 -0.4132365957763135 -0.3522913004241972 -0.14152504482045847 0.8427232085491143 -1.0742173765891745 0.5959594623008186 -0.3208293968670867 1.0821773958588818 -1.0357229252459041 -0.4307872974525322 1.2069013249200815 0.2819691736485157 0.6770868147661269 -1.7849739771507533 0.4916123064103385 0.44902832096288053 0.5845095713428767 0.6243409734960884 -1.722172740165537 1.6656468164729892 0.2712977729305773 -0.021725416833981437 0.3617573859975818 0.36491645724627103 -0.07755678249176345 -0.5067659263655355
0.6865197762540749 -0.33353586345288416 -1.1356255423356991 -0.4326535889223755 0.25614884333009824 1.3252992250193207 -0.2608781783392359 -0.034559265555541285 -0.09424663731495542 -0.6621114723086784 -1.4179901564218236 -0.10747791074630825 -0.41586879403475735 -1.716350294981285 -0.5523621899273667 -0.5851313530085478 0.17251191937919297 0.4305179034109512 -0.5056648815024654 -1.0358548102656986 1.635476188018557 0.12105128953247718 -0.7752798726350831 1.0231664271240761 1.9254220864729676 0.12982698260999775 -0.004235826219538219 0.335813975774357 -0.13611641308644767 1.5505256883225234 0.40989822108000384 -0.554091195662824 1.412035228538254 0.22790379484379114 0.11478650792074557 -0.4451689862650958 -0.16948109070806855 1.5001666447018505 -0.5162024643649734 0.4786242830701192 0.04742456727774347 -0.33397474858720344 -0.26531022836779183 0.40352486710977054 0.3732308697052531 0.37300177065913503 -0.5355789390831667 0.2666544287103035 1.00991406805945 0.18682340576794837 1.2436283411787081 0.5097568330387954 0.16828281121966382 0.8899250683027506
-0.41673003951780174 0.41485421240689085 1.4226276335351495 0.936013460310708 -0.24392892083483964 -0.07532797434823796 0.6705913448356327 -0.10725452931042967 -0.34341965582698714 -0.8545129551403262 0.7346278649234029 -0.12427031078169093 1.2547250787070463 0.7480130572578902 1.907126634553887 0.4787733837102763 -0.7709035876997364 0.7711855231312275 0.3805316840355214 -0.0552213067087845 1.356223526047666 -0.5244458321403287 1.6697336765162547 -1.6278288366007039 0.33899850027460865 -0.01985666757057264 -0.5665048350990738 -0.06373854559209235 -0.7472674467847782 -1.4540923321479644 -0.8064633520787832 -0.10883610232498497 0.8098003257177369 0.6753743880680432 -0.22133326048598828 0.7319870888194789 0.6033556294280633 0.06897036810008345 -0.362217498563143 -0.5948549060670083 -0.793581331006461 0.07053101146514362 0.10689133024249792 -0.996706213355568 1.1258010055388261 -0.40851530372230116 -1.1605014488722818 0.18435925664854763 -0.17274845902134867 0.9433396679397799 -0.23599594755464137 1.7328169344391164 1.0217945643661495 0.8443762482885022
-1.2049800652228273 -0.9235424732652803 0.10574668939357007 0.855947697292992 0.13721454450285625 -0.5275709337675002 0.7934014662315858 0.8806794914394869 -0.03744377936778409 -1.3700859144689548 0.6293061579149415 0.7061816783644543 0.05014919904893517 -0.7911004194974669 0.4396218065298613 1.170340083595363 1.4399128211277634 -0.049776187763520996 -0.8743048068662074 -0.003687136161113047 -1.0671060135454047 0.16614609464214386 1.8180574529266456 0.9393429514255505 -0.7740578791549292 -0.34917908439091727 -1.1917254409106603 0.5711692650673084 0.18074532585472763 -0.8523715257208634 0.1441930077911982 0.8444496728674975 1.5484448973490237 0.1486423286536877 -0.8519570920616046 -0.8523100510167236 0.8260210651077855 0.07815435823043632 -1.2233267931146894 -2.438601896041488 -0.14779102205280614 0.8123523438844893 -0.548167511022341 -0.893858551418361 0.6779352725243754 0.776101027054433 -0.09010592933815514 1.4681277955117686 -0.566716888296417 0.7312280952333267 -0.0555213623962747 -0.4632102036356821 0.020762576238516406 0.41263925573255555
0.6090805405145396 -1.4433274733616728 0.29313447211976945 -0.04154504515085233 1.2314404157622307 0.08064147920467313 1.9105392512347859 0.7713948674754736 1.2884606907669183 1.0473310387915653 0.8825751653540679 1.1146529662103208 1.351211561816556 0.25420463873706206 -0.45964696426575613 -0.6903264708923491 -0.429523056007721 -1.0072459685881143 -0.9707497021829519 1.1355892473951947 0.29469108298417573 -0.36762519768130153 0.21343298218561702 -0.42013202792707144 -0.49771668190461127 -1.2177957201500076 -0.3155832358623469 0.4871332197046124 0.8518479167214437 -0.5828598465691655 0.008562370878614112 -0.5283203650196068 1.3272472086783358 0.14997545294490466 0.2246216321377496 -0.09731810807326324 1.0772510702986242 0.27874208084050084 0.48231843724288703 1.16818256851617 1.2307093920027765 1.626020568229041 0.026508186879870776 -1.4466511809843934 0.3834699572070546 1.9877174377198497 -1.2284016528160353 -0.6221412215472355 -0.16538271470252724 1.3945701752553181 -0.20984049961919948 -0.32147348782650026 -0.014448828938786296 -0.0540765800793791
-0.40793147880479247 -0.12940310016386825 -0.664073202545109 -0.45132005713176165 -0.24506384672972448 0.7143759933934889 -0.4582252200908315 -0.9915289930231073 -0.5213322627350756 0.296519067893927 0.8584137988288059 0.8382068497297606 0.03225914258193374 0.08422450618460148 1.3968573368350035 1.0070863985342642 -0.6962322572682673 -1.6953948466389677 1.5336075826172206 0.10050492859277893 -0.4412185494509133 -0.5595299978046961 -1.0473111533782675 0.450974775460856 0.7710991492656445 0.7087112806033137 0.48039834483757116 -1.298345975616543 1.052996948074202 0.4867030126835984 0.3936845494380697 -0.1210811128457841 -0.9751691675853018 -0.1702332482556005 -0.26089820422041476 0.042685578652855716 0.09161175185460263 -0.0364927298502703 -0.08863326622501194 1.599123840371273 -0.9028921546443587 0.02959140743490085 -0.7220985441076592 0.5655327531059982 1.5791532996793562 1.171956523370493 -0.8703308305653938 0.2674474393324624 0.202012684943302 -0.7790361329891542 0.49234259767038485 1.4089559381957566 -0.8294888262000422 0.24113672449369927
-0.8568681742770672 -1.1402750734722138 -0.17497938520440554 -0.18407641093952526 -0.615744953499437 -0.7048603499480814 0.0772586410154657 -0.307222967501248 1.5831272264498062 0.7124777557588764 -0.059440101708844284 0.4976505525031047 -0.507394173038305 0.1952450958709973 0.985588738540532 -0.6481252780831734 -0.023144407915450305 -0.8156665097279774 -1.3363720162130117 0.06475926021753992 0.1385918475567649 -0.8521114206188443 -0.07196020487988242 0.7704943795584339 1.9831232109224108 -0.09354159693490832 0.6327401138408882 0.4979054873252457 0.30031785684474904 -0.21114370307643715 -0.893603481306753 -0.9343851420471192 0.5130740087666971 -0.981495454488372 0.6904493428212601 0.48984222878424255 0.9104971946937703 0.47058903314088635 0.021608087398905962 -0.013215633841200669 1.2093890468655248 -0.942521272033341 -1.0705350379318535 0.3339581350155269 1.1449393047517322 -0.22076861813526732 0.8882847979749582 0.749850712987166 -0.8466007663119972 0.09636925961211007 1.3230999216594412 1.0078407455388678 -0.8508530657247757 -0.4590798575638745
-1.7798391796793596 -0.19986509547029324 1.04766332882508 -0.11233869152838305 0.6919633668175378 0.16397768418449354 0.2508571419325708 1.820125635306427 -1.3144991701672168 1.6465067214596254 -2.157024581958038 -0.6643451473768192 0.1282839302093597 -0.7686612429852155 -0.9462023068493561 -0.8644216064691124 -0.09651778954290924 -0.4485099970400193 -0.6507186239809545 -2.211628935484907 0.503455817234028 -1.3426455476409749 1.9050980078576156 -0.7968736200422399 -0.23538536090738127 -1.2560647556415971 -0.28274433251202147 1.060708709672155 -0.7809055820124801 0.20394874371086646 0.8437263406032871 -0.35731575457770903 -0.2091716638160852 0.034428612056276786 -1.1522484757240832 1.2210394709734684 -0.8149786793218067 0.12911688500839086 -0.9465501391191418 -0.6747675718993298 0.6085572483878556 1.4338488945624883 -0.6970910096149211 0.3832188245738238 0.5014195150597609 -0.540150281773615 1.0532445979958576 0.5127065329860723 0.9746597453625669 0.0388107867953027 0.45436389626097773 -0.16114439354705057 -0.19978977747977178 -1.0980553950278749
0.6091733722633758 -0.6923720124540436 -0.12616375545332104 1.4944688582142434 -0.788491733520924 -0.6775347552169946 -0.656077106912909 0.5864911395576131 -0.08060841250097117 0.6334572668240233 -1.690388895260046 -0.08490022072167519 0.63349731780156 0.728584714024631 0.13360089878135062 0.7943866905880483 -0.3732569634365989 -0.04604988523642545 1.2949174547730968 0.08599439753689181 2.35905285252742 0.7983483497842534 0.6615390608302592 -0.5665753648186719 0.014528949265967483 1.271841132401201 -2.3057860173440954 0.015233154380167868 0.8050947090660276 -0.18058003397557043 1.7082089160282699 1.1340062499574775 -0.26521902084179827 -0.10658606691710054 0.21818548247646474 -0.7568412610814956 0.03607255929788611 0.15093455193823863 -0.3620457011194751 0.5380834971814924 -1.086141305476147 1.0890705498374114 1.7085939132041341 0.5147795572044931 -0.8724551994690948 -0.2041215066082801 -0.5201597911750759 0.4736944925256316 0.9300525348540879 -1.0871591004037553 -1.5139899942602917 0.0525572993581388 0.6461405790608618 1.311675468875335
1.3190385339797606 -0.48751443836974684 0.5042286893799744 1.1606258106826641 -0.03305025698740016 0.6117731048284394 0.5929836814192625 -0.6935409273881108 0.2842417689767304 -0.509054745824244 0.37603761899834337 -0.20889479039973252 0.7332682428604753 0.11887672139259187 0.2950912047964738 0.10258359846316356 -0.605590676716373 -0.2213307545190018 0.7075799143677334 0.8108794701393744 0.6920216370994303 0.5002148073148591 0.7146353966222071 -0.8195723246482859 0.48879958420084685 0.31072690138115994 1.1681098311354385 1.8896947298676712 -0.882449311080766 0.6567476496907789 0.7385137227927737 -0.6804952936216435 1.0975691562408438 0.2933405055419403 0.2138726671027011 0.010113447503322437 0.6942473707115959 -0.86149438065801 0.31681108292430316 1.077450680770356 1.2294472021040517 -0.9051923293851677 -0.4238898257033255 -0.5402449304560957 0.44650962376814374 0.27727194728440335 0.7255939424519653 -0.10063790627806402 1.364282844423151 0.09789103796936494 -0.41045576383485993 0.4766156234612581 -0.2569887514699329 -0.12251623951829588
0.5104033696952428 0.7113563506595669 0.0979890328460743 -0.4937553213219102 -0.32951244115965267 1.186957216550665 -0.09142477669524052 0.8361653857611491 -0.8022044529649897 0.8895782053986272 -0.9437822978152579 -0.2900357359500938 -0.1150560383403244 0.3196972124663735 -1.803979417130941 0.42377942619347786 -0.1394185225986218 -0.32299717251500437 -0.696705623666033 0.056843053316709136 -0.02404160705402597 -1.0338125756333185 -0.8430587418551505 1.301753824024731 -0.49474690320365683 0.5721605757522639 -0.49093643212678023 -0.10579377086776687 -0.7063872019833635 -1.168897208494077 0.467763117915037 0.18643077531934793 0.0857599576862369 -1.8664232546076986 0.13509935169073556 0.19235461370543783 0.503502341920355 0.44903143756891833 1.2063321806568557 -1.5989570930444796 1.0829589498308925 -0.19331669952869074 1.07622578789424 -0.28113801157774393 0.43533029170993565 -0.8280943305496268 0.42219709224421215 0.07318285203024238 0.5580946322908646 1.0425603076784966 -0.8873487647593108 0.3735040631671037 0.35690411895988816 -1.282248909073234
-0.42148778866858777 -0.13226964395201085 -0.518050579549518 1.100675625097343 -1.0826414353761238 0.4371501596377436 1.5752822094928156 0.005483231171692804 -1.1114933880669302 0.905183301253967 -0.10220821334292396 -0.6004961518640595 0.37152393403707856 -1.009925755991753 0.8052464520741991 -0.10349596981180992 0.11247433166541415 -1.1707789383744234 0.4041803973250609 -0.04627181756619775 -0.028076636373650765 0.31155550884952515 -1.0755591500229964 1.2593540643841445 -1.3292662499184185 -0.11369745942442294 0.29396792544952177 -0.8540266968964693 0.35422054891911703 -0.9382607034857884 1.389058572564289 0.4945066548480403 0.7528673539858264 0.3606431092413992 -1.0059695320653455 1.013963673870255 -0.9924546028864544 1.2131837281479365 0.33869214961768346 0.2753104620861172 0.9820923631008478 0.4136878265987408 -0.6609491031448089 -0.20406341321302846 -0.9320513026941224 -0.9716089101437049 -0.7417091208284332 -0.9909153875408724 0.3272428731431333 1.9761968853667713 0.012485520693438945 -0.63223545855896 -1.3724723523989106 -0.574920862558127
1.6452439217252255 -0.6691369874493327 0.9374506769356105 -0.18352238090597883 -0.506700799640766 -0.6610515080863864 0.0909608553962955 0.26623670714367714 0.5393373319491174 -0.28164354155872856 -0.40619594197303904 0.25895357314179984 1.114891163117888 -0.3508943795602449 1.4539708254820778 0.857338743414102 -0.17891774369815427 0.20770579352338758 -1.0857631943467088 -0.8822899828283031 -0.24500310694495242 0.21630570770864904 -0.7465632102560268 -1.049351958718024 -0.2882637039956416 0.6817090340679824 0.5852563577853074 0.16760932726352618 -0.7903991860971937 -1.9056268581823508 -0.43466093902769076 -0.22668843494826446 0.5229882465478408 0.10006950327816827 -0.8530910684822012 -0.5634609496106 0.33886845754286143 -1.2686404313207327 -0.8552946490808284 0.4040721133142523 0.6696514731428784 -0.6113499246315403 0.4280131183837124 -0.38529734404683286 1.5700655436729007 -0.17287978291340517 -0.07184424257508304 -0.5615297900271015 1.1446946432024814 -0.19498278262764035 -0.3211028126714617 -0.5809670307205448 -0.024211041147473245 0.7815029881960864
-0.11602283503601496 0.5436267781910615 -0.9648730440504254 -0.48928307025081763 1.3841974294645523 -0.010372200507763496 -0.2929257122428658 1.3285309292184888 -0.5451471476424868 -0.000771334693539516 0.506025069963774 0.2540193625228545 -0.5863896629704748 1.0115109470176584 -1.1811494176688921 0.5765275206755951 0.7899881899568462 0.8451130741492542 -0.5020964023574267 1.057103610507634 0.2895420101886926 0.5100410638334513 -1.8458973361662616 -1.0353483789991849 -0.45672674828600324 0.3905448281817345 -0.036618184892082795 0.24921113573388132 1.7361687082513866 0.07924696180286606 -0.3434333434067175 -0.07475957414153322 -1.2914040409327905 0.1993656950628208 0.2632191060118375 0.28138258286451984 -0.7686249594891414 1.0177810663766504 0.24720799746093053 -0.32701475255489026 1.589277080719517 0.7190549310240615 -0.07729739749527303 1.1055912630856164 -1.713121654776569 0.007839976678076954 -0.22698635317622168 -0.25075946154068557 -0.247672290913581 -0.44979421852292584 0.5290299871121624 1.4537938231513685 -0.5014438534944039 -0.19799549703424402
1.5882782930365364 -0.5510503134816845 -2.111379192497847 0.5384658425339359 -0.3989642817109466 -1.1922540333354505 0.9299135903606441 -1.0030288607285525 -2.1240758937515793 0.41179504721170507 0.5301407723727307 1.1167958865295267 0.1972078897669433 0.9720791982219037 0.2796385114640069 0.20489089624725842 0.3767064798114853 -0.3798025823822354 0.31250118491951995 -1.021637374513034 -0.26766926576528116 -0.8085814254516437 -0.559878125032802 0.5761509423233815 -0.8869421673509594 0.9472492913962643 0.1302069402954797 -0.4942877357163474 -0.4859398029677863 0.620400390685673 0.28837057294196 0.6292925971471517 -1.162169134038288 0.93767181656353 0.39567423646657307 1.1290184726414925 0.16157889519950275 -0.9885629774297746 0.3693659199031558 1.5143995771965544 -1.1168323479510054 -0.24533599825354047 -0.17192569266757635 0.5586219739597729 0.8460393410248538 0.1166124062082265 1.5375648107128164 1.2132176967842354 2.348239069522744 -2.132814402631138 0.21372976756716838 -0.42106113554408675 0.36547980881976255 0.3421471763395192
0.2919573071700848 0.18715750723958324 1.4467581525459896 -1.3789638849610348 0.45902626418121983 1.1019538096511987 -0.21117043955891146 -0.37390202216740515 -0.5827308953043302 0.12309120339286456 1.1270459285682075 0.24699277809560927 0.21881294069438423 0.45955778311244744 -0.8674973939264528 -0.7291689470177852 -0.8903216999575712 0.5264985146624697 0.5677419896888358 0.4305118688243626 -0.7153825910606932 -0.021452208324702515 -0.2975014403364485 1.625485060829627 -0.6132792618558869 0.006925827030547949 0.9331788039141342 -0.7329236358696165 -0.6658567853018742 -1.016827412311331 0.635225475159194 -0.01799321307620333 0.06293406130643908 -0.6035481886956839 0.033853452569772735 -0.06787234123156155 -0.7990739309735007 1.4637103740373523 -0.08968881752677338 1.2573634542598318 -0.5885979156742461 -0.6301537640486181 0.23879617790700453 -0.45858468858744783 0.7692111722758002 -0.1215263667831486 -0.46149506996173967 -0.3427732809049989 0.268564733317927 -0.7479802805807712 1.4125807222884714 -0.8485915526864335 0.645956514360529 1.4871644770004004
-0.024422295276194383 0.5224094188738314 -1.2540845445875937 0.18597061272046128 0.3186294970818047 -0.9746268292601359 0.9289066310211136 0.5261435161430494 1.4418626242608439 0.6424816647486569 0.549602477621395 1.0345275648736267 -0.06417140120455922 -0.8103226519537954 0.9518531617769261 -0.8186116007493279 -0.7007395750163766 -0.12576456854777618 -0.2800417602936735 -0.9829737885876384 0.6556243020353594 1.493333859795419 -0.275250588380686 0.5569612555961478 -0.4442500004850603 -0.09445447177996674 -0.8590464864398553 -0.08795688639762023 -0.5633555363423561 0.6954170208463616 0.335540032126129 -0.900917222201495 0.6783721907446231 -0.9123563034748428 -0.5291057461029124 -0.7708076926757361 1.315163028199065 -0.003969414786116177 0.7728899194543173 0.23014948911650573 -1.0161367723848476 1.4656799141561705 -0.251926875548305 0.23969741510526288 -0.05839683127845097 0.8008560639311266 -0.31128771985293546 0.13094048276892922 -0.7862043827810202 -0.3660969479109297 0.6334981561028541 -1.3284800025227945 0.10576359399275859 0.9594420756248752
0.9740643465437162 -0.4114485569591142 -0.794184505528869 1.5964832039176542 0.2321183899468312 -0.8682656987358326 -0.8304423124982542 -1.934581685183506 -0.42977910756185833 -0.642432125399405 -0.17192704881495802 0.046378918489593746 -0.04802971136446205 -0.3756130949705981 1.1242530446212242 0.9018658430438165 0.05082665895376565 -0.6562772106530483 -0.6907317747378405 1.1726866316229687 1.4532500075203176 -0.4750948353962871 -1.255799683324422 -1.0197975053743333 0.5286223939772998 -0.10617323643344623 1.3076787690774272 0.8122227188460986 -0.3325651185368628 0.20483630412439996 0.19677483635944581 -0.3640189196239145 -0.07656439051885838 1.0363556075686224 -0.0527191624979223 -1.3270249400617913 -0.3781718315985424 1.0207307597020134 1.6858045540652793 -0.017047890032871937 -0.6720043677858447 0.29504984860813793 0.6878294216320935 -1.214969660647818 0.04858415821879247 -0.5895870286689273 -0.6541070038704249 0.6100655251464011 0.6566128142435594 -0.3313714004150062 0.2800263296912908 0.2685166996636283 0.568207231861003 0.6796501193283501
-0.5359145006384125 -1.4150358530157308 0.8472559931719496 0.3841604288221153 0.2051035182408134 0.7425509072513472 -0.25838021106969034 -0.8874946642190759 -0.37664790019729294 -0.26216810231123067 1.659637101281419 -1.6328693951013125 -1.0420510209282987 -0.08035546419464829 -0.05716903909933391 1.4737104175730598 -0.6477640889255354 -0.9074642705647805 0.7782853889540249 -0.21268187325863874 1.0939685974222677 -0.6526533037747788 0.21520638655301905 -0.4463304684191371 1.2801460646628475 -0.9039415118012777 0.5875534965152323 -0.6832780202260449 -0.942492478038055 0.7624405366272617 1.1369426153534625 0.2903894924331752 -0.7002783687309175 -1.2728930816013349 -0.6508826283581739 0.7086954063232491 -1.093177885779029 -0.18395301286361426 1.4472413088353295 1.0083525811795857 -1.2561199244673085 0.24380909103732085 1.1313231193443534 -2.288831510733594 0.1317107172328582 0.18573651132878405 0.4049475523867084 0.0070848195878777664 -0.522664506690133 -0.5302024100069455 -0.3156237262722442 -0.5735883395569941 0.6568434356249393 0.10414314234090111
0.7172998134837214 -1.2122951009639946 0.6424361887300674 -0.35644428157739555 0.4567776226107098 -1.0552446263509467 -0.6516768101270507 -1.6267263285928697 1.1291140860425937 0.75740721659788 -0.09162466682745779 1.0565882793564885 1.0311043089765954 -0.2233324123365385 0.011407171573393993 0.8674778811615627 1.038843928824784 -0.023718699594655057 -0.7005854328509878 0.210445319253039 0.7115070031744226 0.10361863048157416 -0.1248506708273528 -0.11949992740042037 0.856990261044442 0.24846303596452352 1.9546488794630923 -0.1394924966498695 -0.4035786506282923 0.5276313742771008 -0.3209185214297473 1.1585585607203042 0.48288103421642875 0.32340113885036553 -1.7110814145023117 -0.14982263788123173 0.20375402978297197 1.976885920029351 1.0738246347818732 0.33246874672140936 -0.9795784815514729 -0.10226679151032991 -0.9179646070749905 0.6906089290492634 -0.5132635578906579 -0.5368456617042624 0.2361492133638916 0.6554808284072318 0.11311164502615112 0.23268171622414646 -1.1956408380533834 -0.8612614587411603 0.9225911706479846 -1.3007000294977877
0.8941924883620143 -0.5533686492272224 -0.9919841067319084 0.2601192234255375 0.5520146171332043 0.05772077258495889 -0.33716953183552173 -1.0292991999141319 0.44791380914591966 -0.04636249481088239 1.252479163349526 0.6032204769785446 -0.45575612310849606 -0.23221907205831865 1.0289396824544457 -1.4458712793388862 -0.4973500395578087 -0.22580351580602637 0.7847221484754197 0.9691800235217067 1.2177298118254603 0.005263272633523719 1.4991976905740472 -1.187548418601773 -0.3909323211362584 0.3071496540791367 0.496231722413743 0.6111821246122433 -0.1266349979968951 -0.09703265171214781 1.1385065996421027 -0.5822074151205512 0.3957595926590476 -0.6084410328871854 2.121480663774532 -0.5857155751866792 0.5388779680986726 -0.641901373255328 0.2822089121783667 -1.0511869693672482 0.607984854316652 0.16960271999111343 -0.8984380369862328 -0.29022043461817193 -0.8611827225174137 -0.042479093305616944 -0.9757781605008846 -1.3422987614666928 0.40719440503844884 -1.095471358259861 0.37716621263162375 0.3163122703343105 -0.10235806210126586 1.0662935777965092
-0.025570433568545436 -0.09389443540369058 0.39102143572194564 -0.35119494432961784 1.334379120197732 -0.12953178117617903 -1.0020862790829808 0.3903175976669496 -1.2920493952890415 1.0460675664018733 0.41954824224591 0.49013113377383294 -0.43899873922327465 -0.45629689730524725 -0.2463817444634192 -0.022483951550514913 1.1427339605189124 -0.3962525492744309 -0.3540656384769151 0.8159371408360779 -1.3085983946225568 0.5720738644681871 -0.07867292111994634 -1.5966215984845205 0.25106639754575705 1.1359078976958803 -1.2996360488630934 -0.5897463772760175 1.3233163465772273 0.8428340941287789 -0.6685283522781547 -1.4178217751573081 -0.49764781277899006 -0.11259411604672354 -0.8638942758050965 -1.931099205805033 -0.3060941119590163 -0.412892826684799 0.27284559850143464 0.19997304861026877 0.2594381308189868 -0.518016416622848 -0.9585336442048231 -0.4600918346076041 0.7837095460981031 -0.07377770716975701 -0.49483396693201653 -1.1870405477396289 0.4071244853202634 1.0539027844597666 -0.27645300962493946 -0.5333914693281484 -0.5964042364935394 -1.0672028104870368
1.0725344228337117 -0.39841425681827675 0.3280522255369435 0.5328854141942458 0.6375732428735501 -0.6033037158416168 0.01255041639418042 0.5729460785152298 0.810867582999859 0.3671029124661279 -0.735530837694165 0.16201656134355824 1.2804361541094098 0.08331261577490362 0.4025470747246315 0.585670738068526 1.5588971753060237 -0.3504125509618181 -0.849268784814594 -0.3734501924677465 -0.5936461462052667 1.4397949151453235 -0.7667810681957021 0.6467886926553701 -0.7547300138441202 -0.9286212276649002 -0.660985825190892 0.6889159174416855 -0.10311831398133631 -0.11085489576387991 0.5604124327344593 0.6074014469277136 0.3514879024142108 -0.45104146504705045 0.45414679833848776 0.6043231826697366 -0.43259698531331386 -0.5112928469018672 0.5735430831370294 -1.6743632530451849 0.6328954308741808 -0.6794912720128046 1.0256098521949528 -1.4161313073064297 -0.36947002427720876 0.6459650073397654 0.27664359078801837 -1.2192464042809463 -0.5778680491729806 0.1355710681833172 -0.9163404091148564 0.830976666845469 0.1341104845083423 0.44302357689549454
0.21407961715028978 -0.7693847111453174 -0.07608579097391249 -0.1839230900159945 0.8225952870712199 0.7255926024456183 0.042461883596541516 1.4192165076684387 0.8916613847755728 0.5551749244067468 0.40135138633621803 -0.17580063749241304 0.7873470715907858 -0.4997218567232741 1.370949444219291 -0.8326310592527525 0.32327033289765306 -2.03905314027069 0.4585940470446882 -0.6236161589835247 -0.1811548313840628 -0.18374665187949063 0.02758768019395552 0.7654741899578026 0.2843587478195958 2.1755526296854355 -0.12932054906798823 -1.0586176159282754 -0.4920065211782743 -0.6736529350591478 -0.2086747575636701 0.4534901651930074 0.39658091001381135 -0.0007296264849390166 2.4856791236111304 -0.003564608325891505 1.0488491604764456 -0.6434007503576382 -0.15385793445231127 1.1073728592833085 -1.0767034370139004 -1.264874689176618 -0.3833641378856619 0.934004111261987 0.3635495105266439 -0.057639209928737556 0.6618052350186632 2.1531344336956364 -0.5874924832006505 0.7610449394948176 0.5286323625645379 -0.31683573049346353 0.8037140162149363 0.012053579001604031
-1.2695526088437559 0.04017357728626375 -0.4119800926888022 0.6269927356626616 0.03964806325757564 -0.9825280880626321 0.8003580461027058 -0.9005456959110608 1.4607639940200565 -0.7406433572792328 -0.7580847839482618 0.19995648769480284 -0.7034653020822349 0.22780597529900387 -0.22410140754374935 -1.2294228038892072 1.13197902209501 -0.31497852400211823 0.3645315499213902 1.6942672383832342 0.08841203883738785 1.595997009907556 -0.5129469643287106 0.8637207361619841 0.8532315550301321 0.42158602120666877 1.8721657116552912 0.8485207764482132 0.013055595376612827 -0.7656764146080799 -1.2612333482757216 0.1768836672230391 -0.33480736629353997 0.09785736417890978 -0.7530163226141238 -0.32348590405951305 1.0248426066481053 -0.571662042233036 -0.744207899605028 0.3425970714767651 -0.07151003957898067 -0.12779103127250663 0.8854940451657809 0.024187473478441635 -1.095539427177976 -0.21231897479374107 -1.505155333320006 1.0411741852557805 -0.3930365172192816 -0.24169926790184998 0.5897431772799703 -0.2441744864021545 0.31605483937258416 -0.721092903429121
0.6323117124269515 0.14762937114363556 -0.49224512511503504 0.29580732443682733 -0.11736623146941144 0.7574242676564962 0.44955244004455996 1.2200493027351467 -0.4062829241537537 -0.44824165717607584 1.207121594881051 0.7695675414698896 1.3258922385704894 0.8744760652356558 -0.16145794192083668 0.4016679444951028 -0.053472877304578115 0.8449985280259995 0.4799581309203128 -0.5752718985888932 0.8808737147607432 1.8632465349280538 1.084179412748933 0.7662226369222902 -0.7855105866613421 -0.5163252396360836 1.0448698341214295 0.7297600894219914 0.8380230468270866 -0.44045600592739553 0.9848408950032903 0.5785294070458105 0.08574897658558672 -1.0526870703924978 -0.3955248514443781 -0.15376154468910386 -1.3985673419298625 0.6025521497560119 1.050085823280722 0.5123698414319025 -0.7151943709891813 0.5638199436380069 -0.02074032754177041 0.07749087352644257 0.660193041246981 0.9278798558677035 0.21791909080789584 -1.0816844863676822 -0.016987827676501754 -1.3418975771125035 -0.39655875592584705 0.1660113415299192 -1.5080455615644144 -0.5503594355059709
-0.3144079462982773 0.596804254150028 0.6665534319992489 -1.0731300004215474 -0.7781992423495675 0.006379955948973892 1.842631385838676 0.46700124158724515 -1.130286422629986 -0.2936122547431258 1.1015143939574727 0.5317037840358207 1.3211359792157997 -1.0867224636236745 -1.4897393921365523 0.8472103183965966 0.2642760330695957 -0.29624627677781007 0.29759898242014676 -0.12015283137002758 -1.092331730975641 0.00712115394922358 -0.3943651293011763 -0.21672706988674234 1.4351891928056792 -0.09911389131081844 -0.6758390092083315 -1.171108962151455 -0.23873730369769292 -0.18954470691568998 0.7177742788398704 0.8954401848408259 0.583406811309005 -1.2471751300295866 0.12486740160247306 -0.17871286047345625 1.2754072393173037 1.7552876397244737 -0.1186573309912024 0.63990886006166 -1.1716746978955417 -0.002599504578971734 -0.29378696600747256 0.6847496626532732 1.7028565523129071 0.29254404567954934 -2.340914851050899 -0.19344389427837266 -0.41518070411558117 0.8666958930620342 -0.08935384479337666 0.550053376869323 0.3023405031719804 -1.089697266573093
1.3130645304563369 -0.9876789396492627 0.016725756542251113 1.0895222630972596 0.930803256059916 0.16076509085382928 1.6206426512156766 -0.647589957043166 -1.1818192779748908 0.1554952829336816 -0.4549678923460825 -0.7988732623684903 -0.41386479052287295 -0.30801085462838634 -0.9583157413474301 -0.3831807718451745 1.49628298437531 0.035031750575796605 -1.1936613458394725 -1.7189711450212588 -0.30103586524824266 -0.5871500202438423 0.9205041661148328 0.20236682689588992 0.745599480451987 1.0805718545181853 -0.616385588732819 1.043020475839759 -0.07872851526265617 -0.45533119242868164 -0.7623507916425688 0.30782283561987167 -1.2659670981600364 1.6675002885447368 -0.963346704805762 0.07501426183577536 -0.25927711237252976 -0.6333599511766315 -1.3680791414280544 1.4205358626495852 0.10320651144854381 1.4412659372864751 1.5238350562657208 -1.0928152490195802 0.1668323623663054 -0.28998290469402505 -0.038740458432085456 0.860869530670225 0.19922599211092157 -0.5206255911759072 -0.817729800976915 -0.20121200794910987 -0.6701833387086662 -0.5052287988452989
0.18172413149986388 -0.27528945283654704 -0.8329816278043549 0.2482582868289253 0.4133119009355708 -1.4499910452135323 0.6642258020795633 0.4855418092036292 0.4801481504282044 0.9917071925180354 -0.07845680198193167 -0.3227878900042411 1.1649418497363366 1.4092197882615802 1.4191529850630897 0.343250090250566 -1.1825285489403297 1.000481095223513 0.7518560347702712 0.4444150771724032 1.2195539954401924 0.8891297554150114 0.99598011634176 -0.3910562660700872 0.03455342327057481 0.8457536462366051 0.41519324139782526 1.5051120650954555 -0.4617188627712427 0.39140018774280283 -0.1320422365676518 0.3532569781831505 0.9099060161824017 0.6176978762883474 -1.3707160479996023 0.7126061799971836 0.9542862486404349 -1.158732117856794 -1.3596687782985908 -0.5932698894793457 -0.8485522318671331 -0.14165549459844923 -0.07114460688108715 0.7794166723643645 -1.0595925239653168 0.0850843219324508 0.9872613807442208 -0.7588346084675957 -0.06648315989145537 -0.26420421937194427 0.539937831298001 1.2254436310723402 -0.3565139946638498 -0.18532668445656825
-0.5697301511260682 0.9804665623390241 0.43683189342873346 0.7267504258074597 -0.12343074751839522 0.8844604874193829 1.1818955003818101 -1.729581061202505 -1.789826493491042 -0.1809067033807789 -0.043718766736548176 0.2799636470496872 -0.4014085758055506 0.5039806452324826 -1.1237236936739405 0.29315968634054757 -1.1285795765734143 -0.9219505287001057 -0.223588595768547 0.2960790658882325 0.196445140341594 -1.3426276740522924 0.4780769018250475 -0.21494736629660238 2.002114613238248 1.1645667758180132 1.2613102420466824 0.14432805074396143 0.7655286685593516 0.20228863002193864 -0.375166213375398 -0.5401884073548155 0.2735582535288613 0.4468045030772461 -0.18357980884138742 0.18195201276780926 -0.8454632473912258 -0.6473854534466151 0.6765304085677433 -0.3518173330106627 -0.5230556673553128 0.5934476167523854 -0.9045261631753627 -0.04160215016234009 -0.0462905040534618 -0.9304579886565214 -0.6877858895192388 -0.07096284497063615 0.13694330282925082 -0.9192757354722352 1.5125708502034414 -0.48886817193259247 1.2693433249472867 -1.0559952225536806
-1.6286542854082104 -1.5614452856355046 -0.9552604868040464 -0.6260109314456349 0.05275212960663522 -0.3524962386654757 0.39449249446262596 0.9258976240255894 -0.9596816615474537 -0.5295436486585834 0.2705711703987815 0.764663798490407 -0.3698765957826644 -0.912905392601629 -0.6556533292627883 -0.1335328073985506 0.6027839486804573 0.5376728392440988 -0.1549441682420824 0.012665174468861506 0.7475890479720236 -0.39009567335551537 0.6148463779684537 -0.1377860611403378 1.7820705234789684 -0.4779466998750714 -0.7058399793637756 -0.45835397350748547 0.5703198111539923 0.5620532341493625 -0.10623740800277826 1.0595788042824927 1.1063248385040854 -0.8392940290916251 -0.9981395077999564 -1.1558556945842273 0.026447364251798777 -1.0556967123080838 -1.5398355352962838 0.03521198101560852 0.4062187798086208 1.0059875887525491 -0.8980214890843399 0.7973457884322634 0.47796986072565056 -1.030129390815207 0.19217567301271116 0.2824216786226952 0.03298199923164996 -0.07701012405285129 -1.5644656157674013 0.6563546613178022 -0.6300197282336069 -0.030297807204696714
0.5712272994140014 0.6730834535422647 -0.10478430219995266 1.6613599130918315 0.8309476447345814 -0.5867152205827179 0.8601594956371532 -0.28044441254465163 0.8209024550464965 -0.6000393656666709 0.8899260073944234 1.1566344585763733 0.381769141645778 -0.5074539973867502 0.3485690237591679 -0.46841900079860666 -0.8577564802158533 -0.07278953940427818 0.9563380174364046 -0.7783766004597708 -0.10755477801621866 -0.20350284988401562 1.1531439552703446 0.42891130626278273 -0.45018877109111577 0.1351010025218889 0.43932855795327097 -0.5391852386433305 0.01361775321756209 0.3128844282173696 0.3703263178667222 -0.3901792701458637 -0.6228804617678267 0.5164754279069963 0.06842419123931215 -1.2534386098796828 -0.873780146571886 -0.6821208608149762 0.37709387954075885 0.44172103057912077 0.9214788636339069 0.4068604970672091 0.5971345079939305 -1.3833439658780469 0.2295252160426144 -0.31925957706745567 -0.108008384894691 -0.5459057409356792 0.12334185404917108 -0.2219996172874582 0.2533551345345314 0.7009888896953154 -0.8158089844747349 1.0326088252413843
0.7994824719106364 1.264671432296358 -0.1098353999671372 0.7490868011123255 -1.215971642663397 0.17918272208211167 -0.6065576184918718 -0.250870618531686 1.440030363520653 1.5746288697195445 -0.314891757393587 1.0068312880588641 1.6745315047596772 0.8008038051265889 1.352029937116971 -0.7111567310953633 0.2562255009528567 -0.7158407678656389 -0.11432742850269939 -0.21265013569562258 0.09448237930155906 -0.04207577158363224 -0.9589494993598027 0.46677732529570015 -0.865492062011723 1.0805498222978955 0.049048505464594994 0.8470117638085273 1.325933814410571 -1.1615690861449468 -0.04344291486715168 0.6989004830888063 -0.19778822504284005 0.21205202733493295 0.6221303317060258 0.5850790060629425 -1.5503377989375347 -0.6975459830684794 0.6790939961808112 -0.327265307887509 0.11111244741599902 0.59364223394724 -0.8109621062929924 -0.723970517184243 0.33252358301814977 -0.41264423997906796 0.7838673896867121 -1.9814546699268127 -0.6296960121438557 0.5406973424756965 0.17454634244376815 -0.3600492577160483 1.8030863653758775 0.8919645316982555
0.7880464776147968 -0.82297697151716 0.4152955204433 -0.4075203237265564 0.25376206858365524 -0.718875572507516 -0.48846676648981335 1.1228871296755711 1.8427730131112734 1.8788575707666249 0.035329853096990216 -0.3566241975946582 0.20473574111441162 0.4765239919126109 -0.5770724303033508 0.2237890004874562 -1.6055458694871094 -0.9205152371134655 -0.16124038123555706 0.29768475182164583 0.525248409914496 -0.9525249504216211 0.7333394789324275 -0.6433792426364598 -1.4140196205521238 -0.37920961773498496 -0.15688175124694143 -0.2587288197334877 -0.3652972680791145 0.7524965346334166 0.43248281471957173 -0.506663910258096 -0.33555309224959834 0.6953918689427219 1.825523639850379 1.5693968013307769 -0.9542641506797627 1.4138831191975183 -0.05357295805598156 1.263824820548686 0.7049599678005034 0.9137260876429705 0.7265543301615285 0.052330159288546174 -1.604630968215385 -0.769776979903182 -0.49302192119650834 -0.25451012605651163 1.319607648583069 0.06773203409154571 -1.1346627767206658 -0.14189748407570302 0.3552040439709504 1.2745436223551758
-0.24922149972448615 -1.1445921419764955 -0.08416263180110217 1.050014725064017 -1.6603041805250405 -0.172732745861562 -0.7163130581596155 0.1572385339290961 1.1137945871763395 0.07887240253369154 -0.20070723640158838 0.1855733415269777 0.9817959319724519 0.7881916833482545 -0.06028848672010728 -0.1426650670958438 1.2926840910730961 1.1099079397198235 -0.43860609678330587 -0.727075880521325 -1.3336454323339169 0.1652055342957885 -0.3484140867141072 0.7196233123909989 -1.562495320653003 1.0916299918302017 -0.4924004709357873 -0.009910130301708175 0.3029833621527681 0.11761717903918789 -0.5873714911077552 1.0774907195305696 -0.2838192517591625 0.03693225790101834 -0.23261484473869393 -0.05767409501334331 -0.6432625565704566 0.7220924264289732 -0.6581279202877942 0.025046062869160834 0.1333146476104845 1.5574464037073406 -1.0408740907302396 0.5907225219024936 0.07012589239305267 -0.3892862348964134 -0.6221390710385536 -0.38094152003397996 -1.23955127589999 0.41257147072122186 0.08987126063322198 -0.2957183416537444 -0.1679679659509578 -1.1829340932266101
-0.8418948974886016 0.5290960746940327 1.1407449240045762 -0.5164363809086299 0.053917364518797695 -1.1688563446014213 0.6428051018824537 0.7902673066887065 1.3621026748805396 1.5861362020584555 -0.20735681492397595 -0.7077091632019621 0.3296288692319513 1.2311538330872223 1.9837775191563365 0.6610368205557453 -0.3378356050669142 0.45717018460959047 -0.12291148083633341 0.7718616986031165 -1.2266938258615565 -1.4730107396060075 -1.394788353959139 0.21646506668383964 -1.4490134739688876 0.7127898609452137 1.4107184091486213 0.25771749039798847 1.428238670625126 -0.0291485003017799 0.6849945969657456 -0.35284776327291284 0.5618912140826353 -2.1594550097206215 0.3402904560440435 0.583984966006942 -0.5786626443737987 0.7115408488255741 0.9532078217118907 0.07597307268104836 0.5300962655694996 1.254493981899411 -0.4637267219261744 0.968071615105427 -0.23939847076867798 -0.12314012233696914 -0.33962692405052314 0.19577115705626125 0.15656654945757525 -1.3234618697192766 -0.37167523549667536 1.7418056536225381 -0.22915801769703165 0.1982874934588016
0.13203092418938572 0.44361178066345397 -0.014926749232525682 0.8525847336294665 -1.3419459016731534 -0.2556633931626423 0.35779278413357635 0.11137972647324768 0.10243737810566994 -0.18912470694861555 0.07393015222563054 0.6086738858608459 0.1789368975296151 -0.4456074641749663 -1.3981730150922687 1.2379687620252366 -0.46192832717092275 0.6314956147226264 0.7602417258816307 0.22036673689542818 0.9224806949008941 -0.19393169262748378 -1.0573804035521999 1.4323657306499076 0.26006293489129234 1.067890222046044 0.18290984890449097 0.3105576329680905 1.5918295577442683 0.7920167424471284 -0.5246182310642085 -0.8439423969757037 -0.0993622288374641 -0.26266236945425886 0.02569099415286874 -1.5507948908284095 0.1850988648530163 -0.9234190258296703 -0.2579404590412847 -0.5235154042766308 0.34077893173816953 0.8446385847651063 -1.3543375200735701 -0.25635506509181344 -0.20191356746597205 1.0088747220790373 -0.9456950362410417 -0.9669994752488846 -0.942827187321156 1.0071321591892257 0.30836307736944274 0.8821149160271647 0.7336269796424291 -0.5386004834687519
-0.08412359161179644 1.6253468492676568 -0.24258970469753088 -0.49923813729983435 2.3120930800642885 0.1552461068140944 -0.04368760458609494 -0.046220966334043934 -0.04029527624685342 -0.4084741507717838 -1.021612173450793 0.7442492499660718 0.666917303907116 -0.12196273547912012 0.9181124087210814 -0.3533287490664767 0.01621261807120722 0.13530462338328925 0.7077300925916397 -0.4460714820782886 -0.15147410013354218 0.26102139921951684 0.14836645555015554 0.6516924665389737 0.6246202740871696 -0.2512440339728357 -1.394406685071971 0.6232633043158025 0.06445521911709629 -0.6768544437128234 0.8192574715302936 -0.9006334245500915 -0.9087523816436106 0.9244849767535657 0.053631783948086986 -0.36320005390381255 -0.821052409102542 0.036764044661372564 0.5309933972385765 0.9662826300706077 -0.492393669264533 -1.3413855891406012 1.3266469638657459 1.9077505068141807 -0.9378171008370746 -1.275917474587395 0.38011163912410606 -0.7374456620769994 -0.8540423427042991 -1.3597592105723675 -0.9379194792162744 0.80905574944104 0.7696967032828333 -0.8677204896075414
-0.9488233697871915 -0.28545405649199856 0.6691910418487631 -0.41382963630581504 -1.3405657513563076 -0.6409318986885058 -0.7690232733451758 -1.1632573323243791 -1.3751580419778722 -1.4831489441466013 0.9033292657486871 1.5170468687702232 -0.21185969073719962 -0.36400642768125807 -0.5652247126732943 1.4130836491597376 -0.41805573955825287 0.581308388132485 0.7953010974948924 0.010712695919934678 0.12045183427362727 1.4542462995735081 -0.6741346856786853 0.36014806937004296 -0.2076040864119974 0.7107161131512033 0.3373620526018043 -0.2977523106052996 -0.09317811500537887 -1.750644185906848 -0.6321277281932176 -0.31300252407783047 -0.523661467930185 0.3548263214697079 -0.6685506827023947 0.21726979116461181 -0.3186285456111859 0.1766906965365418 -0.22041883849965788 1.248936318141664 0.8314835145583831 -0.4659495982208607 0.655998556873034 0.6783705293791162 1.6715833533511901 -0.0866456507805039 0.06179392565875541 0.5512909317057553 0.5742402288686467 -1.6717462981493896 -0.4541686487864224 -0.14813897253726477 -0.8871677760864798 -1.0619906924409388
-0.9468615101717249 0.9568594401859623 0.31928924228460787 0.6206525549941748 0.2335313239787669 0.28232175060414605 1.7244517627941047 -0.7731237524600384 1.0736788665309471 0.7159068092515073 -0.8771023144982876 0.35936909963388786 -0.42195343160523613 -0.8114140366297664 0.3431082092848388 1.1314219847354476 -1.1073662961056185 0.7946778327708144 -1.8986424912757498 0.44616595542930926 0.908193040917045 0.2771329230556299 0.2456357895211902 -0.8870044180258929 0.5463274634997182 -0.7311174598516047 -0.012523769962582976 1.9734661244232465 0.42952885928694334 1.1924565179118887 -1.2998087995817655 0.48421918610639714 -0.2181158063583597 -0.0329499808137621 1.7086540087995392 0.4057920451559658 -0.30715425434597327 -0.018247804248386235 -0.358537255082593 -0.7446511204048114 0.8322377594335824 -0.10037356801158659 -0.6647241440998308 -0.7716569891706011 0.15591904845218063 1.2588592404461811 -0.6803905468008185 0.1265633556578445 -0.8614286131416616 -1.0013633653943144 -0.7915749769591742 0.5930170936020547 0.44980354640572423 0.5247352271558384
-0.050342545474014455 -1.221530801425044 -0.5369758473096173 -1.6118028153985575 -0.3772540602760738 -0.15400980561705907 0.04295272048797305 -1.1427241540384614 0.739400220846105 1.0005264809490908 0.6360789023248541 0.7959818666080127 1.4941534895097315 -0.9091413967095258 -0.03440055103840761 0.4610386329572643 -0.5209023473213 -0.9592599784347686 -0.04315952321518307 -0.3697888147546747 1.1974171411139887 0.1336429547493641 -0.5276162417646968 0.8982310461400598 -0.43649035683161364 1.2382189066824587 -0.8692994907630587 -0.7069770977781031 -0.30087406681239587 0.26590690491226937 1.0492002553574746 -0.9823642415385092 -0.4684226545074613 -1.2798641627438059 1.034564021020633 0.6016204846435054 0.15976706869470553 0.6885596352962186 0.46785742396815594 0.1404019875908349 1.1158467018542373 1.2927307857246688 0.929246267461384 0.6543935555315041 -0.5642011974242105 1.7214878524117785 -1.157987078416578 -0.10853278414077894 -0.5087942754585351 0.17010989578910224 -0.5340774057853301 -2.2066328931811388 0.8929348409902937 1.7926377029013805
1.0527933787231207 -0.5631955595874161 -0.6526485436092355 0.45696667823302234 -0.7267048514537122 -0.7849801322771692 -0.8344063051592869 0.4702295442707816 0.2464846189647224 -1.3381599372942092 -1.041044657123507 -0.9512621175279686 0.1606168835122131 -0.432058630044077 0.23712007841021127 -1.5063070181540748 -0.600502109867499 0.46776279190694825 -0.11841452809299685 0.7062540622368545 -0.6451383194090886 0.21593904080382537 -0.7760293999958623 0.18108625791288208 1.1582955710912795 0.8764534292052876 0.5529484561171786 0.3503935780990055 0.1911628443180397 0.24456115113255056 -0.4106393487728511 -0.5818449818118447 0.2382202823531271 0.04341276697048285 -0.89360364011532 0.1023155928208691 -0.7016238330233813 0.16550412689882726 -0.5709021141041235 1.376348578179768 1.2249755158270417 2.0179326556587087 -0.6664257625321096 -0.4795996328848969 -0.8328302767987945 0.8527348737246454 -1.164387640819097 0.10283799900881802 1.4890903146604746 0.29139023356639354 0.12145292663082563 0.5382662507356717 -0.37613827227861313 -0.782021327460614
1.0819951250884814 -0.5527024384639132 1.015713548225922 0.48377728115626517 0.40127609960087346 -0.5791365160481554 1.012641535031931 -1.518350556803186 -0.46703811826167163 0.2850027136395997 1.6858313839687287 -0.6405266919212952 0.7251686365511795 0.20161123837039807 -0.06661214155243583 -0.9475023402099573 -0.7864145584559872 -0.8557570937708036 1.173284303098742 0.8393395047381788 -0.7487695643845786 -0.5285439268538838 0.04838860882669088 0.21971838964006463 -0.14983464792166723 1.4823857589767224 0.23627518242474116 0.24243696531877962 0.42765631767053947 0.3265400933632375 -1.50224558466474 0.8387850531730277 0.32721902141978226 -1.624345523912461 1.596366173805401 0.547660627908545 0.13906425359534336 1.0907487822720106 1.0725789163039958 -0.6691545057418887 -0.3844430740051906 1.6784785927716959 0.19518600441957373 0.45015451336305407 -0.3216361252786265 -0.8697141701348005 0.21600134883518213 0.1532961430279844 1.0686864416066333 0.7121522942670387 -0.9521871247598566 0.5887975632904395 -0.025164469547731827 -0.796713569514601
0.8849569534818125 -0.8536505774171692 -1.1825339346857064 0.8563793244464868 1.2318136771057187 -0.8784467076636296 -0.9663527427223708 -0.7685947987773463 0.4382935192168288 -0.7159627264773513 -0.3342804239245239 -1.1798714548480462 -0.4240281982516604 -0.9059269220933033 0.0690714299987753 -0.30439683288269914 0.4088040537678226 0.2684168275322253 0.8186556361414494 1.159198484782156 0.24581788733872917 -1.687952946363978 -1.0900305041610685 -1.196488289129943 -0.364443246262882 -0.4085440990320212 0.6458022981980136 1.1677729704675224 0.1801812283000223 -0.6277100513302987 -0.7775914509235899 1.3443211256771395 -0.7611512154488917 0.6579636192270789 -1.1916541031793335 -0.6209583057441264 -0.7212886231080615 0.24789685969933034 -0.518595137977071 0.24672092795982192 0.7910119465767096 2.0917238287113102 0.3973350564945701 0.3360272159554961 1.043030321650077 -0.5389099781283864 -0.35600133669078055 0.8132498114718887 0.7199217844214454 0.34374730610995796 -0.17774782993939842 -0.03315605400296989 0.1737274895995392 1.1192499756713925
0.22786855110242327 -0.946673441150795 -0.76876464860133 -0.33453050261278156 -0.9064151213896898 0.6466166001273466 0.578832804679658 -0.07652242062926407 -0.7334106403268728 0.6155299749475158 -0.5448205918836229 -1.21607497613826 -0.23609328016983838 -0.524922071273672 -1.3407034690353459 -0.14197103089900942 -1.2963609100889508 -0.5672590157643316 0.8537877643186251 -1.0258337459646913 0.5396027714989156 -0.6882141030434522 -0.16495356096608838 0.021089667702878456 0.2725953953228325 0.5290964351280902 0.5993981182579593 1.0598452296195235 0.2372151141157368 -0.8562712821402633 -0.6742477053019951 0.7591027062453191 -0.9677589951639128 -0.6985155384320763 1.4687122539660766 0.08444671629117612 -0.3858493113610936 0.4819253044084652 0.5328539968835033 -1.12043300038237 0.5260632386602226 0.7822298273003959 -0.17068096812922867 -0.39041620908531116 -1.211010907642919 0.42117403158465616 0.1042156224094673 0.7029665057354756 -0.14525793262743325 1.0166149842207721 0.06180987544654737 1.2408308498777696 0.7571053529117566 -0.62322396496998
-1.5208004325036546 -1.043312431532906 -1.1917297286539141 0.30393331906363746 0.8549704045566742 -0.7526683713528342 0.9367977740927409 -0.8604908521056054 0.5284229129735865 -1.2716910937423087 0.17045986457351503 0.10865493618461203 -2.1270228848567005 -0.595537360674335 -0.3159513474763086 -0.5039002504020262 -0.23278231448129427 0.023816292472982503 0.28731122820421845 -0.6809025822086281 0.8783529474714439 0.8737202075543571 -0.20062257571495734 0.8982017879927129 0.8742448316328412 0.31895510614168954 -0.873773466366038 -1.1061231238717197 0.3158149445719741 -0.14290812143116582 -0.30225435539702056 -1.5829441192013491 -0.9426835268582655 0.9094891033074366 0.534697484848355 0.6101563409356747 -0.7359559743615369 1.2321379920812008 0.6671747158158392 -1.361711609085205 -1.0588410994206439 0.595730574389865 -0.4711085466955944 -0.2900860118000736 0.04702493833898075 0.7887600558631258 -0.4401234085060017 -0.02853602081027068 0.6329011693097388 -0.0337527006668053 -0.6280012075598294 0.7249398106801188 0.6190611971067618 0.5168569303721704
