[[ 1.08033374]
 [-0.10693164]
 [ 0.96301365]
 [-0.78596391]
 [ 0.56423955]
 [ 0.75017253]
 [-0.73293125]
 [-0.2282422 ]
 [-0.59286746]
 [ 0.0426635 ]
 [ 0.66732778]
 [-0.47995752]
 [-0.37714155]
 [ 0.47394871]
 [-0.27814324]
 [-0.60438992]
 [-0.23674405]
 [-0.5171128 ]
 [ 0.63091684]
 [ 1.28168992]
 [-0.88637989]
 [ 0.16195938]
 [ 0.32599274]
 [-1.23548563]
 [-0.22771802]
 [ 1.03128315]
 [ 0.55763129]
 [ 0.0508789 ]
 [ 0.78884071]
 [-0.22676395]
 [-0.18137454]
 [-1.3393386 ]
 [-0.50675741]
 [ 0.1545652 ]
 [ 1.22418741]
 [-0.8319491 ]
 [-1.41331665]
 [-0.71410604]
 [-0.23921778]
 [ 1.03952432]
 [ 1.28586033]
 [ 0.58712116]
 [-0.64222517]
 [ 0.64869675]
 [ 0.06553326]
 [-0.97735756]
 [ 0.30051881]
 [ 1.06303471]
 [-0.30991859]
 [-0.44593241]
 [ 0.20751003]
 [ 0.63214696]
 [ 0.75287549]
 [ 1.29723814]]
[[-0.04543281]
 [ 1.80573369]
 [-0.07461375]
 [ 0.55947514]
 [ 0.54966752]
 [-0.26976271]
 [ 0.8213106 ]
 [ 0.95522553]
 [-0.58297323]
 [ 0.89912938]
 [ 1.67449552]
 [-1.23090066]
 [ 0.66497639]
 [-0.40759718]
 [-0.81673189]
 [ 0.86344464]
 [ 0.05569855]
 [-1.01293739]
 [-1.0378557 ]
 [-1.02101293]
 [ 0.97180217]
 [ 0.76484535]
 [-0.89831214]
 [-0.26861346]
 [-0.70300341]
 [-0.59041906]
 [ 1.06160065]
 [ 0.8510693 ]
 [ 0.84374487]
 [ 1.42589578]
 [-1.72976936]
 [-1.18786053]
 [ 0.32671016]
 [ 0.5931    ]
 [-0.72159653]
 [ 0.12615706]
 [ 0.07064955]
 [-1.44352759]
 [-0.39777611]
 [-1.03000529]
 [ 0.07275681]
 [ 0.51295071]
 [-0.38249981]
 [ 0.10396355]
 [-1.00339172]
 [-0.22261368]
 [ 0.0530812 ]
 [ 0.43548462]
 [ 0.88353447]
 [ 0.51469325]
 [-0.9558469 ]
 [-0.19347909]
 [ 0.47596348]
 [-0.36331268]]
[[-0.30155668]
 [-0.77103131]
 [-0.43868553]
 [ 0.78511348]
 [ 0.03875464]
 [ 1.43300025]
 [-0.21548408]
 [-0.61550349]
 [-0.88138056]
 [ 1.15640573]
 [ 0.00252213]
 [ 0.72058824]
 [-0.82725863]
 [ 0.82591478]
 [-0.60040997]
 [-0.02002302]
 [ 0.49079356]
 [-0.48224963]
 [-0.42297857]
 [-0.56313107]
 [-0.26311453]
 [-0.12544097]
 [ 1.15303573]
 [ 0.09849055]
 [ 0.99067489]
 [ 0.63690665]
 [ 0.04559576]]
