-0.8569894434068774 1.1904622225465178 0.5722324515409285 -0.25712241255653695 0.24576593164242394 0.18860173005076353 1.3102715940601413 -0.8000471408592473 -0.27256566962051687 -0.056957932053480376 -0.9589421475969007 -0.5567312406336187 0.1955556157466064 -0.43774646793336613 -1.7603848939313593 0.012971788802225381 1.588516040574108 1.093069878075194 -0.22611417879474155 -0.8800693923576399 0.0659494591751062 1.641826823377428 0.29877941955469073 -0.5899716231822117 0.37856750371061665 0.21595349522523072 -0.19766256227128243
0.5630903332095613 0.12700822140265045 -0.5513854891388374 0.3162433925830057 0.5669588153136849 0.021317710600831985 1.1386815902063487 1.1039758101398538 -0.640650779555906 -0.29540347953146273 0.20965731479226246 0.5895718972371641 -1.1839290471881756 0.4215388879018844 1.3267347550262873 -0.43671200993985065 0.7304959931569119 -1.1587609075631042 -1.411902072969735 0.4724056075006736 0.30120884436269474 0.8686061407690377 -0.06792076113333251 0.027854783440613262 0.5068754976776854 -0.9804669699798427 0.6825680364929807
-0.541050144879788 -0.9783944778432385 -0.7716609854749856 1.3080617153031278 -0.3311061796750893 -1.117678704448364 0.4268207946550366 0.9583357002302966 -0.17807233714684478 0.04461777175280457 0.26606726946053927 1.1043026623413028 -1.0137039099060619 0.2486247492253833 0.8091935669868988 -0.38251185153322925 -0.38494623208945594 -0.6296188822244893 -0.5554575706472578 -0.21126613393909072 0.3262472239629906 -0.5323136353552758 -0.6337292823131991 -1.009324327339264 0.521831832714309 -0.3704074761855584 -1.0117278466726929
0.07960514463120161 1.8129216106544284 0.00962311525085241 0.8919625427838507 -0.058513570543734295 1.41701234638569 -0.5889692404951248 -0.3444076385970385 0.011313550439902231 1.0869779848420154 -0.3079658807202023 1.1404795725553838 -0.26625280543003876 0.21669338880715922 -2.247441829139454 0.25075976104783876 0.33878012576120337 -0.33839604135505613 0.6832359285694063 0.828554234265621 0.11408486262117756 0.5575639311946012 0.3474406419088124 0.22921393617707925 1.6826294677401101 1.5005235798325085 0.991157834563603
0.6813077455729548 0.15323634176981532 0.5676450729081262 -0.7015585058928769 -0.054431018789407815 0.12402486226991544 0.6492572567529652 0.3421249283013054 0.031859062017315254 0.7364547326022913 -0.4408931082112527 -0.4331183039025791 0.20286366941252454 0.34554143368825296 0.02300168833897448 -0.06732432318055626 -0.7664101761322286 0.8673933795067008 0.014017561637093057 -0.7942535891540368 0.14629568001950927 -1.2794099517946007 -0.6944530778253825 -0.23995149886075223 -0.5952138569004412 0.6491376532497577 -0.7173695655384803
-0.00029675961645697635 -0.42263292494967086 0.5655487037204734 0.643450064065439 1.6425695456739429 -0.05163643456912309 -0.6294031488822067 -0.3224248327528152 0.199323140635914 -1.8724986573678186 0.7116294375984329 -0.7966766393071623 -0.3239914103086324 -0.1322600193254746 0.6039300076801941 -0.07430675004535597 0.3499655837640386 0.37425389890717176 0.26225289310028344 0.9215802210147623 0.6856786110318739 -0.7055759764683899 1.1175016697355753 -0.5541014519982835 -0.2995024291914188 -0.14669716467102512 -0.8064093409364093
0.8846463213319127 0.9533253786860036 0.7794558046017422 0.008416064334467344 -0.17606263049695464 -0.447455444474503 0.8311203146172583 0.6306879696828178 0.6096343838382754 0.5243120392640512 -0.7988056061759391 0.2476086380658578 0.3139207875260595 0.06720324313131032 -0.23387499788700727 1.1957363851743439 -0.48781557364086303 0.8456135112935594 -0.17246004222538086 0.3153186527011695 -0.5414795205536317 0.2898549390577361 -1.3168465073201263 -0.8922148084183585 1.4434905680510717 0.3925321334060695 1.0528903206059743
-1.283735348295078 0.4445483696667314 0.6269476541416258 1.0056396663286962 0.894073082163583 2.205754400138688 -1.3663184551689276 0.9556656971941938 0.17505633638552615 -0.5118225507988319 -0.09428253902863609 1.649923514534243 0.6960586219143051 -0.1817403669295014 0.19493805360888883 -0.1283419442072613 -1.8320415235435006 -0.9443144205106391 -0.6581328341218904 0.44649673904195175 0.95246830490833 1.1823654670458146 -1.3195104519381504 -0.2936047875671438 -0.7730862452332359 -1.2033973474723845 0.3665456768394979
0.4888531659519937 0.4774607190412705 0.5119950829573954 -1.4952931747692637 1.4609602419029641 0.43425561670992213 -0.16923332564523513 0.599655012886957 -0.24124911356641293 -0.6376064873915394 -1.2740009797579053 -0.964503056332714 -0.8573070479829616 1.7702360202786434 -0.873298841233695 -0.6988809748385366 -0.52930979307297 -0.19940902938164162 -1.0267320309536223 1.098495893003811 1.3446569620200248 -0.7051452917749554 -0.19809215577332617 0.06571673003022183 0.03493198893874544 -0.6756138049306754 -0.4592524636934312
0.17935945503820094 1.008241102691523 -0.11135835560763002 -0.9553554583446557 0.2984471257111511 1.157274112622217 1.607212657926918 0.4431148193677855 0.6082357644531381 1.0968399862008225 0.8102558015526731 -0.429160399241575 0.14905717458935208 -1.000455192449107 -1.0650799498850232 -1.6632528104705304 -0.9085337472033077 1.0585590118191621 0.40335700052142776 -1.0090261508363643 -0.2405748794721302 0.9039300934875221 -1.1194583132293454 0.015625548191349647 2.0886509748061655 1.2168284999919712 -1.3872935179607921
0.013977430786219436 -0.08917601896606453 0.8453778134961196 0.9235665218249307 0.28095464856112906 0.7185240666493979 0.3837386958233705 -0.6467954682095962 -0.7293912473951667 -0.7213634021615356 0.21596465431124806 -0.04729390028493685 0.47138933855232734 0.7921158200490384 1.3876523756421029 1.3047243392252814 0.4054867684692429 -1.8315361210439214 0.3162153482700826 -0.7697082461351552 0.023564755983605024 -0.6385134887495179 -0.8645460134352867 0.891743062701049 -0.6846022680693057 -1.888836902445941 0.26811630507610074
-0.23186174613250693 -0.6304434543383558 0.9221248947184548 0.7080221747246322 -0.5761441332172534 -0.8864403622109382 1.275429865181914 -1.9576109054264887 -0.22114555164526783 0.7710232626890374 -0.35723158109500297 -0.04175197317404883 0.9625392373948951 0.5973283404497357 1.0265976041483338 -0.28819905128360385 -0.19471185050594564 -1.1071989048440232 -0.2686515302479474 -0.08663835394626773 -0.13531018480617102 0.6943234340861595 -0.09758480573187489 -0.035141073286095725 -0.32239450729283187 0.15424166060128958 1.073550004011515
0.6801602135251652 1.359526242894353 0.7320669147569072 0.575222526101183 -0.7657572199280027 -0.7212280073759573 0.07221330106945928 -1.0898784103219485 0.01500790980822514 0.5649888415866468 0.9424966400415071 0.7580134652207132 0.12283134983851701 -0.899693049206293 0.36836529766222875 0.04662507321759568 -0.7353242432746538 -1.341533813866655 -0.4342069583484453 0.33039205039305425 0.2754353585054338 0.9030381399941065 0.6177106552993679 0.2169870566337973 -0.33982316642703847 0.20428602964389025 -0.35805933031873166
-0.9473506913328227 1.1993819948731428 -1.6672786194672986 -1.1824529011210883 1.777921989763721 0.6702718435218316 0.39747528242087504 0.2837460022696194 0.7647406443642482 0.04984482647773736 1.5595326867407202 -0.8024082114828887 -0.4434064278557704 0.05043710076753194 0.4750539907119918 -0.6299911192414026 -1.1163028453808586 -0.9725491129493927 -0.8162613953722426 0.2841881249440021 -0.9033206450170768 -0.4352188361365069 -0.21770824828316787 -1.6877312654865195 0.8607878999663856 0.9105085624775555 1.078944628371295
1.2226443031658007 -1.2205878992177732 -0.9287000957159597 1.1361933025033069 0.2727473044821138 -0.7877938305579523 -1.0593271885543718 1.27602239290377 0.2100747745390168 -0.39064987588600003 0.13171744827446857 0.47180999459708356 -0.1615147593009552 1.6279493625095887 0.45148713842222493 0.2692987168449837 -0.7104097953662036 -0.8196096812772939 1.5199346455886524 0.716249445170243 0.1825590478210644 -0.5495891164863764 -0.05540965275945525 0.3965871190608547 -0.012130973397535938 0.5512210884835527 0.44955920647837005
-0.33636048492646803 -0.32019262879785015 0.2679017350099608 -1.522008779503429 -0.7487969179888895 -0.30319294711663053 -0.9902215354077271 0.2501169487412427 1.6421800415781869 0.9387231350721605 0.011948906205753673 0.7081267385307182 2.061429786550049 0.24000481929946366 0.02312390500268452 -0.35652706526364025 0.8837616940873563 0.649642914908009 0.8030853749950937 0.7555383131455709 -1.5822513882497224 -1.3893744343583865 -0.05817779972948339 -0.5622877621211495 -0.044581181123905134 -0.720209111351098 0.9517506072274302
0.6749927086252574 0.07174924711465303 0.19010920643070917 0.5330897854668875 0.8741289817394523 0.02962302788704918 -1.0158371224304992 0.42339021894902856 -0.49408791444456307 1.1433581273327165 -0.7845491431536612 0.8087772867317597 -0.19313955492936852 0.48319640417440235 0.7427349720907876 -0.9093862252938251 0.054118842441502724 -0.5913306713879178 -1.1962631690368066 -0.46613692004003376 0.7293204848117929 0.19146903225310458 -1.236439317886962 -0.9521849188267468 0.6509335307582165 -0.6386652169416862 0.3125148715629952
0.22209825968106384 -1.5515466642476934 0.8839386746861019 0.34124666675909615 0.48138011126611085 0.546888523265332 -1.691731612650769 0.5347433492828626 1.6599896035117898 0.07255325195571138 0.4117793251270689 -0.04876265135007851 0.6983045674978057 -1.564786206904959 -0.046420622718534144 0.04469263154637704 0.4140349031970003 0.8793047450444309 -0.5690139378591194 0.2981016587344093 -0.20927684724080448 -0.4255217735535784 0.3904010410268499 -0.3604618032232906 1.5924959574969753 0.04474465271780448 1.1554365840845768
1.0867843634245515 0.7961043148410099 -0.5086718581167597 1.5169099065340683 -0.17087407132313176 -0.5381809197309821 0.38192791680781113 -0.7103993765823032 0.8186690563160213 0.3891756178624263 -0.9385943183917727 0.6030996816277712 -0.43034939550499907 -0.5215447634525714 -0.5134379595324596 -0.0887116872335385 0.5258022294721936 -0.07203346303751446 -0.6513570524263255 1.1553599930959455 0.5074331517190891 0.8434921260549105 0.31307068670156707 -0.9367868971104701 -0.5043762240014995 -1.5534532873797193 0.6073441675267524
-0.6037622733462968 -0.7274962520431898 -1.0840434621548307 1.7826008387760608 0.20278146627313104 -0.9881147208164607 0.5870657961027415 0.14165211595225602 0.974431786103218 0.6632339610078681 1.1558140608731287 1.103988072905901 0.1363638598251184 0.16810592953276493 0.6597315804682948 -0.4498395922042267 -0.7401738051320348 -0.5486944515426007 -0.761044361715342 0.8822797474341311 0.41425799394247476 0.06572572068895138 0.166872882880715 -0.6310184634278935 0.9442610574386276 -0.4509624731721278 -0.09518785494700316
0.07903279219161996 -0.03454700243836545 1.080847118830479 1.5849073385954504 1.8707267069899252 -0.31390105609980323 0.026640979629235784 0.2815543591748898 -1.0685763520825926 0.20803147723549942 -0.27567934403192834 0.6477560846622032 0.07384793922311267 -1.4963395062524238 0.6824856554636574 -1.3290983535413803 -0.44474529040259 -1.0940264195193379 -0.36858956449641195 -0.41718333808913804 -1.4593893597066867 0.7266534049468972 0.46752612133162097 0.3406299698340735 -0.4999456323511411 0.7082644753972152 -0.5784124939755673
-1.0764179385274792 -0.416969584328871 -1.314562847608168 -0.6275142587447953 1.1192209610237678 0.3361739010793251 -1.0705409879593726 0.33017303321363756 0.5842446929221627 0.9983579188508523 -0.5309510492212204 -1.120448880494549 -0.7593224839278799 -1.177474478887973 0.1303307243107606 1.0800455085351077 1.0587487820628265 -0.7812570234480261 0.7426067208158516 -0.11971685036124718 1.3242823973263207 -0.013470188321859311 0.2125003728167138 -0.7199677305805289 0.9604040993575598 0.4292481161635163 -0.6102405587348688
0.1588288805906613 1.0699743426181156 0.1171843663309004 1.011281218000014 0.2376916067777498 0.637949421765595 0.3751930630586072 1.26753585180029 -0.632847874638597 -0.5946606092492577 1.8517736067911779 -0.19514151446341033 1.3502441117641628 -0.9530125953715101 0.8100073250330077 -0.9395632123342974 -0.4837360782013588 -0.6777726016439556 -0.3749298566353911 -0.017791498460504374 0.799944711773899 1.5860517627103854 -1.4825439879103037 0.7464919555193812 -0.6809754020717305 -0.17569319296913233 0.03722868336131502
0.12561769155700298 0.3115844250185271 0.7890317045125685 -0.33495710218301816 -0.2553604380912427 -0.27791813071657323 0.5055644827140692 -0.7397962201563174 -0.1694130917596129 1.1954886485656864 1.5977350142263727 -0.40753168930105116 -0.7198532457026984 0.8274656821140287 -0.4186251766398276 -0.1983588227518115 1.2335860809546515 0.7648611348321388 -0.05894785445524359 0.48008027851421553 -0.24385829202356346 0.4352968337284335 0.49857144145041604 1.6570393023733945 -0.06673858402848559 0.9626424040271526 -0.409714981263966
0.30327394655660783 1.4237115865154917 -0.6061183520958054 -0.8680084697271008 0.8684052125715377 0.6571216619658995 -0.9738556574971033 0.9709344669599398 1.2010801074688748 0.6812211315414398 0.49580492729515113 1.1342647940170836 0.12621371256894642 0.44036347016862915 -0.2388705555789688 0.6480066720763029 -0.7405399743767802 -0.08084153310164188 0.1539038741735489 -0.9318798147347509 0.02059404390219266 -0.17594330867707103 0.1322776019222795 -0.8969337970045393 0.43410141930424034 -0.7205859378467568 0.6792728795626175
-0.24478220683024654 0.6171852367222745 0.14381657896629474 -0.9664097529911627 -0.29458643774602994 -0.5018357461199536 0.16720700401875882 0.17971535874125083 -0.5074159300725465 -0.9119779577049181 -0.6285227372693768 1.0294299305911254 0.3983172837506876 1.2803424254445306 -0.21840537137378457 -0.21972110504274056 -1.238131439217617 -1.0798937656500427 0.31767317566553943 -1.1439194519167883 0.5679619193500192 -0.9497721358596432 -1.404843073804296 -0.8277878084897751 0.20682779798897816 1.5756431724107942 -0.06014549726418217
-0.9292577868197738 0.16230999415413166 -0.2645750951857673 0.562122832015119 0.8559673283468759 0.2494226771208342 -1.3476412308292511 1.2619195943630235 0.937788732393068 -0.49984559947354473 0.07498636778655088 1.0981227561398348 0.11837857702671584 0.04284718640922708 0.515403916687797 0.03463490253105922 0.13003988001368938 0.19663175962476198 -0.3310855887318904 -1.0827066565544596 -0.13708345300293062 0.2185832429640397 -0.7318887085260808 0.5170508418360447 -0.23255958195928733 0.8995661827192607 -0.6790455019797408
-0.7433514451456928 -0.036809583238682886 -0.8011491219480107 -0.6264792796688947 -0.2791708512170111 -0.24419811904529765 0.48220163438146363 1.160954648930855 -0.9745140954472488 0.44596434945620944 -0.4781234758605857 -1.5396631572763166 -0.5530938854209093 1.134980680182219 0.6612275799671719 -0.22696345536689388 -0.8044472449057103 -1.0095345769674138 -0.6651766794113719 -0.6721894899950892 -0.037871158304944696 1.5522387499471892 -0.8742046019652718 0.02145948648412005 0.13593870915252637 0.7895355711648611 1.1981407054395845
0.7018035636073274 -0.6211475104109012 0.4735283604751119 -0.45465594784221863 0.2701237468064492 -0.3408425727735624 0.316477845660243 -0.31751961664203565 0.3483122277682465 0.07714930584785706 -0.9359194332398979 1.0944664669768551 0.43528729988531084 0.22514221772111137 -0.2043423097913708 -1.1051724673095915 -1.4617602122605726 -0.1780850627989624 0.958082170306324 0.33867102918584086 0.23668436776105828 0.44407365316068165 0.03713077249925417 -0.49654201852634405 -0.17496075978806797 0.43966713981073613 0.6861048091023436
0.853885734102487 1.3498746006606448 -0.3026505028188101 0.16330370029153696 0.14813901875888535 1.1598064683275147 1.1678345260504477 -0.4174284962119269 -1.1654850182897394 -0.5994689903049447 1.3223259166342782 0.5914225301488176 1.189876376174161 0.5500242766686105 0.4143835954694813 0.6808344700718003 0.7564300623530544 1.148619117602034 -0.42442264452225936 -0.6412771154224983 -0.458104013021055 1.9214840084592755 -0.47260285259274615 1.104564586925901 0.6832470625703693 0.7148610323787838 1.6506827556719266
-0.05247552507272962 -0.8197805792259587 -1.2241417206950902 -0.6460888466691261 1.226592220336013 -1.7452939264559604 0.2565806461006757 -0.3468562249567984 -0.6471297535767129 0.16303446306624936 -0.6921837171715728 -0.2470582734568409 -0.6039267498037814 -0.17788815517746115 -1.4755797148527061 -1.3831911175030056 0.49701566109006134 0.47380334740998614 0.25157006558894895 -0.6088823363670162 -0.4674970269683624 0.32234197002041054 -0.11329163359457811 0.16711788615436174 -0.1681432723135381 -1.0531318781678805 0.5972636820855527
0.5026341372198759 -0.09537031052466977 1.181578354556403 0.05958387818646338 0.6784156788947808 -0.8058597951080606 0.9376771343307189 -1.3996880898985784 0.7644830140984968 0.17456618171769706 0.6308555934383012 -0.8845704917336065 -0.4371173715478771 0.08045852223100719 -0.2816846542545717 0.23248085846469907 0.03969164918791407 0.7935987823754986 2.009501865768277 1.2489540942858528 -1.4136145182165092 1.1629528177533233 -0.7522079278060858 0.8467691332457712 1.0296672350655642 -0.1426800147749001 0.9046485954096326
1.4710284632220887 1.2439674386920403 0.8693415553340306 1.7227184593990212 1.7149678290117396 -0.9445418859055188 0.2529310357201588 -1.1155243533644974 -0.3741200980824843 -0.5582421443546893 -0.9148834297624135 -0.43943573284795856 1.4006053026622833 -0.923082650347446 0.8141138450364744 1.1380740578684165 0.7331901027088761 1.1002196812591096 1.1706076940853032 -0.4019458208203162 1.64079774647959 0.5131330490101278 1.115221112371168 -1.6379758274858625 -0.4646316656673227 0.38223893742490933 1.4597922403323818
-1.0618100638758443 1.0018870702824292 -0.014702902141755791 0.4702908920459883 0.7154045909962693 0.9830534528105328 0.5763376945563489 -0.6686614953011951 -0.45273785904615127 -0.03017172725255607 0.7497323964866495 -0.9984585483183015 1.5971295163071182 1.3306291278423683 -0.18204545620656548 1.1135241075155635 0.03135190576865449 -0.47527706656052765 0.9998480900925488 1.0304880556272311 0.2558701651579375 0.4862523358648132 -0.2695563258108592 0.09163509866926034 1.6293833334759864 -0.7735190633534456 -0.0346253169126039
1.6602479949485498 -1.0323127971176795 -0.5654474565133898 0.34098501100246753 -0.7959693917135957 0.6100289902194838 0.5802939437451166 1.1970148585847116 0.7634958764077648 -0.27134086200704494 1.022788803207108 -0.24957704542374087 -0.043931996801303164 -0.674627720323018 -0.11182447771021414 -0.15743712499777485 0.16588708702770855 -0.8239639673421157 -0.19275172005504831 0.5029317629448893 0.0839308395231867 1.0568962297741165 -0.254421972029021 0.6957015122319306 -0.6911937545375956 0.7561217952144316 1.6899961898552263
-0.509745186389825 -0.20563030542379085 -0.6797919630836624 -0.2117480496415014 -0.4099924112316267 -1.676560151258217 -0.16442562110595477 0.9780580326795666 -0.12884934976211793 -0.7587938875826791 0.2742373390043057 0.13835017290745766 1.169619926997451 -1.7706453914268971 0.27469059319843303 -1.4738478171390872 0.8478922763000153 0.9579758808696754 0.4991808094079072 0.6465251604168465 1.4243569504519744 -0.19560471075542518 1.1467557753746571 0.9198747434576278 -0.17140655865164 -0.21727619076591892 0.3094207248134101
0.7853515424996516 -0.44208565312436904 -0.02463915842308889 -0.8258589824443404 0.12742436876146096 -1.3652823671162604 -1.1152494534793067 -1.0607790220923583 0.4170524156191945 -0.6483339981887323 -0.6910634246206723 -1.1868728258327734 -1.039043559703401 -0.4106408001001354 -0.8054180790815049 0.18202661145696414 -0.04890547698176184 -0.6276816246614594 1.1076569126191431 -0.14790405965416875 -1.8534077620543619 0.003481951098942171 0.3982705239455451 -1.0282061800060058 0.8647158220963053 0.37687515044131337 0.9865020609839783
0.332433082961609 -1.373980532118557 1.6265982759876365 0.13045692532025538 0.5477362564333426 0.6202240071603784 0.25141122147237194 0.2961407566085234 0.18650285161288477 0.8250087122359859 -0.2728108963549839 -0.33412811584424107 -1.3988691604345158 -1.1649034476441535 -0.23069227541622833 -0.45087294756116236 -1.1070651249225583 0.3824036181893292 -1.3905304447907794 -0.19895227509922908 -0.9809717058948042 1.6665720094548053 -0.30690205003171156 1.6089818803306821 -0.6293951648483582 -1.8672762850374929 0.03366365359250756
-0.31159164169199843 1.0886310122190286 1.3525204031945437 -0.20074847539016683 -0.25920810895856455 -0.21015613418603918 0.023314834540937746 0.609660626668445 0.16585205821945093 -0.18218207305467649 1.55275356092044 2.3836387513263038 -0.6590629864924072 -1.020441753062669 0.45946725360912866 -2.329565078270507 -0.6471569092232661 -0.970475302292444 -0.6975975385731981 0.8967068716929363 -0.5974950247237871 0.2223334071306578 1.5135929664103438 1.0944045003354033 -0.6403410897448484 -0.9414586560600624 -0.23783219963014246
0.8423844927061622 1.025305317160953 0.08964535504361687 -0.15170675320101074 -0.06719950179306183 0.6479667187916869 0.6018706464399417 2.183356856463356 0.2840494784246582 -0.13296970908691758 0.1760065178905283 -0.8931974988629753 1.0548404046057782 1.0086043058914744 -0.31288968897284164 -0.3172516184687284 -1.059343335521472 0.23822086914188234 -0.2572784584616347 -0.49685736710270195 0.12870752873466035 -0.06759303475852019 0.7638496960894678 0.05370458664258071 -0.5815490962234473 -1.0885913595055894 0.04967108541616422
-0.9512429326901735 -0.26571584061081577 -0.12810027474664887 1.2620086366606866 -0.15480218519770766 1.1653792305164241 1.7152459779350848 0.181699363295675 1.8678149525067178 -1.720436125047163 -0.8201003318345421 -0.09368306963370299 -0.5469718076839258 0.44046899973204784 0.19643917712801484 -0.31413153718192655 0.8262882980503339 0.4296471391420787 1.5554912745828768 0.29883963571428185 -0.7254431732388196 -0.40487661467476116 -0.07708645101730843 0.33991495710455144 -1.243542962069148 0.07183910847856712 0.43240307426634556
-1.112001022810957 1.1086871786887356 1.381041684638078 0.5711801059908987 0.4639864692057666 0.12982682132462842 0.4662030487349846 0.04784379433090841 0.20872054794008077 -0.7706543798639394 -0.43373232092778363 1.0341943976923011 -1.7140165334576134 -0.024277612718525854 0.530146210318216 0.40123696481878857 0.8541870749215916 -0.06308626467506667 0.20985854010337418 -0.47168931211340404 0.3508651127236666 -0.9300854742041665 -0.9402025681097665 0.4635031232856824 1.4782470530953187 -0.4906025516149278 -0.2056618067306789
0.554017330562816 -0.651779539674024 0.7139371026817718 1.4499547689252117 1.2031965034367242 1.4323799603132343 0.6853593198564357 -0.35113980618245066 -0.16097689610864696 -0.09470453881543517 -0.06024388175857692 -0.9812865821396017 -0.6336112536911307 -0.2081262465801691 0.21770271992297863 0.8813650770978696 0.4828415308976941 0.9582218538152105 0.26394057943830274 1.1839310030864496 -0.22435134155686237 0.007153335988822729 0.23382868362736337 0.10620626197599714 -1.6833956401507046 -0.7215587995271985 -0.8727950897547083
0.8808816469893399 -0.28873511850161543 -1.0522488366344638 -1.1296504902139581 0.26906962524288375 0.3552011432966247 -0.5846023317545934 -0.025166290011873926 0.8067771645648891 -0.5011218555374736 0.19942647189713203 0.5768596667776957 1.0660818986553693 0.045580938789364034 0.3791499353943825 0.7872851447979015 -1.4400436681473607 -0.7228326455137797 -0.8377874072679219 0.5268599857532948 -0.9628761203525238 0.5936375352389096 0.9974255463792404 -0.6460243408699344 1.263035199748934 0.8589446194628049 1.0121934839185398
-1.2063721051890994 -0.4057378985680826 -1.347786266442848 -0.39426451672716295 0.14069007350853824 0.042113815372146424 -0.5027119983686409 -0.6507353979032418 1.0149287725739646 -1.4509420678055465 1.0236389038732003 0.9951873428938405 0.6160898853873684 1.5457715938172338 -0.9204090564922822 0.5845212747405057 -0.5987692486686318 0.6788405425740288 0.08618927204666593 0.10392265750028634 -0.8516376077071915 0.20688577370961336 -0.5722231385664535 0.334923643555037 0.7478501891228843 0.9743506588370332 -0.9280160498471073
-0.7601073797373362 0.8868819641425709 -0.17507798471433944 0.15711279037463527 -0.0035743186909821256 0.7556977877933384 0.0549186873930228 0.09035941093809291 -0.33773805128714623 0.058886259159542265 -1.6517138038686294 0.5300924917869716 -0.056832510544637616 0.05602619682731724 -0.803848855470529 -0.5215508815630989 0.8157079919582162 0.52131581597713 0.022265882305520623 -0.29538124799507565 -0.7571191820976706 -0.742632370770441 0.03252651749063257 -0.5200443916078551 0.4987296134033495 -0.29232448480807316 1.3011623110235342
-1.6143093114110485 -0.4199227444963261 0.9756307957855503 -0.5239345751550858 -0.1426723424242674 -0.6059317509521513 0.4942145848579474 -1.1337801562057783 -0.10887600768037214 1.153847300797607 -0.3378535741009298 -0.8711408148283372 0.31631377976914665 -0.4018248135069379 -0.16107148124929077 1.2649632235932884 -0.5422016268451167 0.20934250758817463 0.3174156542925954 0.2189431306484953 -0.9524428204757684 -0.4190674267368456 -0.8472468789702903 0.7476690272779785 -0.14278334971752665 -0.28268493896588254 -0.40496092076003076
0.9565425513768129 0.6853157426568673 0.11097038026977063 -0.10347760802533168 1.006595787190522 1.2747141727339628 -0.7474626606377512 -1.1359678457154256 0.5669876987575062 -0.07190543873473032 -0.12790781820157127 0.3486459280142755 -0.952140415983187 0.32428437669186105 0.1807379235166604 0.9459185283923724 0.6246263943840142 -1.558844459570055 -1.3061949907804795 -0.5138331486184937 -0.4023121966363318 0.7961757005575452 -0.2919834238447737 0.028558430861137574 0.18137036446927107 0.06241337900918065 0.5657571095622513
0.8287919149536573 -0.4764939815716799 -0.43910687622571215 0.9706581132033665 -1.0064868397031825 0.587474881274002 -0.39244669034920554 -0.5673760768438845 -1.2082975615708138 -0.5939431526129879 -0.9984212473012275 -0.10699997302646835 -0.8814713461884848 0.14688356457599944 0.2743376007355111 1.5532626941311334 -0.9980667936175642 0.030218324135851016 0.12894266691450001 -0.18027154517633087 0.4118127860921635 1.108320030472527 0.6323218506619839 1.0439140939304377 1.377455865214353 -1.1012116403856793 0.5465365131735314
0.5781066135418904 0.43266885166906577 0.908228988044992 -0.6873827424867816 0.7628031429665676 -0.18893030391616933 0.9786475086864708 0.5904899466688368 -0.7752062722165844 0.756293095731595 -0.7450455810884178 1.049123159259939 -0.261766601072718 -0.7884901197178609 -0.46134772109321076 0.5637332543450841 -0.0998793715803234 -0.022343631309357348 0.3242833344045427 -0.23135916722366906 -1.35556527715926 -0.6782410543176727 -0.6502661285391684 0.4275189066257475 -0.9255957511067685 1.380655567894494 0.8948809752065281
0.8901776458767797 -0.11357188540080343 -0.12745199571830507 0.005915099414084191 0.99158685013615 1.2418204540822706 -0.9429480942278909 0.7229934902343145 0.3713131319441291 0.3459098683086197 0.26429422582814016 0.26853684751470414 0.3294966976026211 -0.26873681456145165 -0.45402864598967296 0.17470853530692626 0.2955225717953729 -0.19542575329272566 -0.7896872923676275 -1.9513832932147837 1.2381966909859548 2.130035831441951 -0.3407135180779206 -0.16647847937497384 -0.2574918855058036 -0.19397114528069842 -0.7098643886763694
0.11618247616763566 -0.26614145725994726 -1.664593160679138 -0.0015848405118415454 -0.32908721136877367 0.34946204009906956 0.7367294914166131 1.1496071004227013 1.582206755135557 0.2273648595553187 1.125287706572152 -0.6292194424916664 0.46082432617152486 -0.6575526739410201 1.6461287168098444 1.0248366579096413 -0.2621217723416545 -0.45697476737228804 0.12897192641223038 -0.14688133861578312 -0.8285888450576429 0.9121348545872818 -0.9828456424561146 -1.087474698808453 0.011041212238591891 0.5004429602408855 -0.1386702218656039
-0.28816552685287555 0.642099714346567 -0.23062383939678616 -0.33271989178302935 0.9671812819933897 -1.4094955691259918 1.3740391984276576 -0.2768679220420963 -0.7703091559927246 -0.7295354490518017 0.025946357935289877 0.23932751638132577 -0.11851055609353722 0.7932397745989499 -0.5883240662986144 0.35654972497582693 -1.9077299276080364 -0.8621957385794663 0.23518212467526495 -0.29755610683095884 -0.276400896182502 -0.5066834035751071 0.20060812925870253 0.9429928994968733 -0.20871971920173926 0.36791334792619407 0.8277487661937488
-0.07992053958070755 1.2692868998034053 -1.4026630028424851 1.3201921521357518 0.04501389033562864 0.03555303886844119 -1.254069212216321 -0.21138073411888997 -0.3366745074383412 1.107328181943842 1.2264870504382044 -1.2434648039747516 0.3142751312693319 -0.7838830703048625 0.7491226664258912 -0.7657450769710648 0.5554272077960853 0.01805655166543607 -0.02852042323326215 -0.020649269658151892 -0.7336351162282304 -1.5918650192071158 -0.010937034476735885 -0.47995769547274764 0.026177588525187312 0.06506742559824985 -0.8790733041580583
