-0.34456732114031136 1.315033728227737 0.3650020420739292 -1.6037740260208937 -0.2647430567976573 1.699828203232509 -0.49390494069640506 0.1972036275093511 -0.0034569658210409915 0.9773683189635782 -0.16729760912298386 0.9716220110600986 -2.0895799791139926 -0.21317476504382787 -1.287499321673783 1.5827313349933094 -0.030425141973617176 -0.20175229615767198 -0.10976878226884068 0.23169299760838435 -0.5087052782785574 -0.6365882911525322 -1.0832885080076946 -0.5470250732189067 -0.5659774905772585 -0.8827584897621625 -0.9046202943790053 -1.5476286296038966 -0.5165998095148292 -0.8986976367019326 -0.06923259937752219 -0.718191680665689 -0.8269248961319549 0.20619463402586508 -0.38998525388207683 -0.3221528110390409 -0.14075608549114116 1.2179211047607714 -0.33282213885909817 1.062994549704614 1.777256299762973 0.522078465561372 0.8987908390489896 1.083542149199678 -0.5599733931342723 0.07744913300131367 -1.2531369384353648 -0.6706744680287873 1.1807530111520126 0.042803739087731274 0.11034546806910067 0.40302669980734424 -1.9335326852405372 -0.2496463897877808
0.5099764654860236 -0.7271710403844811 -0.4458656634050843 0.5706403564938819 -0.2598860224103541 1.1986179846085736 -0.9403068988834757 -0.31785409070005066 -0.08904429509330469 0.05402196119626457 0.8765054992751917 -1.9190317722061958 0.19748861352745367 -0.30632729708846207 0.8979750187899341 0.6958151685321494 1.2069938464150876 -0.33766085732893786 0.600785463401009 -0.31335034466602707 0.25848121952142106 0.8654705966722174 -0.6850175844814274 1.257277517698913 0.054899892750283064 0.6643479919933721 0.8893684608764068 -1.6324311891962957 -0.3828913042156753 -1.0282914157744707 1.0661420279099283 1.2177573790414984 0.21840766629519187 0.4788417314122211 -0.05815203907579697 0.008223481856838688 -0.74942689491109 -0.3418856157393126 0.33032090281674836 1.4277765815115047 0.7490478115603622 -0.17264620994298158 -0.4504596232869372 0.06266240022283809 -0.4941028310906338 -0.1005031506680577 -0.2385950683206043 0.18460875196755255 1.1506388683923354 0.604179797267179 0.4237279689279184 0.05754577606987876 -1.2774668615512104 -1.5873784803740463
0.27274732005357416 0.2810425287930909 1.2744297951226562 -0.4607285647054154 -0.7451475963462384 -0.778153761653988 1.0082271699133987 0.8049878732996287 0.22966958834476858 -0.32472763356846074 0.4173335346208535 0.5008654777223398 -0.14551460246300657 -1.9497721147283227 -1.067198092219086 -0.21762273219113715 -0.7559141558832606 -0.34630543267168196 0.7532935841972845 0.5899899024815843 1.32802613272665 -0.5515007943191177 0.511098792505652 -1.1396122832514588 -0.09332912996804449 1.2286948841294623 -1.8270759827816991 0.19134078743372313 -0.6139163421848359 0.05564596505807268 0.2000198737537311 1.0279602494718068 1.1077305007856133 0.21911053703834904 -0.5034013146251368 -0.747667995130297 -1.9223572476352944 -0.09788496665704555 0.12969914288360218 0.3541985801993295 -1.092157296711525 0.46735451255204236 1.43575473703113 -1.4068342668660994 -0.33046919105116646 0.3726688811878542 -1.1386793696858046 -1.9444345432104968 0.05882035182827722 0.48364908716279886 -0.1895731126221354 0.12755588076112057 -0.8633891876761406 0.05344017492263409
0.40951848422815496 0.085303291655354 -0.8842215173401257 -0.7381673552972952 -0.05905695630054214 0.1385895066584658 -0.428707812594395 -0.4840127901775516 0.1754078025533397 -0.2218671805607545 0.16691803567387148 -1.7756929788867346 -0.8359374827966723 0.5190473432675915 1.2036359481081336 -0.24123784416365968 0.5636658158921397 -0.1902171292933847 -0.4161229597294559 -2.053009697149551 0.7197257228232072 0.20792801768780272 0.8282815840449271 -0.015477862045846558 -0.5319463813461862 -0.4501499416848906 0.2788935801199564 -0.13092438017160157 -0.6271390820155809 -1.3502731895424334 -0.7612938005517094 0.3614565492609026 0.2523979043995225 0.4154015575704101 0.48084132209980435 -0.7782785935680573 -1.13274133527272 -0.8861911331134871 0.1847123514736101 0.47317117223352156 -0.8070562747814345 0.7558883600442741 -1.3438654535324615 -0.4568412243202893 1.6008227961126569 0.11742460709225616 0.3376865641316789 -0.11879065789351811 -0.987209382804141 0.25968004490806285 1.5072574476492198 -0.9785363213222485 -0.17216887316478935 -0.1357470760259194
1.1910711775385958 -0.6512542461295245 -1.2318878132528386 0.8958133325705847 0.04623917515762421 -0.9038440450968455 0.4234435323541663 0.04222897486005217 -1.2921975560884031 0.2851602075353833 -0.37218444464984185 1.3098448350893621 -0.7383461833729281 0.6628646183004344 1.7354064585694935 0.393364171483252 -0.09260048763403822 -0.5899662559484287 -0.30754856557827703 -1.1003656999465186 0.17708397429769612 -0.05186786197312837 0.47398876219991365 0.13462862368242484 0.3129031222506888 -1.245874976820937 -0.37337084034983675 0.7438857123450557 2.1305518340361798 0.9993081046648207 -0.48438998562968666 -0.34367718622451016 -0.6134732279939766 -1.338096325748165 0.47626076615381424 -0.5593042992409405 -0.7270245280462269 0.49077500614502845 -0.14503780699382002 -0.07200917826566855 -0.014628062746462056 -1.5731303543064983 1.066614496858585 -0.8826923931528701 -0.9110009062095736 -0.2964454035278246 -0.6391610172162234 -2.1921383816821027 -0.6079747164443863 -0.1069564816563972 -0.3462924123558956 0.4666506741291601 -0.01638025006052629 0.5254845325140151
0.9765553331614139 0.9011777385509081 -0.32251571826959596 0.48084191340133287 -0.49839006155062643 -0.9191516355107217 0.3278710931585531 0.01965863997622347 0.22244092095944984 -0.10725529758635471 -0.4150228156081524 -0.7108797547249857 1.1227172856402752 0.2927306662940586 -0.5828285540404381 0.2326854836911434 -0.040246337784175634 1.2608293574313143 -0.32315708384596636 0.19594246946801552 -0.1909478364661638 -0.3890989874339111 -0.1002267577482569 -0.6885452174215005 -1.0815734427438264 -1.908612021312067 0.8965965892970655 -0.5766694737292586 1.013956698134113 -1.7143167912940687 -1.0213144777382501 -0.7349871485280961 0.9970060791015337 0.8028847176065894 0.41674264326673766 0.7788214639708892 -1.4277379183387482 -0.03758320241533325 -0.21520968681117447 -0.09183921169668335 -0.19861853926927758 1.2908299911834487 -0.9926562904558045 0.8451932349261826 0.2042193363586372 1.1928594261150356 0.9496414977045833 -1.920104716840374 0.5930312314139556 0.5728103243006124 -1.0009196132671987 -0.35938766905425584 0.646141738898107 -0.1137295079378558
-0.8463429307421231 0.9782935531230392 -0.4716450223191589 -0.16323335102319553 0.808571284941327 0.35910272098531665 -0.17348439277139954 -0.8674048949991469 -1.0245771177209813 1.3636691455718157 -0.3445751754940779 0.799729598066117 0.8853254941798859 -0.6825723226870372 -0.3657974677274651 1.7702716657372717 0.9268317065421315 -0.48449555824555396 -0.4462914619982003 -1.2864409578273224 0.7818816047909225 -0.8250915135988278 -1.235438975339541 1.0175811348293031 -0.09690385023721099 -0.07042502052630872 0.26550372120976634 1.5117508833973796 -0.600098816878459 -0.3701091967345851 -0.1034328417016413 0.4489518200383801 0.501575335633812 -1.2067244476448131 -1.1108963491613724 1.0999254443932474 1.7144727871644805 -1.3825683619345095 -0.14680070906415182 -0.5906159037097192 -0.2931762589779676 -1.2823636961418408 0.2161999623895779 -1.3393414783211128 -1.222378116114598 0.34650336923814046 0.34199338029905424 -0.70399370853623 -0.7318928631003001 -1.5130463784968724 1.4303238141978674 1.276013984603146 0.1532102643512558 1.0332947277240525
-0.5369790512287389 -0.1301361669790726 -1.111295817024395 0.2608752790494304 -0.7945409760250517 -0.5609463220178941 -0.4809646681268639 0.5918722419273932 -0.23601004376432327 -0.14007495338623616 0.15994823712254913 -0.555075469043683 0.4978041231580301 -1.0339642384545134 0.5879202829425555 -0.5200895449997249 -2.1721106891704984 -1.4308131526949168 -0.7667217716961224 -0.8285378863482498 -0.43750180835435537 -0.11973875621092256 -0.8839099424353487 -0.4156410153597817 -0.12962855256471922 0.22634023188102176 0.5861413795743823 0.4910274715204203 -0.6183662167941489 0.9438763544067534 0.1431827319370766 -0.9538617401008116 -0.4355007587393971 -0.32168932575455766 -0.11733559146279482 -0.5618433372834621 0.47504546303121564 0.22423310838991223 -0.07223544073529553 -1.0667569716903118 -0.7999523565464052 0.21370622349244028 -0.3154807795937581 -1.4461079908475911 -0.03650835506894107 -0.17018943210934734 -0.6057748999520229 -0.5251576541187977 0.18030737257490514 -0.8010456190544983 0.8586711022652164 0.2672208631117535 0.008717901242063564 0.06722095647252985
-0.16310099722428906 0.18783187361726372 0.9751449431112955 -0.3842791013567269 -0.31338528818865824 -0.8097793973305425 0.49450829400354346 0.7179360995158214 0.1456524008099338 0.3372966587204295 -0.2105338761774736 1.0502597166275427 0.15210909533442374 -1.0107289785703064 -0.4110004509832631 -0.9348914398715902 -1.0677782492105647 -0.6816309504605145 0.5079037871770969 -0.5272697294409072 -0.1522944844678456 0.5341713710984161 0.6636997361872721 -1.4091732814456905 0.49314419391043063 -0.34403203503058755 0.5771487843928921 -0.024654835603394598 1.5311982309424077 0.1525800634237926 -0.5465979081229619 0.39703435663061337 -0.25312103380784984 -0.39481744344653086 -0.7883624903983412 -0.650403377246187 -0.10463212227847934 -1.5212179501458936 0.2657318844135107 -0.5513721267597173 0.16546342655693047 0.9358757849509363 0.8091325704597009 0.4333466974090201 1.0853589648141129 -1.4260911890686454 -1.180830372299797 0.7986266708745546 0.08610203308130765 -0.5983785465001878 0.8482420023961739 0.844194182832396 0.5083293174168841 0.2757799008483366
0.1446248051236133 -0.904989851521324 -0.8394062413151868 -0.06838104215726809 0.42976445984052797 -1.153876896499463 -0.3499415579566124 -0.3744541189185658 1.2675773219720026 0.9466763731845731 0.745671391583104 -0.5277382849918932 0.8348384313301633 1.4152876305628015 -0.3095514081202871 -1.0189502185716812 0.02698435431361501 -1.7408534293043845 0.0024920414645315248 -0.9633846660752046 0.31445505466358065 -0.6378982510074993 -0.5807952813206605 -1.079729251491936 -1.2301119503734295 1.313344804637087 -0.2114202505700732 0.7480135809327716 -0.8883342652209782 0.7596089170741336 0.5798680994438885 -1.5116612474364595 0.39769494820445633 0.00947775992906863 -0.7865182531783319 0.4194800340541136 0.1687337498925922 -0.08131192095560236 1.1286085876144742 0.028725573360824153 -1.2284667230780963 -1.3619741140443047 0.8926481473362294 0.15693092462838532 -0.3446274078226307 0.34707981750684 0.13388619359517656 -0.6489322799149089 0.4625866298656916 0.10257437861432311 0.44167796852335234 -0.7804122838911159 -0.10394702480164592 0.7680320914985646
-0.15647156316335037 -0.7434635164754976 0.3007115353545673 0.1517744853728854 -1.158503528826817 1.2230458900200514 -0.2805644584410245 -0.07424895550662514 -0.11969374503753083 -1.0055562257242396 -1.065510323232 -0.7530995736471812 -1.078534766584418 -0.07635320327883521 0.5489293643257496 0.19421089318041207 0.2707120120387586 -0.4448161683575839 0.9210581480629835 -0.6361494114892406 -0.12806648618872457 -0.5802502676444832 1.2120167897736538 1.3787482238550801 0.08523706210382515 0.34216679412924356 -0.8525923101035264 -0.6382883497277911 -1.0824250661090153 -1.8172486171686806 0.061622105409031236 0.2183598207243836 0.6572574365449936 0.7758085095373987 -0.932241615404074 -0.8316416824437236 -1.1406678714185516 1.2528940847811176 0.8693865406916221 -0.14187945724309886 -0.11479044614180162 0.9605180256553778 0.11864643666028307 -0.6858287995073762 -1.1169901309804406 -0.18069913695319217 0.5277581312069674 0.008425824255598291 1.1916295539268775 0.05076508097173249 -1.0738572273412126 -1.896291928013936 -1.1998902146910706 -0.2392317828836631
-0.16889021454847247 1.420286640095088 1.03044784989024 0.11028196405715035 -0.45224429945283373 1.315388352415587 0.18533659991627732 -1.2026662630984166 0.027867548440345058 0.2671935222510656 -0.6461735804657877 -0.20966454745668545 0.4698695684048139 -0.638358300195119 -0.8256892842433945 0.5406723401031381 -0.028078627119283994 0.8306612053277043 -1.3869189130338242 -0.2636456686154805 -0.3482994169364722 0.13735762969589022 -1.2992049171308342 0.4303460134548044 0.6759927589348707 -0.8564692177901085 -0.5760193291176391 -1.4225333069971209 -0.9571108520520648 0.12106299072110416 0.3730961599440807 -0.8511986506993972 -2.0695541606084755 -0.0527404480042869 -0.35809296926822587 -0.5008772601795329 -0.7295482306426398 -0.8201889824349025 -0.9156415547890504 1.3568915232558219 -0.14655560648178717 -0.14232254764879704 -1.221406585142448 -0.025912038146969518 -0.2541211421555572 0.9780206797727673 -1.167610841214063 0.6898891360932479 0.35521725720260233 -0.18764593892828296 0.026406174976111085 0.49631015397425543 -0.5908015260890792 -0.3192939379673344
0.06268581209155094 0.23725616477106976 -0.25430211318688545 0.4110659090341882 -0.005723021519235871 -0.9143493164659446 0.7875523041376095 0.25795334697068517 -0.1887443471837501 0.31747884937016957 -0.7456324857802274 1.162670339215117 -1.336395595629221 -0.984107669367749 0.09115160738368666 -0.46560253980396116 -1.666634443917326 -0.6101585431695455 -0.22690649489041287 -0.054677419016333384 0.024787980559783762 -1.0447262434898645 0.29616060396045163 1.0629691847931573 -1.134936215897182 -0.496958615218445 0.8787700309336115 -0.36570556688013744 -0.3610594456508119 -1.1348514860246348 -0.2971000944886818 0.01778632140894898 0.21233697913072014 0.08630324374821907 -1.2599301603684652 -0.7816677485985485 0.08101794781028343 -0.12169346461322444 0.4810362236382909 -0.15852212678377742 0.2747873322752278 0.01731103893506003 1.2892592577041964 0.6853031330814187 0.09730640818494685 -0.633762184571572 0.6534787813213303 0.48710816315935174 -1.066865839988878 0.16842494072174158 0.7842519107881216 -0.5744706094906853 0.3578025516660697 -0.9634379454403974
-0.6518275465905742 -0.48145334590212435 1.6965997664306895 0.08128331046928039 0.6191762334376383 0.6944064659012983 0.7904085633345777 -0.3402583953196357 0.22261294696000272 -0.721152504533093 -1.026293504004132 -1.4835719490771981 -0.08104047016344151 -0.6912408040328445 0.26170447273845443 0.24279016287267302 0.38753348270004145 -0.6249512311465174 -0.1930331780201568 -0.10911281962385999 -0.49369689125281313 0.824762500985966 0.14245882858065528 -0.8462372013130437 -0.7146410513752413 0.10322955867203543 -0.5064007125217806 -0.45885175335241385 -0.7134930110487664 -1.0596831671698206 0.0811301712740698 -1.5903271939433985 -0.572225901266068 -0.1434952670826038 -0.4899286652163776 -0.1324756126216894 -0.3121419188154297 0.1194091370564021 -0.5134647050196239 1.1290053652508671 -0.6834534084101584 -0.22853463048019035 -0.016512411589816423 0.18292906065746278 -0.5072959510217445 -0.25434762138111544 0.2839001095078532 1.4897709479315537 0.19040630282211368 -0.968234769588417 -1.5198810304990438 -0.31707353977085795 1.709019816493465 -0.6903519090450875
1.1793269312131793 -1.0146308903950283 0.17828499077066778 0.6679846833900333 0.13317100565031548 0.3682471774189686 1.3010662653890557 -0.33873835046356 2.1765652847932526 1.9190900407495293 -0.6150290848763809 0.541503439642419 -0.6771509800204357 1.0991579302420822 -0.13040123195076198 0.6803612639633685 -0.14196940224013216 -0.7328864918403977 1.2213837223731168 -1.090300474199936 0.35131964685977224 0.3741906517778294 -0.039297925840589776 1.383093208111757 0.20662308160964327 1.1177222100294195 -0.9247405008255538 -0.2786642399818381 -0.30534078814631704 -1.0317609147948765 -0.3117618588406914 -1.8017319896603596 -0.05044183111261141 1.2632795194982167 -0.05285184092810302 -0.9491434055803718 -0.8041734056270289 1.6273812322935375 -0.7164644480135319 -0.744384559103188 -0.8006795602754443 -0.14015761033355334 1.947287031223661 -0.919712692612771 1.8793198463707435 0.83253974279759 0.06806854546296665 -0.875349912940451 -0.32227733846308837 1.0500950522124854 0.5838308939599234 -0.1482004996686746 0.18635188942659925 -0.8223892597064985
0.649848304879203 0.1590656867383176 0.16208316120121596 -0.6253791713274603 0.6121084093185774 -0.7070707574286299 -0.00662494540441777 -0.9225737908529437 -0.5344366690761939 -1.5357984343321924 1.619091541916255 -0.9744445252472536 -0.2909553884134382 0.7207172433500871 0.8108116341729436 -1.119268528740569 0.13285833049907042 1.0481007991810212 -0.018309242085619404 0.5474753695481993 -0.8050681676806537 0.08809228631786642 -0.015189730531487589 0.9632202078298122 -0.12858712088163154 0.0849605772687082 0.9964203342671868 0.06261074742725264 -0.7115820895093352 0.7559915769729728 -0.5157722319904785 -1.4601098672955684 0.18333900253810737 -0.25974059723815296 -0.4601125051257015 1.0573006669642604 1.133411913262738 -0.749047213062782 0.8670912801444787 -0.08262165332028287 -0.8570288185005188 0.13240371237888343 0.4929614999703804 1.0458515833459692 0.558247419915566 0.09867337905229223 -0.49187807734490135 0.8298384578525642 -0.821964786895121 0.13901675219780868 1.0321219295906916 -1.5236090729997451 0.3979143342095018 0.8450088373578213
-0.23441131430919776 -0.06797580623487931 -1.001101505132227 1.0187342853237293 0.4198131089438808 1.2006105750584768 -0.6831324554750371 0.6188267231943211 -0.16322750135653885 0.4792442399372409 -0.3785090144243425 -0.43476658343327895 -0.6341790971111383 1.1794870389896874 -0.6600703084712392 -0.2079303046426318 0.4270317062422523 -0.6850296135393997 -0.02657378086992973 -1.4993622170839287 -2.5648241954501247 1.0848770600244793 -1.1281615643151586 0.9572370708683126 -1.3119687184591942 0.364893958404565 -0.6788217003862593 0.8956978551558223 -0.01879939081164045 0.744677164523434 0.6270659115829713 -0.5354081992950479 1.0908314667048478 0.660316424900957 -0.2758498396101141 0.907568687804029 -0.19756189215743508 -0.6685557928342432 -0.70524558512319 -1.2130940512219368 -0.06033533676944114 0.9314121619558421 -0.08683519768703024 -1.2135882399410542 -0.4196617375423964 0.8778306413463106 0.16326380181100764 0.5238650351010146 0.01662537358688998 -0.6740653673723147 0.6258525426946341 -0.6050784841207963 -2.239760409701299 -0.31569320223570524
0.5553603869139627 -0.16358285223605828 -0.32788963051799047 -0.019970027117774847 0.193004374201798 -0.3883124689874666 -1.947039261858075 -0.08061620793255297 0.7696920693276685 -0.5050086288481898 2.477478873681496 -0.5451305200963484 0.8154426238040887 0.8822785555580883 -0.6193631199314095 -0.2841443848047428 -2.3181494267967726 -0.7750726094713274 0.697095037508729 0.43017411423861673 -0.49221234649330775 -0.29812061853324207 -0.03739975428499437 -1.4811226050143942 -1.276952285255796 0.08508883977133092 0.22122714931320975 0.7232326067598156 -0.6205014218841876 -0.9804367521376581 0.12867914370078604 0.5185826193957042 0.8032024935468309 -0.6101320296506999 0.43033603644492546 0.12733840385561251 -0.966887712687651 0.616255472010468 0.223429357753533 0.486542751868265 -1.1601201348444863 -1.024655231455531 -1.1499189778132366 -0.0009519160022576356 0.32328760576611354 -1.0980844118850488 1.0117757253961037 0.5775250872118298 0.015243597071270654 -1.3489996033278207 -0.8172830039798211 -0.093510677580244 0.04265043004339336 -0.3794081841021492
-1.2949727777714408 -0.7336558501442729 1.43996787273998 0.654782237574348 -0.6056807040354981 0.169189389125309 0.023210731251706196 1.0409092670629303 0.5919376425702362 0.15168138852568247 1.4466456536165482 -0.10081503660272079 -0.5730972232587901 0.15569736395622902 -0.26757426486805963 1.0834073878086996 0.8048699827885558 -0.06436749528509189 0.807574609261175 0.3557619092297731 -0.2351229727285455 -1.272048410613536 1.3134553939748421 -0.9346993257441154 0.9745760850703586 -0.1759647921782404 0.5096135230838281 0.05377481795738859 0.03671895060395164 -1.3735424077987513 0.10720830152915456 0.43528686921231563 -0.5003811022421912 -0.2648034410085835 0.8753167786842242 -0.17790102788934137 0.34656560708655565 -0.2647952983547948 -1.061711433384152 0.02968932746471792 0.8626912047398001 0.07190883365807804 1.2293765109314574 -1.3640948293899162 -0.48012728459786425 0.5891476328500831 -1.5482129020642352 -0.10297544551746024 0.9235861793247513 -0.14074168399059805 0.8353131958673798 -0.37846306383526657 -0.5574773126318686 1.1554075795520449
-0.7662451957581662 1.0351927453711978 0.30054141080533214 -0.48814092952563964 -1.87323124785437 -0.09933555594859556 -0.253547602081299 -1.0162558480201396 -0.15693065259716021 -0.25647293877848115 -0.3749544342105117 -0.9621075604656504 -0.944349993215594 -0.2561608138974904 0.7215694512353862 1.2377591693034709 -1.4448699644927105 -1.2418708642305236 -0.8839635131310698 1.397735132414766 -0.20003129425541355 -0.3221012739654164 0.8209503017731973 -0.5675466332204657 0.14327919786823062 -1.1720224174737766 0.29806531502246886 -1.2094295658101424 1.406347407751335 0.08418760771058925 -0.01824380039545176 0.6140043767010037 0.6418960791591865 -0.6899536247808514 0.05478047613999487 -0.4029959970406971 0.8098606408271373 1.7093623796337258 0.7935820954538345 0.33686507387062364 -0.45728104656223234 -0.35476777866277753 1.0393806744809884 -0.054039471303774345 0.6339849849305131 -1.3286693684346609 -1.286498319578739 -1.0287229974862795 -2.0150157546998635 -0.5247862439942047 0.01700117513622229 0.09015513050321855 -1.48283183067861 0.09626518548650642
-1.043133957185837 0.8606941690791481 0.6684932975162958 1.0642119747455452 -0.672113054993543 -0.05305848112293987 -0.8209346004271065 -1.0356213691774618 -0.3115162943450816 1.0761301985071499 0.2419901396515216 1.1135224669377042 0.201260411376585 -1.2295000704700714 -0.3756881588001839 0.610017166177677 -0.07491926139580812 -1.1652641849800207 0.283975280044204 -1.322999011163871 -1.4113010573351212 -1.3106525113352707 0.6563079560938998 0.0020226804607041404 -0.9948685621913949 -0.08708614842368312 -1.0402022991596356 0.14631589867458772 -0.6250066793845457 0.0006285719582615479 1.221989114037108 -0.3206607307916595 -0.011580949867951273 -0.6411171068836066 0.4419681329664975 -0.6788888630525995 -0.07783720535882888 -0.33875533710054573 1.0227921636139656 -0.36071341445380684 -0.9439660097475867 -0.06076504012961276 1.2388090946275225 0.6662549772321384 -0.23525451434711891 1.4303064012746192 0.05383022485271072 -0.14597482885072477 -1.795688965966785 0.3232323347291337 0.9636508354462123 -0.3488087625748764 0.28324565123936163 0.636685720448243
1.1276103359892609 -0.008816604082666102 0.32568579095938266 -0.8395321121462345 -0.1544711250387304 -0.5294400338655187 -0.35901220905125597 -1.1035024964496367 -1.7900205463829284 0.13532121154378213 1.176895376744914 -0.4092509287161743 -0.002928762215850589 0.38334687484265006 -0.40010375949667387 0.3777965702785415 0.9733898456812953 0.008999394424386686 -0.6869904066912318 -0.2602826605159768 -0.9134625858046186 1.321228057272267 -0.9670703180380973 1.1145369571890942 -1.2107704003115671 -0.21122235534660677 0.7773224427287444 -0.16236456558748413 1.2749306961859603 0.568263465975167 -1.0684189820670675 -1.4275603415076283 0.0021933450579919023 -0.6396183203875966 0.20331904479204954 -0.7091322616886425 -0.557106905027285 0.017577252258072107 0.5414163188838325 1.3831997414659083 1.2787005972354237 0.876500862606329 0.34242348635786146 0.4317136426563441 -0.40541995834515754 0.7442685012579406 0.8005032745700251 0.7881319038574524 -0.5394618163340321 -0.8322445736248658 -2.240173959122999 -0.15502669385307566 -0.36564429179762364 1.2936796402465203
0.18170447338685208 0.8718935387936049 -0.012163440599063213 0.6780449543858786 -0.5049054953904907 0.08189130441602865 -0.630528738492873 0.15467175730010002 0.29068790891887847 0.049412925675521635 0.9352064235051771 -0.37013843846463296 0.529107547583077 0.0551100956717373 -0.12937054178866098 -0.3998394646588746 0.3289291350586723 0.843604587335973 -1.074397518895463 -0.07049743541476233 0.12548188430329932 0.12480237350488527 1.0043768858301592 0.005390222917092846 0.18366986631999888 0.3423904613440875 -0.5980812703018782 -0.9715572562568715 0.34183547469519737 0.2816397819512918 -1.631364552681634 -0.5087678226923829 0.5349629197416663 0.8687867596752723 -0.6029062284522226 -0.012530284058885177 -0.13498911458313645 0.8413005548769925 0.2898080087144525 -0.607003769705891 0.8267097576212102 0.5751632489882468 -0.3385231644959741 -0.7735416673755324 -0.13359729140264515 -0.1652757629790335 -0.526269291962177 1.4134899579408515 0.30689078336154896 -0.8966375992979634 -0.9596648446276392 -0.23721749840009498 0.9801612148853955 0.6066771231008313
1.0592800431067964 -0.6238114785609106 0.4957674790813154 0.5923535932986252 1.4969018076806548 -0.4428661300202352 -0.7052785721760415 -1.2762639147800667 0.1253616191075418 0.18261741352384991 -0.39129353456900856 0.20072282294999605 -0.05737210119847341 -1.017956029176051 0.8569044665776651 0.8769411993193476 0.12757298752750157 0.5973410028891784 0.23051261884213148 0.07657688359730097 -0.4624416359288763 -0.48988020107667773 0.09071515076448355 -1.7830197546896165 -0.7380500925138509 0.340939333487279 0.3988940765314086 0.020202326521616742 -0.1780112483375797 -1.5283149719475935 -0.042678564665058205 -0.9246986243040509 -0.8368215336505044 -1.5203684566747073 1.0266272329113109 0.5556261050411018 0.23299046013793467 0.6306305398920624 1.7533427443403793 -0.7597125030787435 -0.5729571064359238 -2.157859472780616 0.03085470018994846 -1.1192728871511917 -0.1170966036351847 -0.2443129065806871 0.6158516553561156 -1.433408082134997 1.6159318783105885 -0.43615566739678036 -0.5879613586110355 -1.0602736384899627 -0.44596735521867775 0.14824804843206896
1.5586131775745486 -0.7271943247493947 0.10727726768311296 -0.465794808632113 0.17614072480230009 -0.13721777403080393 0.7780996425568414 -0.5861650651019295 0.16755174925990957 -0.9008804824747079 0.8505737059383147 -0.4690212636471952 0.30046365134943115 0.8342560356522818 -0.371471009543273 -0.407307092558448 0.7704440952205629 -1.6520038359944913 -1.9740408712984154 1.650525673158134 0.2552154327183926 0.49180758792129015 0.04817580936111221 -0.3897752005941148 -0.7299226332688384 -0.48040067810862475 0.027466964423661533 -1.22069084983554 -0.7461503907393714 -0.6139651212530197 -0.2898398719745857 -1.2211870757107997 0.4177180487753611 -1.3756584092124453 0.5096118623165655 0.062043405779045824 -0.5046112586057152 -1.4328904181165762 -0.026193143160899712 1.2618349931489556 0.3088833299240365 -0.733185548321029 0.7487336613161403 0.20650499887575374 0.19656047747898553 0.4348846343892845 0.37059746123613935 0.4598569414188703 1.472298013978349 1.1350504983478342 -0.007465648018972093 -0.5668808934302869 -0.9947284254488526 -1.1447196773558908
0.6217469215765776 1.2240603876216987 -1.009094855959396 -1.1611776734738015 -1.3542387584936622 0.565045950519641 -0.2586298093906498 -0.2198158602070296 -0.6552352287788521 0.23503917879339792 -1.3474819317046003 -0.6622442905995505 0.9005420065279414 0.7216679404933868 -1.3997999321442407 -0.900512561025304 -0.5248896927759852 0.4523681136670639 -1.0474707411145499 0.33850933905514385 -1.3432877097708071 0.19442221909034957 0.4126468436929642 -0.41000661339045846 -0.8910687476977056 -0.4684116757617943 1.2499229494573474 0.7694261180517992 0.9734042194776016 -0.7548415889621003 -0.33678421978067496 -0.6764605739653468 -1.5104701901188895 -1.3143253954648002 -0.8172727922545928 0.07546014890000885 -0.5545123166078219 -0.9269301698458179 -0.29553326101353383 0.6394952518638066 -0.20653586010152275 0.10893178933010444 0.35952670767531736 -0.2602833103788173 -0.4860633103018214 -1.251820150251202 2.02059682403333 0.4072817349869299 -0.5500342528677818 -0.5223560513452656 -0.9735544484674462 -0.11910949171421659 -0.4228446440508524 -0.7104869201370825
1.4183518016207117 -0.9787604197290234 0.13704606537316877 0.10562726678155498 -0.7255532174450681 -0.03854208323200231 -1.2000857381162762 0.8865242939879112 -0.7445091737412304 0.5781958205427065 -1.2827702921976576 -0.2683787577000482 -0.5324919049552334 -0.4203371192184945 0.0109269119283803 -0.44691983733068413 0.3580613339749816 0.580254598937949 1.1756618001654169 -0.1389379302388578 0.761024673740943 1.8957692934617898 -0.4680128834094779 -0.6605771261857634 -0.6412204817291843 0.1091236642642725 0.32431858334736 -0.23938327875590498 0.0703322213103495 0.6307735115330798 0.36896747784099815 0.14007719149642162 0.7771344432280728 0.7406022331917652 0.12649991392442017 0.6004605087688792 -0.2431726777966829 0.8011019752588929 -0.29383121893770736 -0.2847326235279351 0.8897013506880282 0.8893000432282874 0.9356990019534497 -0.4230876549389536 0.07734894150267824 0.6122205731667476 -0.18973811319046308 0.8801605208346055 -0.7602437605917833 -1.5880112823286527 0.5300785505384892 1.4422426777037385 0.9590776357606189 0.9529621668375505
