0.602137411203109 -0.13455125287207315 -0.8115970307928899 0.13516074308269665 -0.31783168899114367 -0.20684799514299185 -0.9724400730397191 -0.2757565966496338 -0.6444665344626617 -0.2131287499636192 -0.7107497927433266 0.12070651504075913 -0.012508870918579884 -0.03320484419912795 0.9587621020634838 -0.660541937441049 -0.7863940730263264 -0.43439672376200367 0.9774902791870781 0.6745940816261611 -0.3630171484093927 0.8422668094748866 -0.9318928620975848 0.8348120685336069 0.22425220793747025 0.7660407975736527 -0.7597679602108081 -0.5097830637464493 0.433693700560531 0.9738480612386091 0.22262262392922993 0.07521280963044252 0.34580182757837785 -0.11644072696108254 0.5990241536195484 -0.8882375652556729 -0.9603939996027708 0.7144627548366751 -0.3294667858286082 0.6432442195041337 0.5471348217438066 0.20391779128744214 -0.9300867435188074 -0.3217941805640494 -0.3247756204290988 -0.1344703407551342 0.4732057710430724 -0.2811300777492969 0.20721346383966183 -0.3050141731687177 0.9565944393083667 -0.8626653636753505 0.5651462457967806 -0.20234188673121767
0.1303379972081531 -0.07945050009309679 0.6649769409666224 -0.8133872806888724 0.8755686658457673 -0.3909956954279272 0.5934375310082969 -0.2525235091973521 -0.7771205191998007 0.013570398084100432 -0.3220508831987239 -0.008370816896035027 -0.5788422654040504 -0.9193159144541252 0.13721051913343874 -0.5540061067059583 0.018719671353451872 0.9986816051939857 0.04279288508856682 -0.6816148199478131 -0.6680440437262947 -0.31584816728220244 0.4820629317841765 0.720848126285409 -0.6644040268722742 -0.9174246852145977 -0.40900788046932823 -0.39630809022088376 -0.013578044516377952 -0.7936671130186257 0.0011462558677144963 -0.39612757727082637 0.9766754746475867 -0.8877007672938564 0.4747035812361511 -0.8782391735811614 -0.5726036351780339 -0.26613264136973425 -0.01274162416062774 0.04430135054033424 -0.17153078795306964 -0.3507552925225941 -0.8781847243985395 0.5341416083072408 -0.36906777955455783 -0.08093463756851293 0.5199848427041736 -0.49194558409607536 -0.7690098453185874 0.6464076836478356 0.19842841955862628 -0.4760698805917922 -0.2687629031874039 -0.05782417091886183
0.6458623659353817 -0.526492085355317 0.3927419635067195 0.5183130490562402 0.9957661808762079 -0.045067257781551406 0.09584006418046775 0.4510189654419592 0.4762030136544855 -0.2318721024727317 -0.6553869955075733 -0.046466407584505154 0.7421790195778679 -0.2838469675981814 0.16435943587249952 -0.2927977263739412 0.13206912466157328 -0.7401857298508203 -0.413517696834522 -0.6141645563001212 0.6593297126862556 0.4943107396709354 -0.7976342334843678 0.44384145649636664 0.9429857512292159 -0.936169616678336 0.5224141325290368 -0.21817450706301988 -0.13176483207917822 -0.4355045256554276 0.4082177466261785 0.10370740121126204 0.9556584320652679 -0.7026638856512768 0.35804886110155154 -0.6049339990960405 -0.8985533642551731 -0.3075215738495416 0.311537897037409 -0.9835069162537211 -0.4888772910679082 -0.3106537438859611 -0.11059378741319237 -0.26513847969137183 -0.9646847126717957 -0.8402598493620921 0.40690276708557827 -0.9596998729501387 0.25634905414349873 0.40143550885490886 0.3295310988824509 -0.37134514144349806 0.0020544470498797263 -0.13008653548173799
-0.20358029958905233 -0.4486044685839956 0.06450480410225201 -0.2878579138529571 -0.18975205953967295 -0.23468718038279146 0.9740238627195124 0.12516535076339141 -0.632807709687164 0.7425398080622536 -0.5714516760544852 0.6369272820082523 -0.31132354506565707 0.8085972405101869 0.8840179367311918 -0.7558525622659027 0.9429674731940503 -0.5996374149808839 0.5608176464166277 -0.21038556029644795 0.24619594925509025 0.035388858197571205 0.6702579554963106 -0.6947057494161073 -0.20990872188369614 0.1647220623211294 -0.743471427977761 0.17333378341144456 0.44374777889669703 -0.5701981136271621 -0.5701791318773062 0.004523946865698569 -0.8264112470710683 0.540966901134385 0.6617750596142011 -0.5769685794654911 0.8806809752849636 0.788792909027973 -0.1313701116429331 0.27705005060074583 -0.11155179161167905 -0.8855264590009566 0.7283748570716202 0.09622059624246959 0.6783011003243886 -0.82557650624887 0.0792951083401845 -0.1478849145059722 0.1515664631578575 0.4884906499175419 0.4468771688180473 0.8934543864442288 0.01549690763684608 0.7006813215551739
0.40137813378592124 -0.5858282067942353 -0.0534861660718251 0.22784441401704458 0.16686320920926456 0.9647099570640978 -0.5301801999830023 -0.7478205675121268 -0.8633692224440148 0.7410624320091668 0.43094320889659543 0.42089694315028825 -0.32397033436064787 -0.7621892555956133 -0.7962815602849733 0.11287298790985201 -0.34734216821040476 -0.622933196506994 0.6250407469356172 0.7383182396598758 0.09135784742716879 -0.8413161963741445 -0.2035193177566501 0.5760201013869239 -0.6710080025215288 0.2938879977935329 0.8103710993525131 0.9860303584551058 -0.452665538710046 0.051612167285442156 0.014606280335851762 0.12877470737198715 -0.7911650899583618 0.6957688537455908 0.9436189282246961 -0.9559433742252039 -0.7285835464501027 -0.48640777166368854 -0.4442780250511733 -0.6165478936423552 -0.5631521726586739 -0.5513234264168207 -0.6343357268406702 0.21878797357073365 0.0018281457046169791 -0.14830232254526887 -0.37335843956429127 0.8533209311465031 0.6713115435172774 0.8718674978477283 -0.15888041078115056 -0.04051493643659443 0.19938769116769905 0.45759807418869447
-0.891000284482466 0.3595532723694108 -0.31861318891826396 0.3725977790932451 0.9686790354668575 0.5822136775998632 -0.8279841618030541 -0.764758612321387 -0.5188376921229974 0.7053445655522323 -0.5164766097801345 -0.37669705426679007 -0.0034327741695761027 -0.3134138560252955 0.49984430830982496 -0.36540358672095996 0.1330571238824263 -0.34788231609456366 0.1736459108994463 -0.5543524656760059 0.48689228263961426 0.9638140613505959 0.8207672249682609 0.1684809367113378 -0.20212618576681618 -0.02897372660141251 -0.06440910552806112 -0.406200644728558 0.016381414068987965 -0.5727920196053322 -0.8412185983358169 0.7004113578838398 -0.4680375864113737 -0.5093360292243352 -0.21180968996647764 -0.36257619681616915 -0.778338621361683 0.3395607752831938 -0.6721668852744582 0.2186262294858114 0.6516512463665749 -0.7923058798140987 0.39250595884827977 0.046476415730809295 -0.2512488317318182 0.21123592245875433 0.39958796397671703 -0.9689333872624004 -0.7624208775053911 -0.10856278191565982 0.851461734760238 0.3344898807761574 0.09587147693527598 0.1404952622700697
0.33723748334301956 -0.8839466980580868 -0.6337235544112667 0.6304274136622003 0.8643678930748688 -0.6892490583540887 0.9139526084809246 -0.036506313815924285 0.9944141498678303 -0.9701778910852827 0.4305155256964992 -0.742596842944584 -0.007075547535550397 -0.11646183954585942 -0.4024208282304027 -0.1265512514929048 -0.7555992759284265 -0.20740994815223912 0.8050904276707977 0.37107281008268544 0.18322195619939285 -0.18039333706827554 0.8930586882052707 0.19898757282600466 -0.30488292070786405 0.6105452505778488 -0.31215869019465226 -1.046210984945935 -0.4852569819499637 -0.3545445430968095 0.46150067694224317 0.1616089540264971 -0.1007960987402357 0.13271172744594506 0.19473308216081264 0.9091461415860378 -0.14704597280381582 0.6069504863247606 -0.7733873220238132 -0.4289982470315794 -0.5553213593733699 0.8374692541871049 0.6096021938692651 0.210134640960713 -0.43970936271371186 -0.17721236871894708 -0.43118573343179967 -0.013037286402116433 0.5422242130594057 0.3556198338646561 -0.14995703161998275 -0.9964508183059988 0.09736579563562264 -0.10472140413967845
0.8412413989363126 0.3653100584905702 -0.34918797781577804 0.9131842027250985 -0.9396487458802065 0.14150227393182546 0.9561002298019634 -0.32628951012737445 0.8444918820021654 0.71957492535238 -0.1349965294039439 -0.5374381736929201 0.07585542476630391 -0.23283859587994082 0.8787756404739877 -0.3191952207659914 0.6756336949244377 0.9653689827709488 -0.9523679818530955 -0.74705578575026 0.9818394797237244 0.059952098448759594 0.4698340669602663 0.21393091449576507 -0.059361211066194075 -0.09991614954501515 -0.05687983429091564 -0.8918218726867058 0.6703517535430032 0.4852778837074536 0.17514198444479434 0.8141336060598718 -0.7527499481858235 0.7370845498418868 -0.47149396526446696 -0.48786779560291005 0.22854031884762843 -0.7921767563845481 -0.484946731047047 -0.8367533902963058 -0.22607662295055309 0.45222463197261287 0.7436317841885867 -0.7284788101546356 -0.4969722079974699 -0.4029631373185252 -0.7620712937704761 0.1571753699319749 0.16957133729560914 0.05741391329238499 0.214985431458381 -0.07347865734885395 0.9747518415643053 -0.10090445279153437
-0.5120656527223268 -0.2675520018684858 0.049239631955156904 -0.47694352881457713 -0.06549670339842728 0.40194185049300346 0.2992823199000043 0.925014880429617 0.8928063703533993 0.9626122429541424 -0.211829215830466 -0.7331255287978207 0.21869523821534465 -0.9514263702291417 0.5794045781084729 -0.7123253213281995 0.42781904282849875 -0.4077560428642073 0.6066810455771288 -0.2612665458906689 0.11427678766941463 0.30162908067152694 0.16728949273533789 0.7471633444012495 -0.6657951219585383 0.8136867069182974 -0.43873619812985587 -0.7097967516368242 -0.5517506839933124 -0.5864370760472468 -0.9045571434560933 -0.8686085314809844 0.440241218996424 -0.15140749185568098 -0.21582103901351202 0.20877687251799082 -0.11776760775616801 0.7451149869255433 -0.9620535912897625 -0.3846469552278857 -0.03910950089182741 0.037614930956055614 0.5288777047820179 0.5241881569664038 0.8569041833906532 0.5005833030195062 -0.9827802113316788 -0.7831784898331313 -0.019312506153148723 -0.12189671613372899 -0.08278872636973356 0.029632985525805733 -0.6102562942596599 -0.09214403201704396
-0.4269718808612135 -0.8882495127290462 0.41178147096487766 0.256869878542403 0.3448707250841154 0.7058921626815795 -0.44339008309994377 -0.49953048190889415 -0.965242975384176 -0.21622860079419404 0.30465332651364685 -0.019395450768340705 -0.11990029678867575 -0.4244035148476317 0.09956983749258175 -0.521045168953427 0.8676330802329404 0.27702594618059656 -0.9865151356923638 -0.2768400985182553 0.948019618483736 0.4874296134290761 0.7603457932962958 -0.21521790463487278 0.7062703526554264 0.3273906941143183 0.20284087226483627 -0.657194900780181 0.9139872507495839 0.05163756332639435 0.7556553772217827 -0.3250798748096211 0.4884100374741671 0.44655822834585357 -0.1283587693866326 0.07004625111037077 0.8292220971198432 0.903700783499068 -0.6177239723998562 0.5575087768185347 0.4099618108342138 0.8767913294906389 0.3325428957328753 0.6071103487344252 0.8576791089416278 0.30822559018487383 -0.3590086631659508 -0.7012972602970913 0.32434934671067284 0.04202922530353548 -0.7203633152844982 -0.11482216336394391 -0.008094456698841679 -0.9503650511622515
0.5126709205728222 -0.46784284881164795 0.3180065993976829 0.38596071736892923 -0.6775475251706349 -0.5646206060310761 -0.6871696554778568 0.7214768648294043 0.9043829451527308 -0.345242067812944 -0.7015090281332932 0.8014991820589801 0.8598344864828984 0.14193459837170064 0.5998105824727036 0.3450513377231048 -0.42698698599497287 0.3134436090329875 0.1771104591502124 -0.40562715279263206 0.07153511665139778 -0.3511888042602296 -0.12202946216950328 0.6698628641296402 0.9227124812129701 -0.8931330112224505 -0.8212652207591318 0.19317786483289834 -0.5551794293612002 0.04119674257762096 -0.3498394926361488 0.9008067047161328 0.3883762487438227 0.4744657605549738 -0.649625599590989 0.7140348332126127 -0.3902181971915202 0.8695742846582277 -0.8250291257279097 0.40483822075497783 0.8037594634386875 -0.912464701002131 0.585054834275534 -0.4657987470017859 -0.8884922575063765 0.42059301762144696 -0.4737511261820864 -0.5910189625621574 -0.8539939165636043 -0.3537393742966968 -0.12607146751720988 -0.04227837328945805 0.8699416115401872 0.17847965698270873
-0.5810519821986451 0.18982628257898648 -0.6861672227582738 0.10536613298678121 0.7618538283047607 0.8611076938483182 0.18737900683315822 0.766127872272238 -0.5674087817183833 -0.3797432025237899 -0.8172993566795588 0.18778096679258227 -0.5058136184710016 0.9568625114553393 -0.7745652768953981 -0.6153826864640433 -0.899403185000597 -0.16257721636660616 -0.5236592972651792 -0.5733814447770627 -0.7973412494089418 0.9103706368239588 -0.33898333873107145 0.5782311098505855 -0.43729547484328024 0.9012204859279478 -0.9121061969062167 0.7380229722306437 -0.6251640226954562 -0.6611138803991916 -0.7525357426811343 -0.7653082368839743 -0.7941729160253308 0.42657606951894445 0.038210330944530746 -0.33614185927933526 0.60900026877444 -0.738907707346445 -0.30592854058733354 0.9994508239917068 0.10695151740565612 -0.34371209497746086 0.20333737931715046 -0.5421883798044929 -0.7111599298414721 0.9481719370597628 0.11295558502861436 -0.999069103368581 -0.858202359847893 -0.9859114982699348 -0.24061203197764858 0.7758603660103147 0.9683812108641872 -0.2227787465548976
0.7613719038376381 -0.030685413778804183 -0.12905297084536915 -0.5155597576367725 0.5757605967097548 0.7654853864752396 -0.663472717558254 0.5024377294624363 0.393917677848731 -0.3564839475453325 -0.8756849002824614 0.1476735993492042 -0.46792767145869774 0.7982763319520967 0.9690566310220798 0.3234206913644391 0.3295363386911778 0.27641621523825766 -0.41313688746556454 0.5798219585209614 0.7576918021518595 -0.3662719211161891 -0.06596949656903894 -0.6155373778199025 -0.18530443669605745 0.2501258331109233 0.0762529965433909 -0.41988058624356794 0.9037460336757295 0.0656739963182944 0.5799568690577683 0.6639322620045949 0.9894178558555267 0.036127173444399086 0.32359851357880887 0.5707601589767652 -0.4799187696100935 0.1039204284210502 -0.6379009808177809 -0.2811358779601991 -0.6139232789263542 -0.7750202150190375 -0.41271965091111174 0.21175667624485772 -0.6728562972792 -0.308344937688235 0.5340833185843425 -0.22943429072717536 -0.9524573111125463 -0.5498704139998225 0.09498678942528693 -0.546555091139735 0.4874535392609103 0.01084782612728974
-0.14908396555402303 -0.2632853939973985 -0.46500117489358256 -0.5282299769877892 -0.703289131909804 0.7344156896674165 -0.9663138540144163 0.6785248555026147 -0.31084293985563716 -0.8982227918139736 0.4786834413603003 0.06682970998720772 -0.17757078173402752 0.9741885248721462 0.25603964183168326 -0.11995537601032913 -0.36295171095156875 0.8263371356785862 -0.9036175678072247 -0.4512650808537184 0.18910304001740763 0.1323627116791808 -0.5629630899201317 0.14671814267398098 -0.1317292708609361 -0.18852675267334007 -0.6887607595366716 0.5860400665627354 0.5040022732402785 0.6974518887739654 0.7868296160153567 -0.3682906689786243 -0.25482346494644204 -0.5994186559521033 -0.6282976338500703 0.06266980832615343 0.35987229206865945 -0.728643430805318 0.6817898990963471 -0.6065780973378256 -0.3956717432214618 -0.6425550929153221 0.4420726749804109 -0.7150543344093374 0.8846270564757424 -0.5186748002432267 -0.1975225543182788 0.2672438545120994 0.17635875806313184 0.2959099953054438 -0.5234714290034477 -0.7555143301095093 0.6338210696732653 -0.16955316788506147
-0.5049646290975272 -0.3564818330160114 -0.7166855040544275 -0.10964655067342122 -0.002463339884887006 -0.337869055157086 0.933718023895189 0.014213971239152468 -0.6473310404068267 -0.606865554640202 -0.1919902161106377 0.2618423716793239 -0.05157608411768 0.7288697458705109 -0.20567837203220218 -0.1385494581386213 -0.0009743333677689758 -0.6711643348719383 -0.06710710653027796 -0.6466370527861567 0.06497919323599949 -0.5371576850725241 -0.510374958331236 0.501436811706615 0.6917184154475233 0.2588143982967288 -0.7007983117514174 -0.30712336840632815 -0.6392651485488803 -0.6822365224762199 0.46050297005802254 -0.12151755297650402 -0.04400995400795993 0.19552749306668393 -0.3181984392457067 -0.5488775363721916 0.2334335698920933 0.7947973207880443 -0.1010788989637541 0.2863961861325266 0.7046527056862764 -0.30131321160018065 0.09934014493939558 -0.1447008105618579 -0.2098342288583055 -0.7577420084321802 0.3378573565295224 0.8227118778434426 -0.7871134920914351 0.7914318462667456 -0.9538729299184259 -0.11023197034972809 0.13866759512934235 -0.9250329597121003
0.8468412845887916 -0.6190857007414836 -0.06577375454389167 -0.26790221772905 0.15161675685549048 0.16740934679213137 0.309329833298416 -0.6318446104670823 0.10408665300736741 0.9614910916106418 -0.24311415882841025 -0.6345351598262738 0.9791234092181071 -0.17874919776664844 -0.4378657916279327 0.9817593489067025 -0.548836758345898 0.23346913736781105 0.047738713421144885 -0.8177010473257558 -0.07752417790546318 -0.08418509641151517 -0.9938867321989573 -0.1831420268685835 0.004814282388390101 0.020305424733984445 0.41024617243506384 -0.14811142917966968 0.08966654820186726 -0.6811787345905798 -0.643726924373635 -0.5437579229707592 -0.6024964253814133 -0.000546184869872901 0.96768528776632 0.2511101673050309 0.06618133947493554 0.2613819445265304 0.8861097446163819 0.4708808100030548 -0.35142602699984504 -0.6247245731147628 -0.8362950437938506 -0.6809665553042243 0.4835255422323863 0.7598838444496325 0.23222549016951177 0.4128364226905732 -0.4568720020224948 0.5316167340079405 0.8480674078141781 0.46197538670159277 0.9371430220279235 0.14386652280399304
-0.2538209579464692 -0.23313170848852915 0.0476572083658775 0.5179550833703679 0.5921455901156831 0.5590020948338377 0.5728222688682325 -0.4475622900882432 0.45897817883287306 0.057223102610592935 0.36524949628591497 -0.5274827706213405 0.9479735023040121 -0.38386484876084137 -0.6261110551649225 -0.0036368131031276896 -0.05225293449713192 0.48392170137268975 0.6239297221840459 -0.8011553335262804 0.5432971215633657 0.5674766407336704 -0.30323874693747244 0.2807970365683998 0.7383269413319096 -0.22135101591639184 -0.046122630218842 0.3094178396479519 0.3817184959685329 -0.8728415789998394 0.4747690574618313 0.3265757260108204 0.9761414255235776 -0.2984402501622734 0.3370751840342916 -0.16010245960349634 -0.5080739691059639 0.9230441267003962 -0.6934980132328319 -0.3614391969850621 -0.022781315957310033 0.33154090856427043 -0.7654418320235545 -0.5420534522595988 -0.20624844007308774 0.39613206943220214 0.06558379755699306 -0.19046431468911074 -0.9268479356831913 0.06854063130645716 0.04410742541250223 0.7329110957842218 0.6955867405154224 -0.1422276242898073
-0.2042827000077727 -0.26518882648510567 -0.38084402937847517 0.6094503042909176 -0.8676378391793542 -0.7065261374350498 0.4634916256965085 -0.6393816425749985 -0.8531959992291667 -0.8192035835067843 0.48220633017035097 -0.635625872975196 0.7641245565219585 0.5742033433626843 -0.3383208301717777 -0.7733288356906463 0.49520783743445174 0.7415703314418238 -0.5665007220594782 -0.17893197565065577 -0.692734376291289 -0.28563060506115656 -0.101634869749609 -0.8627257782463404 0.4157343039619865 0.404093580565051 -0.7220496751159886 0.2959469755295776 0.20710129545424372 0.5939606684484904 0.13862609196887998 0.6243592374226807 0.3101489672349915 0.7046762027416236 -0.8264576896591345 -0.3714636258097019 -0.30795518386781184 0.44585822440828315 0.20620179711811226 -0.5842266617596452 -0.43283314204911805 -0.9976233962875545 0.08662735650771891 0.021370526271626167 -0.22882342273347556 -0.6763193071404754 0.08095273269902337 -0.15789108373613048 -0.7689657077213214 0.9646536532484842 -0.9885784719351312 -0.3785451859789719 0.6769929275556099 0.39385172957279413
-0.7773099064354827 0.6493581193520268 -0.6655111426809348 0.26072506109015325 -0.20847534523575417 0.07690933565502411 -0.6159762258245969 -0.2469789156496725 -0.9776723209055489 0.002022633713827604 0.7390820633742625 -0.17924797873126264 0.023186838826652068 -0.5701216864172627 0.8173911980867787 -0.5384873600512512 -0.8331530435323671 -0.21373281108181175 0.8525669574308936 -0.1132895047015523 -0.36879934625920296 0.9635938081977662 0.18453632720112267 -0.44401968360137856 -0.936673586230673 -0.7304737113020319 -0.6470762550672835 -0.09708065924235099 0.2782484298244907 0.20554358975473885 -0.8381822796616079 0.4744646410027946 0.3584543228104193 0.5919681631770763 -0.0888115629350279 -0.36590395214504623 -0.27836134624680087 0.8618554813370027 -0.7199893866788685 0.16618845001636906 0.38965817315116946 -0.8622961707769301 -0.2755027271891026 -0.4788556176344616 0.7345719674948208 0.8306269392974199 -0.2866917218449041 -0.31475865122633717 0.6880792606364321 -0.16009562562629354 0.9213520101986385 -0.10004398513784674 -0.6842700659253393 -0.6436494825167232
0.1992382127145902 -0.2880419367203051 0.8662634844431152 -0.5663950574295369 -0.13577679721241576 0.037258722773336084 -0.5984097827343295 0.5235117096723625 0.3698173252678061 -0.7475305848300868 0.017672491194294926 0.6223042642458125 -0.012101397264179026 -0.48271521771038084 0.6001831815549648 -0.6104978946487396 -0.9041873421629203 -0.912865299120418 0.7821995823922154 0.20207624595326723 -0.7076141272720617 -0.02184661620957007 0.4177159538382478 -0.26074364039919784 -0.5776533783965447 0.4671718262517719 -0.3631295310728917 -0.07938861884742177 0.9606229295780842 0.6497625449914681 -0.8656043858221716 0.7859208277031946 0.2889236415771337 0.485635958142014 0.7136113309306544 -0.8581846945601832 0.08978105983565166 -0.022077753735110006 -0.7460239440006613 -0.9011712790397477 0.5780381777461852 -0.08260230630451315 -0.006612286338237627 0.49396984716725734 -0.10511883615534368 0.14019087859087098 -0.10323414158806932 -0.45583655611541807 -0.7405803587639825 0.005918066615038908 -0.8396740582342079 0.602652908349655 -0.8386735935918403 0.5672652731358965
0.684391152080849 -0.3431205961510029 -0.5958740224799557 0.025207828167434165 0.386817060909902 0.979080686980109 -0.05868077390239246 0.9055268802837144 0.38502564016893537 0.5305776356563159 0.735035017085399 -0.42285504498108084 0.5865822592527234 -0.9208957877545765 -0.33351864556547706 -0.04045573760146981 -0.36693052555800265 -0.2530512714156832 -0.04449654389782842 -0.9135828054136155 -0.6603339651235292 -0.25778145010662024 -0.06530631184612368 -0.1708951560931682 -0.11169543632021184 -0.6055491448801094 0.009421249558424272 0.9866095143214455 -0.3664180297634132 0.4774284054885374 -0.8309778574770936 -0.738754117759076 -0.9802043621616539 -0.7194900348847364 0.6620793667870315 0.993510313327518 0.45757077622371645 -0.2136611164515827 -0.4536893242729818 -0.2923597555581623 0.2634687682616883 -0.6551664607145284 -0.2885949519842519 0.6419690782316108 0.8878883399313438 0.009083572692551778 -0.734566561267302 -0.5952667803676703 0.4484097178071071 0.6301037352730616 0.07693992503109093 0.8054945155868907 -0.6867326357312644 -0.9407471004916499
-0.2739323602929786 0.46530068712353745 0.8793837831730151 0.23136730456524157 -0.30442019676848564 0.06754104162401459 -0.6345235207804338 -0.19747305415532912 0.7528755551340358 0.08572461565920908 0.22104959864739282 0.15570923288062577 0.8089890957860968 -0.0615383596153658 -0.49512872294950383 -0.028484705158717427 -0.19510660937181568 -0.7779792951392441 -0.80617969606598 0.9475572928195264 0.7422793706127089 -0.5907188526789482 -0.6419853169025043 -0.9837658648552827 -0.23395199576273185 0.7865372470559151 -0.5139866380903559 0.7884613981126056 -0.5959799968823758 -0.6978136860514228 -0.5285964970508543 0.4772247589679668 0.12972377180681738 0.24793449752539787 0.14073671810025745 -0.21638149157996156 -0.6523301431690289 -0.5020411276259322 -0.19816842708326443 -0.9979608541292586 -0.5898368977764792 -0.8198536874573332 -0.41585328456392134 -0.9165275231695258 0.09291641469136502 -0.6802222121243822 0.7062833334403034 -0.037434230511535604 0.662299697496884 0.9386146157929156 0.5400354759283084 0.9107523195344429 0.4616250851633128 -0.810296315999284
0.003553851884524395 0.3627684440729606 0.49916834632427487 -0.016298581477539376 -0.3535761457081463 -0.577433361234132 0.8447391434385667 -0.20673155860652814 0.6760229612346382 0.05404502053691118 0.9958710793329917 -0.7061213088412286 0.7602279956307516 0.010780032336621614 0.3890310902781686 -0.44007077862004773 -0.1640906690100783 -0.8308949260068961 0.584349683601193 -0.3517684024203096 0.3643305679833486 0.2571730621480792 0.018882762617142612 -0.5087768031830844 -0.49194415569051997 -0.4469751671260731 0.23543684009021826 0.09957923093299326 0.7960310503970327 0.10503256926205151 0.21409693570664334 -0.868473671031299 0.19781927454978332 0.6282473589702753 0.509545868840608 0.5081903608446614 -0.13787538075448924 0.5654113247871693 0.8597354148205214 0.7739858204778218 -0.8797084006072378 -0.6525672732193384 -0.1765242559832474 -0.6279987798777942 -0.22265131652120118 0.3365462274550739 0.23569848545374827 -0.69061749394722 0.18404592072281356 -0.28615494424681387 -1.09497673165237 -0.532670005998819 -0.6624448032859218 0.6880130378313623
0.6533484064951345 0.6705764196062436 0.08285805513162359 -0.7784574213801272 -0.21152211289153477 0.4164827879393582 0.4855763898260399 -0.6497627077985813 -0.2459774795619265 -0.6193534218418772 -0.19106574655390718 0.7491958353530941 -0.5649739692005802 0.06298503294923918 -0.974722732345932 -0.013872372843278802 -0.0010291988671322638 0.7414816611267911 0.9730167447247529 -0.19546537089458682 0.17329217632474636 -0.9327318051322624 -0.6746656563098983 -0.4577954227844865 -0.7720552231459814 0.4532985767721782 0.5993079200603459 -0.35994919216385357 0.7136500701490367 -0.7028947222157509 -0.7625292360966487 0.06218860269217297 0.49041025227587065 -0.23187625983052862 0.14048944940218933 -0.7670967284288792 -0.7151808625065106 0.7092484153261229 -0.665590137926741 0.7591110895844351 0.9105484228523819 -0.22855795204125973 -0.7409047762521717 -0.11491015478432365 0.4813222227074554 -0.1067662021184721 -0.2939378137734827 0.4667644136228717 0.015147582986229091 -0.70648736098581 -0.20355577015879822 -0.04455428876200207 0.5337273891976564 -0.24892674570501194
-0.8291600577609706 0.07459563281297815 0.3055527131006841 -0.07656721838700742 0.7923595415259159 -0.8816382408874159 0.8591401402415504 0.15913779526472527 0.6941227256098601 0.6558234478179399 0.011905395683761144 0.4727098814275452 0.39509256058318476 -0.9722782478306178 0.263556752438566 0.7842871597779622 -0.2118398574669597 0.13510390396161154 -0.07517898683028368 0.13475422080497523 -0.37161679556402616 0.5615715725240031 -0.413214627839501 0.3144255743814741 -0.1189363473067202 0.7143948169739291 0.7094003532866133 -0.8245915574710998 -0.4928304550707046 -0.3927896555894983 -0.7995111808851783 -0.11272672359353786 0.3511017090628461 0.8410730102855348 0.6305683161717124 -0.5027429572915605 0.9563766054140839 -0.8429299539327444 -0.02605135156827898 -0.996623638604623 -0.34624551997416747 0.9434653332684411 -0.5410526318602102 -0.1947398692835538 -0.7888379855128629 0.7995059788172587 -0.5520509568993164 -0.5237185394985624 -0.7469512453818068 -0.7943903313747982 -0.14980688959227972 -0.13114835854056195 -0.32301442821513904 0.11502692046839336
0.7138916314131232 -0.39225735014225505 0.4625067044080955 0.7751083933857286 0.06345113626403065 -0.1479212277298692 -0.5963614689354244 0.8648757320140275 -0.0793588078382601 0.9011755163492132 -0.11458770465273926 -0.8698729543799868 0.9598948987887133 -0.20471427147194055 -0.03062608000790945 0.6424207915225455 -0.10046630993784489 0.6100081118363749 0.9929357744196345 -0.4821239698306057 -0.47508398854281 0.5984843653038587 -0.6049754974189934 0.22426605786067433 -0.1184823920043514 0.7618891837976061 0.076001411626482 -0.6062652675944555 -0.16936749377229932 -0.2291025141544778 0.9399189113290827 -0.5287008458195976 0.5695563281622291 0.49532696267216547 0.016296354616577524 0.8223381151734277 -0.7420541673240788 0.7278754633716766 0.7006635955567091 0.25302659470265243 0.6824751084652207 -0.2491966258012237 -0.8700561700329374 0.013759490186472156 0.02613144223657282 0.2452742648553341 0.3594335885998785 0.10304343350913281 0.6957425936624315 0.5403727018779554 -0.3479363018834385 -0.7955578724646759 -0.8329442738411064 -0.7226851792663116
0.7476484186134222 0.3700627200564577 0.31949013444860697 0.31334988493254357 0.8603807956705274 -0.3283618570074771 -0.02977902888458628 0.38786635088831245 0.44358111812196577 0.7069343961182863 -0.026574360236269134 -0.4415097596332469 -0.6318994733073264 0.42901874260479467 -0.36574193422441836 0.7925157988890001 0.40642590993871197 -0.36254569666068415 0.44633180130732275 0.3964080103783503 -0.6787163677780392 -0.2770648087832306 -0.14565576423679727 0.35807841974264165 0.056498889594268575 0.4930437402609711 -0.702563747132519 -0.006211227196561475 -0.03150723024496327 -0.07083538419347346 -0.5324876949195068 -0.13887918985852754 -0.4899996341325987 0.7511699596856283 0.5552208687857341 0.16204219550056065 0.7744009285247497 -0.8506377474437399 -0.7869653772424343 -1.097502784784601 -0.2692052041556663 -0.3871069636220208 -0.3987306862956681 0.10935825150136402 0.5792905204471321 0.9074845871939097 -0.7884882270867624 -0.013754742134541198 0.8964681038690956 -0.026466045987263653 -0.3455104204930637 0.6103917609085163 0.5221856075246045 -0.4993663473326777
