[[ 1.37200661]
 [-0.00452901]
 [ 0.74751827]
 [-0.92931426]
 [ 0.83301322]
 [ 0.63620475]
 [-0.57887085]
 [-0.14099855]
 [-0.68315115]
 [-0.10119448]
 [ 0.70557505]
 [-0.57340894]
 [-1.02773102]
 [ 0.4915702 ]
 [-0.75140747]
 [-0.45340622]
 [-0.72653357]
 [-0.24983388]
 [ 0.53739689]
 [ 0.91795518]
 [-0.59547355]
 [ 0.28695481]
 [ 0.14226165]
 [-1.24036866]
 [-0.1172709 ]
 [ 0.98757619]
 [ 0.68551854]
 [ 0.54449596]
 [ 0.87091737]
 [ 0.24506454]
 [-0.16387272]
 [-1.42594575]
 [-0.20358836]
 [ 0.28786412]
 [ 1.16873184]
 [-0.43167503]
 [-1.32251641]
 [-1.04692297]
 [-0.066848  ]
 [ 1.03952432]
 [ 1.40182522]
 [ 0.58712116]
 [-0.35521215]
 [ 0.81973861]
 [-0.31620704]
 [-0.97735756]
 [ 0.448983  ]
 [ 0.81160747]
 [-0.22403174]
 [-0.239251  ]
 [ 0.34995222]
 [ 0.73344533]
 [ 0.32448216]
 [ 1.47075149]]
[[-2.28766456e-01]
 [ 1.56525857e+00]
 [ 1.59749922e-03]
 [ 7.88742568e-01]
 [ 6.47216496e-01]
 [-4.89790333e-01]
 [ 5.03459471e-01]
 [ 1.48311605e+00]
 [-7.96770613e-01]
 [ 1.03546012e+00]
 [ 1.50440387e+00]
 [-9.65938572e-01]
 [ 5.60485489e-01]
 [-4.29163800e-01]
 [-6.78398103e-01]
 [ 1.03058884e+00]
 [-5.34356220e-01]
 [-1.09767238e+00]
 [-5.30699863e-01]
 [-1.35994285e+00]
 [ 9.48968448e-01]
 [ 2.74311066e-01]
 [-1.02109576e+00]
 [-2.34578729e-01]
 [-3.45812910e-01]
 [-1.94065168e-01]
 [ 9.76270116e-01]
 [ 6.89561463e-01]
 [ 1.14695774e+00]
 [ 1.44062818e+00]
 [-1.78775981e+00]
 [-5.79967301e-01]
 [ 4.92848793e-01]
 [ 2.74751655e-01]
 [-1.02212491e+00]
 [ 2.05840310e-01]
 [ 4.47619045e-03]
 [-1.59834747e+00]
 [-2.38483720e-01]
 [-1.24989836e+00]
 [-1.81860488e-01]
 [ 4.66419361e-01]
 [-8.03309039e-01]
 [ 4.14715994e-01]
 [-7.60373739e-01]
 [-3.71762180e-01]
 [-1.87388852e-01]
 [ 3.96636135e-01]
 [ 8.05888524e-01]
 [ 5.14693249e-01]
 [-1.37463431e+00]
 [-3.90341892e-01]
 [ 6.55982431e-01]
 [-4.15997612e-01]]
[[-0.60136673]
 [-0.2666385 ]
 [-0.6421915 ]
 [ 0.78511348]
 [-0.11811874]
 [ 1.35312218]
 [-0.02062982]
 [-0.61550349]
 [-0.63262672]
 [ 1.27749478]
 [ 0.00252213]
 [ 0.95449774]
 [-1.15249701]
 [ 0.60833995]
 [-0.31844663]
 [ 0.29889382]
 [ 0.55177822]
 [-0.2198655 ]
 [-0.87656513]
 [-0.58826763]
 [-0.43363732]
 [-0.24015518]
 [ 1.39543126]
 [ 0.03826801]
 [ 1.32515427]
 [ 0.78008222]
 [ 0.29434961]]
